{"learner":{"attributes":{"scikit_learn":"{\"_estimator_type\": \"regressor\"}"},"feature_names":[],"feature_types":[],"gradient_booster":{"model":{"cats":{"enc":[],"feature_segments":[],"sorted_idx":[]},"gbtree_model_param":{"num_parallel_tree":"1","num_trees":"300"},"iteration_indptr":[0,1,2,3,4,5,6,7,8,9,10,11,12,13,14,15,16,17,18,19,20,21,22,23,24,25,26,27,28,29,30,31,32,33,34,35,36,37,38,39,40,41,42,43,44,45,46,47,48,49,50,51,52,53,54,55,56,57,58,59,60,61,62,63,64,65,66,67,68,69,70,71,72,73,74,75,76,77,78,79,80,81,82,83,84,85,86,87,88,89,90,91,92,93,94,95,96,97,98,99,100,101,102,103,104,105,106,107,108,109,110,111,112,113,114,115,116,117,118,119,120,121,122,123,124,125,126,127,128,129,130,131,132,133,134,135,136,137,138,139,140,141,142,143,144,145,146,147,148,149,150,151,152,153,154,155,156,157,158,159,160,161,162,163,164,165,166,167,168,169,170,171,172,173,174,175,176,177,178,179,180,181,182,183,184,185,186,187,188,189,190,191,192,193,194,195,196,197,198,199,200,201,202,203,204,205,206,207,208,209,210,211,212,213,214,215,216,217,218,219,220,221,222,223,224,225,226,227,228,229,230,231,232,233,234,235,236,237,238,239,240,241,242,243,244,245,246,247,248,249,250,251,252,253,254,255,256,257,258,259,260,261,262,263,264,265,266,267,268,269,270,271,272,273,274,275,276,277,278,279,280,281,282,283,284,285,286,287,288,289,290,291,292,293,294,295,296,297,298,299,300],"tree_info":[0,0,0,0,0,0,0,0,0,0,0,0,0,0,0,0,0,0,0,0,0,0,0,0,0,0,0,0,0,0,0,0,0,0,0,0,0,0,0,0,0,0,0,0,0,0,0,0,0,0,0,0,0,0,0,0,0,0,0,0,0,0,0,0,0,0,0,0,0,0,0,0,0,0,0,0,0,0,0,0,0,0,0,0,0,0,0,0,0,0,0,0,0,0,0,0,0,0,0,0,0,0,0,0,0,0,0,0,0,0,0,0,0,0,0,0,0,0,0,0,0,0,0,0,0,0,0,0,0,0,0,0,0,0,0,0,0,0,0,0,0,0,0,0,0,0,0,0,0,0,0,0,0,0,0,0,0,0,0,0,0,0,0,0,0,0,0,0,0,0,0,0,0,0,0,0,0,0,0,0,0,0,0,0,0,0,0,0,0,0,0,0,0,0,0,0,0,0,0,0,0,0,0,0,0,0,0,0,0,0,0,0,0,0,0,0,0,0,0,0,0,0,0,0,0,0,0,0,0,0,0,0,0,0,0,0,0,0,0,0,0,0,0,0,0,0,0,0,0,0,0,0,0,0,0,0,0,0,0,0,0,0,0,0,0,0,0,0,0,0,0,0,0,0,0,0,0,0,0,0,0,0,0,0,0,0,0,0,0,0,0,0,0,0,0,0,0,0,0,0],"trees":[{"base_weights":[3.8609438E5,-7.265856E6,1.8211278E7,-9.036716E6,-3.5607785E6,1.445895E7,4.0228508E6,-1.03469644E6,-8.096382E5,-4.9892095E6,1.0622846E6,9.4056894E5,1.6697689E7,-5.557248E5,-3.8584855E6,4.8295137E4,1.798499E5,1.4960068E6,2.2256702E6,-4.3681347E5,-2.5803503E5],"categories":[],"categories_nodes":[],"categories_segments":[],"categories_sizes":[],"default_left":[0,0,0,0,0,0,0,0,0,0,0,0,0,0,0,0,0,0,0,0,0],"id":0,"left_children":[1,3,5,7,9,11,-1,-1,-1,13,15,-1,17,-1,19,-1,-1,-1,-1,-1,-1],"loss_changes":[4.541626E16,1.496576E15,7.6799277E15,1.096634E14,5.1378674E14,8.2717205E14,0E0,0E0,0E0,1.6452946E13,7.235168E12,0E0,2.3694583E14,0E0,3.7108853E12,0E0,0E0,0E0,0E0,0E0,0E0],"parents":[2147483647,0,0,1,1,2,2,3,3,4,4,5,5,9,9,10,10,12,12,14,14],"right_children":[2,4,6,8,10,12,-1,-1,-1,14,16,-1,18,-1,20,-1,-1,-1,-1,-1,-1],"split_conditions":[1.6E7,7E6,4.5E7,2.015E3,1.1E7,2.2E7,4.0228508E6,-1.03469644E6,-8.096382E5,2.019E3,2.02E3,9.4056894E5,2.025E3,-5.557248E5,7.5E6,4.8295137E4,1.798499E5,1.4960068E6,2.2256702E6,-4.3681347E5,-2.5803503E5],"split_indices":[2,2,2,0,2,2,0,0,0,0,0,0,0,0,2,0,0,0,0,0,0],"split_type":[0,0,0,0,0,0,0,0,0,0,0,0,0,0,0,0,0,0,0,0,0],"sum_hessian":[3.31E2,2.32E2,9.9E1,1.56E2,7.6E1,8.6E1,1.3E1,6.1E1,9.5E1,5.8E1,1.8E1,2.8E1,5.8E1,3.6E1,2.2E1,1.1E1,7E0,4.7E1,1.1E1,1.4E1,8E0],"tree_param":{"num_deleted":"0","num_feature":"3","num_nodes":"21","size_leaf_vector":"1"}},{"base_weights":[2.80175E5,-6.683984E6,1.7005628E7,-7.528755E6,-4.81848E5,1.3253732E7,3.6632408E6,-8.8133644E5,-5.789383E6,-2.721731E5,1.508165E5,8.580052E5,1.5737324E7,-6.558267E5,-4.9463984E5,1.3835365E6,2.0525249E6],"categories":[],"categories_nodes":[],"categories_segments":[],"categories_sizes":[],"default_left":[0,0,0,0,0,0,0,0,0,0,0,0,0,0,0,0,0],"id":1,"left_children":[1,3,5,7,9,11,-1,-1,13,-1,-1,-1,15,-1,-1,-1,-1],"loss_changes":[3.8435164E16,1.2171476E15,6.6573346E15,4.070319E14,1.33369296E14,8.283961E14,0E0,0E0,2.5894358E13,0E0,0E0,0E0,1.9866586E14,0E0,0E0,0E0,0E0],"parents":[2147483647,0,0,1,1,2,2,3,3,4,4,5,5,8,8,12,12],"right_children":[2,4,6,8,10,12,-1,-1,14,-1,-1,-1,16,-1,-1,-1,-1],"split_conditions":[1.6E7,9E6,4.5E7,6E6,1.2E7,2.2E7,3.6632408E6,-8.8133644E5,7E6,-2.721731E5,1.508165E5,8.580052E5,2.025E3,-6.558267E5,-4.9463984E5,1.3835365E6,2.0525249E6],"split_indices":[2,2,2,2,2,2,0,0,2,0,0,0,0,0,0,0,0],"split_type":[0,0,0,0,0,0,0,0,0,0,0,0,0,0,0,0,0],"sum_hessian":[3.28E2,2.32E2,9.6E1,2.04E2,2.8E1,8.2E1,1.4E1,1.15E2,8.9E1,1.3E1,1.5E1,3E1,5.2E1,4.3E1,4.6E1,4E1,1.2E1],"tree_param":{"num_deleted":"0","num_feature":"3","num_nodes":"17","size_leaf_vector":"1"}},{"base_weights":[-5.4577944E5,-5.998519E6,1.4614111E7,-6.708184E6,7.328238E4,1.0905405E7,2.8018922E7,-7.8963665E6,-5.19361E6,-2.5553966E5,1.1762376E6,7.7008306E5,1.2443382E7,1.8864116E6,3.2129788E6,-8.69166E5,-7.114179E5,-2.575598E6,-5.8831194E5,2.0567861E5,3.488582E4,1.5375036E6,1.0771928E6,-7.539796E4,-3.3754212E5],"categories":[],"categories_nodes":[],"categories_segments":[],"categories_sizes":[],"default_left":[0,0,0,0,0,0,0,0,0,0,0,0,0,0,0,0,0,0,0,0,0,0,0,0,0],"id":2,"left_children":[1,3,5,7,9,11,13,15,17,-1,19,-1,21,-1,-1,-1,-1,23,-1,-1,-1,-1,-1,-1,-1],"loss_changes":[2.6870454E16,1.0303294E15,3.9698898E15,3.4410097E14,7.838794E13,2.442462E14,7.131471E13,1.1570105E13,1.5994592E14,0E0,1.3124879E13,0E0,5.4886998E13,0E0,0E0,0E0,0E0,2.9508422E13,0E0,0E0,0E0,0E0,0E0,0E0,0E0],"parents":[2147483647,0,0,1,1,2,2,3,3,4,4,5,5,6,6,7,7,8,8,10,10,12,12,17,17],"right_children":[2,4,6,8,10,12,14,16,18,-1,20,-1,22,-1,-1,-1,-1,24,-1,-1,-1,-1,-1,-1,-1],"split_conditions":[1.6E7,9E6,3.3E7,6E6,1.1E7,2.08E7,4.5E7,3.9E6,1.76057E5,-2.5553966E5,1.09557E5,7.7008306E5,5.6371E4,1.8864116E6,3.2129788E6,-8.69166E5,-7.114179E5,9.031E4,-5.8831194E5,2.0567861E5,3.488582E4,1.5375036E6,1.0771928E6,-7.539796E4,-3.3754212E5],"split_indices":[2,2,2,2,2,2,2,2,1,0,1,0,1,0,0,0,0,1,0,0,0,0,0,0,0],"split_type":[0,0,0,0,0,0,0,0,0,0,0,0,0,0,0,0,0,0,0,0,0,0,0,0,0],"sum_hessian":[3.23E2,2.38E2,8.5E1,2.13E2,2.5E1,6.8E1,1.7E1,1.17E2,9.6E1,7E0,1.8E1,2.4E1,4.4E1,7E0,1E1,5.3E1,6.4E1,2.1E1,7.5E1,8E0,1E1,1.3E1,3.1E1,7E0,1.4E1],"tree_param":{"num_deleted":"0","num_feature":"3","num_nodes":"25","size_leaf_vector":"1"}},{"base_weights":[1.3060773E4,-5.3336735E6,1.2982733E7,-6.175594E6,7.282065E4,9.559057E6,2.5570114E7,-7.17064E6,-4.6919995E6,-2.3872738E5,1.3531821E6,6.9230944E5,1.1139214E6,1.7317662E6,2.931642E6,-7.723209E5,-6.3991694E5,-5.075601E6,-3.2264334E5,2.2505623E4,2.5634053E5,-5.583908E5,-4.1994672E5],"categories":[],"categories_nodes":[],"categories_segments":[],"categories_sizes":[],"default_left":[0,0,0,0,0,0,0,0,0,0,0,0,0,0,0,0,0,0,0,0,0,0,0],"id":3,"left_children":[1,3,5,7,9,11,13,15,17,-1,19,-1,-1,-1,-1,-1,-1,21,-1,-1,-1,-1,-1],"loss_changes":[2.3993407E16,1.1156505E15,4.1081792E15,2.793189E14,1.1032396E14,2.6026589E14,1.4154924E14,3.8643968E12,3.3097018E13,0E0,3.082462E13,0E0,0E0,0E0,0E0,0E0,0E0,6.833964E12,0E0,0E0,0E0,0E0,0E0],"parents":[2147483647,0,0,1,1,2,2,3,3,4,4,5,5,6,6,7,7,8,8,10,10,17,17],"right_children":[2,4,6,8,10,12,14,16,18,-1,20,-1,-1,-1,-1,-1,-1,22,-1,-1,-1,-1,-1],"split_conditions":[1.6E7,9E6,3.3E7,6E6,1.1E7,2.2E7,4.5E7,4.5E6,2.019E3,-2.3872738E5,1.5E7,6.9230944E5,1.1139214E6,1.7317662E6,2.931642E6,-7.723209E5,-6.3991694E5,7E6,-3.2264334E5,2.2505623E4,2.5634053E5,-5.583908E5,-4.1994672E5],"split_indices":[2,2,2,2,2,2,2,2,0,0,2,0,0,0,0,0,0,2,0,0,0,0,0],"split_type":[0,0,0,0,0,0,0,0,0,0,0,0,0,0,0,0,0,0,0,0,0,0,0],"sum_hessian":[3.44E2,2.44E2,1E2,2.11E2,3.3E1,8E1,2E1,1.24E2,8.7E1,1.1E1,2.2E1,3.2E1,4.8E1,8E0,1.2E1,6.7E1,5.7E1,6.7E1,2E1,1.2E1,1E1,3.9E1,2.8E1],"tree_param":{"num_deleted":"0","num_feature":"3","num_nodes":"23","size_leaf_vector":"1"}},{"base_weights":[-2.3437858E5,-4.9167575E6,1.2992058E7,-5.4895145E6,-3.6368215E4,9.134726E6,2.3999184E7,-6.433497E6,-4.198002E6,-2.0255694E5,1.3699131E6,6.6078494E5,1.0420272E6,1.5699464E6,2.737907E6,-6.934972E5,-5.638041E5,-4.8112372E5,-3.563412E5,2.7809066E4,2.309523E5],"categories":[],"categories_nodes":[],"categories_segments":[],"categories_sizes":[],"default_left":[0,0,0,0,0,0,0,0,0,0,0,0,0,0,0,0,0,0,0,0,0],"id":4,"left_children":[1,3,5,7,9,11,13,15,17,-1,19,-1,-1,-1,-1,-1,-1,-1,-1,-1,-1],"loss_changes":[2.1554001E16,7.181867E14,3.6444655E15,2.5340039E14,8.11014E13,1.5528454E14,2.1536147E14,1.3156022E13,2.1770787E13,0E0,1.6797825E13,0E0,0E0,0E0,0E0,0E0,0E0,0E0,0E0,0E0,0E0],"parents":[2147483647,0,0,1,1,2,2,3,3,4,4,5,5,6,6,7,7,8,8,10,10],"right_children":[2,4,6,8,10,12,14,16,18,-1,20,-1,-1,-1,-1,-1,-1,-1,-1,-1,-1],"split_conditions":[1.6E7,9E6,3.3E7,6E6,1.2E7,2.2E7,3.66E7,2.015E3,7E6,-2.0255694E5,1.5E7,6.6078494E5,1.0420272E6,1.5699464E6,2.737907E6,-6.934972E5,-5.638041E5,-4.8112372E5,-3.563412E5,2.7809066E4,2.309523E5],"split_indices":[2,2,2,2,2,2,2,0,2,0,2,0,0,0,0,0,0,0,0,0,0],"split_type":[0,0,0,0,0,0,0,0,0,0,0,0,0,0,0,0,0,0,0,0,0],"sum_hessian":[3.46E2,2.56E2,9E1,2.29E2,2.7E1,6.8E1,2.2E1,1.3E2,9.9E1,1.1E1,1.6E1,2.5E1,4.3E1,8E0,1.4E1,7.5E1,5.5E1,4.7E1,5.2E1,8E0,8E0],"tree_param":{"num_deleted":"0","num_feature":"3","num_nodes":"21","size_leaf_vector":"1"}},{"base_weights":[1.8222463E4,-4.3075565E6,1.0554098E7,-4.933985E6,3.5871438E4,8.3617415E6,2.4751452E6,-5.8173605E6,-3.7349875E6,-1.9577945E5,1.03107394E6,6.749454E6,1.1464769E7,-6.3801506E5,-5.149978E5,-1.1698592E6,-4.2072285E6,1.19409E4,2.1131311E5,7.833354E6,5.1922375E6,1.3343469E6,7.6913225E5,-9.389538E3,-1.9962873E5,-2.929787E5,-4.460851E5,5.592964E5,9.1219794E5,3.424244E5,6.134807E5],"categories":[],"categories_nodes":[],"categories_segments":[],"categories_sizes":[],"default_left":[0,0,0,0,0,0,0,0,0,0,0,0,0,0,0,0,0,0,0,0,0,0,0,0,0,0,0,0,0,0,0],"id":5,"left_children":[1,3,5,7,9,11,-1,13,15,-1,17,19,21,-1,-1,23,25,-1,-1,27,29,-1,-1,-1,-1,-1,-1,-1,-1,-1,-1],"loss_changes":[1.5814713E16,6.695054E14,2.9367268E15,2.0599254E14,6.5509874E13,3.678838E14,0E0,1.2965164E13,1.0894587E14,0E0,2.1450088E13,6.2287495E13,1.0295708E14,0E0,0E0,1.4039864E13,1.2525735E13,0E0,0E0,4.7139816E13,2.5653705E13,0E0,0E0,0E0,0E0,0E0,0E0,0E0,0E0,0E0,0E0],"parents":[2147483647,0,0,1,1,2,2,3,3,4,4,5,5,7,7,8,8,10,10,11,11,12,12,15,15,16,16,19,19,20,20],"right_children":[2,4,6,8,10,12,-1,14,16,-1,18,20,22,-1,-1,24,26,-1,-1,28,30,-1,-1,-1,-1,-1,-1,-1,-1,-1,-1],"split_conditions":[1.6E7,9E6,4.5E7,6E6,1.1E7,2.5E7,2.4751452E6,3.9E6,9.3943E4,-1.9577945E5,1.5E7,6.9171E4,7.6871E4,-6.3801506E5,-5.149978E5,9.031E4,1.77565E5,1.19409E4,2.1131311E5,2E7,2.2E7,1.3343469E6,7.6913225E5,-9.389538E3,-1.9962873E5,-2.929787E5,-4.460851E5,5.592964E5,9.1219794E5,3.424244E5,6.134807E5],"split_indices":[2,2,2,2,2,2,0,2,1,0,2,1,1,0,0,1,1,0,0,2,2,0,0,0,0,0,0,0,0,0,0],"split_type":[0,0,0,0,0,0,0,0,0,0,0,0,0,0,0,0,0,0,0,0,0,0,0,0,0,0,0,0,0,0,0],"sum_hessian":[3.45E2,2.45E2,1E2,2.14E2,3.1E1,8.8E1,1.2E1,1.21E2,9.3E1,1E1,2.1E1,6E1,2.8E1,6.1E1,6E1,1.5E1,7.8E1,1.2E1,9E0,3.3E1,2.7E1,1.7E1,1.1E1,7E0,8E0,1.5E1,6.3E1,1.4E1,1.9E1,1.1E1,1.6E1],"tree_param":{"num_deleted":"0","num_feature":"3","num_nodes":"31","size_leaf_vector":"1"}},{"base_weights":[4.113119E3,-3.949132E6,1.0187971E7,-4.5766475E6,6.874018E4,7.8880145E6,2.2438588E6,-5.4548256E5,-3.7838225E6,-1.8032994E5,1.0867281E6,1.1716516E6,6.3916325E6,-1.9836362E6,-4.110916E5,2.247185E4,1.9283089E5,5.310466E5,7.7470644E5,-1.2807502E5,-2.3783942E5],"categories":[],"categories_nodes":[],"categories_segments":[],"categories_sizes":[],"default_left":[0,0,0,0,0,0,0,0,0,0,0,0,0,0,0,0,0,0,0,0,0],"id":6,"left_children":[1,3,5,7,9,11,-1,-1,13,-1,15,-1,17,19,-1,-1,-1,-1,-1,-1,-1],"loss_changes":[1.324528E16,5.97857E14,2.4151857E15,1.22089546E14,6.4848256E13,3.7769513E14,0E0,0E0,5.720561E13,0E0,1.5526586E13,0E0,4.5320763E13,2.2257913E12,0E0,0E0,0E0,0E0,0E0,0E0,0E0],"parents":[2147483647,0,0,1,1,2,2,3,3,4,4,5,5,8,8,10,10,12,12,13,13],"right_children":[2,4,6,8,10,12,-1,-1,14,-1,16,-1,18,20,-1,-1,-1,-1,-1,-1,-1],"split_conditions":[1.6E7,9E6,4.5E7,5E6,1.1E7,4.464E4,2.2438588E6,-5.4548256E5,1.76057E5,-1.8032994E5,1.5E7,1.1716516E6,2.3E7,9.3943E4,-4.110916E5,2.247185E4,1.9283089E5,5.310466E5,7.7470644E5,-1.2807502E5,-2.3783942E5],"split_indices":[2,2,2,2,2,1,0,0,1,0,2,0,2,1,0,0,0,0,0,0,0],"split_type":[0,0,0,0,0,0,0,0,0,0,0,0,0,0,0,0,0,0,0,0,0],"sum_hessian":[3.27E2,2.36E2,9.1E1,2.04E2,3.2E1,7.8E1,1.3E1,9.4E1,1.1E2,1.1E1,2.1E1,2E1,5.8E1,1.8E1,9.2E1,1.1E1,1E1,3.5E1,2.3E1,8E0,1E1],"tree_param":{"num_deleted":"0","num_feature":"3","num_nodes":"21","size_leaf_vector":"1"}},{"base_weights":[5.729701E4,-3.7161585E6,8.775987E6,-4.232697E6,-1.3424955E6,5.77242E6,1.7449152E7,-5.15554E5,-3.662718E6,-3.3847356E5,-3.2610397E5,4.0902602E6,6.360229E5,1.966334E6,1.00093094E6,-2.0449423E5,-3.8834538E6,5.925959E4,-7.657222E5,2.5660767E5,5.815091E5,-4.2766922E5,-3.497585E5,-1.3019389E5,9.389334E3],"categories":[],"categories_nodes":[],"categories_segments":[],"categories_sizes":[],"default_left":[0,0,0,0,0,0,0,0,0,0,0,0,0,0,0,0,0,0,0,0,0,0,0,0,0],"id":7,"left_children":[1,3,5,7,9,11,13,-1,15,17,-1,19,-1,-1,-1,-1,21,-1,23,-1,-1,-1,-1,-1,-1],"loss_changes":[1.1218474E16,2.8612643E14,2.5824704E15,8.36869E13,8.365168E13,5.111038E13,2.3148746E14,0E0,3.633918E13,1.2387709E13,0E0,4.554407E13,0E0,0E0,0E0,0E0,1.4296872E12,0E0,9.801989E12,0E0,0E0,0E0,0E0,0E0,0E0],"parents":[2147483647,0,0,1,1,2,2,3,3,4,4,5,5,6,6,8,8,9,9,11,11,16,16,18,18],"right_children":[2,4,6,8,10,12,14,-1,16,18,-1,20,-1,-1,-1,-1,22,-1,24,-1,-1,-1,-1,-1,-1],"split_conditions":[2.021E3,2.019E3,2.025E3,2.015E3,1.94283E5,2.022E3,2.8013E4,-5.15554E5,1.75239E5,1.0425E5,-3.2610397E5,1.10375E5,6.360229E5,1.966334E6,1.00093094E6,-2.0449423E5,2.016E3,5.925959E4,1.76057E5,2.5660767E5,5.815091E5,-4.2766922E5,-3.497585E5,-1.3019389E5,9.389334E3],"split_indices":[0,0,0,0,1,0,1,0,1,1,0,1,0,0,0,0,0,0,1,0,0,0,0,0,0],"split_type":[0,0,0,0,0,0,0,0,0,0,0,0,0,0,0,0,0,0,0,0,0,0,0,0,0],"sum_hessian":[3.39E2,2.37E2,1.02E2,1.94E2,4.3E1,7.7E1,2.5E1,7.1E1,1.23E2,2.9E1,1.4E1,2.2E1,5.5E1,1.8E1,7E0,1.6E1,1.07E2,9E0,2E1,1.3E1,9E0,4.8E1,5.9E1,1.2E1,8E0],"tree_param":{"num_deleted":"0","num_feature":"3","num_nodes":"25","size_leaf_vector":"1"}},{"base_weights":[2.7942928E5,-3.1722588E6,8.398309E6,-3.7621155E6,-7.9624375E5,6.3783215E6,1.8857099E6,-4.196612E6,-2.888852E6,-1.764125E6,8.248385E5,5.212118E6,8.776843E6,-4.72283E5,-3.788273E5,-3.058646E5,-2.1564683E5,-2.031814E5,-1.0927073E5,9.521909E3,1.6249469E5,4.1297365E6,6.063972E5,5.889586E5,9.893272E5,5.120795E5,3.28645E5],"categories":[],"categories_nodes":[],"categories_segments":[],"categories_sizes":[],"default_left":[0,0,0,0,0,0,0,0,0,0,0,0,0,0,0,0,0,0,0,0,0,0,0,0,0,0,0],"id":8,"left_children":[1,3,5,7,9,11,-1,13,15,17,19,21,23,-1,-1,-1,-1,-1,-1,-1,-1,25,-1,-1,-1,-1,-1],"loss_changes":[9.582771E15,3.3336623E14,2.0346388E15,6.072735E13,7.8336865E13,1.9760742E14,0E0,9.183043E12,1.7358714E12,3.3514838E12,1.0936992E13,3.1201193E13,2.8765007E13,0E0,0E0,0E0,0E0,0E0,0E0,0E0,0E0,8.243116E12,0E0,0E0,0E0,0E0,0E0],"parents":[2147483647,0,0,1,1,2,2,3,3,4,4,5,5,7,7,8,8,9,9,10,10,11,11,12,12,21,21],"right_children":[2,4,6,8,10,12,-1,14,16,18,20,22,24,-1,-1,-1,-1,-1,-1,-1,-1,26,-1,-1,-1,-1,-1],"split_conditions":[1.6E7,2.019E3,4.5E7,6.5E6,9.5E6,2.5E7,1.8857099E6,3.9E6,8E6,7.5E6,1.5E7,2.2E7,2.023E3,-4.72283E5,-3.788273E5,-3.058646E5,-2.1564683E5,-2.031814E5,-1.0927073E5,9.521909E3,1.6249469E5,2.023E3,6.063972E5,5.889586E5,9.893272E5,5.120795E5,3.28645E5],"split_indices":[2,0,2,2,2,2,0,2,2,2,2,2,0,0,0,0,0,0,0,0,0,0,0,0,0,0,0],"split_type":[0,0,0,0,0,0,0,0,0,0,0,0,0,0,0,0,0,0,0,0,0,0,0,0,0,0,0],"sum_hessian":[3.4E2,2.39E2,1.01E2,1.91E2,4.8E1,8.6E1,1.5E1,1.25E2,6.6E1,3E1,1.8E1,6E1,2.6E1,5E1,7.5E1,5.1E1,1.5E1,2E1,1E1,1E1,8E0,2.9E1,3.1E1,9E0,1.7E1,1.1E1,1.8E1],"tree_param":{"num_deleted":"0","num_feature":"3","num_nodes":"27","size_leaf_vector":"1"}},{"base_weights":[1.7627614E5,-2.8214318E6,7.729925E6,-3.1755058E6,7.6500656E5,5.1243135E6,1.4748375E7,-3.8331688E6,-2.3593112E6,1.3047368E5,5.7597637E3,8.2588294E5,4.434983E6,9.616261E5,1.6899714E6,-4.240058E5,-3.4297978E5,-1.0945668E6,-2.888652E5,3.3310285E6,5.246151E5,1.5231737E4,-1.4497869E5,4.193848E5,1.7592136E5],"categories":[],"categories_nodes":[],"categories_segments":[],"categories_sizes":[],"default_left":[0,0,0,0,0,0,0,0,0,0,0,0,0,0,0,0,0,0,0,0,0,0,0,0,0],"id":9,"left_children":[1,3,5,7,9,11,13,15,17,-1,-1,-1,19,-1,-1,-1,-1,21,-1,23,-1,-1,-1,-1,-1],"loss_changes":[7.8112194E15,3.1608584E14,1.7165851E15,1.1173196E14,8.7064786E12,1.2110479E14,1.245519E14,5.6450634E12,6.5794604E13,0E0,0E0,0E0,3.804549E13,0E0,0E0,0E0,0E0,1.4394218E13,0E0,3.195167E13,0E0,0E0,0E0,0E0,0E0],"parents":[2147483647,0,0,1,1,2,2,3,3,4,4,5,5,6,6,7,7,8,8,12,12,17,17,19,19],"right_children":[2,4,6,8,10,12,14,16,18,-1,-1,-1,20,-1,-1,-1,-1,22,-1,24,-1,-1,-1,-1,-1],"split_conditions":[1.6E7,1.1E7,3.3E7,6E6,1.42978E5,4.309E4,4.5E7,3.9E6,1.76057E5,1.3047368E5,5.7597637E3,8.2588294E5,2.2E7,9.616261E5,1.6899714E6,-4.240058E5,-3.4297978E5,9.031E4,-2.888652E5,6.2692E4,5.246151E5,1.5231737E4,-1.4497869E5,4.193848E5,1.7592136E5],"split_indices":[2,2,2,2,1,1,2,2,1,0,0,0,2,0,0,0,0,1,0,1,0,0,0,0,0],"split_type":[0,0,0,0,0,0,0,0,0,0,0,0,0,0,0,0,0,0,0,0,0,0,0,0,0],"sum_hessian":[3.43E2,2.46E2,9.7E1,2.24E2,2.2E1,7.2E1,2.5E1,1.22E2,1.02E2,1.2E1,1E1,1.1E1,6.1E1,9E0,1.6E1,5.6E1,6.6E1,3.1E1,7.1E1,2.8E1,3.3E1,7E0,2.4E1,1.7E1,1.1E1],"tree_param":{"num_deleted":"0","num_feature":"3","num_nodes":"25","size_leaf_vector":"1"}},{"base_weights":[2.4611445E4,-2.6224685E6,6.91217E6,-2.9254778E6,7.19653E5,4.9600105E6,1.3062256E7,-3.6048488E5,-2.363798E6,1.271366E5,5.2361274E3,7.558906E5,4.1409898E6,8.750798E5,1.5208851E6,-1.1877915E6,-2.7319235E6,3.368829E6,5.0872616E5,1.38989375E4,-1.5503475E5,-2.7929594E5,-1.68852E5,4.0097284E5,2.7201047E5],"categories":[],"categories_nodes":[],"categories_segments":[],"categories_sizes":[],"default_left":[0,0,0,0,0,0,0,0,0,0,0,0,0,0,0,0,0,0,0,0,0,0,0,0,0],"id":10,"left_children":[1,3,5,7,9,11,13,-1,15,-1,-1,-1,17,-1,-1,19,21,23,-1,-1,-1,-1,-1,-1,-1],"loss_changes":[6.435762E15,2.603424E14,1.11179416E15,8.077075E13,8.0328073E12,1.30468356E14,7.977445E13,0E0,5.346731E13,0E0,0E0,0E0,2.6702281E13,0E0,0E0,1.6089543E13,1.5888695E12,4.0607574E12,0E0,0E0,0E0,0E0,0E0,0E0,0E0],"parents":[2147483647,0,0,1,1,2,2,3,3,4,4,5,5,6,6,8,8,12,12,15,15,16,16,17,17],"right_children":[2,4,6,8,10,12,14,-1,16,-1,-1,-1,18,-1,-1,20,22,24,-1,-1,-1,-1,-1,-1,-1],"split_conditions":[1.6E7,1.1E7,3.3E7,5E6,1.42978E5,4.464E4,4.5E7,-3.6048488E5,1.76057E5,1.271366E5,5.2361274E3,7.558906E5,2.3E7,8.750798E5,1.5208851E6,9.031E4,8E6,6.2692E4,5.0872616E5,1.38989375E4,-1.5503475E5,-2.7929594E5,-1.68852E5,4.0097284E5,2.7201047E5],"split_indices":[2,2,2,2,1,1,2,0,1,0,0,0,2,0,0,1,2,1,0,0,0,0,0,0,0],"split_type":[0,0,0,0,0,0,0,0,0,0,0,0,0,0,0,0,0,0,0,0,0,0,0,0,0],"sum_hessian":[3.51E2,2.54E2,9.7E1,2.33E2,2.1E1,7.5E1,2.2E1,1.03E2,1.3E2,1.1E1,1E1,1.6E1,5.9E1,9E0,1.3E1,3.2E1,9.8E1,3.5E1,2.4E1,7E0,2.5E1,9.1E1,7E0,1.5E1,2E1],"tree_param":{"num_deleted":"0","num_feature":"3","num_nodes":"25","size_leaf_vector":"1"}},{"base_weights":[-7.207732E4,-2.3947835E6,6.565084E6,-2.635849E6,7.2479275E5,4.727565E6,1.4079069E6,-3.2957185E6,-2.147271E6,1.17066586E5,2.1118125E3,7.11802E5,3.7443058E6,-4.0379784E5,-3.113065E5,-9.801451E5,-2.455032E6,2.6713234E5,4.8401056E5,-6.4370418E4,-1.2512431E5,-2.5136958E5,-1.5630203E5],"categories":[],"categories_nodes":[],"categories_segments":[],"categories_sizes":[],"default_left":[0,0,0,0,0,0,0,0,0,0,0,0,0,0,0,0,0,0,0,0,0,0,0],"id":11,"left_children":[1,3,5,7,9,11,-1,13,15,-1,-1,-1,17,-1,-1,19,21,-1,-1,-1,-1,-1,-1],"loss_changes":[4.995147E15,1.8239572E14,1.09323614E15,6.4818036E13,5.622772E12,1.35528096E14,0E0,3.8117835E10,4.4648265E13,0E0,0E0,0E0,4.7034992E13,0E0,0E0,1.8396175E12,1.46096E12,0E0,0E0,0E0,0E0,0E0,0E0],"parents":[2147483647,0,0,1,1,2,2,3,3,4,4,5,5,7,7,8,8,12,12,15,15,16,16],"right_children":[2,4,6,8,10,12,-1,14,16,-1,-1,-1,18,-1,-1,20,22,-1,-1,-1,-1,-1,-1],"split_conditions":[1.7E7,1.1E7,4.5E7,5E6,1.42978E5,4.464E4,1.4079069E6,2.1E6,1.76057E5,1.17066586E5,2.1118125E3,7.11802E5,2.3E7,-4.0379784E5,-3.113065E5,7.5E6,8E6,2.6713234E5,4.8401056E5,-6.4370418E4,-1.2512431E5,-2.5136958E5,-1.5630203E5],"split_indices":[2,2,2,2,1,1,0,2,1,0,0,0,2,0,0,2,2,0,0,0,0,0,0],"split_type":[0,0,0,0,0,0,0,0,0,0,0,0,0,0,0,0,0,0,0,0,0,0,0],"sum_hessian":[3.22E2,2.39E2,8.3E1,2.22E2,1.7E1,6.8E1,1.5E1,9.2E1,1.3E2,1E1,7E0,1.8E1,5E1,1.4E1,7.8E1,2.8E1,1.02E2,2.7E1,2.3E1,1.4E1,1.4E1,9.4E1,8E0],"tree_param":{"num_deleted":"0","num_feature":"3","num_nodes":"23","size_leaf_vector":"1"}},{"base_weights":[1.5425636E5,-2.2515368E6,5.5949895E6,-2.8682578E6,-1.5478591E6,3.724022E6,1.0992701E6,-3.1315438E5,-2.4738453E5,-4.991117E5,-1.9126709E6,4.2090485E6,2.65197E6,-1.0047045E5,-1.5352089E5,-2.0184255E5,-1.4557775E6,5.292133E5,3.7893888E6,1.9541154E6,3.8305553E5,6.655831E4,-6.867968E4,-1.304155E4,-2.635562E5,2.6791E5,4.209198E5,2.2221457E4,3.1934784E5],"categories":[],"categories_nodes":[],"categories_segments":[],"categories_sizes":[],"default_left":[0,0,0,0,0,0,0,0,0,0,0,0,0,0,0,0,0,0,0,0,0,0,0,0,0,0,0,0,0],"id":12,"left_children":[1,3,5,7,9,11,-1,-1,-1,13,15,17,19,-1,21,-1,23,-1,25,27,-1,-1,-1,-1,-1,-1,-1,-1,-1],"loss_changes":[4.397506E15,9.6675956E13,9.992537E14,5.0256486E12,4.1513443E13,2.9395629E13,0E0,0E0,0E0,5.087604E12,1.0237457E12,3.5814659E12,1.4721638E13,0E0,8.756481E12,0E0,2.9365467E13,0E0,7.8336177E12,4.0072984E13,0E0,0E0,0E0,0E0,0E0,0E0,0E0,0E0,0E0],"parents":[2147483647,0,0,1,1,2,2,3,3,4,4,5,5,9,9,10,10,11,11,12,12,14,14,16,16,18,18,19,19],"right_children":[2,4,6,8,10,12,-1,-1,-1,14,16,18,20,-1,22,-1,24,-1,26,28,-1,-1,-1,-1,-1,-1,-1,-1,-1],"split_conditions":[2.021E3,2.016E3,2.025E3,2.015E3,1.76057E5,8.1035E4,1.0992701E6,-3.1315438E5,-2.4738453E5,2.019E3,2.019E3,4.464E4,1.09557E5,-1.0047045E5,1.0425E5,-2.0184255E5,2.17485E5,5.292133E5,5.7806E4,2.022E3,3.8305553E5,6.655831E4,-6.867968E4,-1.304155E4,-2.635562E5,2.6791E5,4.209198E5,2.2221457E4,3.1934784E5],"split_indices":[0,0,0,0,1,1,0,0,0,0,0,1,1,0,1,0,1,0,1,0,0,0,0,0,0,0,0,0,0],"split_type":[0,0,0,0,0,0,0,0,0,0,0,0,0,0,0,0,0,0,0,0,0,0,0,0,0,0,0,0,0],"sum_hessian":[3.34E2,2.32E2,1.02E2,1.22E2,1.1E2,7.7E1,2.5E1,6.9E1,5.3E1,2.9E1,8.1E1,5.1E1,2.6E1,1.1E1,1.8E1,6.3E1,1.8E1,1.1E1,4E1,1.8E1,8E0,7E0,1.1E1,9E0,9E0,1.3E1,2.7E1,8E0,1E1],"tree_param":{"num_deleted":"0","num_feature":"3","num_nodes":"29","size_leaf_vector":"1"}},{"base_weights":[-6.222485E4,-1.883177E6,4.8079865E6,-2.1103015E6,5.642675E5,3.7750008E6,1.112173E6,-2.569294E6,-1.5728896E6,1.0146424E5,6.259564E3,2.1247392E6,4.607007E6,-2.875185E5,-2.2250403E5,-9.028263E5,-1.9507292E5,2.9512465E6,5.7911438E4,5.260989E5,3.228671E5,-4.1694945E4,-1.1297283E5,1.9326166E5,3.572889E5],"categories":[],"categories_nodes":[],"categories_segments":[],"categories_sizes":[],"default_left":[0,0,0,0,0,0,0,0,0,0,0,0,0,0,0,0,0,0,0,0,0,0,0,0,0],"id":13,"left_children":[1,3,5,7,9,11,-1,13,15,-1,-1,17,19,-1,-1,21,-1,23,-1,-1,-1,-1,-1,-1,-1],"loss_changes":[2.90016E15,1.3348899E14,5.3847428E14,4.9732433E13,4.681237E12,9.730745E13,0E0,5.817869E12,2.431599E13,0E0,0E0,3.4060064E13,2.8985728E13,0E0,0E0,3.828569E12,0E0,4.4930056E12,0E0,0E0,0E0,0E0,0E0,0E0,0E0],"parents":[2147483647,0,0,1,1,2,2,3,3,4,4,5,5,7,7,8,8,11,11,12,12,15,15,17,17],"right_children":[2,4,6,8,10,12,-1,14,16,-1,-1,18,20,-1,-1,22,-1,24,-1,-1,-1,-1,-1,-1,-1],"split_conditions":[1.6E7,1.1E7,4.5E7,6E6,1.42978E5,2.2E7,1.112173E6,3.9E6,1.77565E5,1.0146424E5,6.259564E3,6.2692E4,7.6871E4,-2.875185E5,-2.2250403E5,9.3943E4,-1.9507292E5,1.8E7,5.7911438E4,5.260989E5,3.228671E5,-4.1694945E4,-1.1297283E5,1.9326166E5,3.572889E5],"split_indices":[2,2,2,2,1,2,0,2,1,0,0,1,1,0,0,1,0,2,0,0,0,0,0,0,0],"split_type":[0,0,0,0,0,0,0,0,0,0,0,0,0,0,0,0,0,0,0,0,0,0,0,0,0],"sum_hessian":[3.25E2,2.37E2,8.8E1,2.17E2,2E1,7.7E1,1.1E1,1.15E2,1.02E2,1E1,1E1,2.7E1,5E1,5.7E1,5.8E1,3.8E1,6.4E1,1.7E1,1E1,3.2E1,1.8E1,1.3E1,2.5E1,8E0,9E0],"tree_param":{"num_deleted":"0","num_feature":"3","num_nodes":"25","size_leaf_vector":"1"}},{"base_weights":[1.537399E5,-1.7739232E6,4.690179E6,-1.9745672E6,5.1596378E5,3.0633432E6,9.443046E6,-2.6094945E6,-1.6870672E6,1.4308317E4,1.0107893E5,1.8076196E6,3.804513E5,6.0186994E5,1.0779051E6,-3.5495528E5,-2.3423753E5,-1.7925345E6,-9.329974E5,2.4159362E5,1.4130802E6,-2.0961898E5,-1.6121373E5,-1.17981055E5,-7.0934336E4,1.6984694E5,7.7268805E4],"categories":[],"categories_nodes":[],"categories_segments":[],"categories_sizes":[],"default_left":[0,0,0,0,0,0,0,0,0,0,0,0,0,0,0,0,0,0,0,0,0,0,0,0,0,0,0],"id":14,"left_children":[1,3,5,7,9,11,13,15,17,-1,-1,19,-1,-1,-1,-1,-1,21,23,-1,25,-1,-1,-1,-1,-1,-1],"loss_changes":[2.8153774E15,1.0485485E14,7.133574E14,3.356631E13,3.3610788E12,6.106437E13,4.4922674E13,7.5053547E12,9.93889E12,0E0,0E0,3.5462253E12,0E0,0E0,0E0,0E0,0E0,3.57754E12,2.6712474E11,0E0,2.3428292E12,0E0,0E0,0E0,0E0,0E0,0E0],"parents":[2147483647,0,0,1,1,2,2,3,3,4,4,5,5,6,6,7,7,8,8,11,11,17,17,18,18,20,20],"right_children":[2,4,6,8,10,12,14,16,18,-1,-1,20,-1,-1,-1,-1,-1,22,24,-1,26,-1,-1,-1,-1,-1,-1],"split_conditions":[1.6E7,1.1E7,3.3E7,2.015E3,2.021E3,2.2E7,4.5E7,3E6,8E6,1.4308317E4,1.0107893E5,2.023E3,3.804513E5,6.0186994E5,1.0779051E6,-3.5495528E5,-2.3423753E5,2.016E3,2.016E3,2.4159362E5,2E7,-2.0961898E5,-1.6121373E5,-1.17981055E5,-7.0934336E4,1.6984694E5,7.7268805E4],"split_indices":[2,2,2,0,0,2,2,2,2,0,0,0,0,0,0,0,0,0,0,0,2,0,0,0,0,0,0],"split_type":[0,0,0,0,0,0,0,0,0,0,0,0,0,0,0,0,0,0,0,0,0,0,0,0,0,0,0],"sum_hessian":[3.2E2,2.25E2,9.5E1,2.07E2,1.8E1,7.2E1,2.3E1,6.2E1,1.45E2,1.1E1,7E0,2.8E1,4.4E1,8E0,1.5E1,1.1E1,5.1E1,1.26E2,1.9E1,9E0,1.9E1,4.3E1,8.3E1,7E0,1.2E1,1.2E1,7E0],"tree_param":{"num_deleted":"0","num_feature":"3","num_nodes":"27","size_leaf_vector":"1"}},{"base_weights":[7.989951E4,-1.508863E6,4.2754365E6,-1.7057629E6,4.4869078E5,2.721821E6,8.563938E6,-1.9414106E6,-1.1697026E6,7.566936E4,4.3897456E3,2.2204112E6,4.0191256E5,5.636472E5,9.675391E5,-2.3042038E5,-1.7354042E5,-4.385679E5,-1.4533851E6,2.906393E6,1.4775989E6,-2.7964785E4,-6.1938934E4,-1.2904949E5,-2.0520525E5,1.88167E5,3.338207E5,7.162702E4,1.7604598E5],"categories":[],"categories_nodes":[],"categories_segments":[],"categories_sizes":[],"default_left":[0,0,0,0,0,0,0,0,0,0,0,0,0,0,0,0,0,0,0,0,0,0,0,0,0,0,0,0,0],"id":15,"left_children":[1,3,5,7,9,11,13,15,17,-1,-1,19,-1,-1,-1,-1,-1,21,23,25,27,-1,-1,-1,-1,-1,-1,-1,-1],"loss_changes":[2.2327987E15,9.442784E13,5.896573E14,2.5646122E13,2.8343644E12,3.5959077E13,2.3554674E13,7.3614397E12,1.3881309E13,0E0,0E0,2.2202397E13,0E0,0E0,0E0,0E0,0E0,4.302483E11,2.227687E12,5.2233345E12,4.5534916E12,0E0,0E0,0E0,0E0,0E0,0E0,0E0,0E0],"parents":[2147483647,0,0,1,1,2,2,3,3,4,4,5,5,6,6,7,7,8,8,11,11,17,17,18,18,19,19,20,20],"right_children":[2,4,6,8,10,12,14,16,18,-1,-1,20,-1,-1,-1,-1,-1,22,24,26,28,-1,-1,-1,-1,-1,-1,-1,-1],"split_conditions":[1.6E7,1.1E7,3.3E7,6.8E6,1.42978E5,2.5E7,4.5E7,3.9E6,1.3224E5,7.566936E4,4.3897456E3,6.9171E4,4.0191256E5,5.636472E5,9.675391E5,-2.3042038E5,-1.7354042E5,9.3943E4,2.30859E5,2E7,7.0226E4,-2.7964785E4,-6.1938934E4,-1.2904949E5,-2.0520525E5,1.88167E5,3.338207E5,7.162702E4,1.7604598E5],"split_indices":[2,2,2,2,1,2,2,2,1,0,0,1,0,0,0,0,0,1,1,2,1,0,0,0,0,0,0,0,0],"split_type":[0,0,0,0,0,0,0,0,0,0,0,0,0,0,0,0,0,0,0,0,0,0,0,0,0,0,0,0,0],"sum_hessian":[3.33E2,2.42E2,9.1E1,2.2E2,2.2E1,6.8E1,2.3E1,1.51E2,6.9E1,1.2E1,1E1,5.1E1,1.7E1,8E0,1.5E1,5.1E1,1E2,2E1,4.9E1,2.5E1,2.6E1,1.2E1,8E0,4.1E1,8E0,9E0,1.6E1,8E0,1.8E1],"tree_param":{"num_deleted":"0","num_feature":"3","num_nodes":"29","size_leaf_vector":"1"}},{"base_weights":[-9.635412E4,-1.4806416E6,3.3961972E6,-1.9469811E6,-9.9294544E5,2.246426E6,7.308075E5,-2.1319428E6,-1.587698E5,-3.294275E5,-1.251009E6,3.6386766E5,1.8716341E6,-1.6512998E6,-2.2821608E5,3.747485E4,-5.3342675E5,-1.0266774E6,-1.399377E5,1.0488719E6,2.2156555E6,-1.9622905E5,-1.19019086E5,-7.9518414E4,-2.5226436E4,-1.3040014E5,-4.981611E3,1.1073455E4,2.078943E5,1.7099264E5,2.5517098E5],"categories":[],"categories_nodes":[],"categories_segments":[],"categories_sizes":[],"default_left":[0,0,0,0,0,0,0,0,0,0,0,0,0,0,0,0,0,0,0,0,0,0,0,0,0,0,0,0,0,0,0],"id":16,"left_children":[1,3,5,7,9,11,-1,13,-1,15,17,-1,19,21,-1,-1,23,25,-1,27,29,-1,-1,-1,-1,-1,-1,-1,-1,-1,-1],"loss_changes":[1.5327922E15,4.969381E13,3.883818E14,4.2572857E12,1.8936846E13,3.0237811E13,0E0,1.5021648E12,0E0,4.9403957E12,1.2592643E12,0E0,1.4092828E13,6.759121E11,0E0,0E0,1.7129081E12,9.687697E12,0E0,1.8130401E13,2.4348606E12,0E0,0E0,0E0,0E0,0E0,0E0,0E0,0E0,0E0,0E0],"parents":[2147483647,0,0,1,1,2,2,3,3,4,4,5,5,7,7,9,9,10,10,12,12,13,13,16,16,17,17,19,19,20,20],"right_children":[2,4,6,8,10,12,-1,14,-1,16,18,-1,20,22,-1,-1,24,26,-1,28,30,-1,-1,-1,-1,-1,-1,-1,-1,-1,-1],"split_conditions":[2.021E3,2.016E3,2.025E3,2.015E3,1.76057E5,5.6371E4,7.308075E5,1.34732E5,-1.587698E5,9.031E4,1.94657E5,3.6386766E5,2.022E3,1.0893E5,-2.2821608E5,3.747485E4,2.019E3,2.019E3,-1.399377E5,1.09557E5,7.0226E4,-1.9622905E5,-1.19019086E5,-7.9518414E4,-2.5226436E4,-1.3040014E5,-4.981611E3,1.1073455E4,2.078943E5,1.7099264E5,2.5517098E5],"split_indices":[0,0,0,0,1,1,0,1,0,1,1,0,0,1,0,0,0,0,0,1,1,0,0,0,0,0,0,0,0,0,0],"split_type":[0,0,0,0,0,0,0,0,0,0,0,0,0,0,0,0,0,0,0,0,0,0,0,0,0,0,0,0,0,0,0],"sum_hessian":[3.15E2,2.26E2,8.9E1,1.14E2,1.12E2,7E1,1.9E1,7.2E1,4.2E1,3.2E1,8E1,1.3E1,5.7E1,2E1,5.2E1,7E0,2.5E1,3.5E1,4.5E1,1.8E1,3.9E1,1E1,1E1,1.2E1,1.3E1,2.7E1,8E0,1E1,8E0,1.8E1,2.1E1],"tree_param":{"num_deleted":"0","num_feature":"3","num_nodes":"31","size_leaf_vector":"1"}},{"base_weights":[1.4865947E5,-1.2431596E6,3.6729495E6,-1.3910872E6,4.5725984E5,2.5821108E6,6.927264E6,-1.7663415E6,-1.1059339E6,7.633868E4,3.2298E3,1.6446596E6,3.1455992E6,4.544471E5,7.964255E5,-1.9355823E5,-1.4761766E5,-5.185216E5,-1.3090302E6,2.1625478E5,4.96206E4,4.2557984E5,2.5596595E5,-7.032755E3,-7.1033086E4,-8.392304E4,-1.3385408E5],"categories":[],"categories_nodes":[],"categories_segments":[],"categories_sizes":[],"default_left":[0,0,0,0,0,0,0,0,0,0,0,0,0,0,0,0,0,0,0,0,0,0,0,0,0,0,0],"id":17,"left_children":[1,3,5,7,9,11,13,15,17,-1,-1,19,21,-1,-1,-1,-1,23,25,-1,-1,-1,-1,-1,-1,-1,-1],"loss_changes":[1.5595061E15,5.798699E13,3.0160696E14,2.0517596E13,2.4470977E12,3.1275348E13,1.8167175E13,1.5133217E12,1.3875999E13,0E0,0E0,1.5580514E13,1.6428015E13,0E0,0E0,0E0,0E0,2.7869797E12,1.2441983E11,0E0,0E0,0E0,0E0,0E0,0E0,0E0,0E0],"parents":[2147483647,0,0,1,1,2,2,3,3,4,4,5,5,6,6,7,7,8,8,11,11,12,12,17,17,18,18],"right_children":[2,4,6,8,10,12,14,16,18,-1,-1,20,22,-1,-1,-1,-1,24,26,-1,-1,-1,-1,-1,-1,-1,-1],"split_conditions":[1.6E7,1.1E7,3.3E7,5E6,1.42978E5,2.2E7,4.5E7,3.9E6,1.76057E5,7.633868E4,3.2298E3,6.2692E4,5.6371E4,4.544471E5,7.964255E5,-1.9355823E5,-1.4761766E5,9.3943E4,1.77565E5,2.1625478E5,4.96206E4,4.2557984E5,2.5596595E5,-7.032755E3,-7.1033086E4,-8.392304E4,-1.3385408E5],"split_indices":[2,2,2,2,1,2,2,2,1,0,0,1,1,0,0,0,0,1,1,0,0,0,0,0,0,0,0],"split_type":[0,0,0,0,0,0,0,0,0,0,0,0,0,0,0,0,0,0,0,0,0,0,0,0,0,0,0],"sum_hessian":[3.16E2,2.27E2,8.9E1,2.09E2,1.8E1,6.8E1,2.1E1,8.8E1,1.21E2,1E1,8E0,2.7E1,4.1E1,8E0,1.3E1,5.2E1,3.6E1,3.2E1,8.9E1,1.8E1,9E0,1.2E1,2.9E1,1E1,2.2E1,7E0,8.2E1],"tree_param":{"num_deleted":"0","num_feature":"3","num_nodes":"27","size_leaf_vector":"1"}},{"base_weights":[5.8658687E3,-9.4357925E5,4.1447615E6,-1.3133384E6,7.761845E5,2.9336615E6,7.3205294E5,-1.7718219E6,-1.0888728E6,1.1252208E4,9.82801E5,2.1803435E6,3.6576878E5,-2.5604675E5,-1.5451301E6,-1.1626362E6,-7.2320494E5,1.3133058E6,5.42612E5,2.5273692E5,1.08361375E5,-1.654073E5,-1.22298664E5,-1.2583654E5,-8.803815E4,-7.8193805E4,-4.7128812E4,6.15527E4,1.7853461E5,6.791558E4,3.939791E4],"categories":[],"categories_nodes":[],"categories_segments":[],"categories_sizes":[],"default_left":[0,0,0,0,0,0,0,0,0,0,0,0,0,0,0,0,0,0,0,0,0,0,0,0,0,0,0,0,0,0,0],"id":18,"left_children":[1,3,5,7,9,11,-1,13,15,-1,17,19,-1,-1,21,23,25,27,29,-1,-1,-1,-1,-1,-1,-1,-1,-1,-1,-1,-1],"loss_changes":[1.3478527E15,1.7843504E14,2.2467907E14,2.1740923E13,6.7455943E12,1.8205293E13,0E0,9.273438E12,3.3939301E12,0E0,4.8158034E12,7.1567325E12,0E0,0E0,8.279556E10,2.3777174E12,6.0562604E10,5.8180407E12,9.773462E10,0E0,0E0,0E0,0E0,0E0,0E0,0E0,0E0,0E0,0E0,0E0,0E0],"parents":[2147483647,0,0,1,1,2,2,3,3,4,4,5,5,7,7,8,8,10,10,11,11,14,14,15,15,16,16,17,17,18,18],"right_children":[2,4,6,8,10,12,-1,14,16,-1,18,20,-1,-1,22,24,26,28,30,-1,-1,-1,-1,-1,-1,-1,-1,-1,-1,-1,-1],"split_conditions":[2.2E7,1.1E7,4.5E7,2.015E3,1.5E7,2.5E7,7.3205294E5,3E6,2.019E3,1.1252208E4,2.023E3,2.4E7,3.6576878E5,-2.5604675E5,4.5E6,7E6,7.5E6,1.6E7,1.8E7,2.5273692E5,1.08361375E5,-1.654073E5,-1.22298664E5,-1.2583654E5,-8.803815E4,-7.8193805E4,-4.7128812E4,6.15527E4,1.7853461E5,6.791558E4,3.939791E4],"split_indices":[2,2,2,0,2,2,0,2,0,0,0,2,0,0,2,2,2,2,2,0,0,0,0,0,0,0,0,0,0,0,0],"split_type":[0,0,0,0,0,0,0,0,0,0,0,0,0,0,0,0,0,0,0,0,0,0,0,0,0,0,0,0,0,0,0],"sum_hessian":[3.41E2,2.78E2,6.3E1,2.29E2,4.9E1,4.7E1,1.6E1,7.3E1,1.56E2,1.2E1,3.7E1,2.5E1,2.2E1,1.4E1,5.9E1,1.28E2,2.8E1,2E1,1.7E1,1.8E1,7E0,4.1E1,1.8E1,9.3E1,3.5E1,2.1E1,7E0,9E0,1.1E1,7E0,1E1],"tree_param":{"num_deleted":"0","num_feature":"3","num_nodes":"31","size_leaf_vector":"1"}},{"base_weights":[1.4561848E5,-1.0656576E6,2.9949288E6,-1.4154224E6,-6.944605E5,5.12942E6,1.7474815E6,-1.540278E6,-1.23088E6,-8.7580675E5,-2.5493175E5,5.699632E5,3.682152E5,2.0770298E5,1.1503048E6,-1.1791014E6,-1.6217886E5,-9.1070984E4,-1.3224612E5,-5.7086494E5,-9.798382E5,6.4349465E4,-5.025203E5,7.806224E5,1.7207823E5,-1.4379278E5,-8.180223E4,-1.1572737E4,-7.627547E4,-7.526335E4,-1.0689446E5,-2.2030133E4,-9.186495E4,-6.0437E3,1.7343688E5],"categories":[],"categories_nodes":[],"categories_segments":[],"categories_sizes":[],"default_left":[0,0,0,0,0,0,0,0,0,0,0,0,0,0,0,0,0,0,0,0,0,0,0,0,0,0,0,0,0,0,0,0,0,0,0],"id":19,"left_children":[1,3,5,7,9,11,13,15,17,19,21,-1,-1,-1,23,25,-1,-1,-1,27,29,-1,31,33,-1,-1,-1,-1,-1,-1,-1,-1,-1,-1,-1],"loss_changes":[1.1455723E15,2.9267803E13,2.5464036E14,8.460079E11,8.943028E12,8.722072E12,1.0205882E13,6.019665E10,3.4966235E11,2.0102502E12,8.1087714E12,0E0,0E0,0E0,3.9291044E12,3.1905232E11,0E0,0E0,0E0,1.9204617E12,3.8995283E11,0E0,3.0859288E12,1.3741495E13,0E0,0E0,0E0,0E0,0E0,0E0,0E0,0E0,0E0,0E0,0E0],"parents":[2147483647,0,0,1,1,2,2,3,3,4,4,5,5,6,6,7,7,8,8,9,9,10,10,14,14,15,15,19,19,20,20,22,22,23,23],"right_children":[2,4,6,8,10,12,14,16,18,20,22,-1,-1,-1,24,26,-1,-1,-1,28,30,-1,32,34,-1,-1,-1,-1,-1,-1,-1,-1,-1,-1,-1],"split_conditions":[2.021E3,2.016E3,4.464E4,2.015E3,2.019E3,2.8013E4,8.1035E4,1.34732E5,2.04861E5,2.017E3,1.0425E5,5.699632E5,3.682152E5,2.0770298E5,2.023E3,1.0893E5,-1.6217886E5,-9.1070984E4,-1.3224612E5,1.84243E5,1.77565E5,6.4349465E4,1.94283E5,1.10375E5,1.7207823E5,-1.4379278E5,-8.180223E4,-1.1572737E4,-7.627547E4,-7.526335E4,-1.0689446E5,-2.2030133E4,-9.186495E4,-6.0437E3,1.7343688E5],"split_indices":[0,0,1,0,0,1,1,1,1,0,1,0,0,0,0,1,0,0,0,1,1,0,1,1,0,0,0,0,0,0,0,0,0,0,0],"split_type":[0,0,0,0,0,0,0,0,0,0,0,0,0,0,0,0,0,0,0,0,0,0,0,0,0,0,0,0,0,0,0,0,0,0,0],"sum_hessian":[3.3E2,2.32E2,9.8E1,1.18E2,1.14E2,3.5E1,6.3E1,6.6E1,5.2E1,8E1,3.4E1,2.3E1,1.2E1,3.9E1,2.4E1,1.5E1,5.1E1,1.4E1,3.8E1,2.2E1,5.8E1,7E0,2.7E1,1.6E1,8E0,7E0,8E0,7E0,1.5E1,1.9E1,3.9E1,1.7E1,1E1,9E0,7E0],"tree_param":{"num_deleted":"0","num_feature":"3","num_nodes":"35","size_leaf_vector":"1"}},{"base_weights":[6.8976695E4,-6.6080975E5,3.628642E6,-1.04177425E6,8.679577E5,2.3749035E6,5.892E5,-1.2729042E6,-7.460472E5,1.7102895E5,1.2697486E6,1.4230506E5,2.6130242E6,-1.9185384E5,-1.200707E6,-8.5794106E5,-4.620986E5,2.1767227E4,1.1402017E4,7.278791E4,1.4501648E5,2.0298773E5,3.0608462E5,-1.238837E5,-6.097357E4,-4.8629332E4,-9.1004086E4,-5.9054215E4,-1.7487928E4],"categories":[],"categories_nodes":[],"categories_segments":[],"categories_sizes":[],"default_left":[0,0,0,0,0,0,0,0,0,0,0,0,0,0,0,0,0,0,0,0,0,0,0,0,0,0,0,0,0],"id":20,"left_children":[1,3,5,7,9,11,-1,13,15,17,19,-1,21,-1,23,25,27,-1,-1,-1,-1,-1,-1,-1,-1,-1,-1,-1,-1],"loss_changes":[8.8564836E14,1.6572514E14,1.5059128E14,1.456613E13,1.5743958E13,5.121128E12,0E0,3.569638E12,2.8443001E12,3.368072E10,2.4638852E12,0E0,1.6212327E12,0E0,1.8585464E12,9.515785E11,1.04036146E12,0E0,0E0,0E0,0E0,0E0,0E0,0E0,0E0,0E0,0E0,0E0,0E0],"parents":[2147483647,0,0,1,1,2,2,3,3,4,4,5,5,7,7,8,8,9,9,10,10,12,12,14,14,15,15,16,16],"right_children":[2,4,6,8,10,12,-1,14,16,18,20,-1,22,-1,24,26,28,-1,-1,-1,-1,-1,-1,-1,-1,-1,-1,-1,-1],"split_conditions":[2.3E7,1.2E7,3.66E7,2.016E3,2.022E3,2.023E3,5.892E5,3E6,2.019E3,2.02E3,2E7,1.4230506E5,2.47E7,-1.9185384E5,6.5E6,5.2E6,7.5E6,2.1767227E4,1.1402017E4,7.278791E4,1.4501648E5,2.0298773E5,3.0608462E5,-1.238837E5,-6.097357E4,-4.8629332E4,-9.1004086E4,-5.9054215E4,-1.7487928E4],"split_indices":[2,2,2,0,0,0,0,2,0,0,2,0,2,0,2,2,2,0,0,0,0,0,0,0,0,0,0,0,0],"split_type":[0,0,0,0,0,0,0,0,0,0,0,0,0,0,0,0,0,0,0,0,0,0,0,0,0,0,0,0,0],"sum_hessian":[3.39E2,2.82E2,5.7E1,2.26E2,5.6E1,3.8E1,1.9E1,1.25E2,1.01E2,2.1E1,3.5E1,9E0,2.9E1,1E1,1.15E2,7.1E1,3E1,1E1,1.1E1,1E1,2.5E1,1.5E1,1.4E1,1.07E2,8E0,1E1,6.1E1,2E1,1E1],"tree_param":{"num_deleted":"0","num_feature":"3","num_nodes":"29","size_leaf_vector":"1"}},{"base_weights":[-1.4408519E4,2.7824522E6,-7.347575E5,1.5338029E6,4.621742E6,-9.0399275E5,5.663977E5,1.710045E6,1.1405316E6,5.346436E5,2.2322895E5,-1.3362538E6,-7.333989E5,2.0034961E5,1.438921E5,1.3164526E6,2.1628655E5,1.06267E4,1.9331523E5,-9.525328E5,-1.4523105E6,-2.4080597E5,-8.7821044E5,-3.0203094E4,1.01538945E5,1.987863E5,6.4767902E4,-6.351907E4,-1.1428875E5,-1.974001E5,-1.2630762E5,3.7390574E4,-3.8252984E4,-7.618082E4,-1.2008049E5],"categories":[],"categories_nodes":[],"categories_segments":[],"categories_sizes":[],"default_left":[0,0,0,0,0,0,0,0,0,0,0,0,0,0,0,0,0,0,0,0,0,0,0,0,0,0,0,0,0,0,0,0,0,0,0],"id":21,"left_children":[1,3,5,7,9,11,13,15,17,-1,-1,19,21,23,-1,25,-1,-1,-1,27,29,31,33,-1,-1,-1,-1,-1,-1,-1,-1,-1,-1,-1,-1],"loss_changes":[6.689154E14,1.4908187E14,5.864516E13,9.607053E11,3.4819031E13,1.6275409E13,9.612662E12,1.9648133E12,1.2911041E13,0E0,0E0,1.5112916E12,1.1915162E13,9.724263E12,0E0,6.3458687E12,0E0,0E0,0E0,3.6138543E11,2.2453284E12,3.6278037E12,4.0043607E12,0E0,0E0,0E0,0E0,0E0,0E0,0E0,0E0,0E0,0E0,0E0,0E0],"parents":[2147483647,0,0,1,1,2,2,3,3,4,4,5,5,6,6,7,7,8,8,11,11,12,12,13,13,15,15,19,19,20,20,21,21,22,22],"right_children":[2,4,6,8,10,12,14,16,18,-1,-1,20,22,24,-1,26,-1,-1,-1,28,30,32,34,-1,-1,-1,-1,-1,-1,-1,-1,-1,-1,-1,-1],"split_conditions":[7.6871E4,2.025E3,2.02E3,6.9171E4,2.8013E4,2.015E3,2.023E3,5.7806E4,7.0226E4,5.346436E5,2.2322895E5,1.34732E5,1.76057E5,1.10375E5,1.438921E5,4.309E4,2.1628655E5,1.06267E4,1.9331523E5,2.014E3,1.88485E5,9.031E4,2.30859E5,-3.0203094E4,1.01538945E5,1.987863E5,6.4767902E4,-6.351907E4,-1.1428875E5,-1.974001E5,-1.2630762E5,3.7390574E4,-3.8252984E4,-7.618082E4,-1.2008049E5],"split_indices":[1,0,0,1,1,0,0,1,1,0,0,1,1,1,0,1,0,0,0,0,1,1,1,0,0,0,0,0,0,0,0,0,0,0,0],"split_type":[0,0,0,0,0,0,0,0,0,0,0,0,0,0,0,0,0,0,0,0,0,0,0,0,0,0,0,0,0,0,0,0,0,0,0],"sum_hessian":[3.3E2,6.7E1,2.63E2,4.1E1,2.6E1,2.33E2,3E1,2.6E1,1.5E1,1.9E1,7E0,6.4E1,1.69E2,2.2E1,8E0,1.6E1,1E1,7E0,8E0,1.7E1,4.7E1,3.9E1,1.3E2,1.4E1,8E0,7E0,9E0,8E0,9E0,1E1,3.7E1,7E0,3.2E1,9.8E1,3.2E1],"tree_param":{"num_deleted":"0","num_feature":"3","num_nodes":"35","size_leaf_vector":"1"}},{"base_weights":[6.1907047E4,-7.9796506E5,2.0086575E6,-8.743638E5,-3.2433E4,3.997616E6,1.0839345E6,-1.1238832E6,-7.829726E5,-3.1787281E4,1.8963092E4,2.678451E5,4.6551925E5,8.591381E5,2.231993E5,-1.6290984E5,-9.8663806E5,-2.8837332E4,-8.219162E5,1.1790569E6,3.8312984E5,-5.7912395E4,-1.1014479E5,-7.599792E4,-1.117409E5,5.6593215E4,1.4620388E5,7.384133E4,-3.7000688E4],"categories":[],"categories_nodes":[],"categories_segments":[],"categories_sizes":[],"default_left":[0,0,0,0,0,0,0,0,0,0,0,0,0,0,0,0,0,0,0,0,0,0,0,0,0,0,0,0,0],"id":22,"left_children":[1,3,5,7,9,11,13,15,17,-1,-1,-1,-1,19,-1,-1,21,-1,23,25,27,-1,-1,-1,-1,-1,-1,-1,-1],"loss_changes":[5.5735636E14,1.3481835E13,1.832689E14,3.9088397E12,1.454768E12,1.5289748E13,1.6406045E13,2.1369434E12,2.787031E12,0E0,0E0,0E0,0E0,8.837591E12,0E0,0E0,1.4675199E12,0E0,1.8045657E12,5.418701E12,7.2302194E12,0E0,0E0,0E0,0E0,0E0,0E0,0E0,0E0],"parents":[2147483647,0,0,1,1,2,2,3,3,4,4,5,5,6,6,7,7,8,8,13,13,16,16,18,18,19,19,20,20],"right_children":[2,4,6,8,10,12,14,16,18,-1,-1,-1,-1,20,-1,-1,22,-1,24,26,28,-1,-1,-1,-1,-1,-1,-1,-1],"split_conditions":[1.5E7,9E6,4.464E4,3.9E6,1.2E7,3.3E7,2.87E7,1.84052E5,9.3739E4,-3.1787281E4,1.8963092E4,2.678451E5,4.6551925E5,8.1035E4,2.231993E5,-1.6290984E5,3.5E6,-2.8837332E4,2.42362E5,5.7806E4,2.25E7,-5.7912395E4,-1.1014479E5,-7.599792E4,-1.117409E5,5.6593215E4,1.4620388E5,7.384133E4,-3.7000688E4],"split_indices":[2,2,1,2,2,2,2,1,1,0,0,0,0,1,0,0,2,0,1,1,2,0,0,0,0,0,0,0,0],"split_type":[0,0,0,0,0,0,0,0,0,0,0,0,0,0,0,0,0,0,0,0,0,0,0,0,0,0,0,0,0],"sum_hessian":[3.31E2,2.3E2,1.01E2,2.09E2,2.1E1,3.1E1,7E1,5.3E1,1.56E2,9E0,1.2E1,1.2E1,1.9E1,6E1,1E1,9E0,4.4E1,1.2E1,1.44E2,3.5E1,2.5E1,1.1E1,3.3E1,1.22E2,2.2E1,1.2E1,2.3E1,1.7E1,8E0],"tree_param":{"num_deleted":"0","num_feature":"3","num_nodes":"29","size_leaf_vector":"1"}},{"base_weights":[7.4959234E4,-7.1556944E5,1.8178546E6,-7.8281225E5,-8.8973836E4,1.2410199E6,3.870598E6,-1.5065284E5,-7.3973994E5,-3.2468016E4,1.7378918E4,1.7685364E6,7.553313E5,2.5314116E5,4.41607E5,-2.1394814E4,-7.745891E5,3.9540125E4,2.0478256E6,4.667271E5,1.8899567E5,-8.012104E4,-1.5018244E4,1.1349456E5,2.452677E5,6.241802E4,-1.0997511E4],"categories":[],"categories_nodes":[],"categories_segments":[],"categories_sizes":[],"default_left":[0,0,0,0,0,0,0,0,0,0,0,0,0,0,0,0,0,0,0,0,0,0,0,0,0,0,0],"id":23,"left_children":[1,3,5,7,9,11,13,-1,15,-1,-1,17,19,-1,-1,-1,21,-1,23,25,-1,-1,-1,-1,-1,-1,-1],"loss_changes":[4.7251143E14,9.873987E12,1.2189449E14,5.525232E12,1.5428635E12,2.0441888E13,5.622347E12,0E0,3.553926E12,0E0,0E0,1.4530361E13,1.4180959E13,0E0,0E0,0E0,3.0379512E12,0E0,9.412513E12,3.5191794E12,0E0,0E0,0E0,0E0,0E0,0E0,0E0],"parents":[2147483647,0,0,1,1,2,2,3,3,4,4,5,5,6,6,8,8,11,11,12,12,16,16,18,18,19,19],"right_children":[2,4,6,8,10,12,14,-1,16,-1,-1,18,20,-1,-1,-1,22,-1,24,26,-1,-1,-1,-1,-1,-1,-1],"split_conditions":[1.5E7,9E6,3.3E7,2.1E6,1.2E7,6.9171E4,4.5E7,-1.5065284E5,9.3739E4,-3.2468016E4,1.7378918E4,1.8E7,1.10375E5,2.5314116E5,4.41607E5,-2.1394814E4,2.5498E5,3.9540125E4,3.8422E4,1.0425E5,1.8899567E5,-8.012104E4,-1.5018244E4,1.1349456E5,2.452677E5,6.241802E4,-1.0997511E4],"split_indices":[2,2,2,2,2,1,2,0,1,0,0,2,1,0,0,0,1,0,1,1,0,0,0,0,0,0,0],"split_type":[0,0,0,0,0,0,0,0,0,0,0,0,0,0,0,0,0,0,0,0,0,0,0,0,0,0,0],"sum_hessian":[3.41E2,2.35E2,1.06E2,2.12E2,2.3E1,8.4E1,2.2E1,1E1,2.02E2,1.2E1,1.1E1,3.9E1,4.5E1,8E0,1.4E1,1.3E1,1.89E2,7E0,3.2E1,3.7E1,8E0,1.81E2,8E0,1.1E1,2.1E1,2.9E1,8E0],"tree_param":{"num_deleted":"0","num_feature":"3","num_nodes":"27","size_leaf_vector":"1"}},{"base_weights":[-3.6165023E4,-6.166397E5,1.8331212E6,-7.890683E5,8.470956E4,1.2603801E6,4.1169047E5,-9.838498E5,-6.7525475E5,-2.4090717E5,3.423793E5,7.6354555E4,1.5199262E6,-1.5096267E5,-8.616787E5,-4.5413086E4,-7.007411E5,-3.5681574E4,-8.08E2,4.9529356E5,-1.29786E3,1.3533611E5,1.9342556E5,-9.23578E4,-6.52182E4,-9.970102E4,-6.620505E4,1.635813E4,7.30446E4],"categories":[],"categories_nodes":[],"categories_segments":[],"categories_sizes":[],"default_left":[0,0,0,0,0,0,0,0,0,0,0,0,0,0,0,0,0,0,0,0,0,0,0,0,0,0,0,0,0],"id":24,"left_children":[1,3,5,7,9,11,-1,13,15,17,19,-1,21,-1,23,-1,25,-1,-1,27,-1,-1,-1,-1,-1,-1,-1,-1,-1],"loss_changes":[3.7548067E14,3.1993069E13,1.0206852E14,4.0354405E12,4.529265E12,7.479216E12,0E0,3.5810296E12,4.5385305E11,6.4479704E11,1.6366075E12,0E0,3.4981334E11,0E0,2.2759552E11,0E0,7.2694E11,0E0,0E0,1.518574E12,0E0,0E0,0E0,0E0,0E0,0E0,0E0,0E0,0E0],"parents":[2147483647,0,0,1,1,2,2,3,3,4,4,5,5,7,7,8,8,9,9,10,10,12,12,14,14,16,16,19,19],"right_children":[2,4,6,8,10,12,-1,14,16,18,20,-1,22,-1,24,-1,26,-1,-1,28,-1,-1,-1,-1,-1,-1,-1,-1,-1],"split_conditions":[2.022E3,8E6,3.66E7,2.015E3,1.2E7,2.08E7,4.1169047E5,3E6,4.2E6,2.018E3,1.8E7,7.6354555E4,2.025E3,-1.5096267E5,4.5E6,-4.5413086E4,5E6,-3.5681574E4,-8.08E2,2.02E3,-1.29786E3,1.3533611E5,1.9342556E5,-9.23578E4,-6.52182E4,-9.970102E4,-6.620505E4,1.635813E4,7.30446E4],"split_indices":[0,2,2,0,2,2,0,2,2,0,2,0,0,0,2,0,2,0,0,0,0,0,0,0,0,0,0,0,0],"split_type":[0,0,0,0,0,0,0,0,0,0,0,0,0,0,0,0,0,0,0,0,0,0,0,0,0,0,0,0,0],"sum_hessian":[3.44E2,2.63E2,8.1E1,2.11E2,5.2E1,6.6E1,1.5E1,7.5E1,1.36E2,2.3E1,2.9E1,2.4E1,4.2E1,1.2E1,6.3E1,1.6E1,1.2E2,1.5E1,8E0,2E1,9E0,3.3E1,9E0,4.6E1,1.7E1,1.1E1,1.09E2,9E0,1.1E1],"tree_param":{"num_deleted":"0","num_feature":"3","num_nodes":"29","size_leaf_vector":"1"}},{"base_weights":[1.394184E3,-3.2951038E5,2.7290832E6,7.656905E5,-5.843174E5,3.6789082E6,1.5221065E6,1.1314928E6,3.8655862E5,-7.1613794E5,-1.30039016E5,4.5903225E5,2.835045E5,1.8093428E5,1.033832E5,7.832715E5,1.630103E5,-2.79545E4,8.029354E5,-6.725722E5,-9.5746306E5,-2.7155356E5,1.0744109E5,4.2211402E4,9.5877055E4,-1.5238476E4,8.575622E3,1.0722608E5,4.3324312E4,-8.3165586E4,-5.5926043E4,-1.0616587E5,-5.7729133E4,-2.9990112E3,-3.395006E4,-3.2920816E4,5.740184E4],"categories":[],"categories_nodes":[],"categories_segments":[],"categories_sizes":[],"default_left":[0,0,0,0,0,0,0,0,0,0,0,0,0,0,0,0,0,0,0,0,0,0,0,0,0,0,0,0,0,0,0,0,0,0,0,0,0],"id":25,"left_children":[1,3,5,7,9,11,13,15,17,19,21,-1,-1,-1,-1,23,-1,25,27,29,31,33,35,-1,-1,-1,-1,-1,-1,-1,-1,-1,-1,-1,-1,-1,-1],"loss_changes":[3.086875E14,8.55622E13,3.681772E13,7.606473E12,1.475791E13,2.3684228E12,6.539465E11,3.7583606E12,5.200254E12,1.3746328E12,1.9447685E12,0E0,0E0,0E0,0E0,7.995623E11,0E0,2.394528E11,1.02896343E12,2.5272108E12,4.5664436E11,5.807053E11,4.6710454E12,0E0,0E0,0E0,0E0,0E0,0E0,0E0,0E0,0E0,0E0,0E0,0E0,0E0,0E0],"parents":[2147483647,0,0,1,1,2,2,3,3,4,4,5,5,6,6,7,7,8,8,9,9,10,10,15,15,17,17,18,18,19,19,20,20,21,21,22,22],"right_children":[2,4,6,8,10,12,14,16,18,20,22,-1,-1,-1,-1,24,-1,26,28,30,32,34,36,-1,-1,-1,-1,-1,-1,-1,-1,-1,-1,-1,-1,-1,-1],"split_conditions":[2.5E7,9.031E4,2.8013E4,6.9171E4,7.5E6,5E7,7.6871E4,5.7806E4,8.2313E4,2.42362E5,1.2E7,4.5903225E5,2.835045E5,1.8093428E5,1.033832E5,1.8E7,1.630103E5,7.0226E4,8.9657E4,4.5E6,2.65083E5,1.3224E5,1.28534E5,4.2211402E4,9.5877055E4,-1.5238476E4,8.575622E3,1.0722608E5,4.3324312E4,-8.3165586E4,-5.5926043E4,-1.0616587E5,-5.7729133E4,-2.9990112E3,-3.395006E4,-3.2920816E4,5.740184E4],"split_indices":[2,1,1,1,2,2,1,1,1,1,2,0,0,0,0,2,0,1,1,2,1,1,1,0,0,0,0,0,0,0,0,0,0,0,0,0,0],"split_type":[0,0,0,0,0,0,0,0,0,0,0,0,0,0,0,0,0,0,0,0,0,0,0,0,0,0,0,0,0,0,0,0,0,0,0,0,0],"sum_hessian":[3.4E2,3.04E2,3.6E1,5.7E1,2.47E2,1.9E1,1.7E1,2.8E1,2.9E1,1.91E2,5.6E1,7E0,1.2E1,9E0,8E0,1.8E1,1E1,1.5E1,1.4E1,1.65E2,2.6E1,3.5E1,2.1E1,7E0,1.1E1,7E0,8E0,7E0,7E0,6.6E1,9.9E1,1.9E1,7E0,8E0,2.7E1,1.1E1,1E1],"tree_param":{"num_deleted":"0","num_feature":"3","num_nodes":"37","size_leaf_vector":"1"}},{"base_weights":[4.071412E4,-3.8195384E5,1.7115569E6,-5.998412E5,2.0957336E5,1.2598532E6,3.6392353E5,-7.867008E5,-4.9488562E5,-7.008117E4,4.9922034E5,9.700581E5,1.8505686E5,-1.03834414E5,-6.3156133E4,-1.8519658E4,-5.419182E5,-1.6564027E4,5.2084824E4,6.778406E5,2.4474375E5,2.9988854E4,1.1908101E6,-6.652585E4,-3.8553832E4,1.246675E3,7.8570796E3,4.2543246E4,8.1066E4,5.5870133E4,-1.390515E4,8.910874E4,1.8661966E5],"categories":[],"categories_nodes":[],"categories_segments":[],"categories_sizes":[],"default_left":[0,0,0,0,0,0,0,0,0,0,0,0,0,0,0,0,0,0,0,0,0,0,0,0,0,0,0,0,0,0,0,0,0],"id":26,"left_children":[1,3,5,7,9,11,-1,13,15,17,19,21,-1,-1,-1,-1,23,-1,25,27,29,-1,31,-1,-1,-1,-1,-1,-1,-1,-1,-1,-1],"loss_changes":[2.3087875E14,3.3765028E13,5.28839E13,3.356559E12,5.7860633E12,7.620094E12,0E0,1.9598892E12,1.720321E12,4.40568E11,1.4250158E12,5.4125983E12,0E0,0E0,0E0,0E0,1.8266173E12,0E0,1.6858972E10,3.2561326E11,2.0056151E12,0E0,4.2074867E12,0E0,0E0,0E0,0E0,0E0,0E0,0E0,0E0,0E0,0E0],"parents":[2147483647,0,0,1,1,2,2,3,3,4,4,5,5,7,7,8,8,9,9,10,10,11,11,16,16,18,18,19,19,20,20,22,22],"right_children":[2,4,6,8,10,12,-1,14,16,18,20,22,-1,-1,-1,-1,24,-1,26,28,30,-1,32,-1,-1,-1,-1,-1,-1,-1,-1,-1,-1],"split_conditions":[2.2E7,2.019E3,4.5E7,2.015E3,2.02E3,2.87E7,3.6392353E5,3.6E6,4.2E6,7.5E6,2.023E3,2.023E3,1.8505686E5,-1.03834414E5,-6.3156133E4,-1.8519658E4,6.7E6,-1.6564027E4,9.5E6,1.6E7,2E7,2.9988854E4,2.47E7,-6.652585E4,-3.8553832E4,1.246675E3,7.8570796E3,4.2543246E4,8.1066E4,5.5870133E4,-1.390515E4,8.910874E4,1.8661966E5],"split_indices":[2,0,2,0,0,2,0,2,2,2,0,0,0,0,0,0,2,0,2,2,2,0,2,0,0,0,0,0,0,0,0,0,0],"split_type":[0,0,0,0,0,0,0,0,0,0,0,0,0,0,0,0,0,0,0,0,0,0,0,0,0,0,0,0,0,0,0,0,0],"sum_hessian":[3.25E2,2.6E2,6.5E1,1.9E2,7E1,5.4E1,1.1E1,6.6E1,1.24E2,3.6E1,3.4E1,3.8E1,1.6E1,2.3E1,4.3E1,1.7E1,1.07E2,2E1,1.6E1,1.9E1,1.5E1,1E1,2.8E1,5.8E1,4.9E1,7E0,9E0,8E0,1.1E1,8E0,7E0,2.1E1,7E0],"tree_param":{"num_deleted":"0","num_feature":"3","num_nodes":"33","size_leaf_vector":"1"}},{"base_weights":[6.0147523E4,1.5596615E6,-3.741484E5,9.1793206E5,2.5901816E5,-5.3648906E5,1.160348E5,1.8665873E5,6.5782E5,-7.4303744E5,-4.2202434E5,-1.9540422E4,8.9076766E4,5.1233903E5,1.1757015E5,-4.6067447E5,-8.319193E5,-4.5094344E5,2.0094889E3,5.8665336E4,-4.007946E4,6.978696E4,3.568507E4,-2.8241047E4,-6.2736668E4,-1.21179586E5,-7.126202E4,-2.3562537E4,-5.1192535E4,-1.0336962E4,6.278197E4],"categories":[],"categories_nodes":[],"categories_segments":[],"categories_sizes":[],"default_left":[0,0,0,0,0,0,0,0,0,0,0,0,0,0,0,0,0,0,0,0,0,0,0,0,0,0,0,0,0,0,0],"id":27,"left_children":[1,3,5,7,-1,9,11,-1,13,15,17,19,-1,21,-1,23,25,27,-1,29,-1,-1,-1,-1,-1,-1,-1,-1,-1,-1,-1],"loss_changes":[2.2330516E14,4.854365E13,2.1229642E13,1.0863201E13,0E0,4.41492E12,7.0547223E12,0E0,2.41132E12,1.3735423E12,1.6839858E12,1.7528565E12,0E0,7.029433E11,0E0,3.8741397E11,1.4930338E12,1.4944305E12,0E0,4.5838196E12,0E0,0E0,0E0,0E0,0E0,0E0,0E0,0E0,0E0,0E0,0E0],"parents":[2147483647,0,0,1,1,2,2,3,3,5,5,6,6,8,8,9,9,10,10,11,11,13,13,15,15,16,16,17,17,19,19],"right_children":[2,4,6,8,-1,10,12,-1,14,16,18,20,-1,22,-1,24,26,28,-1,30,-1,-1,-1,-1,-1,-1,-1,-1,-1,-1,-1],"split_conditions":[7.6871E4,2.025E3,2.019E3,2.023E3,2.5901816E5,2.015E3,2.023E3,1.8665873E5,7.0243E4,1.34732E5,2.5498E5,1.94657E5,8.9076766E4,5.6371E4,1.1757015E5,2.014E3,1.88485E5,1.77565E5,2.0094889E3,1.3224E5,-4.007946E4,6.978696E4,3.568507E4,-2.8241047E4,-6.2736668E4,-1.21179586E5,-7.126202E4,-2.3562537E4,-5.1192535E4,-1.0336962E4,6.278197E4],"split_indices":[1,0,0,0,0,0,0,0,1,1,1,1,0,1,0,0,1,1,0,1,0,0,0,0,0,0,0,0,0,0,0],"split_type":[0,0,0,0,0,0,0,0,0,0,0,0,0,0,0,0,0,0,0,0,0,0,0,0,0,0,0,0,0,0,0],"sum_hessian":[3.41E2,7.6E1,2.65E2,4.8E1,2.8E1,1.99E2,6.6E1,9E0,3.9E1,6.9E1,1.3E2,5.7E1,9E0,3.2E1,7E0,1.8E1,5.1E1,1.22E2,8E0,4.8E1,9E0,1.3E1,1.9E1,1E1,8E0,1E1,4.1E1,2.8E1,9.4E1,3.8E1,1E1],"tree_param":{"num_deleted":"0","num_feature":"3","num_nodes":"31","size_leaf_vector":"1"}},{"base_weights":[5.5872395E4,-3.295252E5,1.4920566E6,-4.9258516E5,9.715778E4,1.0653081E6,3.2812384E5,-6.06837E5,-2.9849766E5,-4.0645445E4,4.643686E5,7.947428E5,1.5396452E5,-7.4269656E5,-5.2198438E5,1.9534709E4,-3.9075403E5,-1.0382492E5,1.1589487E4,2.044332E4,6.584582E4,8.906034E4,5.048395E4,-8.616221E4,-3.6367035E4,-5.4449426E4,-2.6258875E4,-5.4887176E4,-2.5761314E4,-5.318396E3,-1.7329732E4],"categories":[],"categories_nodes":[],"categories_segments":[],"categories_sizes":[],"default_left":[0,0,0,0,0,0,0,0,0,0,0,0,0,0,0,0,0,0,0,0,0,0,0,0,0,0,0,0,0,0,0],"id":28,"left_children":[1,3,5,7,9,11,-1,13,15,17,19,21,-1,23,25,-1,27,29,-1,-1,-1,-1,-1,-1,-1,-1,-1,-1,-1,-1,-1],"loss_changes":[1.8314732E14,1.8206914E13,4.9951594E13,4.0099014E12,3.7128813E12,6.220048E12,0E0,9.726339E11,3.3566763E12,5.4610015E11,8.744044E11,6.342102E11,0E0,1.6249195E12,3.0078193E11,0E0,1.1427706E12,1.2799115E11,0E0,0E0,0E0,0E0,0E0,0E0,0E0,0E0,0E0,0E0,0E0,0E0,0E0],"parents":[2147483647,0,0,1,1,2,2,3,3,4,4,5,5,7,7,8,8,9,9,10,10,11,11,13,13,14,14,16,16,17,17],"right_children":[2,4,6,8,10,12,-1,14,16,18,20,22,-1,24,26,-1,28,30,-1,-1,-1,-1,-1,-1,-1,-1,-1,-1,-1,-1,-1],"split_conditions":[2.2E7,2.019E3,4.5E7,2.016E3,2.022E3,2.87E7,3.2812384E5,3.8E6,5.2E6,1.5E7,2E7,2.47E7,1.5396452E5,2.014E3,6.5E6,1.9534709E4,6.8E6,8.1E6,1.1589487E4,2.044332E4,6.584582E4,8.906034E4,5.048395E4,-8.616221E4,-3.6367035E4,-5.4449426E4,-2.6258875E4,-5.4887176E4,-2.5761314E4,-5.318396E3,-1.7329732E4],"split_indices":[2,0,2,0,0,2,0,2,2,2,2,2,0,0,2,0,2,2,0,0,0,0,0,0,0,0,0,0,0,0,0],"split_type":[0,0,0,0,0,0,0,0,0,0,0,0,0,0,0,0,0,0,0,0,0,0,0,0,0,0,0,0,0,0,0],"sum_hessian":[3.29E2,2.6E2,6.9E1,1.88E2,7.2E1,5.7E1,1.2E1,1.17E2,7.1E1,5.3E1,1.9E1,3.8E1,1.9E1,4.2E1,7.5E1,1.1E1,6E1,3.8E1,1.5E1,9E0,1E1,2.7E1,1.1E1,3.1E1,1.1E1,6.8E1,7E0,2.6E1,3.4E1,2.3E1,1.5E1],"tree_param":{"num_deleted":"0","num_feature":"3","num_nodes":"31","size_leaf_vector":"1"}},{"base_weights":[3.8263414E4,-4.0634116E5,1.0583724E6,-5.436896E5,-2.5112728E5,2.0998528E6,5.7306794E5,-6.30702E5,-4.749517E5,2.9151748E4,-3.2923166E5,1.391233E5,2.490894E5,7.299698E5,3.2384288E5,-3.9370574E4,-6.833985E5,-4.3210586E4,-6.849543E4,-3.6319775E5,1.1102375E4,1.3964417E5,5.661389E5,5.3553547E4,9.485676E4,-9.705423E4,-5.9824E4,-2.7852475E4,-9.767735E4,3.602915E4,1.0199334E5,-3.6731758E4,7.022916E4],"categories":[],"categories_nodes":[],"categories_segments":[],"categories_sizes":[],"default_left":[0,0,0,0,0,0,0,0,0,0,0,0,0,0,0,0,0,0,0,0,0,0,0,0,0,0,0,0,0,0,0,0,0],"id":29,"left_children":[1,3,5,7,9,11,13,15,17,-1,19,-1,-1,21,23,-1,25,-1,-1,27,-1,-1,29,31,-1,-1,-1,-1,-1,-1,-1,-1,-1],"loss_changes":[1.5690312E14,5.001196E12,5.1867325E13,4.6003965E11,4.9700143E12,5.6788695E12,2.6181894E12,3.928511E11,3.7885785E11,0E0,1.550652E12,0E0,0E0,4.0137245E12,5.0148934E12,0E0,4.4639977E11,0E0,0E0,4.6115534E12,0E0,0E0,3.0887872E12,6.2647367E12,0E0,0E0,0E0,0E0,0E0,0E0,0E0,0E0,0E0],"parents":[2147483647,0,0,1,1,2,2,3,3,4,4,5,5,6,6,7,7,8,8,10,10,13,13,14,14,16,16,19,19,22,22,23,23],"right_children":[2,4,6,8,10,12,14,16,18,-1,20,-1,-1,22,24,-1,26,-1,-1,28,-1,-1,30,32,-1,-1,-1,-1,-1,-1,-1,-1,-1],"split_conditions":[2.021E3,2.016E3,4.464E4,2.014E3,1.27821E5,2.1655E4,8.1035E4,1.34732E5,2.42362E5,2.9151748E4,2.49459E5,1.391233E5,2.490894E5,2.023E3,1.10375E5,-3.9370574E4,1.84052E5,-4.3210586E4,-6.849543E4,2.30859E5,1.1102375E4,1.3964417E5,7.0243E4,2.023E3,9.485676E4,-9.705423E4,-5.9824E4,-2.7852475E4,-9.767735E4,3.602915E4,1.0199334E5,-3.6731758E4,7.022916E4],"split_indices":[0,0,1,0,1,1,1,1,1,0,1,0,0,0,1,0,1,0,0,1,0,0,1,0,0,0,0,0,0,0,0,0,0],"split_type":[0,0,0,0,0,0,0,0,0,0,0,0,0,0,0,0,0,0,0,0,0,0,0,0,0,0,0,0,0,0,0,0,0],"sum_hessian":[3.44E2,2.4E2,1.04E2,1.26E2,1.14E2,3.2E1,7.2E1,5.2E1,7.4E1,1.4E1,1E2,1.3E1,1.9E1,4.3E1,2.9E1,1.1E1,4.1E1,6.4E1,1E1,9.3E1,7E0,7E0,3.6E1,2.1E1,8E0,7E0,3.4E1,8.3E1,1E1,2.6E1,1E1,1.3E1,8E0],"tree_param":{"num_deleted":"0","num_feature":"3","num_nodes":"33","size_leaf_vector":"1"}},{"base_weights":[4.2522504E4,1.3928364E6,-2.3716536E5,9.11569E5,2.0108972E6,-3.6360947E5,3.3639403E5,1.4497448E5,6.69518E5,1.606203E5,2.4573186E5,-4.7205775E5,-2.3491138E5,1.9728395E5,8.369604E4,8.8665836E4,4.20065E4,-3.1649753E5,-5.1128634E5,-1.7691725E5,-6.1580605E4,-2.2753E5,4.9525862E5,-4.876282E4,-1.9433451E4,-9.644948E4,-4.6631945E4,-2.8060594E4,9.845776E3,-2.7922775E4,-1.6924709E4,-4.7333857E3,1.08701164E5],"categories":[],"categories_nodes":[],"categories_segments":[],"categories_sizes":[],"default_left":[0,0,0,0,0,0,0,0,0,0,0,0,0,0,0,0,0,0,0,0,0,0,0,0,0,0,0,0,0,0,0,0,0],"id":30,"left_children":[1,3,5,7,9,11,13,-1,15,-1,-1,17,19,21,-1,-1,-1,23,25,27,-1,29,31,-1,-1,-1,-1,-1,-1,-1,-1,-1,-1],"loss_changes":[1.2986991E14,1.5716628E13,2.079143E13,3.58868E12,5.696536E11,3.1550666E12,3.4558407E12,0E0,1.0358704E12,0E0,0E0,6.0708146E11,2.2988262E12,5.429206E12,0E0,0E0,0E0,4.906004E11,1.5677973E12,2.768742E12,0E0,6.9772247E9,8.0784717E12,0E0,0E0,0E0,0E0,0E0,0E0,0E0,0E0,0E0,0E0],"parents":[2147483647,0,0,1,1,2,2,3,3,4,4,5,5,6,6,8,8,11,11,12,12,13,13,17,17,18,18,19,19,21,21,22,22],"right_children":[2,4,6,8,10,12,14,-1,16,-1,-1,18,20,22,-1,-1,-1,24,26,28,-1,30,32,-1,-1,-1,-1,-1,-1,-1,-1,-1,-1],"split_conditions":[6.9171E4,2.025E3,2.02E3,2.023E3,2.1655E4,2.016E3,1.10375E5,1.4497448E5,5.6371E4,1.606203E5,2.4573186E5,1.34732E5,2.30859E5,2.023E3,8.369604E4,8.8665836E4,4.20065E4,1.0893E5,1.6371E5,2.019E3,-6.1580605E4,1.00143E5,7.1574E4,-4.876282E4,-1.9433451E4,-9.644948E4,-4.6631945E4,-2.8060594E4,9.845776E3,-2.7922775E4,-1.6924709E4,-4.7333857E3,1.08701164E5],"split_indices":[1,0,0,0,1,0,1,0,1,0,0,1,1,0,0,0,0,1,1,0,0,1,1,0,0,0,0,0,0,0,0,0,0],"split_type":[0,0,0,0,0,0,0,0,0,0,0,0,0,0,0,0,0,0,0,0,0,0,0,0,0,0,0,0,0,0,0,0,0],"sum_hessian":[3.42E2,5.8E1,2.84E2,3.4E1,2.4E1,2.33E2,5.1E1,9E0,2.5E1,1.5E1,9E0,1.25E2,1.08E2,4.1E1,1E1,1.2E1,1.3E1,2.7E1,9.8E1,9.5E1,1.3E1,1.7E1,2.4E1,1E1,1.7E1,7E0,9.1E1,6.9E1,2.6E1,7E0,1E1,1.3E1,1.1E1],"tree_param":{"num_deleted":"0","num_feature":"3","num_nodes":"33","size_leaf_vector":"1"}},{"base_weights":[6.3433934E4,1.1119846E6,-2.3356508E5,1.6288475E6,5.931153E5,-3.445923E5,6.31722E4,1.02415825E6,2.2102328E6,3.9920903E5,1.1951129E5,-4.2043512E5,-2.2230227E5,2.1524969E5,-8.1356E4,1.2752248E5,5.7560758E4,2.8003497E5,1.5801267E5,5.974628E5,-1.5179601E4,-3.022261E5,-4.5218697E5,-3.4535207E4,-3.0313447E5,1.1287451E5,4.463883E4,3.0226441E4,1.0230753E5,-5.526745E4,-1.9242547E4,-7.070112E4,-4.0453E4,3.3658613E4,-2.0714906E4,-2.323193E4,-3.4589625E4,2.6358363E4,-5.1924902E4],"categories":[],"categories_nodes":[],"categories_segments":[],"categories_sizes":[],"default_left":[0,0,0,0,0,0,0,0,0,0,0,0,0,0,0,0,0,0,0,0,0,0,0,0,0,0,0,0,0,0,0,0,0,0,0,0,0,0,0],"id":31,"left_children":[1,3,5,7,9,11,13,15,17,19,-1,21,23,25,-1,-1,-1,-1,-1,27,-1,29,31,33,35,37,-1,-1,-1,-1,-1,-1,-1,-1,-1,-1,-1,-1,-1],"loss_changes":[1.058306E14,1.9147736E13,8.75244E12,1.0743987E13,4.0754123E12,1.696575E12,9.9083E12,1.518294E12,2.2681538E12,3.4770958E12,0E0,3.0623452E11,1.143031E12,1.4403743E12,0E0,0E0,0E0,0E0,0E0,2.5804842E12,0E0,6.636343E11,8.191098E11,1.60718E12,8.013532E10,4.4238703E12,0E0,0E0,0E0,0E0,0E0,0E0,0E0,0E0,0E0,0E0,0E0,0E0,0E0],"parents":[2147483647,0,0,1,1,2,2,3,3,4,4,5,5,6,6,7,7,8,8,9,9,11,11,12,12,13,13,19,19,21,21,22,22,23,23,24,24,25,25],"right_children":[2,4,6,8,10,12,14,16,18,20,-1,22,24,26,-1,-1,-1,-1,-1,28,-1,30,32,34,36,38,-1,-1,-1,-1,-1,-1,-1,-1,-1,-1,-1,-1,-1],"split_conditions":[8.1035E4,4.464E4,2.019E3,2.1655E4,7.0243E4,2.016E3,2.17485E5,9.508E3,2.8709E4,6.9171E4,1.1951129E5,1.34732E5,2.017E3,1.3224E5,-8.1356E4,1.2752248E5,5.7560758E4,2.8003497E5,1.5801267E5,5.7806E4,-1.5179601E4,1.08812E5,1.88485E5,1.84243E5,2.018E3,1.17388E5,4.463883E4,3.0226441E4,1.0230753E5,-5.526745E4,-1.9242547E4,-7.070112E4,-4.0453E4,3.3658613E4,-2.0714906E4,-2.323193E4,-3.4589625E4,2.6358363E4,-5.1924902E4],"split_indices":[1,1,0,1,1,0,1,1,1,1,0,1,0,1,0,0,0,0,0,1,0,1,1,1,0,1,0,0,0,0,0,0,0,0,0,0,0,0,0],"split_type":[0,0,0,0,0,0,0,0,0,0,0,0,0,0,0,0,0,0,0,0,0,0,0,0,0,0,0,0,0,0,0,0,0,0,0,0,0,0,0],"sum_hessian":[3.38E2,7.4E1,2.64E2,3.6E1,3.8E1,1.92E2,7.2E1,1.9E1,1.7E1,3E1,8E0,1.17E2,7.5E1,6.2E1,1E1,1.1E1,8E0,7E0,1E1,2.2E1,8E0,2.7E1,9E1,2.3E1,5.2E1,4.4E1,1.8E1,1.4E1,8E0,7E0,2E1,1.2E1,7.8E1,7E0,1.6E1,2.2E1,3E1,3.6E1,8E0],"tree_param":{"num_deleted":"0","num_feature":"3","num_nodes":"39","size_leaf_vector":"1"}},{"base_weights":[6.678002E2,-1.8375247E5,1.34557E6,2.9942225E5,-2.9879538E5,1.8800604E6,7.9850744E5,-2.4898123E4,3.9214644E5,-3.4295288E5,-1.3871086E5,2.4672853E5,1.28297E5,2.1990223E4,1.1134318E5,7.0943125E5,1.3792531E5,-3.6327016E5,5.7053604E3,-4.275861E5,4.3791824E4,4.283382E4,9.079807E4,-1.1138671E4,4.5333906E4,-3.2983883E4,-6.6441555E4,-9.492E2,-6.359551E4,-1.4715317E4,4.56418E4],"categories":[],"categories_nodes":[],"categories_segments":[],"categories_sizes":[],"default_left":[0,0,0,0,0,0,0,0,0,0,0,0,0,0,0,0,0,0,0,0,0,0,0,0,0,0,0,0,0,0,0],"id":32,"left_children":[1,3,5,7,9,11,13,-1,15,17,19,-1,-1,-1,-1,21,23,25,-1,27,29,-1,-1,-1,-1,-1,-1,-1,-1,-1,-1],"loss_changes":[8.432849E13,1.6709627E13,1.0487144E13,3.0469521E12,1.6631107E12,3.847066E12,3.7639254E12,0E0,3.9351778E12,1.556739E12,2.8656319E12,0E0,0E0,0E0,0E0,8.389164E11,2.3309527E12,1.5930344E12,0E0,1.823439E12,2.745986E12,0E0,0E0,0E0,0E0,0E0,0E0,0E0,0E0,0E0,0E0],"parents":[2147483647,0,0,1,1,2,2,3,3,4,4,5,5,6,6,8,8,9,9,10,10,15,15,16,16,17,17,19,19,20,20],"right_children":[2,4,6,8,10,12,14,-1,16,18,20,-1,-1,-1,-1,22,24,26,-1,28,30,-1,-1,-1,-1,-1,-1,-1,-1,-1,-1],"split_conditions":[2.5E7,9.031E4,2.8013E4,4.309E4,7.5E6,5E7,7.0243E4,-2.4898123E4,6.9171E4,2.5498E5,1.3224E5,2.4672853E5,1.28297E5,2.1990223E4,1.1134318E5,5.7806E4,8.2313E4,2.42362E5,5.7053604E3,1.09557E5,1.2E7,4.283382E4,9.079807E4,-1.1138671E4,4.5333906E4,-3.2983883E4,-6.6441555E4,-9.492E2,-6.359551E4,-1.4715317E4,4.56418E4],"split_indices":[2,1,1,1,2,2,1,0,1,1,1,0,0,0,0,1,1,1,0,1,2,0,0,0,0,0,0,0,0,0,0],"split_type":[0,0,0,0,0,0,0,0,0,0,0,0,0,0,0,0,0,0,0,0,0,0,0,0,0,0,0,0,0,0,0],"sum_hessian":[3.38E2,2.98E2,4E1,5.7E1,2.41E2,1.9E1,2.1E1,8E0,4.9E1,1.88E2,5.3E1,8E0,1.1E1,8E0,1.3E1,2.1E1,2.8E1,1.79E2,9E0,2E1,3.3E1,1E1,1.1E1,1.6E1,1.2E1,1.63E2,1.6E1,7E0,1.3E1,2.3E1,1E1],"tree_param":{"num_deleted":"0","num_feature":"3","num_nodes":"31","size_leaf_vector":"1"}},{"base_weights":[5.2303617E4,1.082261E6,-1.7718434E5,6.743884E5,1.4552219E6,-2.2776708E5,4.12571E5,1.1725185E5,4.1731153E5,1.796527E5,2.49404E4,-3.447756E5,-1.30861805E5,-3.8545833E3,8.67192E4,5.587278E4,2.52904E4,-2.0160902E5,-3.787451E5,7.642013E4,-1.7015522E5,-3.1346693E4,-1.3711064E4,-7.893771E4,-3.351284E4,3.314285E4,-5.5860312E3,-1.0421963E4,-6.525182E4],"categories":[],"categories_nodes":[],"categories_segments":[],"categories_sizes":[],"default_left":[0,0,0,0,0,0,0,0,0,0,0,0,0,0,0,0,0,0,0,0,0,0,0,0,0,0,0,0,0],"id":33,"left_children":[1,3,5,7,9,11,13,-1,15,-1,-1,17,19,-1,-1,-1,-1,21,23,25,27,-1,-1,-1,-1,-1,-1,-1,-1],"loss_changes":[7.9136945E13,8.297969E12,8.267784E12,3.4804827E12,1.2310047E13,2.8235845E12,4.545345E12,0E0,3.7019347E11,0E0,0E0,4.7805838E11,1.1532774E12,0E0,0E0,0E0,0E0,1.30171994E11,1.3653047E12,7.9436395E11,3.6849713E12,0E0,0E0,0E0,0E0,0E0,0E0,0E0,0E0],"parents":[2147483647,0,0,1,1,2,2,3,3,4,4,5,5,6,6,8,8,11,11,12,12,17,17,18,18,19,19,20,20],"right_children":[2,4,6,8,10,12,14,-1,16,-1,-1,18,20,-1,-1,-1,-1,22,24,26,28,-1,-1,-1,-1,-1,-1,-1,-1],"split_conditions":[6.9171E4,2.025E3,2.023E3,2.023E3,2.8013E4,2.016E3,7.1574E4,1.1725185E5,5.3713E4,1.796527E5,2.49404E4,1.34732E5,2.017E3,-3.8545833E3,8.67192E4,5.587278E4,2.52904E4,1.0893E5,1.6371E5,1.84243E5,2.30859E5,-3.1346693E4,-1.3711064E4,-7.893771E4,-3.351284E4,3.314285E4,-5.5860312E3,-1.0421963E4,-6.525182E4],"split_indices":[1,0,0,0,1,0,1,0,1,0,0,1,0,0,0,0,0,1,1,1,1,0,0,0,0,0,0,0,0],"split_type":[0,0,0,0,0,0,0,0,0,0,0,0,0,0,0,0,0,0,0,0,0,0,0,0,0,0,0,0,0],"sum_hessian":[3.33E2,6E1,2.73E2,3E1,3E1,2.52E2,2.1E1,9E0,2.1E1,2.3E1,7E0,1.13E2,1.39E2,1.1E1,1E1,1E1,1.1E1,2.3E1,9E1,2.2E1,1.17E2,7E0,1.6E1,7E0,8.3E1,7E0,1.5E1,1.04E2,1.3E1],"tree_param":{"num_deleted":"0","num_feature":"3","num_nodes":"29","size_leaf_vector":"1"}},{"base_weights":[-1.3297798E3,-1.7055866E5,1.1242699E6,2.3479573E5,-2.8380316E5,7.3400094E5,1.7369738E5,-2.6633701E4,3.4592644E5,-3.0106384E5,1.6198694E4,4.9479684E4,8.596744E5,8.314046E4,2.2497975E5,-2.7683184E5,-5.52236E4,5.770009E4,1.0468284E5,1.004963E4,6.257255E4,-2.9962475E4,-7.9833345E3],"categories":[],"categories_nodes":[],"categories_segments":[],"categories_sizes":[],"default_left":[0,0,0,0,0,0,0,0,0,0,0,0,0,0,0,0,0,0,0,0,0,0,0],"id":34,"left_children":[1,3,5,7,9,11,-1,-1,13,15,-1,-1,17,-1,19,21,-1,-1,-1,-1,-1,-1,-1],"loss_changes":[6.2670498E13,1.3195222E13,9.007188E12,3.6006807E12,1.7723682E12,4.1636017E11,0E0,0E0,2.8662332E12,1.1617866E12,0E0,0E0,2.9533772E11,0E0,2.0822242E12,8.696229E11,0E0,0E0,0E0,0E0,0E0,0E0,0E0],"parents":[2147483647,0,0,1,1,2,2,3,3,4,4,5,5,8,8,9,9,12,12,14,14,15,15],"right_children":[2,4,6,8,10,12,-1,-1,14,16,-1,-1,18,-1,20,22,-1,-1,-1,-1,-1,-1,-1],"split_conditions":[2.5E7,1.0425E5,3.66E7,7.5E6,2.5498E5,2.87E7,1.7369738E5,-2.6633701E4,4.309E4,2.42362E5,1.6198694E4,4.9479684E4,3.8422E4,8.314046E4,8.2313E4,2.14014E5,-5.52236E4,5.770009E4,1.0468284E5,1.004963E4,6.257255E4,-2.9962475E4,-7.9833345E3],"split_indices":[2,1,2,2,1,2,0,0,1,1,0,0,1,0,1,1,0,0,0,0,0,0,0],"split_type":[0,0,0,0,0,0,0,0,0,0,0,0,0,0,0,0,0,0,0,0,0,0,0],"sum_hessian":[3.27E2,2.85E2,4.2E1,6.2E1,2.23E2,2.7E1,1.5E1,1.1E1,5.1E1,2.15E2,8E0,1.1E1,1.6E1,9E0,4.2E1,1.98E2,1.7E1,8E0,8E0,3.3E1,9E0,1.77E2,2.1E1],"tree_param":{"num_deleted":"0","num_feature":"3","num_nodes":"23","size_leaf_vector":"1"}},{"base_weights":[5.9844766E3,-2.1375338E5,5.519393E5,-3.3587697E5,-7.3995234E4,9.558877E5,2.3752319E5,-7.045138E4,-3.0938528E5,1.8725981E5,-1.1464955E5,6.113265E5,1.7950602E5,1.4529669E5,7.842485E4,-1.07436734E5,-3.4266488E5,-1.5725768E4,5.514345E4,9.211445E4,-1.6683961E5,8.209864E5,1.3643164E4,-6.1843E4,2.8400638E5,-6.59313E3,-1.3819851E4,-7.051067E4,-3.0588281E4,-2.13355E3,2.7913756E4,-1.0212368E4,-4.97498E4,4.1538316E4,1.360704E5,-1.313655E4,3.6842215E4],"categories":[],"categories_nodes":[],"categories_segments":[],"categories_sizes":[],"default_left":[0,0,0,0,0,0,0,0,0,0,0,0,0,0,0,0,0,0,0,0,0,0,0,0,0,0,0,0,0,0,0,0,0,0,0,0,0],"id":35,"left_children":[1,3,5,7,9,11,13,-1,15,17,19,21,-1,23,-1,25,27,-1,-1,29,31,33,-1,-1,35,-1,-1,-1,-1,-1,-1,-1,-1,-1,-1,-1,-1],"loss_changes":[4.138661E13,4.173817E12,1.2346735E13,1.06135604E12,1.253522E12,1.133592E13,2.7601378E12,0E0,7.9656124E11,2.0941499E12,1.1052619E12,3.0741155E12,0E0,5.4724526E12,0E0,1.5147221E10,1.1974434E12,0E0,0E0,4.515286E11,1.6825018E12,4.2508338E12,0E0,0E0,1.5561473E12,0E0,0E0,0E0,0E0,0E0,0E0,0E0,0E0,0E0,0E0,0E0,0E0],"parents":[2147483647,0,0,1,1,2,2,3,3,4,4,5,5,6,6,8,8,9,9,10,10,11,11,13,13,15,15,16,16,19,19,20,20,21,21,24,24],"right_children":[2,4,6,8,10,12,14,-1,16,18,20,22,-1,24,-1,26,28,-1,-1,30,32,34,-1,-1,36,-1,-1,-1,-1,-1,-1,-1,-1,-1,-1,-1,-1],"split_conditions":[2.021E3,2.016E3,5.6371E4,1.08812E5,1.27821E5,3.8422E4,1.09557E5,-7.045138E4,1.34732E5,2.019E3,2.017E3,2.8013E4,1.7950602E5,2.022E3,7.842485E4,2.014E3,1.6371E5,-1.5725768E4,5.514345E4,1.98837E5,2.30859E5,1.206E4,1.3643164E4,-6.1843E4,5.7806E4,-6.59313E3,-1.3819851E4,-7.051067E4,-3.0588281E4,-2.13355E3,2.7913756E4,-1.0212368E4,-4.97498E4,4.1538316E4,1.360704E5,-1.313655E4,3.6842215E4],"split_indices":[0,0,1,1,1,1,1,0,1,0,0,1,0,0,0,0,1,0,0,1,1,1,0,0,1,0,0,0,0,0,0,0,0,0,0,0,0],"split_type":[0,0,0,0,0,0,0,0,0,0,0,0,0,0,0,0,0,0,0,0,0,0,0,0,0,0,0,0,0,0,0,0,0,0,0,0,0],"sum_hessian":[3.43E2,2.45E2,9.8E1,1.3E2,1.15E2,4.2E1,5.6E1,7E0,1.23E2,1.5E1,1E2,3.1E1,1.1E1,4.9E1,7E0,1.8E1,1.05E2,8E0,7E0,2E1,8E1,2.1E1,1E1,7E0,4.2E1,9E0,9E0,8E0,9.7E1,1.3E1,7E0,6.8E1,1.2E1,1.3E1,8E0,7E0,3.5E1],"tree_param":{"num_deleted":"0","num_feature":"3","num_nodes":"37","size_leaf_vector":"1"}},{"base_weights":[2.3703232E4,-1.0853242E5,1.0369021E6,-2.3271017E5,1.1646605E5,7.420185E5,1.4144212E5,-3.6559438E5,-1.8240955E5,3.8507535E4,2.9011522E5,9.711274E4,4.3198234E4,-7.287196E4,-2.5039686E5,-4.2681812E4,-2.2104808E5,1.2763439E5,-2.7308025E4,5.6009312E4,3.4017332E4,-3.2618295E4,-1.5451234E4,-2.3911586E4,1.0430548E4,-2.761802E4,-1.2389816E4,1.185075E2,3.7415133E4,5.381778E2,5.6387603E3],"categories":[],"categories_nodes":[],"categories_segments":[],"categories_sizes":[],"default_left":[0,0,0,0,0,0,0,0,0,0,0,0,0,0,0,0,0,0,0,0,0,0,0,0,0,0,0,0,0,0,0],"id":36,"left_children":[1,3,5,7,9,11,-1,13,15,17,19,-1,-1,-1,21,23,25,27,-1,-1,29,-1,-1,-1,-1,-1,-1,-1,-1,-1,-1],"loss_changes":[4.5264144E13,8.381104E12,3.2921176E12,1.2233537E12,1.4373335E12,1.2852595E12,0E0,1.9927495E12,7.5720557E11,2.1176671E12,2.262593E12,0E0,0E0,0E0,2.4753576E11,9.488869E11,5.603066E11,1.8386983E12,0E0,0E0,1.1227064E10,0E0,0E0,0E0,0E0,0E0,0E0,0E0,0E0,0E0,0E0],"parents":[2147483647,0,0,1,1,2,2,3,3,4,4,5,5,7,7,8,8,9,9,10,10,14,14,15,15,16,16,17,17,20,20],"right_children":[2,4,6,8,10,12,-1,14,16,18,20,-1,-1,-1,22,24,26,28,-1,-1,30,-1,-1,-1,-1,-1,-1,-1,-1,-1,-1],"split_conditions":[2.5E7,2.019E3,3.66E7,2.014E3,2.2E7,2.025E3,1.4144212E5,3E6,4.8E6,2.023E3,2.25E7,9.711274E4,4.3198234E4,-7.287196E4,3.8E6,2.015E3,6.8E6,1.5E7,-2.7308025E4,5.6009312E4,2.4E7,-3.2618295E4,-1.5451234E4,-2.3911586E4,1.0430548E4,-2.761802E4,-1.2389816E4,1.185075E2,3.7415133E4,5.381778E2,5.6387603E3],"split_indices":[2,0,2,0,2,0,0,2,2,0,2,0,0,0,2,0,2,2,0,0,2,0,0,0,0,0,0,0,0,0,0],"split_type":[0,0,0,0,0,0,0,0,0,0,0,0,0,0,0,0,0,0,0,0,0,0,0,0,0,0,0,0,0,0,0],"sum_hessian":[3.36E2,2.98E2,3.8E1,1.92E2,1.06E2,2.3E1,1.5E1,5.1E1,1.41E2,7.4E1,3.2E1,1.2E1,1.1E1,1.1E1,4E1,3.1E1,1.1E2,5.8E1,1.6E1,1.5E1,1.7E1,2.1E1,1.9E1,1.3E1,1.8E1,6.9E1,4.1E1,3.9E1,1.9E1,8E0,9E0],"tree_param":{"num_deleted":"0","num_feature":"3","num_nodes":"31","size_leaf_vector":"1"}},{"base_weights":[2.1218115E4,6.0898594E5,-1.3998934E5,9.3472044E5,3.3317366E5,3.1904137E4,-1.8126484E5,3.8802412E5,1.5284414E5,-9.975167E3,5.008264E5,-1.463813E5,8.801674E4,-5.5736438E4,-1.5956453E5,5.761904E4,8.07925E3,7.30087E4,2.6892175E5,-2.4449488E5,3.134275E4,-1.754454E5,1.9519232E4,-2.1799045E4,7.830827E4,-1.2553303E4,-3.8535137E4,-1.4860885E4,-4.4138395E4],"categories":[],"categories_nodes":[],"categories_segments":[],"categories_sizes":[],"default_left":[0,0,0,0,0,0,0,0,0,0,0,0,0,0,0,0,0,0,0,0,0,0,0,0,0,0,0,0,0],"id":37,"left_children":[1,3,5,7,9,11,13,15,-1,-1,17,19,-1,-1,21,-1,-1,-1,23,25,-1,27,-1,-1,-1,-1,-1,-1,-1],"loss_changes":[3.1258843E13,6.067327E12,1.8433851E12,9.793652E12,2.9532032E12,7.841722E12,1.6168114E12,9.940393E11,0E0,0E0,1.3454955E12,2.0165114E12,0E0,0E0,1.1553813E12,0E0,0E0,0E0,4.1763246E12,5.548613E11,0E0,1.2975509E12,0E0,0E0,0E0,0E0,0E0,0E0,0E0],"parents":[2147483647,0,0,1,1,2,2,3,3,4,4,5,5,6,6,7,7,10,10,11,11,14,14,18,18,19,19,21,21],"right_children":[2,4,6,8,10,12,14,16,-1,-1,18,20,-1,-1,22,-1,-1,-1,24,26,-1,28,-1,-1,-1,-1,-1,-1,-1],"split_conditions":[7.6871E4,4.309E4,1.27821E5,2.1655E4,5.7806E4,1.10375E5,1.3224E5,9.508E3,1.5284414E5,-9.975167E3,6.9171E4,2.023E3,8.801674E4,-5.5736438E4,2.5498E5,5.761904E4,8.07925E3,7.30087E4,7.0243E4,2.021E3,3.134275E4,2.42362E5,1.9519232E4,-2.1799045E4,7.830827E4,-1.2553303E4,-3.8535137E4,-1.4860885E4,-4.4138395E4],"split_indices":[1,1,1,1,1,1,1,1,0,0,1,0,0,0,1,0,0,0,1,0,0,1,0,0,0,0,0,0,0],"split_type":[0,0,0,0,0,0,0,0,0,0,0,0,0,0,0,0,0,0,0,0,0,0,0,0,0,0,0,0,0],"sum_hessian":[3.28E2,7E1,2.58E2,3.1E1,3.9E1,5E1,2.08E2,1.7E1,1.4E1,1.1E1,2.8E1,4.2E1,8E0,1E1,1.98E2,1E1,7E0,1.3E1,1.5E1,3.5E1,7E0,1.9E2,8E0,8E0,7E0,2E1,1.5E1,1.74E2,1.6E1],"tree_param":{"num_deleted":"0","num_feature":"3","num_nodes":"29","size_leaf_vector":"1"}},{"base_weights":[3.8075664E4,-1.3094931E5,8.049911E5,-1.9863872E5,5.7423527E4,1.2932728E6,3.515015E5,-2.128012E5,1.7494207E4,1.5732902E5,-1.0302738E5,6.021457E4,1.8171792E5,7.759358E4,6.750181E4,-1.9299697E5,-4.1114027E4,1.5059617E4,5.17316E4,2.059742E5,-6.2739125E4,2.6768623E4,-8.499073E3,-2.9168344E4,-1.3783655E4,2.2379412E4,-4.7345405E3,-7.988825E3,3.7938465E4],"categories":[],"categories_nodes":[],"categories_segments":[],"categories_sizes":[],"default_left":[0,0,0,0,0,0,0,0,0,0,0,0,0,0,0,0,0,0,0,0,0,0,0,0,0,0,0,0,0],"id":38,"left_children":[1,3,5,7,9,11,13,15,-1,17,19,-1,-1,21,-1,23,-1,25,-1,27,-1,-1,-1,-1,-1,-1,-1,-1,-1],"loss_changes":[4.379E13,3.5433915E12,1.3052682E13,1.1165573E12,1.2024237E12,9.406285E12,2.8718772E12,6.944572E11,0E0,2.3481056E12,4.8280754E12,0E0,0E0,6.099664E11,0E0,9.450852E11,0E0,4.534824E11,0E0,9.7216764E11,0E0,0E0,0E0,0E0,0E0,0E0,0E0,0E0,0E0],"parents":[2147483647,0,0,1,1,2,2,3,3,4,4,5,5,6,6,7,7,9,9,10,10,13,13,15,15,17,17,19,19],"right_children":[2,4,6,8,10,12,14,16,-1,18,20,-1,-1,22,-1,24,-1,26,-1,28,-1,-1,-1,-1,-1,-1,-1,-1,-1],"split_conditions":[2.2E7,8E6,5.6371E4,2.5498E5,1.7E7,2.1655E4,2.5E7,2.42362E5,1.7494207E4,1.5E7,6.2692E4,6.021457E4,1.8171792E5,7.1574E4,6.750181E4,4.5E6,-4.1114027E4,8.9E6,5.17316E4,1.8E7,-6.2739125E4,2.6768623E4,-8.499073E3,-2.9168344E4,-1.3783655E4,2.2379412E4,-4.7345405E3,-7.988825E3,3.7938465E4],"split_indices":[2,2,1,1,2,1,2,1,0,2,1,0,0,1,0,2,0,2,0,2,0,0,0,0,0,0,0,0,0],"split_type":[0,0,0,0,0,0,0,0,0,0,0,0,0,0,0,0,0,0,0,0,0,0,0,0,0,0,0,0,0],"sum_hessian":[3.36E2,2.76E2,6E1,2.03E2,7.3E1,2.8E1,3.2E1,1.96E2,7E0,4.5E1,2.8E1,1.3E1,1.5E1,1.8E1,1.4E1,1.8E2,1.6E1,3.3E1,1.2E1,1.8E1,1E1,8E0,1E1,6.3E1,1.17E2,7E0,2.6E1,7E0,1.1E1],"tree_param":{"num_deleted":"0","num_feature":"3","num_nodes":"29","size_leaf_vector":"1"}},{"base_weights":[1.3476994E4,-1.4177842E5,5.20465E5,-1.9790414E5,5.5708656E4,8.5948194E5,3.6352438E5,-5.937272E4,-1.7735598E5,1.6282189E5,-4.425831E4,4.643548E4,1.2483156E5,4.4671234E5,-1.60247E4,-2.766357E5,-1.369022E5,4.4762086E4,4.935945E4,5.263269E5,1.4554546E4,-2.051682E3,-3.371279E4,-3.7264465E3,-1.6216844E4,2.6546936E4,-5.33553E4,7.132972E4,4.3758504E4],"categories":[],"categories_nodes":[],"categories_segments":[],"categories_sizes":[],"default_left":[0,0,0,0,0,0,0,0,0,0,0,0,0,0,0,0,0,0,0,0,0,0,0,0,0,0,0,0,0],"id":39,"left_children":[1,3,5,7,9,11,13,-1,15,17,-1,-1,-1,19,-1,21,23,25,-1,27,-1,-1,-1,-1,-1,-1,-1,-1,-1],"loss_changes":[2.5183123E13,2.7266305E12,3.6779705E12,1.4481836E12,3.0076125E12,2.9540315E12,2.380873E12,0E0,6.970996E11,1.7742492E12,0E0,0E0,0E0,1.0263504E12,0E0,7.987292E11,3.2626285E11,4.6089833E12,0E0,2.8518646E11,0E0,0E0,0E0,0E0,0E0,0E0,0E0,0E0,0E0],"parents":[2147483647,0,0,1,1,2,2,3,3,4,4,5,5,6,6,8,8,9,9,13,13,15,15,16,16,17,17,19,19],"right_children":[2,4,6,8,10,12,14,-1,16,18,-1,-1,-1,20,-1,22,24,26,-1,28,-1,-1,-1,-1,-1,-1,-1,-1,-1],"split_conditions":[2.022E3,2.019E3,2.8013E4,9.3739E4,2.17485E5,1.206E4,2.025E3,-5.937272E4,2.014E3,1.3224E5,-4.425831E4,4.643548E4,1.2483156E5,7.6871E4,-1.60247E4,1.34732E5,1.77565E5,1.17388E5,4.935945E4,5.6371E4,1.4554546E4,-2.051682E3,-3.371279E4,-3.7264465E3,-1.6216844E4,2.6546936E4,-5.33553E4,7.132972E4,4.3758504E4],"split_indices":[0,0,1,1,1,1,0,0,0,1,0,0,0,1,0,1,1,1,0,1,0,0,0,0,0,0,0,0,0],"split_type":[0,0,0,0,0,0,0,0,0,0,0,0,0,0,0,0,0,0,0,0,0,0,0,0,0,0,0,0,0],"sum_hessian":[3.18E2,2.44E2,7.4E1,1.9E2,5.4E1,2.2E1,5.2E1,8E0,1.82E2,4.5E1,9E0,1.2E1,1E1,4.5E1,7E0,5.1E1,1.31E2,3.4E1,1.1E1,3.5E1,1E1,1E1,4.1E1,2.7E1,1.04E2,2.5E1,9E0,9E0,2.6E1],"tree_param":{"num_deleted":"0","num_feature":"3","num_nodes":"29","size_leaf_vector":"1"}},{"base_weights":[3.6611203E4,7.203002E5,-5.0444137E4,1.5010389E5,1.252586E6,-1.4880622E5,1.2784927E5,4.061676E4,-1.20970205E4,1.5231911E5,9.173104E4,-2.1501916E5,-1.1451874E5,1.6936936E5,-3.9156293E4,-2.8213E5,-1.6648608E5,-6.000966E4,-1.9093533E5,1.24945516E5,3.573993E4,-1.45664E4,-5.0855137E4,-9.479726E3,-2.298506E4,1.7826906E4,-1.1761902E4,-1.0000361E4,-2.186817E4,1.763327E4,-2.52398E4],"categories":[],"categories_nodes":[],"categories_segments":[],"categories_sizes":[],"default_left":[0,0,0,0,0,0,0,0,0,0,0,0,0,0,0,0,0,0,0,0,0,0,0,0,0,0,0,0,0,0,0],"id":40,"left_children":[1,3,5,7,9,11,13,-1,-1,-1,-1,15,17,19,-1,21,23,25,27,29,-1,-1,-1,-1,-1,-1,-1,-1,-1,-1,-1],"loss_changes":[1.9498975E13,1.1041757E13,5.1223824E12,1.3679667E12,3.26579E11,4.0218814E11,2.309187E12,0E0,0E0,0E0,0E0,1.5822619E11,5.1338215E11,7.6558683E11,0E0,6.9839264E11,1.553694E11,1.0504992E12,1.0932847E11,1.5957556E12,0E0,0E0,0E0,0E0,0E0,0E0,0E0,0E0,0E0,0E0,0E0],"parents":[2147483647,0,0,1,1,2,2,3,3,4,4,5,5,6,6,11,11,12,12,13,13,15,15,16,16,17,17,18,18,19,19],"right_children":[2,4,6,8,10,12,14,-1,-1,-1,-1,16,18,20,-1,22,24,26,28,30,-1,-1,-1,-1,-1,-1,-1,-1,-1,-1,-1],"split_conditions":[4.464E4,2.1655E4,2.019E3,9.508E3,2.8709E4,2.015E3,2.17485E5,4.061676E4,-1.20970205E4,1.5231911E5,9.173104E4,1.6371E5,2.017E3,1.3224E5,-3.9156293E4,1.34732E5,1.9408E5,1.86017E5,1.77565E5,1.17388E5,3.573993E4,-1.45664E4,-5.0855137E4,-9.479726E3,-2.298506E4,1.7826906E4,-1.1761902E4,-1.0000361E4,-2.186817E4,1.763327E4,-2.52398E4],"split_indices":[1,1,0,1,1,0,1,0,0,0,0,1,0,1,0,1,1,1,1,1,0,0,0,0,0,0,0,0,0,0,0],"split_type":[0,0,0,0,0,0,0,0,0,0,0,0,0,0,0,0,0,0,0,0,0,0,0,0,0,0,0,0,0,0,0],"sum_hessian":[3.26E2,3.6E1,2.9E2,1.8E1,1.8E1,1.87E2,1.03E2,9E0,9E0,8E0,1E1,6.2E1,1.25E2,9.6E1,7E0,2.4E1,3.8E1,7.4E1,5.1E1,7.9E1,1.7E1,1.6E1,8E0,1.9E1,1.9E1,1.4E1,6E1,1.3E1,3.8E1,7E1,9E0],"tree_param":{"num_deleted":"0","num_feature":"3","num_nodes":"31","size_leaf_vector":"1"}},{"base_weights":[1.1946052E4,4.3122047E5,-1.0386833E5,2.344824E5,7.2841806E5,-1.8279347E5,-3.863988E4,-1.2474487E4,3.021577E5,1.056318E6,-2.64359E4,-2.3185098E5,-1.4114788E5,1.418108E5,-7.1272625E4,4.776675E4,2.1614786E5,7.166146E4,1.2796864E5,-5.454625E2,-2.896395E5,-1.1347658E5,-2.7421951E4,3.396998E4,3.4003125E4,-2.8712832E4,-4.0970004E4,6.7652734E3,4.7667383E4,-4.423599E4,-2.2995576E4,-1.8786707E4,-6.2797197E3,-2.1819875E4,2.5440443E4,-1.3991534E4,7.9150156E3],"categories":[],"categories_nodes":[],"categories_segments":[],"categories_sizes":[],"default_left":[0,0,0,0,0,0,0,0,0,0,0,0,0,0,0,0,0,0,0,0,0,0,0,0,0,0,0,0,0,0,0,0,0,0,0,0,0],"id":41,"left_children":[1,3,5,7,9,11,13,-1,15,17,-1,19,21,23,25,-1,27,-1,-1,-1,29,31,-1,-1,33,35,-1,-1,-1,-1,-1,-1,-1,-1,-1,-1,-1],"loss_changes":[1.6603071E13,4.1559848E12,1.3726447E12,1.1559898E12,9.719663E12,2.144815E11,8.8162016E11,0E0,4.854802E11,7.5229666E11,0E0,7.0490784E11,2.1927664E11,4.7913006E11,1.8030647E12,0E0,1.0509829E12,0E0,0E0,0E0,2.902183E11,2.0686622E11,0E0,0E0,9.4488075E11,1.3664681E12,0E0,0E0,0E0,0E0,0E0,0E0,0E0,0E0,0E0,0E0,0E0],"parents":[2147483647,0,0,1,1,2,2,3,3,4,4,5,5,6,6,8,8,9,9,11,11,12,12,13,13,14,14,16,16,20,20,21,21,24,24,25,25],"right_children":[2,4,6,8,10,12,14,-1,16,18,-1,20,22,24,26,-1,28,-1,-1,-1,30,32,-1,-1,34,36,-1,-1,-1,-1,-1,-1,-1,-1,-1,-1,-1],"split_conditions":[7.6871E4,2.025E3,2.016E3,4.2186E4,2.8013E4,2.014E3,2.017E3,-1.2474487E4,5.6371E4,9.508E3,-2.64359E4,1.34732E5,2.42362E5,1.84243E5,2.30859E5,4.776675E4,7.0243E4,7.166146E4,1.2796864E5,-5.454625E2,1.88485E5,1.86107E5,-2.7421951E4,3.396998E4,1.98837E5,2.019E3,-4.0970004E4,6.7652734E3,4.7667383E4,-4.423599E4,-2.2995576E4,-1.8786707E4,-6.2797197E3,-2.1819875E4,2.5440443E4,-1.3991534E4,7.9150156E3],"split_indices":[1,0,0,1,1,0,0,0,1,1,0,1,1,1,1,0,1,0,0,0,1,1,0,0,1,0,0,0,0,0,0,0,0,0,0,0,0],"split_type":[0,0,0,0,0,0,0,0,0,0,0,0,0,0,0,0,0,0,0,0,0,0,0,0,0,0,0,0,0,0,0,0,0,0,0,0,0],"sum_hessian":[3.4E2,7.3E1,2.67E2,4.5E1,2.8E1,1.2E2,1.47E2,7E0,3.8E1,2.1E1,7E0,5.3E1,6.7E1,2.2E1,1.25E2,1.1E1,2.7E1,1E1,1.1E1,1.1E1,4.2E1,5.7E1,1E1,7E0,1.5E1,1.12E2,1.3E1,1.8E1,9E0,1E1,3.2E1,2.2E1,3.5E1,7E0,8E0,5.5E1,5.7E1],"tree_param":{"num_deleted":"0","num_feature":"3","num_nodes":"37","size_leaf_vector":"1"}},{"base_weights":[-9.186943E3,4.037113E5,-9.0591836E4,-8.115552E4,6.4828044E5,-1.4521455E5,3.3787438E4,2.687455E4,-3.3681836E4,1.1335235E5,2.825339E5,-2.8342895E4,-1.349394E5,7.89181E4,-3.306366E4,9.738214E3,5.5972758E4,-1.049496E4,-1.5297681E5,-1.767158E5,1.6143875E5,-1.7667274E3,-4.5356003E2,-2.3769193E4,-1.1722001E4,-2.166116E4,-1.2438183E4,3.6668242E4,8.0314736E3],"categories":[],"categories_nodes":[],"categories_segments":[],"categories_sizes":[],"default_left":[0,0,0,0,0,0,0,0,0,0,0,0,0,0,0,0,0,0,0,0,0,0,0,0,0,0,0,0,0],"id":42,"left_children":[1,3,5,7,9,11,13,-1,-1,-1,15,-1,17,19,-1,-1,-1,21,23,25,27,-1,-1,-1,-1,-1,-1,-1,-1],"loss_changes":[1.1632692E13,6.8118674E12,1.9683525E12,1.8796519E12,6.423828E12,2.4720913E11,1.4898493E12,0E0,0E0,0E0,1.1259192E12,0E0,4.2263406E11,1.7161349E12,0E0,0E0,0E0,9.884283E8,4.719457E11,1.4815592E10,9.862114E11,0E0,0E0,0E0,0E0,0E0,0E0,0E0,0E0],"parents":[2147483647,0,0,1,1,2,2,3,3,4,4,5,5,6,6,10,10,12,12,13,13,17,17,18,18,19,19,20,20],"right_children":[2,4,6,8,10,12,14,-1,-1,-1,16,-1,18,20,-1,-1,-1,22,24,26,28,-1,-1,-1,-1,-1,-1,-1,-1],"split_conditions":[6.9171E4,2.1655E4,2.019E3,9.508E3,4.464E4,1.08812E5,2.17485E5,2.687455E4,-3.3681836E4,1.1335235E5,5.7806E4,-2.8342895E4,1.53781E5,8.2313E4,-3.306366E4,9.738214E3,5.5972758E4,1.32744E5,2.014E3,7.0243E4,9.3943E4,-1.7667274E3,-4.5356003E2,-2.3769193E4,-1.1722001E4,-2.166116E4,-1.2438183E4,3.6668242E4,8.0314736E3],"split_indices":[1,1,0,1,1,1,1,0,0,0,1,0,1,1,0,0,0,1,0,1,1,0,0,0,0,0,0,0,0],"split_type":[0,0,0,0,0,0,0,0,0,0,0,0,0,0,0,0,0,0,0,0,0,0,0,0,0,0,0,0,0],"sum_hessian":[3.44E2,5.6E1,2.88E2,1.9E1,3.7E1,2E2,8.8E1,8E0,1.1E1,1.5E1,2.2E1,1.2E1,1.88E2,7.9E1,9E0,1.4E1,8E0,2.4E1,1.64E2,1.9E1,6E1,1E1,1.4E1,4.7E1,1.17E2,9E0,1E1,1.6E1,4.4E1],"tree_param":{"num_deleted":"0","num_feature":"3","num_nodes":"29","size_leaf_vector":"1"}},{"base_weights":[8.271499E3,3.194337E5,-1.15430875E5,-1.2019207E4,3.9886347E5,-1.26087016E5,1.6498232E4,1.15236125E5,2.8552288E5,-2.74098E5,-1.07144625E5,-4.0031223E4,3.8047438E5,-1.5619721E4,-3.306549E4,6.970034E4,-1.3958586E5,9.482068E4,2.3943E4,-4.348909E4,-1.2127267E4],"categories":[],"categories_nodes":[],"categories_segments":[],"categories_sizes":[],"default_left":[0,0,0,0,0,0,0,0,0,0,0,0,0,0,0,0,0,0,0,0,0],"id":43,"left_children":[1,3,5,-1,7,9,-1,-1,11,13,15,-1,17,-1,-1,-1,19,-1,-1,-1,-1],"loss_changes":[1.2585101E13,3.2954426E12,7.2002254E11,0E0,6.4177224E12,6.042642E11,0E0,0E0,4.710783E12,1.1505513E11,5.366977E12,0E0,4.737651E12,0E0,0E0,0E0,1.0018158E12,0E0,0E0,0E0,0E0],"parents":[2147483647,0,0,1,1,2,2,4,4,5,5,8,8,9,9,10,10,12,12,16,16],"right_children":[2,4,6,-1,8,10,-1,-1,12,14,16,-1,18,-1,-1,-1,20,-1,-1,-1,-1],"split_conditions":[9.031E4,1.206E4,2.5498E5,-1.2019207E4,2.8013E4,1.10375E5,1.6498232E4,1.15236125E5,3.8422E4,2.015E3,1.27821E5,-4.0031223E4,5.6371E4,-1.5619721E4,-3.306549E4,6.970034E4,1.3224E5,9.482068E4,2.3943E4,-4.348909E4,-1.2127267E4],"split_indices":[1,1,1,0,1,1,0,0,1,0,1,0,1,0,0,0,1,0,0,0,0],"split_type":[0,0,0,0,0,0,0,0,0,0,0,0,0,0,0,0,0,0,0,0,0],"sum_hessian":[3.25E2,9.2E1,2.33E2,1.4E1,7.8E1,2.25E2,8E0,9E0,6.9E1,2.4E1,2.01E2,8E0,6.1E1,9E0,1.5E1,7E0,1.94E2,1.1E1,5E1,1E1,1.84E2],"tree_param":{"num_deleted":"0","num_feature":"3","num_nodes":"21","size_leaf_vector":"1"}},{"base_weights":[1.4670666E4,-3.0552055E4,5.237317E5,-6.83374E4,-9.829426E3,6.0318934E4,3.8076535E4,-9.5868516E4,1.5791508E5,-1.6767708E5,-6.198865E4,1.9525605E5,-2.8191014E4,-1.3402624E4,-3.225287E4,-7.7929126E3,1.6098094E4,1.2804011E4,4.5700645E4],"categories":[],"categories_nodes":[],"categories_segments":[],"categories_sizes":[],"default_left":[0,0,0,0,0,0,0,0,0,0,0,0,0,0,0,0,0,0,0],"id":44,"left_children":[1,3,5,-1,7,-1,-1,9,11,13,15,17,-1,-1,-1,-1,-1,-1,-1],"loss_changes":[7.3367185E12,3.9570417E12,6.5680703E10,0E0,4.1284256E12,0E0,0E0,4.494173E11,1.6481237E12,2.6942584E11,4.745964E11,1.524927E12,0E0,0E0,0E0,0E0,0E0,0E0,0E0],"parents":[2147483647,0,0,1,1,2,2,4,4,7,7,8,8,9,9,10,10,11,11],"right_children":[2,4,6,-1,8,-1,-1,10,12,14,16,18,-1,-1,-1,-1,-1,-1,-1],"split_conditions":[2.025E3,4.309E4,1.4601E4,-6.83374E4,2.019E3,6.0318934E4,3.8076535E4,2.015E3,2.17485E5,2.05972E5,2.5498E5,1.3224E5,-2.8191014E4,-1.3402624E4,-3.225287E4,-7.7929126E3,1.6098094E4,1.2804011E4,4.5700645E4],"split_indices":[0,1,1,0,0,0,0,0,1,1,1,1,0,0,0,0,0,0,0],"split_type":[0,0,0,0,0,0,0,0,0,0,0,0,0,0,0,0,0,0,0],"sum_hessian":[3.17E2,2.92E2,2.5E1,8E0,2.84E2,1.4E1,1.1E1,1.88E2,9.6E1,5.9E1,1.29E2,8.9E1,7E0,5E1,9E0,1.21E2,8E0,7.2E1,1.7E1],"tree_param":{"num_deleted":"0","num_feature":"3","num_nodes":"19","size_leaf_vector":"1"}},{"base_weights":[1.0014721E4,-5.019375E4,6.037378E5,-1.2811255E5,8.66289E4,3.7226272E5,8.4169055E4,-4.158098E5,-9.910118E4,1.09492766E5,-7.470657E3,5.568698E4,9.497101E3,-1.3785078E4,-5.9659605E4,-1.12875516E5,-1.304208E4,5.800028E4,2.8818056E5,-8.493341E3,-1.517931E4,-4.765445E3,6.049294E2,2.217998E3,1.3319425E4,6.1308375E4,4.107985E3],"categories":[],"categories_nodes":[],"categories_segments":[],"categories_sizes":[],"default_left":[0,0,0,0,0,0,0,0,0,0,0,0,0,0,0,0,0,0,0,0,0,0,0,0,0,0,0],"id":45,"left_children":[1,3,5,7,9,11,-1,13,15,17,-1,-1,-1,-1,-1,19,21,23,25,-1,-1,-1,-1,-1,-1,-1,-1],"loss_changes":[1.1648131E13,3.1667708E12,1.3390735E12,1.5362792E12,4.0656522E11,8.1734376E11,0E0,7.720285E11,2.0360344E11,8.5738796E11,0E0,0E0,0E0,0E0,0E0,1.4913634E11,1.6808214E10,1.9905606E11,1.6607752E12,0E0,0E0,0E0,0E0,0E0,0E0,0E0,0E0],"parents":[2147483647,0,0,1,1,2,2,3,3,4,4,5,5,7,7,8,8,9,9,15,15,16,16,17,17,18,18],"right_children":[2,4,6,8,10,12,-1,14,16,18,-1,-1,-1,-1,-1,20,22,24,26,-1,-1,-1,-1,-1,-1,-1,-1],"split_conditions":[2.87E7,2.019E3,3.66E7,3E6,2.47E7,2.025E3,8.4169055E4,2E6,7.5E6,2.2E7,-7.470657E3,5.568698E4,9.497101E3,-1.3785078E4,-5.9659605E4,5.4E6,2.017E3,2.022E3,2.25E7,-8.493341E3,-1.517931E4,-4.765445E3,6.049294E2,2.217998E3,1.3319425E4,6.1308375E4,4.107985E3],"split_indices":[2,0,2,2,2,0,0,2,2,2,0,0,0,0,0,2,0,0,2,0,0,0,0,0,0,0,0],"split_type":[0,0,0,0,0,0,0,0,0,0,0,0,0,0,0,0,0,0,0,0,0,0,0,0,0,0,0],"sum_hessian":[3.24E2,2.95E2,2.9E1,1.88E2,1.07E2,1.6E1,1.3E1,1.6E1,1.72E2,9.4E1,1.3E1,9E0,7E0,7E0,9E0,1.48E2,2.4E1,7.4E1,2E1,8.8E1,6E1,8E0,1.6E1,5.1E1,2.3E1,8E0,1.2E1],"tree_param":{"num_deleted":"0","num_feature":"3","num_nodes":"27","size_leaf_vector":"1"}},{"base_weights":[2.5475834E4,-2.227005E4,8.38328E5,-3.8784336E4,3.2050988E4,1.1506125E5,5.066109E4,-1.511719E5,-7.17471E3,-5.6660715E4,-6.977606E4,1.7785928E5,-2.4567262E4,-1.3705408E4,-4.9245835E3,5.7083354E3,3.6698477E4,-6.3384214E3,8.194187E3],"categories":[],"categories_nodes":[],"categories_segments":[],"categories_sizes":[],"default_left":[0,0,0,0,0,0,0,0,0,0,0,0,0,0,0,0,0,0,0],"id":46,"left_children":[1,3,5,7,-1,-1,-1,9,11,-1,13,15,17,-1,-1,-1,-1,-1,-1],"loss_changes":[1.3291807E13,1.8465189E12,1.3852989E12,1.1001995E12,0E0,0E0,0E0,2.259864E12,7.8639537E11,0E0,7.3362145E10,4.5872913E11,9.271561E11,0E0,0E0,0E0,0E0,0E0,0E0],"parents":[2147483647,0,0,1,1,2,2,3,3,7,7,8,8,10,10,11,11,12,12],"right_children":[2,4,6,8,-1,-1,-1,10,12,-1,14,16,18,-1,-1,-1,-1,-1,-1],"split_conditions":[3.66E7,2.87E7,5.5E7,2.015E3,3.2050988E4,1.1506125E5,5.066109E4,3E6,4.8E6,-5.6660715E4,3.6E6,2.016E3,2.022E3,-1.3705408E4,-4.9245835E3,5.7083354E3,3.6698477E4,-6.3384214E3,8.194187E3],"split_indices":[2,2,2,0,0,0,0,2,2,0,2,0,0,0,0,0,0,0,0],"split_type":[0,0,0,0,0,0,0,0,0,0,0,0,0,0,0,0,0,0,0],"sum_hessian":[3.41E2,3.23E2,1.8E1,3.09E2,1.4E1,8E0,1E1,6.7E1,2.42E2,1E1,5.7E1,2E1,2.22E2,1.2E1,4.5E1,1.3E1,7E0,1.63E2,5.9E1],"tree_param":{"num_deleted":"0","num_feature":"3","num_nodes":"19","size_leaf_vector":"1"}},{"base_weights":[2.9551879E4,2.8047712E5,-3.916383E4,-2.0879322E5,4.5649434E5,-5.14026E4,-2.4402057E4,1.937916E4,-6.307572E4,1.1507239E5,2.725621E5,-6.1131402E4,9.388088E4,8.90059E4,1.316827E5,-7.403633E4,2.1953217E4,1.5904638E5,-2.6088436E4,5.364507E3,4.078635E4,-2.0317074E4,-6.5779336E3,3.5869973E3,3.775794E4],"categories":[],"categories_nodes":[],"categories_segments":[],"categories_sizes":[],"default_left":[0,0,0,0,0,0,0,0,0,0,0,0,0,0,0,0,0,0,0,0,0,0,0,0,0],"id":47,"left_children":[1,3,5,7,9,-1,11,-1,-1,-1,13,15,17,-1,19,21,-1,23,-1,-1,-1,-1,-1,-1,-1],"loss_changes":[5.8561937E12,6.3820734E12,1.8590754E12,3.519761E12,6.581681E12,0E0,1.1352974E12,0E0,0E0,0E0,3.7104682E12,7.3702E11,1.4748368E12,0E0,7.755625E11,1.9029131E11,0E0,1.4131162E12,0E0,0E0,0E0,0E0,0E0,0E0,0E0],"parents":[2147483647,0,0,1,1,2,2,3,3,4,4,6,6,10,10,11,11,12,12,14,14,15,15,17,17],"right_children":[2,4,6,8,10,-1,12,-1,-1,-1,14,16,18,-1,20,22,-1,24,-1,-1,-1,-1,-1,-1,-1],"split_conditions":[8.1035E4,2.1655E4,8.4753E4,9.508E3,2.023E3,-5.14026E4,2.019E3,1.937916E4,-6.307572E4,1.1507239E5,2.8709E4,2.5498E5,2.17485E5,8.90059E4,7.0226E4,1.08812E5,2.1953217E4,1.3224E5,-2.6088436E4,5.364507E3,4.078635E4,-2.0317074E4,-6.5779336E3,3.5869973E3,3.775794E4],"split_indices":[1,1,1,1,0,0,0,0,0,0,1,1,1,0,1,1,0,1,0,0,0,0,0,0,0],"split_type":[0,0,0,0,0,0,0,0,0,0,0,0,0,0,0,0,0,0,0,0,0,0,0,0,0],"sum_hessian":[3.38E2,7.2E1,2.66E2,1.9E1,5.3E1,7E0,2.59E2,1E1,9E0,1E1,4.3E1,1.98E2,6.1E1,7E0,3.6E1,1.9E2,8E0,5.2E1,9E0,2.9E1,7E0,1E1,1.8E2,3.4E1,1.8E1],"tree_param":{"num_deleted":"0","num_feature":"3","num_nodes":"25","size_leaf_vector":"1"}},{"base_weights":[1.861796E4,-2.3395334E4,7.5048225E5,-4.319613E5,1.4450118E3,4.3850883E4,1.0137324E5,-7.666659E4,-1.2071556E3,1.1135454E5,-3.71746E4,1.5858511E5,-6.4882805E4,6.3540786E3,4.36658E4,-4.431888E3,-5.6015418E4],"categories":[],"categories_nodes":[],"categories_segments":[],"categories_sizes":[],"default_left":[0,0,0,0,0,0,0,0,0,0,0,0,0,0,0,0,0],"id":48,"left_children":[1,3,5,7,9,-1,-1,-1,-1,-1,11,13,15,-1,-1,-1,-1],"loss_changes":[1.0195155E13,3.187385E12,1.0337565E12,2.5204477E12,1.2797216E13,0E0,0E0,0E0,0E0,0E0,1.5724446E12,9.237073E11,2.5519094E12,0E0,0E0,0E0,0E0],"parents":[2147483647,0,0,1,1,2,2,3,3,4,4,10,10,11,11,12,12],"right_children":[2,4,6,8,10,-1,-1,-1,-1,-1,12,14,16,-1,-1,-1,-1],"split_conditions":[3.66E7,3.8422E4,9.508E3,2.87E7,5.6371E4,4.3850883E4,1.0137324E5,-7.666659E4,-1.2071556E3,1.1135454E5,8.1241E4,7.0243E4,2.25E7,6.3540786E3,4.36658E4,-4.431888E3,-5.6015418E4],"split_indices":[2,1,1,2,1,0,0,0,0,0,1,1,2,0,0,0,0],"split_type":[0,0,0,0,0,0,0,0,0,0,0,0,0,0,0,0,0],"sum_hessian":[3.3E2,3.13E2,1.7E1,1.7E1,2.96E2,9E0,8E0,9E0,8E0,9E0,2.87E2,3.5E1,2.52E2,2.7E1,8E0,2.43E2,9E0],"tree_param":{"num_deleted":"0","num_feature":"3","num_nodes":"17","size_leaf_vector":"1"}},{"base_weights":[1.7306893E4,-4.0784887E4,4.5691944E5,-8.4975766E4,4.335578E4,2.7924284E5,7.344309E4,-2.4738289E5,-6.8446625E4,1.644306E5,-1.3504116E5,5.3479E4,-6.3461333E3,9.685766E3,-4.7525027E4,-9.235489E4,6.3930776E3,3.1007879E4,3.951219E4,-3.3402277E4,-1.65145E4,-6.276718E3,-2.3756443E4,5.2502397E3,-4.419859E3,1.1258974E4,-1.7553076E4,-1.0992747E4,8.475043E3],"categories":[],"categories_nodes":[],"categories_segments":[],"categories_sizes":[],"default_left":[0,0,0,0,0,0,0,0,0,0,0,0,0,0,0,0,0,0,0,0,0,0,0,0,0,0,0,0,0],"id":49,"left_children":[1,3,5,7,9,11,-1,13,15,17,19,-1,-1,-1,-1,21,23,25,-1,-1,27,-1,-1,-1,-1,-1,-1,-1,-1],"loss_changes":[8.7525897E12,1.1303141E12,1.7672071E12,5.1727303E11,2.2901393E12,2.3109425E12,0E0,1.4579732E12,3.2624063E11,1.926854E12,1.0086226E12,0E0,0E0,0E0,0E0,5.779945E11,1.0729416E11,7.1060495E11,0E0,0E0,2.7418121E11,0E0,0E0,0E0,0E0,0E0,0E0,0E0,0E0],"parents":[2147483647,0,0,1,1,2,2,3,3,4,4,5,5,7,7,8,8,9,9,10,10,15,15,16,16,17,17,20,20],"right_children":[2,4,6,8,10,12,-1,14,16,18,20,-1,-1,-1,-1,22,24,26,-1,-1,28,-1,-1,-1,-1,-1,-1,-1,-1],"split_conditions":[2.5E7,2.019E3,4.5E7,3E6,2.023E3,2.025E3,7.344309E4,1.98E6,6.8E6,2.021E3,2.08E7,5.3479E4,-6.3461333E3,9.685766E3,-4.7525027E4,2.017E3,2.018E3,9.5E6,3.951219E4,-3.3402277E4,2.25E7,-6.276718E3,-2.3756443E4,5.2502397E3,-4.419859E3,1.1258974E4,-1.7553076E4,-1.0992747E4,8.475043E3],"split_indices":[2,0,2,2,0,0,0,2,2,0,2,0,0,0,0,0,0,2,0,0,2,0,0,0,0,0,0,0,0],"split_type":[0,0,0,0,0,0,0,0,0,0,0,0,0,0,0,0,0,0,0,0,0,0,0,0,0,0,0,0,0],"sum_hessian":[3.41E2,3.02E2,3.9E1,1.98E2,1.04E2,2.5E1,1.4E1,1.7E1,1.81E2,6.2E1,4.2E1,1.4E1,1.1E1,7E0,1E1,1.37E2,4.4E1,4E1,2.2E1,1.5E1,2.7E1,1.15E2,2.2E1,2.3E1,2.1E1,2.9E1,1.1E1,1.4E1,1.3E1],"tree_param":{"num_deleted":"0","num_feature":"3","num_nodes":"29","size_leaf_vector":"1"}},{"base_weights":[1.2348484E4,-4.1671902E4,3.3171184E5,3.9527934E4,-5.5769324E4,5.4480225E5,1.9728155E5,-3.0862082E4,-5.57288E4,1.0820995E5,6.7544E2,-3.147E4,4.7729918E4,7.548381E4,-4.8528523E4,-1.4067222E4,6.9959E3,-1.7808383E4,1.8538486E4,-1.134407E4,-3.5290671E3],"categories":[],"categories_nodes":[],"categories_segments":[],"categories_sizes":[],"default_left":[0,0,0,0,0,0,0,0,0,0,0,0,0,0,0,0,0,0,0,0,0],"id":50,"left_children":[1,3,5,-1,7,9,11,13,-1,-1,-1,15,-1,17,19,-1,-1,-1,-1,-1,-1],"loss_changes":[5.724278E12,1.7714525E12,1.2675192E12,0E0,3.4304405E12,5.196341E12,2.0007091E12,4.99654E11,0E0,0E0,0E0,2.092142E11,0E0,1.0919733E12,1.910572E11,0E0,0E0,0E0,0E0,0E0,0E0],"parents":[2147483647,0,0,1,1,2,2,4,4,5,5,6,6,7,7,11,11,13,13,14,14],"right_children":[2,4,6,-1,8,10,12,14,-1,-1,-1,16,-1,18,20,-1,-1,-1,-1,-1,-1],"split_conditions":[2.3E7,4.464E4,2.8013E4,3.9527934E4,2.08E7,5E7,7.1574E4,1.0425E5,-5.57288E4,1.0820995E5,6.7544E2,4.309E4,4.7729918E4,5.7806E4,3.6E6,-1.4067222E4,6.9959E3,-1.7808383E4,1.8538486E4,-1.134407E4,-3.5290671E3],"split_indices":[2,1,1,0,2,2,1,1,0,0,0,1,0,1,2,0,0,0,0,0,0],"split_type":[0,0,0,0,0,0,0,0,0,0,0,0,0,0,0,0,0,0,0,0,0],"sum_hessian":[3.3E2,2.83E2,4.7E1,8E0,2.75E2,1.7E1,3E1,2.63E2,1.2E1,8E0,9E0,1.7E1,1.3E1,3.7E1,2.26E2,8E0,9E0,1.1E1,2.6E1,3.7E1,1.89E2],"tree_param":{"num_deleted":"0","num_feature":"3","num_nodes":"21","size_leaf_vector":"1"}},{"base_weights":[2.796616E4,-5.0774062E4,2.5313173E5,-2.829825E4,-3.488331E4,1.6928323E5,6.1986977E4,-6.0373516E4,4.1319035E4,4.3979824E4,1.3392864E5,-3.95652E4,-1.0618912E5,8.454486E4,-1.8326459E4,2.9554557E4,7.182592E4,-5.661067E3,3.3816375E3,-8.753417E3,-1.4273937E4,3.3127722E3,3.2081066E4,-7.940747E3,1.3458807E4],"categories":[],"categories_nodes":[],"categories_segments":[],"categories_sizes":[],"default_left":[0,0,0,0,0,0,0,0,0,0,0,0,0,0,0,0,0,0,0,0,0,0,0,0,0],"id":51,"left_children":[1,3,5,-1,7,9,-1,11,13,-1,15,17,19,21,-1,-1,23,-1,-1,-1,-1,-1,-1,-1,-1],"loss_changes":[6.0231825E12,9.2000046E11,2.6011044E12,0E0,4.628466E11,6.392667E11,0E0,1.6549413E11,5.979629E11,0E0,6.412042E11,1.5701647E11,2.5006834E10,6.08926E11,0E0,0E0,4.7578215E11,0E0,0E0,0E0,0E0,0E0,0E0,0E0,0E0],"parents":[2147483647,0,0,1,1,2,2,4,4,5,5,7,7,8,8,10,10,11,11,12,12,13,13,16,16],"right_children":[2,4,6,-1,8,10,-1,12,14,-1,16,18,20,22,-1,-1,24,-1,-1,-1,-1,-1,-1,-1,-1],"split_conditions":[1.8E7,3E6,4.5E7,-2.829825E4,7.5E6,2.022E3,6.1986977E4,6.6E6,1.6E7,4.3979824E4,2.08E7,2.016E3,2.019E3,2.021E3,-1.8326459E4,2.9554557E4,2.25E7,-5.661067E3,3.3816375E3,-8.753417E3,-1.4273937E4,3.3127722E3,3.2081066E4,-7.940747E3,1.3458807E4],"split_indices":[2,2,2,0,2,0,0,2,2,0,2,0,0,0,0,0,2,0,0,0,0,0,0,0,0],"split_type":[0,0,0,0,0,0,0,0,0,0,0,0,0,0,0,0,0,0,0,0,0,0,0,0,0],"sum_hessian":[3.38E2,2.51E2,8.7E1,1.5E1,2.36E2,7.2E1,1.5E1,1.77E2,5.9E1,7E0,6.5E1,1.23E2,5.4E1,5E1,9E0,1.7E1,4.8E1,1E2,2.3E1,3.8E1,1.6E1,4.2E1,8E0,1.4E1,3.4E1],"tree_param":{"num_deleted":"0","num_feature":"3","num_nodes":"25","size_leaf_vector":"1"}},{"base_weights":[-1.5439314E4,-3.6529812E4,4.3270855E4,-4.593917E5,-8.1225635E3,-9.596923E4,-1.1617662E4,6.740752E4,-3.6519266E4,2.2261117E4,-5.2580656E4,-3.555807E4,-2.8420256E3],"categories":[],"categories_nodes":[],"categories_segments":[],"categories_sizes":[],"default_left":[0,0,0,0,0,0,0,0,0,0,0,0,0],"id":52,"left_children":[1,3,-1,5,7,-1,-1,-1,9,-1,11,-1,-1],"loss_changes":[3.1537585E12,3.8161935E12,0E0,3.3227198E12,5.8168946E12,0E0,0E0,0E0,1.2103597E12,0E0,1.9810982E12,0E0,0E0],"parents":[2147483647,0,0,1,1,3,3,4,4,8,8,10,10],"right_children":[2,4,-1,6,8,-1,-1,-1,10,-1,12,-1,-1],"split_conditions":[3.66E7,3.8422E4,4.3270855E4,2.25E7,5.6371E4,-9.596923E4,-1.1617662E4,6.740752E4,6.9171E4,2.2261117E4,8.2313E4,-3.555807E4,-2.8420256E3],"split_indices":[2,1,0,2,1,0,0,0,1,0,1,0,0],"split_type":[0,0,0,0,0,0,0,0,0,0,0,0,0],"sum_hessian":[3.31E2,3.17E2,1.4E1,1.9E1,2.98E2,7E0,1.2E1,1.1E1,2.87E2,1.6E1,2.71E2,1.9E1,2.52E2],"tree_param":{"num_deleted":"0","num_feature":"3","num_nodes":"13","size_leaf_vector":"1"}},{"base_weights":[-9.721687E3,-4.01018E4,2.8014256E5,-7.028932E4,-1.5251605E4,4.1017044E5,1.0543293E4,5.91152E4,-4.305371E4,7.96751E4,9.173272E3,-1.7797738E4,-2.4778619E5,8.1129917E3,-6.153955E3,3.1866785E3,-9.349231E4],"categories":[],"categories_nodes":[],"categories_segments":[],"categories_sizes":[],"default_left":[0,0,0,0,0,0,0,0,0,0,0,0,0,0,0,0,0],"id":53,"left_children":[1,3,5,-1,7,9,-1,-1,11,-1,-1,13,15,-1,-1,-1,-1],"loss_changes":[2.9700865E12,5.0127805E12,6.8370275E11,0E0,4.9989435E12,2.1427446E12,0E0,0E0,1.4589032E12,0E0,0E0,1.0997932E12,5.98675E12,0E0,0E0,0E0,0E0],"parents":[2147483647,0,0,1,1,2,2,4,4,5,5,8,8,11,11,12,12],"right_children":[2,4,6,-1,8,10,-1,-1,12,-1,-1,14,16,-1,-1,-1,-1],"split_conditions":[2.87E7,2.8709E4,2.8013E4,-7.028932E4,5.3713E4,5E7,1.0543293E4,5.91152E4,2.08E7,7.96751E4,9.173272E3,1.42978E5,8.9657E4,8.1129917E3,-6.153955E3,3.1866785E3,-9.349231E4],"split_indices":[2,1,1,0,1,2,0,0,2,0,0,1,1,0,0,0,0],"split_type":[0,0,0,0,0,0,0,0,0,0,0,0,0,0,0,0,0],"sum_hessian":[3.35E2,3.04E2,3.1E1,1E1,2.94E2,1.7E1,1.4E1,1.2E1,2.82E2,7E0,1E1,2.52E2,3E1,7.7E1,1.75E2,2.2E1,8E0],"tree_param":{"num_deleted":"0","num_feature":"3","num_nodes":"17","size_leaf_vector":"1"}},{"base_weights":[-1.2307258E4,-4.02186E4,4.5695725E5,-3.5352676E4,-2.893508E4,7.34885E4,2.3359232E4,-5.3257812E4,9.229954E4,-1.8843695E4,-3.3527222E5,6.42692E4,-2.2378455E4,-5.28994E3,1.3098658E3,-2.018335E4,-4.0974234E4,-2.0354883E4,8.841707E3],"categories":[],"categories_nodes":[],"categories_segments":[],"categories_sizes":[],"default_left":[0,0,0,0,0,0,0,0,0,0,0,0,0,0,0,0,0,0,0],"id":54,"left_children":[1,3,5,-1,7,-1,-1,9,11,13,15,-1,17,-1,-1,-1,-1,-1,-1],"loss_changes":[4.432338E12,1.1175055E12,1.007843E12,0E0,9.160817E11,0E0,0E0,2.4976433E12,3.2965135E12,2.5197919E11,1.9554212E11,0E0,9.012033E11,0E0,0E0,0E0,0E0,0E0,0E0],"parents":[2147483647,0,0,1,1,2,2,4,4,7,7,8,8,9,9,10,10,12,12],"right_children":[2,4,6,-1,8,-1,-1,10,12,14,16,-1,18,-1,-1,-1,-1,-1,-1],"split_conditions":[3.66E7,3E6,5.5E7,-3.5352676E4,2.2E7,7.34885E4,2.3359232E4,1.7E7,2.25E7,2.016E3,2.023E3,6.42692E4,2.5E7,-5.28994E3,1.3098658E3,-2.018335E4,-4.0974234E4,-2.0354883E4,8.841707E3],"split_indices":[2,2,2,0,2,0,0,2,2,0,0,0,2,0,0,0,0,0,0],"split_type":[0,0,0,0,0,0,0,0,0,0,0,0,0,0,0,0,0,0,0],"sum_hessian":[3.36E2,3.18E2,1.8E1,1E1,3.08E2,7E0,1.1E1,2.57E2,5.1E1,2.3E2,2.7E1,8E0,4.3E1,1.11E2,1.19E2,1.1E1,1.6E1,1.6E1,2.7E1],"tree_param":{"num_deleted":"0","num_feature":"3","num_nodes":"19","size_leaf_vector":"1"}},{"base_weights":[1.1739443E3,-1.4338967E4,3.5456285E4,-3.6758137E4,6.89547E4,-2.100191E4,-2.843064E4,2.5007497E5,-4.9121523E4,-3.892636E4,3.915682E4,1.1051335E5,-1.044522E5,-3.2167938E4,1.14213555E5,-1.2564709E4,-1.9907969E3,-2.1477225E4,-2.8528154E3,3.4272715E4,-1.99989E4],"categories":[],"categories_nodes":[],"categories_segments":[],"categories_sizes":[],"default_left":[0,0,0,0,0,0,0,0,0,0,0,0,0,0,0,0,0,0,0,0,0],"id":55,"left_children":[1,3,-1,5,7,9,-1,11,13,15,-1,-1,17,-1,19,-1,-1,-1,-1,-1,-1],"loss_changes":[1.8251381E12,5.982273E11,0E0,9.769366E11,1.4665318E12,1.7752743E12,0E0,8.3002545E12,1.906507E12,3.7518577E11,0E0,0E0,1.6139185E11,0E0,2.0071295E12,0E0,0E0,0E0,0E0,0E0,0E0],"parents":[2147483647,0,0,1,1,3,3,4,4,5,5,7,7,8,8,9,9,12,12,14,14],"right_children":[2,4,-1,6,8,10,-1,12,14,16,-1,-1,18,-1,20,-1,-1,-1,-1,-1,-1],"split_conditions":[3.66E7,2E7,3.5456285E4,1.62E7,2.25E7,2.021E3,-2.843064E4,2.023E3,2.5E7,3.6E6,3.915682E4,1.1051335E5,2.08E7,-3.2167938E4,2.025E3,-1.2564709E4,-1.9907969E3,-2.1477225E4,-2.8528154E3,3.4272715E4,-1.99989E4],"split_indices":[2,2,0,2,2,0,0,0,2,2,0,0,2,0,0,0,0,0,0,0,0],"split_type":[0,0,0,0,0,0,0,0,0,0,0,0,0,0,0,0,0,0,0,0,0],"sum_hessian":[3.31E2,3.18E2,1.3E1,2.51E2,6.7E1,2.37E2,1.4E1,2.6E1,4.1E1,2.28E2,9E0,7E0,1.9E1,1.5E1,2.6E1,4E1,1.88E2,7E0,1.2E1,1.5E1,1.1E1],"tree_param":{"num_deleted":"0","num_feature":"3","num_nodes":"21","size_leaf_vector":"1"}},{"base_weights":[5.5939526E2,-2.5990883E4,5.7324688E4,-5.197511E4,-1.8395833E2,-1.3632867E4,3.7505902E4,-2.182734E4,2.3462656E4,-6.9869086E2,-1.6757771E4],"categories":[],"categories_nodes":[],"categories_segments":[],"categories_sizes":[],"default_left":[0,0,0,0,0,0,0,0,0,0,0],"id":56,"left_children":[1,3,-1,-1,5,7,-1,9,-1,-1,-1],"loss_changes":[4.8044777E12,3.848119E12,0E0,0E0,1.4585363E12,5.7270626E11,0E0,5.8500166E11,0E0,0E0,0E0],"parents":[2147483647,0,0,1,1,4,4,5,5,7,7],"right_children":[2,4,-1,-1,6,8,-1,10,-1,-1,-1],"split_conditions":[4.5E7,3.8422E4,5.7324688E4,-5.197511E4,2.87E7,2.5498E5,3.7505902E4,2.30859E5,2.3462656E4,-6.9869086E2,-1.6757771E4],"split_indices":[2,1,0,0,2,1,0,1,0,0,0],"split_type":[0,0,0,0,0,0,0,0,0,0,0],"sum_hessian":[3.14E2,3.01E2,1.3E1,1.4E1,2.87E2,2.78E2,9E0,2.7E2,8E0,2.46E2,2.4E1],"tree_param":{"num_deleted":"0","num_feature":"3","num_nodes":"11","size_leaf_vector":"1"}},{"base_weights":[-1.0421312E4,-3.5997105E4,1.8485466E5,-2.120522E4,-2.8534166E4,2.5627914E5,-2.6744363E3,-2.8673719E4,1.900332E4,1.391938E5,4.2030766E4,-1.3080652E4,-1.6854414E5,4.4580617E4,-3.3812402E4,-4.361853E3,1.2169426E4,-9.547222E3,-1.929993E4],"categories":[],"categories_nodes":[],"categories_segments":[],"categories_sizes":[],"default_left":[0,0,0,0,0,0,0,0,0,0,0,0,0,0,0,0,0,0,0],"id":57,"left_children":[1,3,5,7,-1,9,-1,11,-1,13,-1,15,17,-1,-1,-1,-1,-1,-1],"loss_changes":[1.7247063E12,1.1188733E12,6.113881E11,4.61385E11,0E0,5.176559E11,0E0,6.084777E11,0E0,2.9314172E12,0E0,1.0465901E12,3.160952E10,0E0,0E0,0E0,0E0,0E0,0E0],"parents":[2147483647,0,0,1,1,2,2,3,3,5,5,7,7,9,9,11,11,12,12],"right_children":[2,4,6,8,-1,10,-1,12,-1,14,-1,16,18,-1,-1,-1,-1,-1,-1],"split_conditions":[2.5E7,2.25E7,5E7,2.2E7,-2.8534166E4,3.3E7,-2.6744363E3,1.7E7,1.900332E4,2.025E3,4.2030766E4,2.019E3,2.023E3,4.4580617E4,-3.3812402E4,-4.361853E3,1.2169426E4,-9.547222E3,-1.929993E4],"split_indices":[2,2,2,2,0,2,0,2,0,0,0,0,0,0,0,0,0,0,0],"split_type":[0,0,0,0,0,0,0,0,0,0,0,0,0,0,0,0,0,0,0],"sum_hessian":[3.43E2,3.04E2,3.9E1,2.88E2,1.6E1,2.9E1,1E1,2.79E2,9E0,1.8E1,1.1E1,2.52E2,2.7E1,1.1E1,7E0,2.06E2,4.6E1,8E0,1.9E1],"tree_param":{"num_deleted":"0","num_feature":"3",