{"learner":{"attributes":{"scikit_learn":"{\"_estimator_type\": \"regressor\"}"},"feature_names":[],"feature_types":[],"gradient_booster":{"model":{"cats":{"enc":[],"feature_segments":[],"sorted_idx":[]},"gbtree_model_param":{"num_parallel_tree":"1","num_trees":"200"},"iteration_indptr":[0,1,2,3,4,5,6,7,8,9,10,11,12,13,14,15,16,17,18,19,20,21,22,23,24,25,26,27,28,29,30,31,32,33,34,35,36,37,38,39,40,41,42,43,44,45,46,47,48,49,50,51,52,53,54,55,56,57,58,59,60,61,62,63,64,65,66,67,68,69,70,71,72,73,74,75,76,77,78,79,80,81,82,83,84,85,86,87,88,89,90,91,92,93,94,95,96,97,98,99,100,101,102,103,104,105,106,107,108,109,110,111,112,113,114,115,116,117,118,119,120,121,122,123,124,125,126,127,128,129,130,131,132,133,134,135,136,137,138,139,140,141,142,143,144,145,146,147,148,149,150,151,152,153,154,155,156,157,158,159,160,161,162,163,164,165,166,167,168,169,170,171,172,173,174,175,176,177,178,179,180,181,182,183,184,185,186,187,188,189,190,191,192,193,194,195,196,197,198,199,200],"tree_info":[0,0,0,0,0,0,0,0,0,0,0,0,0,0,0,0,0,0,0,0,0,0,0,0,0,0,0,0,0,0,0,0,0,0,0,0,0,0,0,0,0,0,0,0,0,0,0,0,0,0,0,0,0,0,0,0,0,0,0,0,0,0,0,0,0,0,0,0,0,0,0,0,0,0,0,0,0,0,0,0,0,0,0,0,0,0,0,0,0,0,0,0,0,0,0,0,0,0,0,0,0,0,0,0,0,0,0,0,0,0,0,0,0,0,0,0,0,0,0,0,0,0,0,0,0,0,0,0,0,0,0,0,0,0,0,0,0,0,0,0,0,0,0,0,0,0,0,0,0,0,0,0,0,0,0,0,0,0,0,0,0,0,0,0,0,0,0,0,0,0,0,0,0,0,0,0,0,0,0,0,0,0,0,0,0,0,0,0,0,0,0,0,0,0,0,0,0,0,0,0],"trees":[{"base_weights":[-1.0031937E5,-6.906054E6,1.6687703E7,-8.2404475E6,-1.7299178E5,1.1132024E6,2.6604868E6,-8.893677E5,-4.721808E5,-2.556265E5,1.5361619E6,6.3868227E4,2.2570312E5],"categories":[],"categories_nodes":[],"categories_segments":[],"categories_sizes":[],"default_left":[0,0,0,0,0,0,0,0,0,0,0,0,0],"id":0,"left_children":[1,3,5,7,9,-1,-1,-1,-1,-1,11,-1,-1],"loss_changes":[3.4852676E16,1.9425224E15,3.367671E15,2.060532E14,1.8664277E14,0E0,0E0,0E0,0E0,0E0,1.0260438E13,0E0,0E0],"parents":[2147483647,0,0,1,1,2,2,3,3,4,4,10,10],"right_children":[2,4,6,8,10,-1,-1,-1,-1,-1,12,-1,-1],"split_conditions":[1.6E7,8E6,2.025E3,7E6,1.2E7,1.1132024E6,2.6604868E6,-8.893677E5,-4.721808E5,-2.556265E5,2.02E3,6.3868227E4,2.2570312E5],"split_indices":[2,2,0,2,2,0,0,0,0,0,0,0,0],"split_type":[0,0,0,0,0,0,0,0,0,0,0,0,0],"sum_hessian":[2.95E2,2.12E2,8.3E1,1.76E2,3.6E1,6E1,2.3E1,1.42E2,3.4E1,1.4E1,2.2E1,1.4E1,8E0],"tree_param":{"num_deleted":"0","num_feature":"3","num_nodes":"13","size_leaf_vector":"1"}},{"base_weights":[3.091713E5,-6.2036025E6,1.608675E7,-7.4782545E6,-6.4758535E3,1.043494E6,2.5086035E6,-8.752843E5,-5.4989744E5,-2.367909E5,1.6564726E6,4.6393074E4,2.5981433E5],"categories":[],"categories_nodes":[],"categories_segments":[],"categories_sizes":[],"default_left":[0,0,0,0,0,0,0,0,0,0,0,0,0],"id":1,"left_children":[1,3,5,7,9,-1,-1,-1,-1,-1,11,-1,-1],"loss_changes":[3.0606427E16,1.666486E15,3.1161577E15,2.0082515E14,1.806165E14,0E0,0E0,0E0,0E0,0E0,2.429371E13,0E0,0E0],"parents":[2147483647,0,0,1,1,2,2,3,3,4,4,10,10],"right_children":[2,4,6,8,10,-1,-1,-1,-1,-1,12,-1,-1],"split_conditions":[1.6E7,8E6,2.025E3,6E6,1.2E7,1.043494E6,2.5086035E6,-8.752843E5,-5.4989744E5,-2.367909E5,2.02E3,4.6393074E4,2.5981433E5],"split_indices":[2,2,0,2,2,0,0,0,0,0,0,0,0],"split_type":[0,0,0,0,0,0,0,0,0,0,0,0,0],"sum_hessian":[2.88E2,2.06E2,8.2E1,1.7E2,3.6E1,5.7E1,2.5E1,9.3E1,7.7E1,1.4E1,2.2E1,1.3E1,9E0],"tree_param":{"num_deleted":"0","num_feature":"3","num_nodes":"13","size_leaf_vector":"1"}},{"base_weights":[-1.27796836E5,-5.9354835E6,1.4937057E7,-6.802623E6,-2.5376064E5,1.0083665E7,2.6403018E6,-7.87119E5,-5.0538995E6,-2.1037523E5,1.4746719E6,6.1571906E5,1.1631214E6,-3.6199793E4,-5.3314575E5,2.051368E5,2.3547117E4],"categories":[],"categories_nodes":[],"categories_segments":[],"categories_sizes":[],"default_left":[0,0,0,0,0,0,0,0,0,0,0,0,0,0,0,0,0],"id":2,"left_children":[1,3,5,7,9,11,-1,-1,13,-1,15,-1,-1,-1,-1,-1,-1],"loss_changes":[2.546599E16,1.026007E15,3.176356E15,1.4118953E14,1.2103204E14,3.6888937E13,0E0,0E0,9.843877E13,0E0,1.1877644E13,0E0,0E0,0E0,0E0,0E0,0E0],"parents":[2147483647,0,0,1,1,2,2,3,3,4,4,5,5,8,8,10,10],"right_children":[2,4,6,8,10,12,-1,-1,14,-1,16,-1,-1,-1,-1,-1,-1],"split_conditions":[1.6E7,8E6,3.3E7,6E6,1.2E7,2.2E7,2.6403018E6,-7.87119E5,9.031E4,-2.1037523E5,1.48894E5,6.1571906E5,1.1631214E6,-3.6199793E4,-5.3314575E5,2.051368E5,2.3547117E4],"split_indices":[2,2,2,2,2,2,0,0,1,0,1,0,0,0,0,0,0],"split_type":[0,0,0,0,0,0,0,0,0,0,0,0,0,0,0,0,0],"sum_hessian":[2.81E2,2.05E2,7.6E1,1.77E2,2.8E1,6E1,1.6E1,9.9E1,7.8E1,1.3E1,1.5E1,2.4E1,3.6E1,5E0,7.3E1,8E0,7E0],"tree_param":{"num_deleted":"0","num_feature":"3","num_nodes":"17","size_leaf_vector":"1"}},{"base_weights":[-1.8529114E5,-5.1573055E6,1.3589998E7,-5.94508E6,1.50314E6,9.333006E6,2.307884E6,-6.58591E6,-3.3127325E5,5.5258715E4,2.387398E5,5.199368E5,1.059247E6,-6.703096E5,-1.9623616E5],"categories":[],"categories_nodes":[],"categories_segments":[],"categories_sizes":[],"default_left":[0,0,0,0,0,0,0,0,0,0,0,0,0,0,0],"id":3,"left_children":[1,3,5,7,9,11,-1,13,-1,-1,-1,-1,-1,-1,-1],"loss_changes":[2.1171685E16,1.235734E15,2.2353286E15,2.3503833E14,1.6938718E13,6.3030256E13,0E0,2.037962E13,0E0,0E0,0E0,0E0,0E0,0E0,0E0],"parents":[2147483647,0,0,1,1,2,2,3,3,4,4,5,5,7,7],"right_children":[2,4,6,8,10,12,-1,14,-1,-1,-1,-1,-1,-1,-1],"split_conditions":[1.6E7,1.2E7,3.3E7,7E6,2.021E3,2.2E7,2.307884E6,2.019E3,-3.3127325E5,5.5258715E4,2.387398E5,5.199368E5,1.059247E6,-6.703096E5,-1.9623616E5],"split_indices":[2,2,2,2,0,2,0,0,0,0,0,0,0,0,0],"split_type":[0,0,0,0,0,0,0,0,0,0,0,0,0,0,0],"sum_hessian":[2.99E2,2.22E2,7.7E1,1.99E2,2.3E1,6E1,1.7E1,1.54E2,4.5E1,1.5E1,8E0,2E1,4E1,1.48E2,6E0],"tree_param":{"num_deleted":"0","num_feature":"3","num_nodes":"15","size_leaf_vector":"1"}},{"base_weights":[2.735303E5,-4.651635E6,1.2516523E7,-5.344761E6,1.3953895E6,7.9931115E6,1.9118612E6,-6.7708306E5,-4.1103332E6,3.5500746E4,2.1093592E5,2.305344E5,8.289815E5,-4.515671E5,-2.3452395E5],"categories":[],"categories_nodes":[],"categories_segments":[],"categories_sizes":[],"default_left":[0,0,0,0,0,0,0,0,0,0,0,0,0,0,0],"id":4,"left_children":[1,3,5,7,9,11,-1,-1,13,-1,-1,-1,-1,-1,-1],"loss_changes":[1.8923428E16,9.761532E14,1.9236718E15,2.1644488E14,1.6311439E13,9.075534E12,0E0,0E0,3.3618857E13,0E0,0E0,0E0,0E0,0E0,0E0],"parents":[2147483647,0,0,1,1,2,2,3,3,4,4,5,5,8,8],"right_children":[2,4,6,8,10,12,-1,-1,14,-1,-1,-1,-1,-1,-1],"split_conditions":[1.6E7,1.2E7,2.025E3,5E6,2.02E3,2.022E3,1.9118612E6,-6.7708306E5,2.019E3,3.5500746E4,2.1093592E5,2.305344E5,8.289815E5,-4.515671E5,-2.3452395E5],"split_indices":[2,2,0,2,0,0,0,0,0,0,0,0,0,0,0],"split_type":[0,0,0,0,0,0,0,0,0,0,0,0,0,0,0],"sum_hessian":[3.04E2,2.19E2,8.5E1,1.97E2,2.2E1,5.7E1,2.8E1,8.1E1,1.16E2,1.2E1,1E1,5E0,5.2E1,8.8E1,2.8E1],"tree_param":{"num_deleted":"0","num_feature":"3","num_nodes":"15","size_leaf_vector":"1"}},{"base_weights":[2.2140227E4,-4.1980455E6,1.0859087E7,-4.834102E6,1.3851318E6,7.6269825E6,1.935509E6,-5.459287E5,-2.6441215E6,1.9838628E5,2.448592E4,5.2814856E5,9.35201E5,-7.1166E3,-3.011931E5],"categories":[],"categories_nodes":[],"categories_segments":[],"categories_sizes":[],"default_left":[0,0,0,0,0,0,0,0,0,0,0,0,0,0,0],"id":5,"left_children":[1,3,5,7,9,11,-1,-1,13,-1,-1,-1,-1,-1,-1],"loss_changes":[1.4359718E16,8.360546E14,1.6783712E15,2.0712963E14,1.6004512E13,4.4353054E13,0E0,0E0,5.097794E13,0E0,0E0,0E0,0E0,0E0,0E0],"parents":[2147483647,0,0,1,1,2,2,3,3,4,4,5,5,8,8],"right_children":[2,4,6,8,10,12,-1,-1,14,-1,-1,-1,-1,-1,-1],"split_conditions":[1.6E7,1.2E7,3.3E7,7E6,1.48894E5,2.3E7,1.935509E6,-5.459287E5,9.031E4,1.9838628E5,2.448592E4,5.2814856E5,9.35201E5,-7.1166E3,-3.011931E5],"split_indices":[2,2,2,2,1,2,0,0,1,0,0,0,0,0,0],"split_type":[0,0,0,0,0,0,0,0,0,0,0,0,0,0,0],"sum_hessian":[3.04E2,2.21E2,8.3E1,1.99E2,2.2E1,6.7E1,1.6E1,1.49E2,5E1,1.2E1,1E1,3.7E1,3E1,7E0,4.3E1],"tree_param":{"num_deleted":"0","num_feature":"3","num_nodes":"15","size_leaf_vector":"1"}},{"base_weights":[3.891816E4,-3.8479322E6,1.0385225E7,-4.557856E6,1.449293E5,1.668916E6,5.8047044E5,-5.617506E5,-3.4617788E6,-1.21419336E5,1.04014694E6,-6.7014414E3,-3.7083922E5,1.476239E5,1.7027479E4],"categories":[],"categories_nodes":[],"categories_segments":[],"categories_sizes":[],"default_left":[0,0,0,0,0,0,0,0,0,0,0,0,0,0,0],"id":6,"left_children":[1,3,5,7,9,-1,-1,-1,11,-1,13,-1,-1,-1,-1],"loss_changes":[1.1781598E16,6.070783E14,1.8256462E15,1.1299146E14,5.133299E13,0E0,0E0,0E0,8.4151294E13,0E0,8.226775E12,0E0,0E0,0E0,0E0],"parents":[2147483647,0,0,1,1,2,2,3,3,4,4,8,8,10,10],"right_children":[2,4,6,8,10,-1,-1,-1,12,-1,14,-1,-1,-1,-1],"split_conditions":[1.6E7,8E6,4.464E4,5E6,1.2E7,1.668916E6,5.8047044E5,-5.617506E5,9.031E4,-1.21419336E5,1.48894E5,-6.7014414E3,-3.7083922E5,1.476239E5,1.7027479E4],"split_indices":[2,2,1,2,2,0,0,0,1,0,1,0,0,0,0],"split_type":[0,0,0,0,0,0,0,0,0,0,0,0,0,0,0],"sum_hessian":[2.83E2,2.08E2,7.5E1,1.76E2,3.2E1,2.6E1,4.9E1,7.9E1,9.7E1,1.2E1,2E1,7E0,9E1,1.1E1,9E0],"tree_param":{"num_deleted":"0","num_feature":"3","num_nodes":"15","size_leaf_vector":"1"}},{"base_weights":[1.9710233E5,-3.65465E6,9.119406E6,-4.2530645E6,-8.8151556E5,1.7705609E6,5.9209885E6,-4.8665856E5,-3.0619952E6,-2.2784875E5,-2.2475461E5,6.4720206E5,1.5227842E5,-1.4503942E5,-3.2865666E5,3.1399373E4,-4.6660996E4],"categories":[],"categories_nodes":[],"categories_segments":[],"categories_sizes":[],"default_left":[0,0,0,0,0,0,0,0,0,0,0,0,0,0,0,0,0],"id":7,"left_children":[1,3,5,7,9,-1,11,-1,13,15,-1,-1,-1,-1,-1,-1,-1],"loss_changes":[1.0717157E16,3.4302186E14,2.0572786E15,5.5565334E13,3.7621284E13,0E0,1.3491244E14,0E0,2.947891E12,5.3899166E12,0E0,0E0,0E0,0E0,0E0,0E0,0E0],"parents":[2147483647,0,0,1,1,2,2,3,3,4,4,6,6,8,8,9,9],"right_children":[2,4,6,8,10,-1,12,-1,14,16,-1,-1,-1,-1,-1,-1,-1],"split_conditions":[2.021E3,2.019E3,2.8013E4,2.016E3,1.94657E5,1.7705609E6,1.00143E5,-4.8665856E5,1.53593E5,1.0391E5,-2.2475461E5,6.4720206E5,1.5227842E5,-1.4503942E5,-3.2865666E5,3.1399373E4,-4.6660996E4],"split_indices":[0,0,1,0,1,0,1,0,1,1,0,0,0,0,0,0,0],"split_type":[0,0,0,0,0,0,0,0,0,0,0,0,0,0,0,0,0],"sum_hessian":[3.02E2,2.13E2,8.9E1,1.73E2,4E1,1.8E1,7.1E1,1.04E2,6.9E1,3.1E1,9E0,6.1E1,1E1,1.3E1,5.6E1,9E0,2.2E1],"tree_param":{"num_deleted":"0","num_feature":"3","num_nodes":"17","size_leaf_vector":"1"}},{"base_weights":[2.4261128E5,-3.378745E6,7.654261E6,-3.8442242E6,-3.701528E5,5.5957565E6,1.745387E6,-4.9025266E5,-3.107339E5,-1.1695206E5,4.4181637E4,3.0466322E5,6.94096E5],"categories":[],"categories_nodes":[],"categories_segments":[],"categories_sizes":[],"default_left":[0,0,0,0,0,0,0,0,0,0,0,0,0],"id":8,"left_children":[1,3,5,7,9,11,-1,-1,-1,-1,-1,-1,-1],"loss_changes":[8.1813764E15,2.7997496E14,1.528916E15,6.1863635E13,2.4002613E13,2.0288567E14,0E0,0E0,0E0,0E0,0E0,0E0,0E0],"parents":[2147483647,0,0,1,1,2,2,3,3,4,4,5,5],"right_children":[2,4,6,8,10,12,-1,-1,-1,-1,-1,-1,-1],"split_conditions":[2.021E3,8E6,3.66E7,2.015E3,1.2E7,2.2E7,1.745387E6,-4.9025266E5,-3.107339E5,-1.1695206E5,4.4181637E4,3.0466322E5,6.94096E5],"split_indices":[0,2,2,0,2,2,0,0,0,0,0,0,0],"split_type":[0,0,0,0,0,0,0,0,0,0,0,0,0],"sum_hessian":[2.95E2,2E2,9.5E1,1.72E2,2.8E1,8.5E1,1E1,5.9E1,1.13E2,1.3E1,1.5E1,3.5E1,5E1],"tree_param":{"num_deleted":"0","num_feature":"3","num_nodes":"13","size_leaf_vector":"1"}},{"base_weights":[5.2899937E3,-2.9257685E6,7.673449E6,-3.4298342E6,6.0604473E3,5.6360635E6,1.6138554E6,-4.202438E5,-2.604777E6,-1.0443292E5,8.363564E5,2.7894522E5,6.5902265E6,-3.996836E4,-2.8136572E5,1.1879758E5,1.609225E4,7.6141144E5,3.168376E5],"categories":[],"categories_nodes":[],"categories_segments":[],"categories_sizes":[],"default_left":[0,0,0,0,0,0,0,0,0,0,0,0,0,0,0,0,0,0,0],"id":9,"left_children":[1,3,5,7,9,11,-1,-1,13,-1,15,-1,17,-1,-1,-1,-1,-1,-1],"loss_changes":[6.989855E15,3.3261663E14,1.0284251E15,6.765701E13,3.750826E13,1.172263E14,0E0,0E0,4.3200794E13,0E0,4.7440336E12,0E0,6.8572374E13,0E0,0E0,0E0,0E0,0E0,0E0],"parents":[2147483647,0,0,1,1,2,2,3,3,4,4,5,5,8,8,10,10,12,12],"right_children":[2,4,6,8,10,12,-1,-1,14,-1,16,-1,18,-1,-1,-1,-1,-1,-1],"split_conditions":[1.6E7,8E6,4.5E7,5E6,1.2E7,2.08E7,1.6138554E6,-4.202438E5,9.3943E4,-1.0443292E5,1.54283E5,2.7894522E5,7.6871E4,-3.996836E4,-2.8136572E5,1.1879758E5,1.609225E4,7.6141144E5,3.168376E5],"split_indices":[2,2,2,2,2,2,0,0,1,0,1,0,1,0,0,0,0,0,0],"split_type":[0,0,0,0,0,0,0,0,0,0,0,0,0,0,0,0,0,0,0],"sum_hessian":[3.01E2,2.2E2,8.1E1,1.87E2,3.3E1,7.2E1,9E0,8.6E1,1.01E2,1.4E1,1.9E1,2.3E1,4.9E1,1E1,9.1E1,1E1,9E0,3.3E1,1.6E1],"tree_param":{"num_deleted":"0","num_feature":"3","num_nodes":"19","size_leaf_vector":"1"}},{"base_weights":[3.0210453E5,-2.5852232E6,7.4412375E6,-3.0062752E6,9.591249E5,5.067464E6,1.6423336E6,-3.8189122E5,-2.2453092E6,1.4281731E5,1.6103444E4,2.8422984E5,5.9328975E6,-7.501019E4,-2.5678278E5,6.892917E5,3.0135706E5],"categories":[],"categories_nodes":[],"categories_segments":[],"categories_sizes":[],"default_left":[0,0,0,0,0,0,0,0,0,0,0,0,0,0,0,0,0],"id":10,"left_children":[1,3,5,7,9,11,-1,-1,13,-1,-1,-1,15,-1,-1,-1,-1],"loss_changes":[6.589287E15,3.546737E14,1.5454516E15,8.389668E13,9.331676E12,6.9743424E13,0E0,0E0,4.727269E13,0E0,0E0,0E0,4.4677055E13,0E0,0E0,0E0,0E0],"parents":[2147483647,0,0,1,1,2,2,3,3,4,4,5,5,8,8,12,12],"right_children":[2,4,6,8,10,12,-1,-1,14,-1,-1,-1,16,-1,-1,-1,-1],"split_conditions":[1.6E7,1.2E7,4.5E7,5E6,1.54283E5,2.08E7,1.6423336E6,-3.8189122E5,1.53593E5,1.4281731E5,1.6103444E4,2.8422984E5,7.6871E4,-7.501019E4,-2.5678278E5,6.892917E5,3.0135706E5],"split_indices":[2,2,2,2,1,2,0,0,1,0,0,0,1,0,0,0,0],"split_type":[0,0,0,0,0,0,0,0,0,0,0,0,0,0,0,0,0],"sum_hessian":[3.1E2,2.23E2,8.7E1,2E2,2.3E1,7.5E1,1.2E1,8.7E1,1.13E2,1.2E1,1.1E1,2.7E1,4.8E1,2.3E1,9E1,3.1E1,1.7E1],"tree_param":{"num_deleted":"0","num_feature":"3","num_nodes":"17","size_leaf_vector":"1"}},{"base_weights":[1.2261502E5,-1.8091535E6,9.314903E6,-2.7278332E6,1.8275192E6,5.895489E5,1.4952532E6,-3.6473056E5,-2.0596808E6,2.2698645E5,2.492013E4,-6.503904E4,-2.362364E5],"categories":[],"categories_nodes":[],"categories_segments":[],"categories_sizes":[],"default_left":[0,0,0,0,0,0,0,0,0,0,0,0,0],"id":11,"left_children":[1,3,5,7,9,-1,-1,-1,11,-1,-1,-1,-1],"loss_changes":[5.216141E15,8.367737E14,5.4238458E14,8.2850724E13,3.3476133E13,0E0,0E0,0E0,4.563876E13,0E0,0E0,0E0,0E0],"parents":[2147483647,0,0,1,1,2,2,3,3,4,4,8,8],"right_children":[2,4,6,8,10,-1,-1,-1,12,-1,-1,-1,-1],"split_conditions":[2.3E7,1.2E7,4.5E7,4.8E6,1.34732E5,5.895489E5,1.4952532E6,-3.6473056E5,1.53593E5,2.2698645E5,2.492013E4,-6.503904E4,-2.362364E5],"split_indices":[2,2,2,2,1,0,0,0,1,0,0,0,0],"split_type":[0,0,0,0,0,0,0,0,0,0,0,0,0],"sum_hessian":[2.84E2,2.38E2,4.6E1,1.91E2,4.7E1,3.5E1,1.1E1,7.1E1,1.2E2,3.5E1,1.2E1,2.4E1,9.6E1],"tree_param":{"num_deleted":"0","num_feature":"3","num_nodes":"13","size_leaf_vector":"1"}},{"base_weights":[2.2682895E5,-1.9453439E6,6.2198235E6,-2.5342738E6,-1.6391838E5,1.1077816E6,4.063965E5,-3.2111097E5,-2.0728294E6,3.734286E5,-1.5513108E6,-8.3794125E4,-2.1770348E5,-8.975538E3,1.170334E5,-5.1286953E4,-1.8568356E5],"categories":[],"categories_nodes":[],"categories_segments":[],"categories_sizes":[],"default_left":[0,0,0,0,0,0,0,0,0,0,0,0,0,0,0,0,0],"id":12,"left_children":[1,3,5,7,9,-1,-1,-1,11,13,15,-1,-1,-1,-1,-1,-1],"loss_changes":[3.9658448E15,2.329291E14,6.232255E14,1.9189713E13,4.8372694E13,0E0,0E0,0E0,5.5485944E12,1.824268E13,9.4927585E11,0E0,0E0,0E0,0E0,0E0,0E0],"parents":[2147483647,0,0,1,1,2,2,3,3,4,4,8,8,9,9,10,10],"right_children":[2,4,6,8,10,-1,-1,-1,12,14,16,-1,-1,-1,-1,-1,-1],"split_conditions":[2.022E3,2.019E3,2.8013E4,2.015E3,1.94657E5,1.1077816E6,4.063965E5,-3.2111097E5,1.53593E5,2.02E3,2.17485E5,-8.3794125E4,-2.1770348E5,-8.975538E3,1.170334E5,-5.1286953E4,-1.8568356E5],"split_indices":[0,0,1,0,1,0,0,0,1,0,1,0,0,0,0,0,0],"split_type":[0,0,0,0,0,0,0,0,0,0,0,0,0,0,0,0,0],"sum_hessian":[2.95E2,2.19E2,7.6E1,1.63E2,5.6E1,1.7E1,5.9E1,5.4E1,1.09E2,4.3E1,1.3E1,1.2E1,9.7E1,3E1,1.3E1,6E0,7E0],"tree_param":{"num_deleted":"0","num_feature":"3","num_nodes":"17","size_leaf_vector":"1"}},{"base_weights":[1.7515695E5,-1.7768758E6,6.1262185E6,-2.2378775E6,1.114852E6,4.3046435E6,1.2265484E6,-3.1009684E5,-1.8126271E6,1.4774683E5,1.6304859E4,1.9664528E5,4.7078635E6,2.1008568E4,-1.9252895E5,5.384953E5,2.4584611E5],"categories":[],"categories_nodes":[],"categories_segments":[],"categories_sizes":[],"default_left":[0,0,0,0,0,0,0,0,0,0,0,0,0,0,0,0,0],"id":13,"left_children":[1,3,5,7,9,11,-1,-1,13,-1,-1,-1,15,-1,-1,-1,-1],"loss_changes":[3.4348775E15,3.0975398E14,5.52376E14,4.309926E13,1.0530241E13,1.4050583E13,0E0,0E0,3.438185E13,0E0,0E0,0E0,1.1481924E13,0E0,0E0,0E0,0E0],"parents":[2147483647,0,0,1,1,2,2,3,3,4,4,5,5,8,8,12,12],"right_children":[2,4,6,8,10,12,-1,-1,14,-1,-1,-1,16,-1,-1,-1,-1],"split_conditions":[1.8E7,1.2E7,4.5E7,3.9E6,1.48894E5,2.08E7,1.2265484E6,-3.1009684E5,9.031E4,1.4774683E5,1.6304859E4,1.9664528E5,7.6871E4,2.1008568E4,-1.9252895E5,5.384953E5,2.4584611E5],"split_indices":[2,2,2,2,1,2,0,0,1,0,0,0,1,0,0,0,0],"split_type":[0,0,0,0,0,0,0,0,0,0,0,0,0,0,0,0,0],"sum_hessian":[2.86E2,2.18E2,6.8E1,1.89E2,2.9E1,5.9E1,9E0,5.2E1,1.37E2,1.9E1,1E1,1.3E1,4.6E1,7E0,1.3E2,3E1,1.6E1],"tree_param":{"num_deleted":"0","num_feature":"3","num_nodes":"17","size_leaf_vector":"1"}},{"base_weights":[9.9994086E4,-1.9161179E6,4.597089E6,-2.2218928E6,-4.0763738E5,3.238796E6,1.0813966E6,-2.9062325E5,-1.7622008E5,-8.087247E4,2.484919E4,1.5600142E5,4.0733722E6,1.9397136E5,4.4812016E5],"categories":[],"categories_nodes":[],"categories_segments":[],"categories_sizes":[],"default_left":[0,0,0,0,0,0,0,0,0,0,0,0,0,0,0],"id":14,"left_children":[1,3,5,7,9,11,-1,-1,-1,-1,-1,-1,13,-1,-1],"loss_changes":[2.6371037E15,8.8183665E13,5.8486945E14,2.6614369E13,1.1531414E13,8.171417E13,0E0,0E0,0E0,0E0,0E0,0E0,9.173782E11,0E0,0E0],"parents":[2147483647,0,0,1,1,2,2,3,3,4,4,5,5,12,12],"right_children":[2,4,6,8,10,12,-1,-1,-1,-1,-1,-1,14,-1,-1],"split_conditions":[2.02E3,2.019E3,3.66E7,3.9E6,9.5E6,2.2E7,1.0813966E6,-2.9062325E5,-1.7622008E5,-8.087247E4,2.484919E4,1.5600142E5,2.023E3,1.9397136E5,4.4812016E5],"split_indices":[0,0,2,2,2,2,0,0,0,0,0,0,0,0,0],"split_type":[0,0,0,0,0,0,0,0,0,0,0,0,0,0,0],"sum_hessian":[2.81E2,1.96E2,8.5E1,1.61E2,3.5E1,7.6E1,9E0,5.4E1,1.07E2,2.1E1,1.4E1,3E1,4.6E1,1.2E1,3.4E1],"tree_param":{"num_deleted":"0","num_feature":"3","num_nodes":"15","size_leaf_vector":"1"}},{"base_weights":[2.9300744E5,-1.4640374E6,5.385384E6,-1.8363956E6,8.0903925E5,3.476588E6,1.1576236E6,-2.3792138E5,-1.3327602E6,1.11208266E5,1.6108664E4,3.936104E6,1.5547428E6,-4.2279586E4,-1.5832845E5,1.8292436E5,4.5013772E5,2.0984092E3,2.1612516E5],"categories":[],"categories_nodes":[],"categories_segments":[],"categories_sizes":[],"default_left":[0,0,0,0,0,0,0,0,0,0,0,0,0,0,0,0,0,0,0],"id":15,"left_children":[1,3,5,7,9,11,-1,-1,13,-1,-1,15,17,-1,-1,-1,-1,-1,-1],"loss_changes":[2.6878923E15,1.9702193E14,7.0868544E14,3.71816E13,5.976812E12,2.7687708E13,0E0,0E0,2.2185419E13,0E0,0E0,1.8376957E13,1.930824E13,0E0,0E0,0E0,0E0,0E0,0E0],"parents":[2147483647,0,0,1,1,2,2,3,3,4,4,5,5,8,8,11,11,12,12],"right_children":[2,4,6,8,10,12,-1,-1,14,-1,-1,16,18,-1,-1,-1,-1,-1,-1],"split_conditions":[1.8E7,1.2E7,4.5E7,5E6,1.34732E5,7.6871E4,1.1576236E6,-2.3792138E5,1.53593E5,1.11208266E5,1.6108664E4,2.08E7,8.2313E4,-4.2279586E4,-1.5832845E5,1.8292436E5,4.5013772E5,2.0984092E3,2.1612516E5],"split_indices":[2,2,2,2,1,1,0,0,1,0,0,2,1,0,0,0,0,0,0],"split_type":[0,0,0,0,0,0,0,0,0,0,0,0,0,0,0,0,0,0,0],"sum_hessian":[2.91E2,2.19E2,7.2E1,1.89E2,3E1,6.1E1,1.1E1,8.2E1,1.07E2,1.8E1,1.2E1,4.5E1,1.6E1,2.6E1,8.1E1,1.4E1,3.1E1,6E0,1E1],"tree_param":{"num_deleted":"0","num_feature":"3","num_nodes":"19","size_leaf_vector":"1"}},{"base_weights":[1.550529E5,-1.3681515E6,4.588851E6,-1.7986699E6,3.2125855E4,8.260383E5,3.0176075E5,-2.361463E5,-1.375343E6,3.570559E5,-1.0469749E5,-5.6327168E4,-1.4311784E5,-2.0736902E3,8.5337086E4],"categories":[],"categories_nodes":[],"categories_segments":[],"categories_sizes":[],"default_left":[0,0,0,0,0,0,0,0,0,0,0,0,0,0,0],"id":16,"left_children":[1,3,5,7,9,-1,-1,-1,11,13,-1,-1,-1,-1,-1],"loss_changes":[1.9291475E15,1.286949E14,2.964946E14,2.2594917E13,2.115392E13,0E0,0E0,0E0,7.3021155E11,8.713676E12,0E0,0E0,0E0,0E0,0E0],"parents":[2147483647,0,0,1,1,2,2,3,3,4,4,8,8,9,9],"right_children":[2,4,6,8,10,-1,-1,-1,12,14,-1,-1,-1,-1,-1],"split_conditions":[2.022E3,2.019E3,2.8013E4,2.015E3,1.94657E5,8.260383E5,3.0176075E5,-2.361463E5,1.53593E5,2.02E3,-1.0469749E5,-5.6327168E4,-1.4311784E5,-2.0736902E3,8.5337086E4],"split_indices":[0,0,1,0,1,0,0,0,1,0,0,0,0,0,0],"split_type":[0,0,0,0,0,0,0,0,0,0,0,0,0,0,0],"sum_hessian":[2.76E2,2.08E2,6.8E1,1.58E2,5E1,1.4E1,5.4E1,5.8E1,1E2,4.1E1,9E0,1E1,9E1,2.6E1,1.5E1],"tree_param":{"num_deleted":"0","num_feature":"3","num_nodes":"15","size_leaf_vector":"1"}},{"base_weights":[3.472791E5,-1.0703991E6,5.118861E6,-1.4896314E6,8.2849056E5,3.0108095E6,1.01854744E6,-2.1184805E5,-1.1711855E6,1.0515552E5,1.2345769E4,3.6410797E5,1.4906752E6,2.3218191E4,-1.2355771E5,-8.573228E3,2.039959E5],"categories":[],"categories_nodes":[],"categories_segments":[],"categories_sizes":[],"default_left":[0,0,0,0,0,0,0,0,0,0,0,0,0,0,0,0,0],"id":17,"left_children":[1,3,5,7,9,11,-1,-1,13,-1,-1,-1,15,-1,-1,-1,-1],"loss_changes":[1.9214752E15,1.8130736E14,5.4091154E14,2.4040643E13,6.113408E12,2.3640674E13,0E0,0E0,1.3362616E13,0E0,0E0,0E0,2.1655938E13,0E0,0E0,0E0,0E0],"parents":[2147483647,0,0,1,1,2,2,3,3,4,4,5,5,8,8,12,12],"right_children":[2,4,6,8,10,12,-1,-1,14,-1,-1,-1,16,-1,-1,-1,-1],"split_conditions":[2.08E7,1.2E7,4.5E7,3.9E6,1.34732E5,7.6871E4,1.01854744E6,-2.1184805E5,9.031E4,1.0515552E5,1.2345769E4,3.6410797E5,8.2313E4,2.3218191E4,-1.2355771E5,-8.573228E3,2.039959E5],"split_indices":[2,2,2,2,1,1,0,0,1,0,0,0,1,0,0,0,0],"split_type":[0,0,0,0,0,0,0,0,0,0,0,0,0,0,0,0,0],"sum_hessian":[2.75E2,2.15E2,6E1,1.77E2,3.8E1,4.8E1,1.2E1,5E1,1.27E2,2.7E1,1.1E1,2.9E1,1.9E1,5E0,1.22E2,6E0,1.3E1],"tree_param":{"num_deleted":"0","num_feature":"3","num_nodes":"17","size_leaf_vector":"1"}},{"base_weights":[2.8954847E5,-9.430304E5,4.582284E6,-1.3370281E6,8.003468E5,2.859647E5,9.287215E5,-1.9075812E5,-1.04067906E6,2.0085354E4,1.0242449E5,-1.0995348E5,-3.3634137E4],"categories":[],"categories_nodes":[],"categories_segments":[],"categories_sizes":[],"default_left":[0,0,0,0,0,0,0,0,0,0,0,0,0],"id":18,"left_children":[1,3,5,7,9,-1,-1,-1,11,-1,-1,-1,-1],"loss_changes":[1.6142377E15,1.688295E14,4.1834176E14,2.3214332E13,5.2799765E12,0E0,0E0,0E0,3.954524E12,0E0,0E0,0E0,0E0],"parents":[2147483647,0,0,1,1,2,2,3,3,4,4,8,8],"right_children":[2,4,6,8,10,-1,-1,-1,12,-1,-1,-1,-1],"split_conditions":[2E7,1.2E7,4.5E7,2.015E3,2.02E3,2.859647E5,9.287215E5,-1.9075812E5,8E6,2.0085354E4,1.0242449E5,-1.0995348E5,-3.3634137E4],"split_indices":[2,2,2,0,0,0,0,0,2,0,0,0,0],"split_type":[0,0,0,0,0,0,0,0,0,0,0,0,0],"sum_hessian":[2.96E2,2.33E2,6.3E1,1.91E2,4.2E1,5.2E1,1.1E1,5.6E1,1.35E2,1.4E1,2.8E1,1.22E2,1.3E1],"tree_param":{"num_deleted":"0","num_feature":"3","num_nodes":"13","size_leaf_vector":"1"}},{"base_weights":[3.7390166E5,6.094447E5,-4.8150047E5,1.5269835E6,-1.1794115E6,1.7607406E4,1.7374623E5,-1.5896184E6,-7.484008E5,-1.9331536E5,-1.1919695E5,-2.924731E4,-8.640093E4],"categories":[],"categories_nodes":[],"categories_segments":[],"categories_sizes":[],"default_left":[0,0,0,0,0,0,0,0,0,0,0,0,0],"id":19,"left_children":[1,-1,3,5,7,-1,-1,9,11,-1,-1,-1,-1],"loss_changes":[1.4680021E15,0E0,3.7766312E14,1.8374021E13,2.9058759E13,0E0,0E0,1.7295296E12,4.323669E12,0E0,0E0,0E0,0E0],"parents":[2147483647,0,0,2,2,3,3,4,4,7,7,8,8],"right_children":[2,-1,4,6,8,-1,-1,10,12,-1,-1,-1,-1],"split_conditions":[4.464E4,6.094447E5,1.00143E5,2.02E3,2.016E3,1.7607406E4,1.7374623E5,2.014E3,1.5213E5,-1.9331536E5,-1.1919695E5,-2.924731E4,-8.640093E4],"split_indices":[1,0,1,0,0,0,0,0,1,0,0,0,0],"split_type":[0,0,0,0,0,0,0,0,0,0,0,0,0],"sum_hessian":[2.92E2,3.4E1,2.58E2,6.5E1,1.93E2,1E1,5.5E1,9.2E1,1.01E2,3.9E1,5.3E1,2.4E1,7.7E1],"tree_param":{"num_deleted":"0","num_feature":"3","num_nodes":"13","size_leaf_vector":"1"}},{"base_weights":[2.5941644E5,-2.901194E5,8.492033E5,-1.0459559E6,1.7661308E6,-1.4527131E6,-6.3616656E5,7.74761E5,2.3256862E6,-2.1439398E5,-1.2235348E5,-7.844507E4,2.227727E3,1.2296771E5,2.5031334E4,1.0714548E5,2.5537745E5],"categories":[],"categories_nodes":[],"categories_segments":[],"categories_sizes":[],"default_left":[0,0,0,0,0,0,0,0,0,0,0,0,0,0,0,0,0],"id":20,"left_children":[1,3,-1,5,7,9,11,13,15,-1,-1,-1,-1,-1,-1,-1,-1],"loss_changes":[1.374078E15,4.552887E14,0E0,3.0882996E13,3.4814116E13,3.2007405E12,1.1315607E13,7.049845E12,5.0348425E10,0E0,0E0,0E0,0E0,0E0,0E0,0E0,0E0],"parents":[2147483647,0,0,1,1,3,3,4,4,5,5,6,6,7,7,8,8],"right_children":[2,4,-1,6,8,10,12,14,16,-1,-1,-1,-1,-1,-1,-1,-1],"split_conditions":[3.66E7,2.021E3,8.492033E5,2.016E3,2.2E7,2.1E6,8E6,2.023E3,2.023E3,-2.1439398E5,-1.2235348E5,-7.844507E4,2.227727E3,1.2296771E5,2.5031334E4,1.0714548E5,2.5537745E5],"split_indices":[2,0,0,0,2,2,2,0,0,0,0,0,0,0,0,0,0],"split_type":[0,0,0,0,0,0,0,0,0,0,0,0,0,0,0,0,0],"sum_hessian":[2.96E2,2.82E2,1.4E1,2.08E2,7.4E1,9.8E1,1.1E2,3.1E1,4.3E1,1.4E1,8.4E1,8.9E1,2.1E1,1.3E1,1.8E1,1.1E1,3.2E1],"tree_param":{"num_deleted":"0","num_feature":"3","num_nodes":"17","size_leaf_vector":"1"}},{"base_weights":[3.3558753E5,3.9288342E6,-7.3405906E5,6.3752356E5,2.3296955E5,8.09148E5,-9.768389E5,1.2568745E5,1.3156466E5,-1.4775566E5,-7.426448E5,-1.7234441E4,2.8247959E4,-8.854027E4,-3.5597703E4],"categories":[],"categories_nodes":[],"categories_segments":[],"categories_sizes":[],"default_left":[0,0,0,0,0,0,0,0,0,0,0,0,0,0,0],"id":21,"left_children":[1,3,5,-1,-1,7,9,11,-1,-1,13,-1,-1,-1,-1],"loss_changes":[1.1405667E15,1.9176344E14,9.012374E13,0E0,0E0,1.0943038E13,1.8083792E13,1.178E12,0E0,0E0,6.5384753E12,0E0,0E0,0E0,0E0],"parents":[2147483647,0,0,1,1,2,2,5,5,6,6,7,7,10,10],"right_children":[2,4,6,-1,-1,8,10,12,-1,-1,14,-1,-1,-1,-1],"split_conditions":[7.6871E4,2.8013E4,1.0391E5,6.3752356E5,2.3296955E5,2.022E3,2.015E3,2.019E3,1.3156466E5,-1.4775566E5,2.019E3,-1.7234441E4,2.8247959E4,-8.854027E4,-3.5597703E4],"split_indices":[1,1,1,0,0,0,0,0,0,0,0,0,0,0,0],"split_type":[0,0,0,0,0,0,0,0,0,0,0,0,0,0,0],"sum_hessian":[2.88E2,6.3E1,2.25E2,1.9E1,4.4E1,2.9E1,1.96E2,1.5E1,1.4E1,5.4E1,1.42E2,5E0,1E1,9.9E1,4.3E1],"tree_param":{"num_deleted":"0","num_feature":"3","num_nodes":"15","size_leaf_vector":"1"}},{"base_weights":[2.3750978E5,-2.0242586E5,7.5430456E5,-9.58879E5,1.4108364E6,-1.8893648E5,-8.3607225E5,1.6991674E6,2.278918E5,3.4048516E4,-8.925401E4,9.086531E4,1.926668E5,-2.9575826E4,5.305002E4],"categories":[],"categories_nodes":[],"categories_segments":[],"categories_sizes":[],"default_left":[0,0,0,0,0,0,0,0,0,0,0,0,0,0,0],"id":22,"left_children":[1,3,-1,5,7,-1,9,11,13,-1,-1,-1,-1,-1,-1],"loss_changes":[9.621823E14,3.5456592E14,0E0,1.4612955E13,2.9784256E13,0E0,1.3677567E13,4.5549806E12,4.587561E12,0E0,0E0,0E0,0E0,0E0,0E0],"parents":[2147483647,0,0,1,1,3,3,4,4,6,6,7,7,8,8],"right_children":[2,4,-1,6,8,-1,10,12,14,-1,-1,-1,-1,-1,-1],"split_conditions":[4.5E7,1.2E7,7.5430456E5,3E6,1.0391E5,-1.8893648E5,9.031E4,2.08E7,1.28534E5,3.4048516E4,-8.925401E4,9.086531E4,1.926668E5,-2.9575826E4,5.305002E4],"split_indices":[2,2,0,2,1,0,1,2,1,0,0,0,0,0,0],"split_type":[0,0,0,0,0,0,0,0,0,0,0,0,0,0,0],"sum_hessian":[2.92E2,2.8E2,1.2E1,1.92E2,8.8E1,1.4E1,1.78E2,6.9E1,1.9E1,7E0,1.71E2,2.1E1,4.8E1,7E0,1.2E1],"tree_param":{"num_deleted":"0","num_feature":"3","num_nodes":"15","size_leaf_vector":"1"}},{"base_weights":[2.5355522E5,-1.3053168E5,6.798831E5,-8.3119694E5,1.3060571E6,-1.753359E5,-7.1465356E5,1.5779102E6,8.312137E3,1.3434851E4,-7.823343E4,9.019373E4,1.7991539E5,-1.7411361E4,1.7473893E4],"categories":[],"categories_nodes":[],"categories_segments":[],"categories_sizes":[],"default_left":[0,0,0,0,0,0,0,0,0,0,0,0,0,0,0],"id":23,"left_children":[1,3,-1,5,7,-1,9,11,13,-1,-1,-1,-1,-1,-1],"loss_changes":[7.711935E14,3.0035233E14,0E0,1.5229157E13,3.4508435E13,0E0,1.1213296E13,4.000309E12,8.200538E11,0E0,0E0,0E0,0E0,0E0,0E0],"parents":[2147483647,0,0,1,1,3,3,4,4,6,6,7,7,8,8],"right_children":[2,4,-1,6,8,-1,10,12,14,-1,-1,-1,-1,-1,-1],"split_conditions":[4.5E7,1.2E7,6.798831E5,3E6,1.0391E5,-1.753359E5,9.3943E4,2.08E7,1.28534E5,1.3434851E4,-7.823343E4,9.019373E4,1.7991539E5,-1.7411361E4,1.7473893E4],"split_indices":[2,2,0,2,1,0,1,2,1,0,0,0,0,0,0],"split_type":[0,0,0,0,0,0,0,0,0,0,0,0,0,0,0],"sum_hessian":[3E2,2.88E2,1.2E1,1.95E2,9.3E1,1.4E1,1.81E2,7.6E1,1.7E1,1.3E1,1.68E2,2.5E1,5.1E1,8E0,9E0],"tree_param":{"num_deleted":"0","num_feature":"3","num_nodes":"15","size_leaf_vector":"1"}},{"base_weights":[2.1304908E5,-6.141646E5,2.6288508E6,-8.0887794E5,2.6107595E5,1.5902006E5,6.2215975E5,-1.2059388E6,-5.949812E5,-2.1800445E4,5.249211E5,-1.3212623E5,-1.748983E4,3.18383E3,-6.205106E4,-1.3662523E4,1.1560107E4,6.404128E4,9.733409E3],"categories":[],"categories_nodes":[],"categories_segments":[],"categories_sizes":[],"default_left":[0,0,0,0,0,0,0,0,0,0,0,0,0,0,0,0,0,0,0],"id":24,"left_children":[1,3,5,7,9,-1,-1,11,13,15,17,-1,-1,-1,-1,-1,-1,-1,-1],"loss_changes":[6.195783E14,4.0593573E13,2.4532893E14,1.2634066E13,3.4904544E12,0E0,0E0,6.216571E12,2.2430928E12,5.0495183E11,8.735157E11,0E0,0E0,0E0,0E0,0E0,0E0,0E0,0E0],"parents":[2147483647,0,0,1,1,2,2,3,3,4,4,7,7,8,8,9,9,10,10],"right_children":[2,4,6,8,10,-1,-1,12,14,16,18,-1,-1,-1,-1,-1,-1,-1,-1],"split_conditions":[1.8E7,8E6,4.5E7,3.9E6,2.02E3,1.5902006E5,6.2215975E5,2.015E3,4.2E6,1.2E7,2.022E3,-1.3212623E5,-1.748983E4,3.18383E3,-6.205106E4,-1.3662523E4,1.1560107E4,6.404128E4,9.733409E3],"split_indices":[2,2,2,2,0,0,0,0,2,2,0,0,0,0,0,0,0,0,0],"split_type":[0,0,0,0,0,0,0,0,0,0,0,0,0,0,0,0,0,0,0],"sum_hessian":[3.01E2,2.27E2,7.4E1,1.86E2,4.1E1,6.3E1,1.1E1,5.7E1,1.29E2,2.2E1,1.9E1,5E1,7E0,5E0,1.24E2,1.2E1,1E1,1.3E1,6E0],"tree_param":{"num_deleted":"0","num_feature":"3","num_nodes":"19","size_leaf_vector":"1"}},{"base_weights":[1.1093986E5,-3.8813012E5,3.6423662E6,-7.5226544E5,4.2104334E5,1.7629255E6,5.936534E5,-1.4320038E5,-6.5194125E5,9.4055225E5,8.020676E4,5.049319E4,1.9266347E5,1.0322129E4,-6.965301E4,2.2210357E4,1.517478E5,-5.140248E4,3.276924E4],"categories":[],"categories_nodes":[],"categories_segments":[],"categories_sizes":[],"default_left":[0,0,0,0,0,0,0,0,0,0,0,0,0,0,0,0,0,0,0],"id":25,"left_children":[1,3,5,7,9,11,-1,-1,13,15,17,-1,-1,-1,-1,-1,-1,-1,-1],"loss_changes":[5.4108454E14,8.113881E13,1.1151819E14,8.152603E12,1.502769E13,9.023542E11,0E0,0E0,6.184711E12,1.2407523E13,9.371908E12,0E0,0E0,0E0,0E0,0E0,0E0,0E0,0E0],"parents":[2147483647,0,0,1,1,2,2,3,3,4,4,5,5,8,8,9,9,10,10],"right_children":[2,4,6,8,10,12,-1,-1,14,16,18,-1,-1,-1,-1,-1,-1,-1,-1],"split_conditions":[2.5E7,8E6,4.5E7,3E6,6.9171E4,1.4601E4,5.936534E5,-1.4320038E5,9.3943E4,2E7,8.2313E4,5.049319E4,1.9266347E5,1.0322129E4,-6.965301E4,2.2210357E4,1.517478E5,-5.140248E4,3.276924E4],"split_indices":[2,2,2,2,1,1,0,0,1,2,1,0,0,0,0,0,0,0,0],"split_type":[0,0,0,0,0,0,0,0,0,0,0,0,0,0,0,0,0,0,0],"sum_hessian":[2.98E2,2.65E2,3.3E1,1.83E2,8.2E1,2.3E1,1E1,1.5E1,1.68E2,2.9E1,5.3E1,5E0,1.8E1,9E0,1.59E2,1.6E1,1.3E1,1.4E1,3.9E1],"tree_param":{"num_deleted":"0","num_feature":"3","num_nodes":"19","size_leaf_vector":"1"}},{"base_weights":[1.9308858E5,-1.173211E5,5.248928E5,-6.301952E5,9.649757E5,-1.4770273E5,-5.2800656E5,3.265569E5,1.2187716E6,-6.803549E4,-3.5243496E4,5.3626863E4,-4.2391434E4,9.4179795E3,1.394234E5],"categories":[],"categories_nodes":[],"categories_segments":[],"categories_sizes":[],"default_left":[0,0,0,0,0,0,0,0,0,0,0,0,0,0,0],"id":26,"left_children":[1,3,-1,5,7,-1,9,11,13,-1,-1,-1,-1,-1,-1],"loss_changes":[4.6133844E14,1.5846356E14,0E0,1.2802157E13,1.2916602E13,0E0,3.6157417E12,6.330287E12,1.1972154E13,0E0,0E0,0E0,0E0,0E0,0E0],"parents":[2147483647,0,0,1,1,3,3,4,4,6,6,7,7,8,8],"right_children":[2,4,-1,6,8,-1,10,12,14,-1,-1,-1,-1,-1,-1],"split_conditions":[3.66E7,1.2E7,5.248928E5,2.1E6,2.022E3,-1.4770273E5,2.016E3,1.7E7,1.8E7,-6.803549E4,-3.5243496E4,5.3626863E4,-4.2391434E4,9.4179795E3,1.394234E5],"split_indices":[2,2,0,2,0,0,0,2,2,0,0,0,0,0,0],"split_type":[0,0,0,0,0,0,0,0,0,0,0,0,0,0,0],"sum_hessian":[2.87E2,2.75E2,1.2E1,1.88E2,8.7E1,1.3E1,1.75E2,2.8E1,5.9E1,8.6E1,8.9E1,2.3E1,5E0,9E0,5E1],"tree_param":{"num_deleted":"0","num_feature":"3","num_nodes":"15","size_leaf_vector":"1"}},{"base_weights":[2.0444767E5,3.3403547E5,-2.3741519E5,6.92455E5,-5.461294E5,2.0124434E5,8.43139E4,-8.516942E5,-3.8610534E5,-8.23319E3,3.0288557E4,-3.1239139E4,-9.297366E4,-2.509622E4,-7.212427E4],"categories":[],"categories_nodes":[],"categories_segments":[],"categories_sizes":[],"default_left":[0,0,0,0,0,0,0,0,0,0,0,0,0,0,0],"id":27,"left_children":[1,-1,3,5,7,9,-1,11,13,-1,-1,-1,-1,-1,-1],"loss_changes":[4.2658575E14,0E0,7.997229E13,4.332844E12,8.477611E12,7.876157E11,0E0,1.3677164E12,5.6622454E12,0E0,0E0,0E0,0E0,0E0,0E0],"parents":[2147483647,0,0,2,2,3,3,4,4,5,5,7,7,8,8],"right_children":[2,-1,4,6,8,10,-1,12,14,-1,-1,-1,-1,-1,-1],"split_conditions":[4.464E4,3.3403547E5,1.0391E5,2.022E3,2.015E3,2.019E3,8.43139E4,1.57542E5,2.30859E5,-8.23319E3,3.0288557E4,-3.1239139E4,-9.297366E4,-2.509622E4,-7.212427E4],"split_indices":[1,0,1,0,0,0,0,1,1,0,0,0,0,0,0],"split_type":[0,0,0,0,0,0,0,0,0,0,0,0,0,0,0],"sum_hessian":[3E2,3.3E1,2.67E2,6.5E1,2.02E2,1.8E1,4.7E1,6.2E1,1.4E2,5E0,1.3E1,1.1E1,5.1E1,1.06E2,3.4E1],"tree_param":{"num_deleted":"0","num_feature":"3","num_nodes":"15","size_leaf_vector":"1"}},{"base_weights":[1.2319074E5,-1.5911916E5,5.1133384E5,-5.24174E5,5.42441E5,-1.2570325E5,-4.2066306E5,2.1891933E5,1.2608382E6,-5.568899E4,-2.7510357E4,3.9594055E4,8.458761E3,1.4545698E5,2.6504281E4],"categories":[],"categories_nodes":[],"categories_segments":[],"categories_sizes":[],"default_left":[0,0,0,0,0,0,0,0,0,0,0,0,0,0,0],"id":28,"left_children":[1,3,-1,5,7,-1,9,11,13,-1,-1,-1,-1,-1,-1],"loss_changes":[4.210635E14,7.441242E13,0E0,1.1769246E13,2.1861595E13,0E0,2.6842518E12,1.6160082E12,3.8598921E12,0E0,0E0,0E0,0E0,0E0,0E0],"parents":[2147483647,0,0,1,1,3,3,4,4,6,6,7,7,8,8],"right_children":[2,4,-1,6,8,-1,10,12,14,-1,-1,-1,-1,-1,-1],"split_conditions":[3.66E7,1.2E7,5.1133384E5,3E6,2.5E7,-1.2570325E5,2.016E3,1.7E7,3.3E7,-5.568899E4,-2.7510357E4,3.9594055E4,8.458761E3,1.4545698E5,2.6504281E4],"split_indices":[2,2,0,2,2,0,0,2,2,0,0,0,0,0,0],"split_type":[0,0,0,0,0,0,0,0,0,0,0,0,0,0,0],"sum_hessian":[2.91E2,2.8E2,1.1E1,1.85E2,9.5E1,1.6E1,1.69E2,7E1,2.5E1,8E1,8.9E1,2.6E1,4.4E1,1.9E1,6E0],"tree_param":{"num_deleted":"0","num_feature":"3","num_nodes":"15","size_leaf_vector":"1"}},{"base_weights":[1.1863508E5,2.4766473E5,-2.6783053E5,5.0713366E5,-4.824738E5,-6.44604E3,5.6392425E5,-7.540221E4,-3.3305988E5,2.3995693E4,7.382624E4,-3.756897E3,-3.9500137E4],"categories":[],"categories_nodes":[],"categories_segments":[],"categories_sizes":[],"default_left":[0,0,0,0,0,0,0,0,0,0,0,0,0],"id":29,"left_children":[1,-1,3,5,7,-1,9,-1,11,-1,-1,-1,-1],"loss_changes":[2.849054E14,0E0,4.6135427E13,2.1618848E12,7.4269673E12,0E0,2.277115E12,0E0,2.6163628E12,0E0,0E0,0E0,0E0],"parents":[2147483647,0,0,2,2,3,3,4,4,6,6,8,8],"right_children":[2,-1,4,6,8,-1,10,-1,12,-1,-1,-1,-1],"split_conditions":[5.6371E4,2.4766473E5,1.0391E5,2.019E3,2.015E3,-6.44604E3,7.1574E4,-7.540221E4,1.54283E5,2.3995693E4,7.382624E4,-3.756897E3,-3.9500137E4],"split_indices":[1,0,1,0,0,0,1,0,1,0,0,0,0],"split_type":[0,0,0,0,0,0,0,0,0,0,0,0,0],"sum_hessian":[3.04E2,3.9E1,2.65E2,5.6E1,2.09E2,5E0,5.1E1,6.7E1,1.42E2,2.2E1,2.9E1,2.6E1,1.16E2],"tree_param":{"num_deleted":"0","num_feature":"3","num_nodes":"13","size_leaf_vector":"1"}},{"base_weights":[1.5184816E5,2.899661E5,-2.0849636E5,4.471724E5,-4.2837053E5,6.2164406E5,1.2741058E5,-7.548634E4,-3.1222903E5,3.4272203E4,1.398618E5,-7.9836266E4,5.092687E4,-3.46262E4,1.2990793E4],"categories":[],"categories_nodes":[],"categories_segments":[],"categories_sizes":[],"default_left":[0,0,0,0,0,0,0,0,0,0,0,0,0,0,0],"id":30,"left_children":[1,-1,3,5,7,9,11,-1,13,-1,-1,-1,-1,-1,-1],"loss_changes":[2.9908045E14,0E0,3.973806E13,3.5092347E12,6.557102E12,7.13878E12,1.2991841E13,0E0,2.6174187E12,0E0,0E0,0E0,0E0,0E0,0E0],"parents":[2147483647,0,0,2,2,3,3,4,4,5,5,6,6,8,8],"right_children":[2,-1,4,6,8,10,12,-1,14,-1,-1,-1,-1,-1,-1],"split_conditions":[4.464E4,2.899661E5,1.0391E5,8.1241E4,2.014E3,7.1574E4,8.2313E4,-7.548634E4,2.02E3,3.4272203E4,1.398618E5,-7.9836266E4,5.092687E4,-3.46262E4,1.2990793E4],"split_indices":[1,0,1,1,0,1,1,0,0,0,0,0,0,0,0],"split_type":[0,0,0,0,0,0,0,0,0,0,0,0,0,0,0],"sum_hessian":[2.94E2,3E1,2.64E2,6.5E1,1.99E2,3.9E1,2.6E1,4.5E1,1.54E2,3.4E1,5E0,6E0,2E1,1.44E2,1E1],"tree_param":{"num_deleted":"0","num_feature":"3","num_nodes":"15","size_leaf_vector":"1"}},{"base_weights":[1.9287839E5,2.664209E5,-1.3469077E5,5.3114025E5,-3.490187E5,6.64923E5,1.9230519E5,-5.0416744E5,-1.8033412E5,3.2471521E4,1.5998045E5,-7.360839E4,5.8860832E4,-1.7443035E4,-5.3379062E4,-2.1020059E4,1.412032E4],"categories":[],"categories_nodes":[],"categories_segments":[],"categories_sizes":[],"default_left":[0,0,0,0,0,0,0,0,0,0,0,0,0,0,0,0,0],"id":31,"left_children":[1,-1,3,5,7,9,11,13,15,-1,-1,-1,-1,-1,-1,-1,-1],"loss_changes":[2.4222513E14,0E0,3.9029437E13,2.397787E12,4.9105024E12,1.2033074E13,1.1732337E13,5.5030946E11,1.1663421E12,0E0,0E0,0E0,0E0,0E0,0E0,0E0,0E0],"parents":[2147483647,0,0,2,2,3,3,4,4,5,5,6,6,7,7,8,8],"right_children":[2,-1,4,6,8,10,12,14,16,-1,-1,-1,-1,-1,-1,-1,-1],"split_conditions":[4.464E4,2.664209E5,1.00143E5,8.1035E4,2.016E3,7.1574E4,8.2313E4,1.57542E5,2.44408E5,3.2471521E4,1.5998045E5,-7.360839E4,5.8860832E4,-1.7443035E4,-5.3379062E4,-2.1020059E4,1.412032E4],"split_indices":[1,0,1,1,0,1,1,1,1,0,0,0,0,0,0,0,0],"split_type":[0,0,0,0,0,0,0,0,0,0,0,0,0,0,0,0,0],"sum_hessian":[2.92E2,3E1,2.62E2,6.2E1,2E2,4.1E1,2.1E1,9.9E1,1.01E2,3.5E1,6E0,5E0,1.6E1,1.1E1,8.8E1,9.4E1,7E0],"tree_param":{"num_deleted":"0","num_feature":"3","num_nodes":"17","size_leaf_vector":"1"}},{"base_weights":[1.0207361E5,-9.226756E4,3.851224E5,-3.7186956E5,4.6316175E5,-1.0095997E5,-2.9157312E5,-4.3000555E4,5.4304506E5,2.5479059E4,-3.207074E4,9.659938E4,2.102794E4],"categories":[],"categories_nodes":[],"categories_segments":[],"categories_sizes":[],"default_left":[0,0,0,0,0,0,0,0,0,0,0,0,0],"id":32,"left_children":[1,3,-1,5,7,-1,9,-1,11,-1,-1,-1,-1],"loss_changes":[2.2181822E14,4.620853E13,0E0,8.6160064E12,8.302482E12,0E0,3.3056275E12,0E0,1.2214178E13,0E0,0E0,0E0,0E0],"parents":[2147483647,0,0,1,1,3,3,4,4,6,6,8,8],"right_children":[2,4,-1,6,8,-1,10,-1,12,-1,-1,-1,-1],"split_conditions":[4.5E7,1.2E7,3.851224E5,3E6,1.4601E4,-1.0095997E5,9.031E4,-4.3000555E4,6.9171E4,2.5479059E4,-3.207074E4,9.659938E4,2.102794E4],"split_indices":[2,2,0,2,1,0,1,0,1,0,0,0,0],"split_type":[0,0,0,0,0,0,0,0,0,0,0,0,0],"sum_hessian":[2.97E2,2.87E2,1E1,1.92E2,9.5E1,1.5E1,1.77E2,6E0,8.9E1,7E0,1.7E2,3.5E1,5.4E1],"tree_param":{"num_deleted":"0","num_feature":"3","num_nodes":"13","size_leaf_vector":"1"}},{"base_weights":[1.5064725E5,1.6951768E6,-2.0401489E5,8.196965E5,2.31731E6,1.4817653E5,-3.8139906E5,1.3507361E5,4.5781656E5,2.955122E5,3.4666332E4,-6.630387E4,2.738806E5,-5.7571582E4,-2.869485E5,5.472703E4,1.8568822E4,1.9553993E3,1.25328555E5,-2.2281965E4,-4.126909E4],"categories":[],"categories_nodes":[],"categories_segments":[],"categories_sizes":[],"default_left":[0,0,0,0,0,0,0,0,0,0,0,0,0,0,0,0,0,0,0,0,0],"id":33,"left_children":[1,3,5,7,9,11,13,-1,15,-1,-1,-1,17,-1,19,-1,-1,-1,-1,-1,-1],"loss_changes":[1.6442168E14,2.1003816E13,1.5650975E13,2.8654017E12,3.2584877E13,9.677649E12,2.2022927E12,0E0,1.2480571E11,0E0,0E0,0E0,1.9306383E13,0E0,5.159298E11,0E0,0E0,0E0,0E0,0E0,0E0],"parents":[2147483647,0,0,1,1,2,2,3,3,4,4,5,5,6,6,8,8,12,12,14,14],"right_children":[2,4,6,8,10,12,14,-1,16,-1,-1,-1,18,-1,20,-1,-1,-1,-1,-1,-1],"split_conditions":[6.9171E4,2.025E3,1.57542E5,2.023E3,2.8013E4,7.1574E4,2.014E3,1.3507361E5,5.6371E4,2.955122E5,3.4666332E4,-6.630387E4,2.023E3,-5.7571582E4,2.30859E5,5.472703E4,1.8568822E4,1.9553993E3,1.25328555E5,-2.2281965E4,-4.126909E4],"split_indices":[1,0,1,0,1,1,0,0,1,0,0,0,0,0,1,0,0,0,0,0,0],"split_type":[0,0,0,0,0,0,0,0,0,0,0,0,0,0,0,0,0,0,0,0,0],"sum_hessian":[2.92E2,5.1E1,2.41E2,2.6E1,2.5E1,8.1E1,1.6E2,5E0,2.1E1,1.7E1,8E0,8E0,7.3E1,4.4E1,1.16E2,1.2E1,9E0,6.2E1,1.1E1,8.6E1,3E1],"tree_param":{"num_deleted":"0","num_feature":"3","num_nodes":"21","size_leaf_vector":"1"}},{"base_weights":[8.043183E4,-1.01426195E5,3.4968E5,-3.0255734E5,3.2120894E5,-8.337919E4,-2.4494108E5,-5.4584996E4,4.113408E5,-2.7099998E4,2.8570672E4,2.2951924E4,6.6636336E4],"categories":[],"categories_nodes":[],"categories_segments":[],"categories_sizes":[],"default_left":[0,0,0,0,0,0,0,0,0,0,0,0,0],"id":34,"left_children":[1,3,-1,5,7,-1,9,-1,11,-1,-1,-1,-1],"loss_changes":[1.8443376E14,2.4627366E13,0E0,4.9473577E12,8.468718E12,0E0,2.9176732E12,0E0,3.31572E12,0E0,0E0,0E0,0E0],"parents":[2147483647,0,0,1,1,3,3,4,4,6,6,8,8],"right_children":[2,4,-1,6,8,-1,10,-1,12,-1,-1,-1,-1],"split_conditions":[4.5E7,1.2E7,3.4968E5,2.1E6,1.4601E4,-8.337919E4,2.5498E5,-5.4584996E4,2.3E7,-2.7099998E4,2.8570672E4,2.2951924E4,6.6636336E4],"split_indices":[2,2,0,2,1,0,1,0,2,0,0,0,0],"split_type":[0,0,0,0,0,0,0,0,0,0,0,0,0],"sum_hessian":[2.89E2,2.79E2,1E1,1.9E2,8.9E1,1.2E1,1.78E2,6E0,8.3E1,1.72E2,6E0,5.4E1,2.9E1],"tree_param":{"num_deleted":"0","num_feature":"3","num_nodes":"13","size_leaf_vector":"1"}},{"base_weights":[1.02178836E5,1.1402065E6,-2.238336E5,2.1000565E6,6.3515944E5,-2.5961158E5,6.1948863E4,7.2353894E5,3.52776E5,3.853934E5,1.3695738E5,-4.549178E4,-3.247553E5,1.7277598E5,-3.2722285E4,6.1469188E4,-5.5862355E4,-2.333031E4,4.871312E4,-4.8325816E4,-2.4891607E4],"categories":[],"categories_nodes":[],"categories_segments":[],"categories_sizes":[],"default_left":[0,0,0,0,0,0,0,0,0,0,0,0,0,0,0,0,0,0,0,0,0],"id":35,"left_children":[1,3,5,7,9,11,-1,13,-1,15,-1,17,19,-1,-1,-1,-1,-1,-1,-1,-1],"loss_changes":[1.0347587E14,2.8718819E13,7.8644626E12,3.2438596E13,7.449621E12,3.1064033E12,0E0,2.1820361E13,0E0,1.2107066E13,0E0,6.4701716E12,1.4901544E12,0E0,0E0,0E0,0E0,0E0,0E0,0E0,0E0],"parents":[2147483647,0,0,1,1,2,2,3,3,4,4,5,5,7,7,9,9,11,11,12,12],"right_children":[2,4,6,8,10,12,-1,14,-1,16,-1,18,20,-1,-1,-1,-1,-1,-1,-1,-1],"split_conditions":[8.1241E4,2.8013E4,2.023E3,2.1655E4,7.1574E4,1.57542E5,6.1948863E4,9.508E3,3.52776E5,6.9171E4,1.3695738E5,1.3224E5,2.014E3,1.7277598E5,-3.2722285E4,6.1469188E4,-5.5862355E4,-2.333031E4,4.871312E4,-4.8325816E4,-2.4891607E4],"split_indices":[1,1,0,1,1,1,0,1,0,1,0,1,0,0,0,0,0,0,0,0,0],"split_type":[0,0,0,0,0,0,0,0,0,0,0,0,0,0,0,0,0,0,0,0,0],"sum_hessian":[2.97E2,6.8E1,2.29E2,1.8E1,5E1,2.23E2,6E0,1.3E1,5E0,4.3E1,7E0,5.4E1,1.69E2,5E0,8E0,3.6E1,7E0,4.2E1,1.2E1,4.6E1,1.23E2],"tree_param":{"num_deleted":"0","num_feature":"3","num_nodes":"21","size_leaf_vector":"1"}},{"base_weights":[1.237806E5,-7.3043E4,3.2495097E5,-2.909397E5,3.7325453E5,-8.761825E4,-2.0761408E5,4.5271988E5,-1.705137E4,-2.2917824E4,-5.039691E3,2.2563236E4,6.856665E4],"categories":[],"categories_nodes":[],"categories_segments":[],"categories_sizes":[],"default_left":[0,0,0,0,0,0,0,0,0,0,0,0,0],"id":36,"left_children":[1,3,-1,5,7,-1,9,11,-1,-1,-1,-1,-1],"loss_changes":[1.8698237E14,2.8647285E13,0E0,8.6973056E12,4.577417E12,0E0,5.4910622E11,3.7757942E12,0E0,0E0,0E0,0E0,0E0],"parents":[2147483647,0,0,1,1,3,3,4,4,6,6,7,7],"right_children":[2,4,-1,6,8,-1,10,12,-1,-1,-1,-1,-1],"split_conditions":[4.5E7,1.2E7,3.2495097E5,3E6,3E7,-8.761825E4,7.5E6,2.2E7,-1.705137E4,-2.2917824E4,-5.039691E3,2.2563236E4,6.856665E4],"split_indices":[2,2,0,2,2,0,2,2,0,0,0,0,0],"split_type":[0,0,0,0,0,0,0,0,0,0,0,0,0],"sum_hessian":[2.97E2,2.84E2,1.3E1,1.92E2,9.2E1,1.8E1,1.74E2,8.1E1,1.1E1,1.51E2,2.3E1,4.6E1,3.5E1],"tree_param":{"num_deleted":"0","num_feature":"3","num_nodes":"13","size_leaf_vector":"1"}},{"base_weights":[9.821569E4,1.6620358E6,-8.450632E4,3.1652888E5,2.3229322E6,1.7122644E5,-2.4933425E5,9.12316E4,-4.9710133E4,3.0511138E5,9.211709E4,4.726474E5,4.157701E4,-3.8123003E5,-1.8398873E5,-1.1784722E4,7.293295E4,-6.246905E4,1.6824176E4,-4.2008203E4,-8.316441E3,-2.170931E4,2.427239E4],"categories":[],"categories_nodes":[],"categories_segments":[],"categories_sizes":[],"default_left":[0,0,0,0,0,0,0,0,0,0,0,0,0,0,0,0,0,0,0,0,0,0,0],"id":37,"left_children":[1,3,5,7,9,11,13,-1,-1,-1,-1,15,17,19,21,-1,-1,-1,-1,-1,-1,-1,-1],"loss_changes":[8.47111E13,2.3890084E13,1.1510174E13,1.0023574E13,6.361736E12,4.1222815E12,1.0713899E12,0E0,0E0,0E0,0E0,5.279968E12,7.361295E12,4.0434244E11,1.9585947E12,0E0,0E0,0E0,0E0,0E0,0E0,0E0,0E0],"parents":[2147483647,0,0,1,1,2,2,3,3,4,4,5,5,6,6,11,11,12,12,13,13,14,14],"right_children":[2,4,6,8,10,12,14,-1,-1,-1,-1,16,18,20,22,-1,-1,-1,-1,-1,-1,-1,-1],"split_conditions":[4.464E4,1.4601E4,1.57542E5,9.508E3,2.8013E4,6.9171E4,2.015E3,9.12316E4,-4.9710133E4,3.0511138E5,9.211709E4,5.3713E4,7.1574E4,2.07825E5,2.5498E5,-1.1784722E4,7.293295E4,-6.246905E4,1.6824176E4,-4.2008203E4,-8.316441E3,-2.170931E4,2.427239E4],"split_indices":[1,1,1,1,1,1,0,0,0,0,0,1,1,1,1,0,0,0,0,0,0,0,0],"split_type":[0,0,0,0,0,0,0,0,0,0,0,0,0,0,0,0,0,0,0,0,0,0,0],"sum_hessian":[2.89E2,2.6E1,2.63E2,1.1E1,1.5E1,1.03E2,1.6E2,6E0,5E0,6E0,9E0,2.7E1,7.6E1,4.5E1,1.15E2,9E0,1.8E1,9E0,6.7E1,3.8E1,7E0,1.09E2,6E0],"tree_param":{"num_deleted":"0","num_feature":"3","num_nodes":"23","size_leaf_vector":"1"}},{"base_weights":[6.888408E4,-6.711197E4,2.6661134E5,-2.5807566E5,2.4620008E5,-8.911356E4,-1.7453327E5,-4.6738527E4,3.1602888E5,-1.1338847E4,-3.8128395E4,6.217635E4,8.826423E3],"categories":[],"categories_nodes":[],"categories_segments":[],"categories_sizes":[],"default_left":[0,0,0,0,0,0,0,0,0,0,0,0,0],"id":38,"left_children":[1,3,-1,5,7,-1,9,-1,11,-1,-1,-1,-1],"loss_changes":[1.0650531E14,1.7608915E13,0E0,8.847833E12,6.319363E12,0E0,1.8950018E12,0E0,7.0373333E12,0E0,0E0,0E0,0E0],"parents":[2147483647,0,0,1,1,3,3,4,4,6,6,8,8],"right_children":[2,4,-1,6,8,-1,10,-1,12,-1,-1,-1,-1],"split_conditions":[4.5E7,8E6,2.6661134E5,3E6,1.4601E4,-8.911356E4,2.30859E5,-4.6738527E4,6.9171E4,-1.1338847E4,-3.8128395E4,6.217635E4,8.826423E3],"split_indices":[2,2,0,2,1,0,1,0,1,0,0,0,0],"split_type":[0,0,0,0,0,0,0,0,0,0,0,0,0],"sum_hessian":[2.94E2,2.84E2,1E1,1.77E2,1.07E2,1.5E1,1.62E2,7E0,1E2,1.31E2,3.1E1,3.9E1,6.1E1],"tree_param":{"num_deleted":"0","num_feature":"3","num_nodes":"13","size_leaf_vector":"1"}},{"base_weights":[9.330582E4,1.3145153E5,-5.1063086E4,2.5413816E5,-1.5253231E5,-1.7242405E5,4.0788047E5,-1.6875016E5,1.1856765E4,-2.8505223E4,6.5210004E2,6.73661E4,1.184166E4,-1.3742128E4,-2.9902732E4],"categories":[],"categories_nodes":[],"categories_segments":[],"categories_sizes":[],"default_left":[0,0,0,0,0,0,0,0,0,0,0,0,0,0,0],"id":39,"left_children":[1,-1,3,5,7,9,11,13,-1,-1,-1,-1,-1,-1,-1],"loss_changes":[5.005353E13,0E0,8.1527335E12,4.6799656E12,9.6178746E11,4.325338E11,3.447829E12,5.577643E11,0E0,0E0,0E0,0E0,0E0,0E0,0E0],"parents":[2147483647,0,0,2,2,3,3,4,4,5,5,6,6,7,7],"right_children":[2,-1,4,6,8,10,12,14,-1,-1,-1,-1,-1,-1,-1],"split_conditions":[4.464E4,1.3145153E5,1.0391E5,5.7806E4,2.02E3,5.3713E4,8.1241E4,2.30859E5,1.1856765E4,-2.8505223E4,6.5210004E2,6.73661E4,1.184166E4,-1.3742128E4,-2.9902732E4],"split_indices":[1,0,1,1,0,1,1,1,0,0,0,0,0,0,0],"split_type":[0,0,0,0,0,0,0,0,0,0,0,0,0,0,0],"sum_hessian":[2.77E2,2.5E1,2.52E2,6.1E1,1.91E2,1.6E1,4.5E1,1.82E2,9E0,8E0,8E0,2E1,2.5E1,1.55E2,2.7E1],"tree_param":{"num_deleted":"0","num_feature":"3","num_nodes":"15","size_leaf_vector":"1"}},{"base_weights":[7.3954305E4,1.2557081E6,-8.140738E4,4.5861438E5,1.6399533E5,-2.0064089E5,1.17410086E5,8.269936E4,-1.5171481E4,-3.013992E5,-1.218733E5,1.8914381E5,-6.2993863E4,-9.013315E3,-3.3369676E4,-1.6195669E4,2.428938E4,-1.1385573E4,3.222801E4],"categories":[],"categories_nodes":[],"categories_segments":[],"categories_sizes":[],"default_left":[0,0,0,0,0,0,0,0,0,0,0,0,0,0,0,0,0,0,0],"id":40,"left_children":[1,3,5,7,-1,9,11,-1,-1,13,15,17,-1,-1,-1,-1,-1,-1,-1],"loss_changes":[5.3754905E13,6.6529715E12,6.3049753E12,4.6743227E12,0E0,1.1258571E12,6.0103653E12,0E0,0E0,3.2042752E11,1.6734228E12,4.05613E12,0E0,0E0,0E0,0E0,0E0,0E0,0E0],"parents":[2147483647,0,0,1,1,2,2,3,3,5,5,6,6,9,9,10,10,11,11],"right_children":[2,4,6,8,-1,10,12,-1,-1,14,16,18,-1,-1,-1,-1,-1,-1,-1],"split_conditions":[4.464E4,2.1655E4,2.019E3,9.508E3,1.6399533E5,2.015E3,2.17485E5,8.269936E4,-1.5171481E4,1.57542E5,2.5498E5,7.1574E4,-6.2993863E4,-9.013315E3,-3.3369676E4,-1.6195669E4,2.428938E4,-1.1385573E4,3.222801E4],"split_indices":[1,1,0,1,0,0,1,0,0,1,1,1,0,0,0,0,0,0,0],"split_type":[0,0,0,0,0,0,0,0,0,0,0,0,0,0,0,0,0,0,0],"sum_hessian":[2.85E2,2.9E1,2.56E2,1.3E1,1.6E1,1.6E2,9.6E1,7E0,6E0,6.4E1,9.6E1,9.1E1,5E0,1.1E1,5.3E1,8.9E1,7E0,2.8E1,6.3E1],"tree_param":{"num_deleted":"0","num_feature":"3","num_nodes":"19","size_leaf_vector":"1"}},{"base_weights":[7.124486E4,-5.8681043E4,1.1766636E6,-1.5887564E5,2.4609423E5,1.6265996E6,-1.0655038E4,-3.3532256E5,-7.184999E4,5.9338137E4,3.9555484E5,8.426644E5,2.3027767E5,-6.226674E4,-2.0317135E4,-4.7898654E2,-2.7057062E4,2.9554232E4,-5.5589645E4,1.2624674E5,3.5748188E3,1.4681822E5,-2.79613E4],"categories":[],"categories_nodes":[],"categories_segments":[],"categories_sizes":[],"default_left":[0,0,0,0,0,0,0,0,0,0,0,0,0,0,0,0,0,0,0,0,0,0,0],"id":41,"left_children":[1,3,5,7,9,11,-1,13,15,17,19,21,-1,-1,-1,-1,-1,-1,-1,-1,-1,-1,-1],"loss_changes":[4.3719244E13,8.593122E12,1.934223E13,3.1041698E12,1.8365297E12,3.019555E12,0E0,1.9496195E12,1.9524758E12,6.19833E12,1.1627338E13,1.5390695E13,0E0,0E0,0E0,0E0,0E0,0E0,0E0,0E0,0E0,0E0,0E0],"parents":[2147483647,0,0,1,1,2,2,3,3,4,4,5,5,7,7,8,8,9,9,10,10,11,11],"right_children":[2,4,6,8,10,12,-1,14,16,18,20,22,-1,-1,-1,-1,-1,-1,-1,-1,-1,-1,-1],"split_conditions":[2.025E3,2.02E3,2.8013E4,2.015E3,7.1574E4,1.4601E4,-1.0655038E4,1.76057E5,2.30859E5,6.9171E4,8.1035E4,9.508E3,2.3027767E5,-6.226674E4,-2.0317135E4,-4.7898654E2,-2.7057062E4,2.9554232E4,-5.5589645E4,1.2624674E5,3.5748188E3,1.4681822E5,-2.79613E4],"split_indices":[0,0,1,0,1,1,0,1,1,1,1,1,0,0,0,0,0,0,0,0,0,0,0],"split_type":[0,0,0,0,0,0,0,0,0,0,0,0,0,0,0,0,0,0,0,0,0,0,0],"sum_hessian":[2.97E2,2.7E2,2.7E1,2.05E2,6.5E1,1.9E1,8E0,6.3E1,1.42E2,3.2E1,3.3E1,1.4E1,5E0,1.4E1,4.9E1,1.1E2,3.2E1,2.5E1,7E0,6E0,2.7E1,8E0,6E0],"tree_param":{"num_deleted":"0","num_feature":"3","num_nodes":"23","size_leaf_vector":"1"}},{"base_weights":[8.602265E4,1.1846382E6,-5.3338125E4,3.3292728E5,1.6122566E6,3.4847566E5,-1.2589278E5,1.1194879E5,-4.0016824E4,2.6401722E5,5.334074E5,-1.971209E5,7.6410425E5,-8.043746E4,-9.130831E4,3.9610583E3,8.592597E4,-5.222793E3,-2.716135E4,1.1543323E5,3.1656438E4,3.8874113E4,-1.2141636E4],"categories":[],"categories_nodes":[],"categories_segments":[],"categories_sizes":[],"default_left":[0,0,0,0,0,0,0,0,0,0,0,0,0,0,0,0,0,0,0,0,0,0,0],"id":42,"left_children":[1,3,5,7,9,11,13,-1,-1,-1,15,17,19,-1,21,-1,-1,-1,-1,-1,-1,-1,-1],"loss_changes":[4.7625043E13,1.0063436E13,8.353168E12,1.2619153E13,1.7355803E13,1.0730789E13,5.264352E12,0E0,0E0,0E0,2.5652022E12,1.7732003E11,2.7136035E12,0E0,3.6180806E12,0E0,0E0,0E0,0E0,0E0,0E0,0E0,0E0],"parents":[2147483647,0,0,1,1,2,2,3,3,4,4,5,5,6,6,10,10,11,11,12,12,14,14],"right_children":[2,4,6,8,10,12,14,-1,-1,-1,16,18,20,-1,22,-1,-1,-1,-1,-1,-1,-1,-1],"split_conditions":[4.464E4,2.1655E4,8.1241E4,9.508E3,2.8013E4,5.7806E4,8.2313E4,1.1194879E5,-4.0016824E4,2.6401722E5,3.0868E4,5.6371E4,2.023E3,-8.043746E4,9.031E4,3.9610583E3,8.592597E4,-5.222793E3,-2.716135E4,1.1543323E5,3.1656438E4,3.8874113E4,-1.2141636E4],"split_indices":[1,1,1,1,1,1,1,0,0,0,1,1,0,0,1,0,0,0,0,0,0,0,0],"split_type":[0,0,0,0,0,0,0,0,0,0,0,0,0,0,0,0,0,0,0,0,0,0,0],"sum_hessian":[3.04E2,3E1,2.74E2,1.3E1,1.7E1,3.9E1,2.35E2,5E0,8E0,5E0,1.2E1,1.8E1,2.1E1,6E0,2.29E2,7E0,5E0,9E0,9E0,7E0,1.4E1,1E1,2.19E2],"tree_param":{"num_deleted":"0","num_feature":"3","num_nodes":"23","size_leaf_vector":"1"}},{"base_weights":[1.0612068E5,-1.4121298E5,6.526036E5,-2.946572E5,-6.048638E4,1.4639681E6,3.9273284E5,-4.6914525E5,-1.8492695E5,-8.534012E4,2.6525213E4,5.612682E4,2.0860339E5,1.04758594E6,1.983373E5,-6.0338574E4,-1.3381177E4,-4.933265E3,-2.2125506E4,-2.970615E3,-2.7781482E4,1.3613089E5,2.8620771E4,2.7878451E4,-1.3012444E4],"categories":[],"categories_nodes":[],"categories_segments":[],"categories_sizes":[],"default_left":[0,0,0,0,0,0,0,0,0,0,0,0,0,0,0,0,0,0,0,0,0,0,0,0,0],"id":43,"left_children":[1,3,5,7,9,11,13,15,17,19,-1,-1,-1,21,23,-1,-1,-1,-1,-1,-1,-1,-1,-1,-1],"loss_changes":[3.9117576E13,2.4006794E12,1.6101753E13,8.681811E11,1.230406E12,5.376649E12,8.5086605E12,6.316522E11,1.9171823E11,1.3722089E12,0E0,0E0,0E0,1.8737036E12,1.8725087E12,0E0,0E0,0E0,0E0,0E0,0E0,0E0,0E0,0E0,0E0],"parents":[2147483647,0,0,1,1,2,2,3,3,4,4,5,5,6,6,7,7,8,8,9,9,13,13,14,14],"right_children":[2,4,6,8,10,12,14,16,18,20,-1,-1,-1,22,24,-1,-1,-1,-1,-1,-1,-1,-1,-1,-1],"split_conditions":[2.02E3,2.015E3,2.8013E4,1.76057E5,2.5498E5,1.4601E4,2.022E3,2.014E3,1.92058E5,2.30859E5,2.6525213E4,5.612682E4,2.0860339E5,1.0391E5,2.025E3,-6.0338574E4,-1.3381177E4,-4.933265E3,-2.2125506E4,-2.970615E3,-2.7781482E4,1.3613089E5,2.8620771E4,2.7878451E4,-1.3012444E4],"split_indices":[0,0,1,1,1,1,0,0,1,1,0,0,0,1,0,0,0,0,0,0,0,0,0,0,0],"split_type":[0,0,0,0,0,0,0,0,0,0,0,0,0,0,0,0,0,0,0,0,0,0,0,0,0],"sum_hessian":[2.81E2,1.96E2,8.5E1,6.3E1,1.33E2,1.5E1,7E1,1.8E1,4.5E1,1.27E2,6E0,1E1,5E0,1.1E1,5.9E1,1E1,8E0,1.2E1,3.3E1,1.03E2,2.4E1,5E0,6E0,4.8E1,1.1E1],"tree_param":{"num_deleted":"0","num_feature":"3","num_nodes":"25","size_leaf_vector":"1"}},{"base_weights":[6.412636E4,-4.6542516E4,1.1097538E6,-1.2592381E5,1.9392456E5,1.6179155E5,-5.977223E3,-2.437165E5,-6.800612E4,3.1201444E5,-1.0537414E4,-5.3102895E4,-1.5365022E4,-1.1931929E3,-2.2678338E4,3.380738E3,1.1853733E5,-6.993695E4,2.7867123E4],"categories":[],"categories_nodes":[],"categories_segments":[],"categories_sizes":[],"default_left":[0,0,0,0,0,0,0,0,0,0,0,0,0,0,0,0,0,0,0],"id":44,"left_children":[1,3,5,7,9,-1,-1,11,13,15,17,-1,-1,-1,-1,-1,-1,-1,-1],"loss_changes":[3.2659407E13,5.046954E12,1.6529855E13,1.2611179E12,1.6100027E12,0E0,0E0,1.2222975E12,1.2240295E12,1.0004561E13,6.7517405E12,0E0,0E0,0E0,0E0,0E0,0E0,0E0,0E0],"parents":[2147483647,0,0,1,1,2,2,3,3,4,4,7,7,8,8,9,9,10,10],"right_children":[2,4,6,8,10,-1,-1,12,14,16,18,-1,-1,-1,-1,-1,-1,-1,-1],"split_conditions":[2.025E3,2.021E3,2.8013E4,2.015E3,8.1035E4,1.6179155E5,-5.977223E3,1.08812E5,2.30859E5,7.1574E4,8.2313E4,-5.3102895E4,-1.5365022E4,-1.1931929E3,-2.2678338E4,3.380738E3,1.1853733E5,-6.993695E4,2.7867123E4],"split_indices":[0,0,1,0,1,0,0,1,1,1,1,0,0,0,0,0,0,0,0],"split_type":[0,0,0,0,0,0,0,0,0,0,0,0,0,0,0,0,0,0,0],"sum_hessian":[2.75E2,2.53E2,2.2E1,1.92E2,6.1E1,1.4E1,8E0,5.8E1,1.34E2,3.7E1,2.4E1,8E0,5E1,1.03E2,3.1E1,3.2E1,5E0,5E0,1.9E1],"tree_param":{"num_deleted":"0","num_feature":"3","num_nodes":"19","size_leaf_vector":"1"}},{"base_weights":[-4.7385254E4,-1.4406833E5,1.9031994E5,-7.06403E4,-9.4289984E4,-1.1134441E5,9.8740375E4,-8.384287E3,-3.9840086E4,5.151219E4,-1.8314283E4],"categories":[],"categories_nodes":[],"categories_segments":[],"categories_sizes":[],"default_left":[0,0,0,0,0,0,0,0,0,0,0],"id":45,"left_children":[1,3,-1,-1,5,7,9,-1,-1,-1,-1],"loss_changes":[5.587303E13,7.5047486E12,0E0,0E0,9.207727E11,1.7592408E12,3.2886078E12,0E0,0E0,0E0,0E0],"parents":[2147483647,0,0,1,1,4,4,5,5,6,6],"right_children":[2,4,-1,-1,6,8,10,-1,-1,-1,-1],"split_conditions":[4.5E7,3E6,1.9031994E5,-7.06403E4,2.5E7,2.22E7,2.025E3,-8.384287E3,-3.9840086E4,5.151219E4,-1.8314283E4],"split_indices":[2,2,0,0,2,2,0,0,0,0,0],"split_type":[0,0,0,0,0,0,0,0,0,0,0],"sum_hessian":[2.84E2,2.75E2,9E0,1.7E1,2.58E2,2.39E2,1.9E1,2.24E2,1.5E1,6E0,1.3E1],"tree_param":{"num_deleted":"0","num_feature":"3","num_nodes":"11","size_leaf_vector":"1"}},{"base_weights":[1.1916206E5,1.1644405E4,1.9308881E5,-7.175879E4,3.5431925E5,-1.1814343E5,5.3571957E4,9.736332E5,4.662466E4,-8.97479E3,-2.6470457E4,1.3804085E4,-1.5441769E4,1.4753414E5,1.7463654E4,-7.219953E4,2.377292E4],"categories":[],"categories_nodes":[],"categories_segments":[],"categories_sizes":[],"default_left":[0,0,0,0,0,0,0,0,0,0,0,0,0,0,0,0,0],"id":46,"left_children":[1,3,-1,5,7,9,11,13,15,-1,-1,-1,-1,-1,-1,-1,-1],"loss_changes":[5.9104513E13,8.4725397E12,0E0,1.421054E12,1.0825476E13,6.13672E11,1.3012481E12,6.328156E12,7.321215E12,0E0,0E0,0E0,0E0,0E0,0E0,0E0,0E0],"parents":[2147483647,0,0,1,1,3,3,4,4,5,5,6,6,7,7,8,8],"right_children":[2,4,-1,6,8,10,12,14,16,-1,-1,-1,-1,-1,-1,-1,-1],"split_conditions":[4.5E7,2E7,1.9308881E5,7.5E6,2.22E7,7E6,2.022E3,2.023E3,2.3E7,-8.97479E3,-2.6470457E4,1.3804085E4,-1.5441769E4,1.4753414E5,1.7463654E4,-7.219953E4,2.377292E4],"split_indices":[2,2,0,2,2,2,0,0,2,0,0,0,0,0,0,0,0],"split_type":[0,0,0,0,0,0,0,0,0,0,0,0,0,0,0,0,0],"sum_hessian":[2.99E2,2.87E2,1.2E1,2.34E2,5.3E1,1.71E2,6.3E1,1.4E1,3.9E1,1.5E2,2.1E1,4.6E1,1.7E1,6E0,8E0,5E0,3.4E1],"tree_param":{"num_deleted":"0","num_feature":"3","num_nodes":"17","size_leaf_vector":"1"}},{"base_weights":[3.855023E4,-4.3684996E4,7.03051E5,-1.1488811E5,1.5170753E5,1.053699E6,-1.4914937E4,-6.858333E4,-2.809176E5,-5.5203074E4,2.4455464E5,4.31445E5,1.7091319E5,-1.3620599E4,1.9818037E4,-9.469349E3,-6.599199E4,6.644875E3,-2.3495492E4,6.810683E4,8.779438E3,9.388923E4,-3.6437664E4],"categories":[],"categories_nodes":[],"categories_segments":[],"categories_sizes":[],"default_left":[0,0,0,0,0,0,0,0,0,0,0,0,0,0,0,0,0,0,0,0,0,0,0],"id":47,"left_children":[1,3,5,7,9,11,-1,13,15,17,19,21,-1,-1,-1,-1,-1,-1,-1,-1,-1,-1,-1],"loss_changes":[1.6383238E13,3.8296245E12,1.0646932E13,1.4412598E12,1.489119E12,6.1013114E12,0E0,3.0753675E12,2.651882E12,6.684752E11,3.259284E12,9.383464E12,0E0,0E0,0E0,0E0,0E0,0E0,0E0,0E0,0E0,0E0,0E0],"parents":[2147483647,0,0,1,1,2,2,3,3,4,4,5,5,7,7,8,8,9,9,10,10,11,11],"right_children":[2,4,6,8,10,12,-1,14,16,18,20,22,-1,-1,-1,-1,-1,-1,-1,-1,-1,-1,-1],"split_conditions":[2.025E3,2.02E3,2.8013E4,2.30859E5,5.7806E4,1.4601E4,-1.4914937E4,2.019E3,2.019E3,5.6371E4,6.9171E4,9.508E3,1.7091319E5,-1.3620599E4,1.9818037E4,-9.469349E3,-6.599199E4,6.644875E3,-2.3495492E4,6.810683E4,8.779438E3,9.388923E4,-3.6437664E4],"split_indices":[0,0,1,1,1,1,0,0,0,1,1,1,0,0,0,0,0,0,0,0,0,0,0],"split_type":[0,0,0,0,0,0,0,0,0,0,0,0,0,0,0,0,0,0,0,0,0,0,0],"sum_hessian":[2.92E2,2.64E2,2.8E1,1.95E2,6.9E1,1.9E1,9E0,1.58E2,3.7E1,2.2E1,4.7E1,1.4E1,5E0,1.28E2,3E1,2.9E1,8E0,1.5E1,7E0,8E0,3.9E1,8E0,6E0],"tree_param":{"num_deleted":"0","num_feature":"3","num_nodes":"23","size_leaf_vector":"1"}},{"base_weights":[1.3432238E5,2.7908305E4,1.6727825E5,2.7733466E5,-5.3570324E4,-4.010474E5,4.8273797E5,-3.1824006E4,-2.5902428E4,-5.7282977E4,-6.216192E3,6.811966E3,7.217776E4,-4.5583647E3,3.728005E4],"categories":[],"categories_nodes":[],"categories_segments":[],"categories_sizes":[],"default_left":[0,0,0,0,0,0,0,0,0,0,0,0,0,0,0],"id":48,"left_children":[1,3,-1,5,7,9,11,-1,13,-1,-1,-1,-1,-1,-1],"loss_changes":[4.8062148E13,5.785024E12,0E0,1.072194E13,1.5405204E12,9.2803485E11,5.304334E12,0E0,1.6622062E12,0E0,0E0,0E0,0E0,0E0,0E0],"parents":[2147483647,0,0,1,1,3,3,4,4,5,5,6,6,8,8],"right_children":[2,4,-1,6,8,10,12,-1,14,-1,-1,-1,-1,-1,-1],"split_conditions":[3.66E7,9.031E4,1.6727825E5,3.8422E4,2.1E6,1.4601E4,2E7,-3.1824006E4,2.5498E5,-5.7282977E4,-6.216192E3,6.811966E3,7.217776E4,-4.5583647E3,3.728005E4],"split_indices":[2,1,0,1,2,1,2,0,1,0,0,0,0,0,0],"split_type":[0,0,0,0,0,0,0,0,0,0,0,0,0,0,0],"sum_hessian":[2.9E2,2.76E2,1.4E1,6.5E1,2.11E2,1.4E1,5.1E1,1.5E1,1.96E2,7E0,7E0,2.1E1,3E1,1.91E2,5E0],"tree_param":{"num_deleted":"0","num_feature":"3","num_nodes":"15","size_leaf_vector":"1"}},{"base_weights":[5.4871316E4,-3.0311559E4,1.6029595E6,-4.9463694E5,3.5166282E3,1.962166E5,5.4779008E4,-7.1847397E3,-6.1161758E4,-6.16429E4,1.1612367E5,-2.3085696E3,-1.0433411E4,3.4067094E4,-1.2234268E3],"categories":[],"categories_nodes":[],"categories_segments":[],"categories_sizes":[],"default_left":[0,0,0,0,0,0,0,0,0,0,0,0,0,0,0],"id":49,"left_children":[1,3,5,7,9,-1,-1,-1,-1,11,13,-1,-1,-1,-1],"loss_changes":[4.0463474E13,4.6266403E12,6.901014E11,7.6944717E11,2.0829317E12,0E0,0E0,0E0,0E0,2.842464E11,3.0183722E12,0E0,0E0,0E0,0E0],"parents":[2147483647,0,0,1,1,2,2,3,3,4,4,9,9,10,10],"right_children":[2,4,6,8,10,-1,-1,-1,-1,12,14,-1,-1,-1,-1],"split_conditions":[4.5E7,3E6,5E7,2E6,9.5E6,1.962166E5,5.4779008E4,-7.1847397E3,-6.1161758E4,6.2E6,2.022E3,-2.3085696E3,-1.0433411E4,3.4067094E4,-1.2234268E3],"split_indices":[2,2,2,2,2,0,0,0,0,2,0,0,0,0,0],"split_type":[0,0,0,0,0,0,0,0,0,0,0,0,0,0,0],"sum_hessian":[3E2,2.89E2,1.1E1,1.5E1,2.74E2,5E0,6E0,5E0,1E1,1.75E2,9.9E1,9.6E1,7.9E1,3.3E1,6.6E1],"tree_param":{"num_deleted":"0","num_feature":"3","num_nodes":"15","size_leaf_vector":"1"}},{"base_weights":[9.861461E4,2.0872242E4,1.354646E5,-9.102323E4,5.773693E4,5.449111E5,-1.9954404E4,-1.0088121E4,9.426403E4,-4.9939214E3,6.3242605E4],"categories":[],"categories_nodes":[],"categories_segments":[],"categories_sizes":[],"default_left":[0,0,0,0,0,0,0,0,0,0,0],"id":50,"left_children":[1,3,-1,-1,5,7,9,-1,-1,-1,-1],"loss_changes":[2.8469149E13,9.90806E12,0E0,0E0,1.0462901E13,1.0235792E13,4.891798E12,0E0,0E0,0E0,0E0],"parents":[2147483647,0,0,1,1,4,4,5,5,6,6],"right_children":[2,4,-1,-1,6,8,10,-1,-1,-1,-1],"split_conditions":[3.66E7,1.4601E4,1.354646E5,-9.102323E4,6.2692E4,2E7,2.5E7,-1.0088121E4,9.426403E4,-4.9939214E3,6.3242605E4],"split_indices":[2,1,0,0,1,2,2,0,0,0,0],"split_type":[0,0,0,0,0,0,0,0,0,0,0],"sum_hessian":[2.88E2,2.76E2,1.2E1,6E0,2.7E2,3.3E1,2.37E2,1.4E1,1.9E1,2.31E2,6E0],"tree_param":{"num_deleted":"0","num_feature":"3","num_nodes":"11","size_leaf_vector":"1"}},{"base_weights":[9.7335414E4,1.860271E4,1.4071632E6,-5.188873E4,3.448703E5,1.796326E5,4.9654293E4,-7.9640654E3,-4.893253E4,1.1285769E5,7.413084E4,-5.730538E3,5.4207996E4,-3.9326793E4,2.3261781E4],"categories":[],"categories_nodes":[],"categories_segments":[],"categories_sizes":[],"default_left":[0,0,0,0,0,0,0,0,0,0,0,0,0,0,0],"id":51,"left_children":[1,3,5,7,9,-1,-1,11,-1,-1,13,-1,-1,-1,-1],"loss_changes":[3.0910125E13,6.7362074E12,1.564683E12,4.6303643E12,1.0615062E13,0E0,0E0,6.2617955E12,0E0,0E0,3.7167762E12,0E0,0E0,0E0,0E0],"parents":[2147483647,0,0,1,1,2,2,3,3,4,4,7,7,10,10],"right_children":[2,4,6,8,10,-1,-1,12,-1,-1,14,-1,-1,-1,-1],"split_conditions":[4.5E7,2.2E7,5E7,2.023E3,2.22E7,1.796326E5,4.9654293E4,2.021E3,-4.893253E4,1.1285769E5,2.023E3,-5.730538E3,5.4207996E4,-3.9326793E4,2.3261781E4],"split_indices":[2,2,2,0,2,0,0,0,0,0,0,0,0,0,0],"split_type":[0,0,0,0,0,0,0,0,0,0,0,0,0,0,0],"sum_hessian":[2.96E2,2.84E2,1.2E1,2.37E2,4.7E1,5E0,7E0,2.2E2,1.7E1,8E0,3.9E1,2.06E2,1.4E1,8E0,3.1E1],"tree_param":{"num_deleted":"0","num_feature":"3","num_nodes":"15","size_leaf_vector":"1"}},{"base_weights":[8.2030055E4,1.2127694E4,1.3015315E5,4.098828E5,-3.5714184E4,-4.0156586E4,1.2961052E5,-5.5000324E4,3.5039285E4,-2.9224155E3,-4.244552E4],"categories":[],"categories_nodes":[],"categories_segments":[],"categories_sizes":[],"default_left":[0,0,0,0,0,0,0,0,0,0,0],"id":52,"left_children":[1,3,-1,5,7,-1,-1,9,-1,-1,-1],"loss_changes":[2.51539E13,5.496559E12,0E0,2.4895205E13,2.0250055E12,0E0,0E0,2.3282836E12,0E0,0E0,0E0],"parents":[2147483647,0,0,1,1,3,3,4,4,7,7],"right_children":[2,4,-1,6,8,-1,-1,10,-1,-1,-1],"split_conditions":[4.5E7,5.6371E4,1.3015315E5,3.8422E4,2.5E7,-4.0156586E4,1.2961052E5,2.22E7,3.5039285E4,-2.9224155E3,-4.244552E4],"split_indices":[2,1,0,1,2,0,0,2,0,0,0],"split_type":[0,0,0,0,0,0,0,0,0,0,0],"sum_hessian":[2.91E2,2.8E2,1.1E1,2.6E1,2.54E2,1.5E1,1.1E1,2.46E2,8E0,2.35E2,1.1E1],"tree_param":{"num_deleted":"0","num_feature":"3","num_nodes":"11","size_leaf_vector":"1"}},{"base_weights":[3.9078992E4,-1.8572785E4,1.12912336E5,-8.242336E4,1.6287188E4,-5.4081E4,3.6203356E5,-2.0424965E3,-3.1206775E4,1.0142637E5,8.1485103E3],"categories":[],"categories_nodes":[],"categories_segments":[],"categories_sizes":[],"default_left":[0,0,0,0,0,0,0,0,0,0,0],"id":53,"left_children":[1,3,-1,-1,5,7,9,-1,-1,-1,-1],"loss_changes":[1.8769225E13,8.127608E12,0E0,0E0,6.910169E12,2.025956E12,8.369906E12,0E0,0E0,0E0,0E0],"parents":[2147483647,0,0,1,1,4,4,5,5,6,6],"right_children":[2,4,-1,-1,6,8,10,-1,-1,-1,-1],"split_conditions":[4.5E7,1.4601E4,1.12912336E5,-8.242336E4,2.2E7,1.7E7,2.22E7,-2.0424965E3,-3.1206775E4,1.0142637E5,8.1485103E3],"split_indices":[2,1,0,0,2,2,2,0,0,0,0],"split_type":[0,0,0,0,0,0,0,0,0,0,0],"sum_hessian":[2.92E2,2.82E2,1E1,7E0,2.75E2,2.32E2,4.3E1,2.1E2,2.2E1,9E0,3.4E1],"tree_param":{"num_deleted":"0","num_feature":"3","num_nodes":"11","size_leaf_vector":"1"}},{"base_weights":[6.056048E4,-8.028184E3,1.1411569E6,-4.5654716E5,2.6747691E4,1.584978E5,3.608495E4,-1.49958955E4,-5.5628438E4,-3.413256E4,1.457609E5,2.294999E3,-9.635271E3,4.975169E4,-1.2640942E3],"categories":[],"categories_nodes":[],"categories_segments":[],"categories_sizes":[],"default_left":[0,0,0,0,0,0,0,0,0,0,0,0,0,0,0],"id":54,"left_children":[1,3,5,7,9,-1,-1,-1,-1,11,13,-1,-1,-1,-1],"loss_changes":[2.2354923E13,4.5531786E12,3.3740093E12,2.2504355E11,1.9956666E12,0E0,0E0,0E0,0E0,6.6456656E11,5.2132944E12,0E0,0E0,0E0,0E0],"parents":[2147483647,0,0,1,1,2,2,3,3,4,4,9,9,10,10],"right_children":[2,4,6,8,10,-1,-1,-1,-1,12,14,-1,-1,-1,-1],"split_conditions":[4.5E7,3E6,5E7,2E6,1.2E7,1.584978E5,3.608495E4,-1.49958955E4,-5.5628438E4,6.2E6,2.022E3,2.294999E3,-9.635271E3,4.975169E4,-1.2640942E3],"split_indices":[2,2,2,2,2,0,0,0,0,2,0,0,0,0,0],"split_type":[0,0,0,0,0,0,0,0,0,0,0,0,0,0,0],"sum_hessian":[2.96E2,2.83E2,1.3E1,1.6E1,2.67E2,5E0,8E0,7E0,9E0,1.79E2,8.8E1,9.5E1,8.4E1,2.4E1,6.4E1],"tree_param":{"num_deleted":"0","num_feature":"3","num_nodes":"15","size_leaf_vector":"1"}},{"base_weights":[5.1148426E4,-1.3727579E4,1.1008345E6,-5.724237E4,1.9129438E5,1.5057298E5,3.047406E4,5.190896E3,-6.311282E5,3.7123684E5,-2.3172461E5,-2.7078064E3,3.2819625E4,-1.6943492E4,-7.8017055E4,9.520874E3,7.037709E4,7.7899E2,-3.2684178E4],"categories":[],"categories_nodes":[],"categories_segments":[],"categories_sizes":[],"default_left":[0,0,0,0,0,0,0,0,0,0,0,0,0,0,0,0,0,0,0],"id":55,"left_children":[1,3,5,7,9,-1,-1,11,13,15,17,-1,-1,-1,-1,-1,-1,-1,-1],"loss_changes":[1.9892495E13,2.5438456E12,3.185402E12,8.400501E12,4.2360777E12,0E0,0E0,2.295813E12,9.217308E11,3.0611572E12,4.2280564E11,0E0,0E0,0E0,0E0,0E0,0E0,0E0,0E0],"parents":[2147483647,0,0,1,1,2,2,3,3,4,4,7,7,8,8,9,9,10,10],"right_children":[2,4,6,8,10,-1,-1,12,14,16,18,-1,-1,-1,-1,-1,-1,-1,-1],"split_conditions":[4.5E7,2.2E7,5E7,2.023E3,2.025E3,1.5057298E5,3.047406E4,2.021E3,1.8E7,2.5E7,2.87E7,-2.7078064E3,3.2819625E4,-1.6943492E4,-7.8017055E4,9.520874E3,7.037709E4,7.7899E2,-3.2684178E4],"split_indices":[2,2,2,0,0,0,0,0,2,2,2,0,0,0,0,0,0,0,0],"split_type":[0,0,0,0,0,0,0,0,0,0,0,0,0,0,0,0,0,0,0],"sum_hessian":[2.86E2,2.74E2,1.2E1,2.29E2,4.5E1,5E0,7E0,2.11E2,1.8E1,3.2E1,1.3E1,1.96E2,1.5E1,7E0,1.1E1,2.1E1,1.1E1,5E0,8E0],"tree_param":{"num_deleted":"0","num_feature":"3","num_nodes":"19","size_leaf_vector":"1"}},{"base_weights":[4.2497686E3,-4.454602E4,9.6122086E4,-7.578346E4,-1.1776641E4,3.8299103E5,-7.536085E4,-1.7111695E4,7.815652E4,-9.412553E3,2.8128406E4],"categories":[],"categories_nodes":[],"categories_segments":[],"categories_sizes":[],"default_left":[0,0,0,0,0,0,0,0,0,0,0],"id":56,"left_children":[1,3,-1,-1,5,7,9,-1,-1,-1,-1],"loss_changes":[1.3475802E13,6.383232E12,0E0,0E0,6.871378E12,9.061114E12,1.7050762E12,0E0,0E0,0E0,0E0],"parents":[2147483647,0,0,1,1,4,4,5,5,6,6],"right_children":[2,4,-1,-1,6,8,10,-1,-1,-1,-1],"split_conditions":[4.5E7,1.4601E4,9.6122086E4,-7.578346E4,6.9171E4,2E7,2.5E7,-1.7111695E4,7.815652E4,-9.412553E3,2.8128406E4],"split_indices":[2,1,0,0,1,2,2,0,0,0,0],"split_type":[0,0,0,0,0,0,0,0,0,0,0],"sum_hessian":[2.79E2,2.7E2,9E0,7E0,2.63E2,3.3E1,2.3E2,1.5E1,1.8E1,2.22E2,8E0],"tree_param":{"num_deleted":"0","num_feature":"3","num_nodes":"11","size_leaf_vector":"1"}},{"base_weights":[-1.6213202E4,-8.251181E4,5.070206E5,-3.3992707E4,-2.825359E5,2.4913903E5,8.9748555E4,-4.1875947E5,3.1077534E3,-3.3787334E5,-6.597618E4,6.782348E4,-1.7764594E5,-1.3414114E4,-5.204227E4,-3.3969375E3,1.6188914E4,-1.8948436E4,-7.031369E4,6.82619E3,-1.5035125E4,-3.4557727E3,-2.3479092E4],"categories":[],"categories_nodes":[],"categories_segments":[],"categories_sizes":[],"default_left":[0,0,0,0,0,0,0,0,0,0,0,0,0,0,0,0,0,0,0,0,0,0,0],"id":57,"left_children":[1,3,5,7,9,11,-1,13,15,17,19,-1,21,-1,-1,-1,-1,-1,-1,-1,-1,-1,-1],"loss_changes":[1.0789526E13,2.6208512E12,2.4062848E12,3.246938E12,5.2368612E11,5.7301134E12,0E0,2.2965309E11,1.2755741E12,1.5560763E12,2.4386429E11,0E0,1.0661246E11,0E0,0E0,0E0,0E0,0E0,0E0,0E0,0E0,0E0,0E0],"parents":[2147483647,0,0,1,1,2,2,3,3,4,4,5,5,7,7,8,8,9,9,10,10,12,12],"right_children":[2,4,6,8,10,12,-1,14,16,18,20,-1,22,-1,-1,-1,-1,-1,-1,-1,-1,-1,-1],"split_conditions":[2.5E7,1.7E7,4.5E7,3E6,2.3E7,2.025E3,8.9748555E4,2E6,8E6,2.22E7,2.36E7,6.782348E4,2.87E7,-1.3414114E4,-5.204227E4,-3.3969375E3,1.6188914E4,-1.8948436E4,-7.031369E4,6.82619E3,-1.5035125E4,-3.4557727E3,-2.3479092E4],"split_indices":[2,2,2,2,2,0,0,2,2,2,2,0,2,0,0,0,0,0,0,0,0,0,0],"split_type":[0,0,0,0,0,0,0,0,0,0,0,0,0,0,0,0,0,0,0,0,0,0,0],"sum_hessian":[3E2,2.7E2,3E1,2.22E2,4.8E1,2.3E1,7E0,1.5E1,2.07E2,3.6E1,1.2E1,1E1,1.3E1,7E0,8E0,1.71E2,3.6E1,3.1E1,5E0,5E0,7E0,6E0,7E0],"tree_param":{"num_deleted":"0","num_feature":"3","num_nodes":"23","size_leaf_vector":"1"}},{"base_weights":[1.6444812E4,-4.3980996E4,4.526143E5,-1.1572636E4,-2.8403462E5,2.4934344E5,7.007098E4,-9.575535E4,1.0463024E4,-3.7475793E4,-6.839193E3,6.3301875E4,-1.6252983E5,-1.8844307E4,1.7097191E4,2.6866822E4,-1.5064576E3,-3.2672637E3,-2.1850975E4],"categories":[],"categories_nodes":[],"categories_segments":[],"categories_sizes":[],"default_left":[0,0,0,0,0,0,0,0,0,0,0,0,0,0,0,0,0,0,0],"id":58,"left_children":[1,3,5,7,9,11,-1,13,15,-1,-1,-1,17,-1,-1,-1,-1,-1,-1],"loss_changes":[7.584607E12,1.9596199E12,8.91482E11,4.2980953E11,4.5876196E11,4.781114E12,0E0,1.3477646E12,1.24623E12,0E0,0E0,0E0,8.788296E10,0E0,0E0,0E0,0E0,0E0,0E0],"parents":[2147483647,0,0,1,1,2,2,3,3,4,4,5,5,7,7,8,8,12,12],"right_children":[2,4,6,8,10,12,-1,14,16,-1,-1,-1,18,-1,-1,-1,-1,-1,-1],"split_conditions":[2.5E7,2E7,4.5E7,3.8E6,2.3E7,2.025E3,7.007098E4,2.014E3,2.014E3,-3.7475793E4,-6.839193E3,6.3301875E4,2.87E7,-1.8844307E4,1.7097191E4,2.6866822E4,-1.5064576E3,-3.2672637E3,-2.1850975E4],"split_indices":[2,2,2,2,2,0,0,0,0,0,0,0,2,0,0,0,0,0,0],"split_type":[0,0,0,0,0,0,0,0,0,0,0,0,0,0,0,0,0,0,0],"sum_hessian":[2.79E2,2.49E2,3E1,2.24E2,2.5E1,2.2E1,8E0,4.3E1,1.81E2,1.5E1,1E1,1E1,1.2E1,3.3E1,1E1,1.2E1,1.69E2,6E0,6E0],"tree_param":{"num_deleted":"0","num_feature":"3","num_nodes":"19","size_leaf_vector":"1"}},{"base_weights":[3.5989984E4,2.208958E5,-3.8949504E4,1.1359955E5,4.7285425E5,-2.6010161E5,5.141938E3,2.4841481E5,-5.0475137E4,9.154495E4,1.33343E5,-1.02811336E5,-3.9757147E5,6.1982207E4,-3.8905043E4,-8.893895E3,3.5118703E4,-1.1324358E4,3.0967568E4,-3.6654E2,-1.2793773E4,-4.897701E4,-7.8927397E3,-1.2515945E3,-1.3102183E4],"categories":[],"categories_nodes":[],"categories_segments":[],"categories_sizes":[],"default_left":[0,0,0,0,0,0,0,0,0,0,0,0,0,0,0,0,0,0,0,0,0,0,0,0,0],"id":59,"left_children":[1,3,5,7,9,11,13,15,-1,-1,17,19,21,-1,23,-1,-1,-1,-1,-1,-1,-1,-1,-1,-1],"loss_changes":[4.2831834E12,2.1374627E12,2.1713907E12,6.3789953E12,3.1463068E12,5.9566404E11,5.264784E12,2.2364068E12,0E0,0E0,1.04496955E12,5.7443484E10,3.3553226E11,0E0,4.3422053E11,0E0,0E0,0E0,0E0,0E0,0E0,0E0,0E0,0E0,0E0],"parents":[2147483647,0,0,1,1,2,2,3,3,4,4,5,5,6,6,7,7,10,10,11,11,12,12,14,14],"right_children":[2,4,6,8,10,12,14,16,-1,-1,18,20,22,-1,24,-1,-1,-1,-1,-1,-1,-1,-1,-1,-1],"split_conditions":[9.031E4,7.6236E4,1.3224E5,6.9171E4,8.1241E4,1.0893E5,1.5213E5,2.1655E4,-5.0475137E4,9.154495E4,8.4753E4,9.3943E4,1.28534E5,6.1982207E4,2.30859E5,-8.893895E3,3.5118703E4,-1.1324358E4,3.0967568E4,-3.6654E2,-1.2793773E4,-4.897701E4,-7.8927397E3,-1.2515945E3,-1.3102183E4],"split_indices":[1,1,1,1,1,1,1,1,0,0,1,1,1,0,1,0,0,0,0,0,0,0,0,0,0],"split_type":[0,0,0,0,0,0,0,0,0,0,0,0,0,0,0,0,0,0,0,0,0,0,0,0,0],"sum_hessian":[3.01E2,8.4E1,2.17E2,6.4E1,2E1,3.2E1,1.85E2,5.5E1,9E0,5E0,1.5E1,1.9E1,1.3E1,8E0,1.77E2,1.3E1,4.2E1,7E0,8E0,5E0,1.4E1,8E0,5E0,1.42E2,3.5E1],"tree_param":{"num_deleted":"0","num_feature":"3","num_nodes":"25","size_leaf_vector":"1"}},{"base_weights":[1.0910871E4,-3.241396E4,9.013625E4,-7.207753E4,-5.085177E3,2.8942894E5,-5.248493E4,-1.7412795E4,6.3474355E4,-3.3635426E4,-1.5992635E3],"categories":[],"categories_nodes":[],"categories_segments":[],"categories_sizes":[],"default_left":[0,0,0,0,0,0,0,0,0,0,0],"id":60,"left_children":[1,3,-1,-1,5,7,9,-1,-1,-1,-1],"loss_changes":[1.1642526E13,5.418364E12,0E0,0E0,4.0266037E12,6.955552E12,2.5421462E12,0E0,0E0,0E0,0E0],"parents":[2147483647,0,0,1,1,4,4,5,5,6,6],"right_children":[2,4,-1,-1,6,8,10,-1,-1,-1,-1],"split_conditions":[4.5E7,1.4601E4,9.013625E4,-7.207753E4,6.2692E4,2E7,8.2313E4,-1.7412795E4,6.3474355E4,-3.3635426E4,-1.5992635E3],"split_indices":[2,1,0,0,1,2,1,0,0,0,0],"split_type":[0,0,0,0,0,0,0,0,0,0,0],"sum_hessian":[2.93E2,2.84E2,9E0,6E0,2.78E2,3.5E1,2.43E2,1.6E1,1.9E1,2.3E1,2.2E2],"tree_param":{"num_deleted":"0","num_feature":"3","num_nodes":"11","size_leaf_vector":"1"}},{"base_weights":[3.4155164E4,-1.4614977E4,9.1658494E5,-5.6993664E4,2.559908E4,2.0608355E4,1.2398439E5,-4.88E3,5.2621906E5,2.2506458E3,-3.0030734E4,8.624723E4,-1.067689E4],"categories":[],"categories_nodes":[],"categories_segments":[],"categories_sizes":[],"default_left":[0,0,0,0,0,0,0,0,0,0,0,0,0],"id":61,"left_children":[1,3,5,-1,7,-1,-1,9,11,-1,-1,-1,-1],"loss_changes":[1.3149992E13,6.6161486E12,2.3972576E12,0E0,4.2546857E12,0E0,0E0,2.1940138E12,3.8659346E12,0E0,0E0,0E0,0E0],"parents":[2147483647,0,0,1,1,2,2,4,4,7,7,8,8],"right_children":[2,4,6,-1,8,-1,-1,10,12,-1,-1,-1,-1],"split_conditions":[4.5E7,3.8422E4,9.508E3,-5.6993664E4,2.5E7,2.0608355E4,1.2398439E5,2.22E7,7.6871E4,2.2506458E3,-3.0030734E4,8.624723E4,-1.067689E4],"split_indices":[2,1,1,0,2,0,0,2,1,0,0,0,0],"split_type":[0,0,0,0,0,0,0,0,0,0,0,0,0],"sum_hessian":[2.99E2,2.88E2,1.1E1,1.5E1,2.73E2,6E0,5E0,2.62E2,1.1E1,2.44E2,1.8E1,6E0,5E0],"tree_param":{"num_deleted":"0","num_feature":"3","num_nodes":"13","size_leaf_vector":"1"}},{"base_weights":[4.483756E4,9.961804E3,6.4115144E5,-5.0595416E5,5.0811906E4,1.9484281E4,8.1151516E4,-6.360299E4,-4.48559E3,7.0795506E5,-2.0545213E4,9.957895E3,1.2780315E5,-3.7696418E4,7.795076E2],"categories":[],"categories_nodes":[],"categories_segments":[],"categories_sizes":[],"default_left":[0,0,0,0,0,0,0,0,0,0,0,0,0,0,0],"id":62,"left_children":[1,3,5,7,9,-1,-1,-1,-1,11,13,-1,-1,-1,-1],"loss_changes":[6.019961E12,6.0296035E12,4.259667E11,1.1168823E12,1.2452172E13,0E0,0E0,0E0,0E0,8.381015E12,2.4692395E12,0E0,0E0,0E0,0E0],"parents":[2147483647,0,0,1,1,2,2,3,3,4,4,9,9,10,10],"right_children":[2,4,6,8,10,-1,-1,-1,-1,12,14,-1,-1,-1,-1],"split_conditions":[4.5E7,3.8422E4,9.508E3,3.3E7,6.2692E4,1.9484281E4,8.1151516E4,-6.360299E4,-4.48559E3,2E7,7.6236E4,9.957895E3,1.2780315E5,-3.7696418E4,7.795076E2],"split_indices":[2,1,1,2,1,0,0,0,0,2,1,0,0,0,0],"split_type":[0,0,0,0,0,0,0,0,0,0,0,0,0,0,0],"sum_hessian":[2.86E2,2.75E2,1.1E1,1.6E1,2.59E2,6E0,5E0,1.1E1,5E0,2.1E1,2.38E2,1.3E1,8E0,1.3E1,2.25E2],"tree_param":{"num_deleted":"0","num_feature":"3","num_nodes":"15","size_leaf_vector":"1"}},{"base_weights":[4.962846E4,5.8283344E5,-3.606745E4,1.8539938E4,7.8665106E5,1.0537908E5,-6.842421E4,1.842152E4,-1.7297271E4,1.1204181E5,4.6978878E5,-6.4953195E4,4.003826E4,-4.03531E4,-3.6131867E4,1.13727586E5,-5.1487897E2,9.001804E3,-5.128875E4,-7.621719E2,-1.8840412E4],"categories":[],"categories_nodes":[],"categories_segments":[],"categories_sizes":[],"default_left":[0,0,0,0,0,0,0,0,0,0,0,0,0,0,0,0,0,0,0,0,0],"id":63,"left_children":[1,3,5,7,9,11,13,-1,-1,-1,15,17,-1,19,-1,-1,-1,-1,-1,-1,-1],"loss_changes":[1.3538992E13,4.642607E12,1.2168544E12,6.6698346E11,5.4094568E11,2.6424624E12,1.6783569E12,0E0,0E0,0E0,7.637632E12,2.7298554E12,0E0,9.620029E11,0E0,0E0,0E0,0E0,0E0,0E0,0E0],"parents":[2147483647,0,0,1,1,2,2,3,3,4,4,5,5,6,6,10,10,11,11,13,13],"right_children":[2,4,6,8,10,12,14,-1,-1,-1,16,18,-1,20,-1,-1,-1,-1,-1,-1,-1],"split_conditions":[5.6371E4,2.1655E4,9.031E4,9.508E3,2.22E7,8.2313E4,1.5E7,1.842152E4,-1.7297271E4,1.1204181E5,2.8013E4,8.1035E4,4.003826E4,2.30859E5,-3.6131867E4,1.13727586E5,-5.1487897E2,9.001804E3,-5.128875E4,-7.621719E2,-1.8840412E4],"split_indices":[1,1,1,1,2,1,2,0,0,0,1,1,0,1,0,0,0,0,0,0,0],"split_type":[0,0,0,0,0,0,0,0,0,0,0,0,0,0,0,0,0,0,0,0,0],"sum_hessian":[2.89E2,3.6E1,2.53E2,1.1E1,2.5E1,4.5E1,2.08E2,6E0,5E0,6E0,1.9E1,3.1E1,1.4E1,1.95E2,1.3E1,5E0,1.4E1,2.6E1,5E0,1.64E2,3.1E1],"tree_param":{"num_deleted":"0","num_feature":"3","num_nodes":"21","size_leaf_vector":"1"}},{"base_weights":[4.1084316E4,3.1877378E5,-2.132835E4,-4.9030055E4,5.5304594E5,-5.3459562E4,6.9179634E3,1.3407542E5,2.8698812E5,6.7687055E4,-2.1737842E4,4.3546438E4,-7.1808813E3,-4.4939027E4,-7.209553E1],"categories":[],"categories_nodes":[],"categories_segments":[],"categories_sizes":[],"default_left":[0,0,0,0,0,0,0,0,0,0,0,0,0,0,0],"id":64,"left_children":[1,3,5,-1,7,-1,9,-1,11,-1,13,-1,-1,-1,-1],"loss_changes":[5.198734E12,1.1780692E13,3.6139735E12,0E0,7.5070104E12,0E0,4.681096E12,0E0,2.287264E12,0E0,2.1105414E12,0E0,0E0,0E0,0E0],"parents":[2147483647,0,0,1,1,2,2,4,4,6,6,8,8,10,10],"right_children":[2,4,6,-1,8,-1,10,-1,12,-1,14,-1,-1,-1,-1],"split_conditions":[6.9171E4,2.1655E4,7.1574E4,-4.9030055E4,2.023E3,-5.3459562E4,8.1035E4,1.3407542E5,5.6371E4,6.7687055E4,8.2313E4,4.3546438E4,-7.1808813E3,-4.4939027E4,-7.209553E1],"split_indices":[1,1,1,0,0,0,1,0,1,0,1,0,0,0,0],"split_type":[0,0,0,0,0,0,0,0,0,0,0,0,0,0,0],"sum_hessian":[2.93E2,5E1,2.43E2,1E1,4E1,8E0,2.35E2,5E0,3.5E1,5E0,2.3E2,2.4E1,1.1E1,6E0,2.24E2],"tree_param":{"num_deleted":"0","num_feature":"3","num_nodes":"15","size_leaf_vector":"1"}},{"base_weights":[1.877215E4,1.6532653E5,-3.6530676E4,-3.9411867E4,2.4381602E5,-2.3949478E5,1.1310779E4,7.3803994E5,9.110351E4,-5.393796E4,-3.9592412E5,6.019277E4,-2.9511824E4,2.1692092E4,9.943627E4,5.230189E4,-9.584018E2,-1.022105E3,-1.14402705E4,-5.1042742E4,-8.782659E3,-6.373947E3,1.9911611E4],"categories":[],"categories_nodes":[],"categories_segments":[],"categories_sizes":[],"default_left":[0,0,0,0,0,0,0,0,0,0,0,0,0,0,0,0,0,0,0,0,0,0,0],"id":65,"left_children":[1,3,5,-1,7,9,11,13,15,17,19,-1,21,-1,-1,-1,-1,-1,-1,-1,-1,-1,-1],"loss_changes":[2.4292397E12,4.0811283E12,2.1400563E12,0E0,5.324372E12,1.1123373E12,4.4769346E12,1.192277E12,2.7648385E12,6.0236587E10,5.5197355E11,0E0,1.4329018E12,0E0,0E0,0E0,0E0,0E0,0E0,0E0,0E0,0E0,0E0],"parents":[2147483647,0,0,1,1,2,2,4,4,5,5,6,6,7,7,8,8,9,9,10,10,12,12],"right_children":[2,4,6,-1,8,10,12,14,16,18,20,-1,22,-1,-1,-1,-1,-1,-1,-1,-1,-1,-1],"split_conditions":[9.031E4,1.206E4,1.3224E5,-3.9411867E4,2.022E3,1.0893E5,1.5213E5,2.02E3,2.8013E4,2.021E3,1.28534E5,6.019277E4,2.44408E5,2.1692092E4,9.943627E4,5.230189E4,-9.584018E2,-1.022105E3,-1.14402705E4,-5.1042742E4,-8.782659E3,-6.373947E3,1.9911611E4],"split_indices":[1,1,1,0,0,1,1,0,1,0,1,0,1,0,0,0,0,0,0,0,0,0,0],"split_type":[0,0,0,0,0,0,0,0,0,0,0,0,0,0,0,0,0,0,0,0,0,0,0],"sum_hessian":[2.91E2,7.7E1,2.14E2,7E0,7E1,3.7E1,1.77E2,1.2E1,5.8E1,2E1,1.7E1,7E0,1.7E2,7E0,5E0,7E0,5.1E1,1.5E1,5E0,1E1,7E0,1.51E2,1.9E1],"tree_param":{"num_deleted":"0","num_feature":"3","num_nodes":"23","size_leaf_vector":"1"}},{"base_weights":[-2.894704E2,-6.4472254E4,4.715798E5,-6.3637562E4,-4.1845305E4,4.9182688E4,6.4082806E5,-1.9014957E4,-3.348374E5,2.224101E4,-1.6595871E4,1.0324879E5,3.017452E5,-3.4078625E3,3.278759E4,-4.8343848E2,-5.7264207E4,-1.4324424E4,6.3067887E4],"categories":[],"categories_nodes":[],"categories_segments":[],"categories_sizes":[],"default_left":[0,0,0,0,0,0,0,0,0,0,0,0,0,0,0,0,0,0,0],"id":66,"left_children":[1,3,5,-1,7,9,11,13,15,-1,-1,-1,17,-1,-1,-1,-1,-1,-1],"loss_changes":[9.358928E12,3.3866493E12,2.48754E12,0E0,1.7541575E12,7.8084866E11,1.89519E12,1.3779059E12,1.4772069E12,0E0,0E0,0E0,3.5255178E12,0E0,0E0,0E0,0E0,0E0,0E0],"parents":[2147483647,0,0,1,1,2,2,4,4,5,5,6,6,7,7,8,8,12,12],"right_children":[2,4,6,-1,8,10,12,14,16,-1,-1,-1,18,-1,-1,-1,-1,-1,-1],"split_conditions":[2.5E7,4.464E4,2.1655E4,-6.3637562E4,2.22E7,9.508E3,2.8013E4,2.2E7,7.1574E4,2.224101E4,-1.6595871E4,1.0324879E5,3.8422E4,-3.4078625E3,3.278759E4,-4.8343848E2,-5.7264207E4,-1.4324424E4,6.3067887E4],"split_indices":[2,1,1,0,2,1,1,2,1,0,0,0,1,0,0,0,0,0,0],"split_type":[0,0,0,0,0,0,0,0,0,0,0,0,0,0,0,0,0,0,0],"sum_hessian":[2.99E2,2.67E2,3.2E1,5E0,2.62E2,1.1E1,2.1E1,2.48E2,1.4E1,6E0,5E0,5E0,1.6E1,2.42E2,6E0,8E0,6E0,8E0,8E0],"tree_param":{"num_deleted":"0","num_feature":"3","num_nodes":"19","size_leaf_vector":"1"}},{"base_weights":[6.0010754E4,-2.792249E3,2.9377756E5,2.7328795E4,-3.1158297E4,8.9225336E4,1.1473122E5,-1.682172E4,5.4218527E4,-4.626348E5,3.1164488E5,-1.4826822E4,1.5024078E3,-5.7334793E4,-1.095329E4,1.4140847E4,5.4042957E4],"categories":[],"categories_nodes":[],"categories_segments":[],"categories_sizes":[],"default_left":[0,0,0,0,0,0,0,0,0,0,0,0,0,0,0,0,0],"id":67,"left_children":[1,3,5,7,-1,-1,9,11,-1,13,15,-1,-1,-1,-1,-1,-1],"loss_changes":[4.437842E12,2.3027432E12,6.3460664E12,5.1828495E12,0E0,0E0,6.973908E12,9.027601E11,0E0,3.11485E11,1.3315822E12,0E0,0E0,0E0,0E0,0E0,0E0],"parents":[2147483647,0,0,1,1,2,2,3,3,6,6,7,7,9,9,10,10],"right_children":[2,4,6,8,-1,-1,10,12,-1,14,16,-1,-1,-1,-1,-1,-1],"split_conditions":[2.08E7,2.023E3,2.22E7,2.021E3,-3.1158297E4,8.9225336E4,2.023E3,3.6E6,5.4218527E4,2.3E7,3.66E7,-1.4826822E4,1.5024078E3,-5.7334793E4,-1.095329E4,1.4140847E4,5.4042957E4],"split_indices":[2,0,2,0,0,0,0,2,0,2,2,0,0,0,0,0,0],"split_type":[0,0,0,0,0,0,0,0,0,0,0,0,0,0,0,0,0],"sum_hessian":[2.97E2,2.38E2,5.9E1,2.21E2,1.7E1,9E0,5E1,2.08E2,1.3E1,1.1E1,3.9E1,3.7E1,1.71E2,6E0,5E0,2.7E1,1.2E1],"tree_param":{"num_deleted":"0","num_feature":"3","num_nodes":"17","size_leaf_vector":"1"}},{"base_weights":[3.2746379E4,-1.0849132E4,3.5395362E5,-3.404831E5,1.6726197E4,1.8631373E5,5.5084707E4,-4.2298098E4,-1.0236757E4,5.613309E4,-5.570888E3,-1.22467945E5,5.1677824E4,1.9011676E3,-3.249625E4,-3.43719E3,-1.4313101E4],"categories":[],"categories_nodes":[],"categories_segments":[],"categories_sizes":[],"default_left":[0,0,0,0,0,0,0,0,0,0,0,0,0,0,0,0,0],"id":68,"left_children":[1,3,5,7,9,11,-1,-1,-1,-1,13,15,-1,-1,-1,-1,-1],"loss_changes":[4.220159E12,2.473622E12,6.7510626E11,1.960263E11,3.0878395E12,3.0715614E12,0E0,0E0,0E0,0E0,1.9780538E12,8.167424E9,0E0,0E0,0E0,0E0,0E0],"parents":[2147483647,0,0,1,1,2,2,3,3,4,4,5,5,10,10,11,11],"right_children":[2,4,6,8,10,12,-1,-1,-1,-1,14,16,-1,-1,-1,-1,-1],"split_conditions":[2.5E7,3E6,4.5E7,1.76057E5,4.464E4,3.8422E4,5.5084707E4,-4.2298098E4,-1.0236757E4,5.613309E4,2.22E7,1.4601E4,5.1677824E4,1.9011676E3,-3.249625E4,-3.43719E3,-1.4313101E4],"split_indices":[2,2,2,1,1,1,0,0,0,0,2,1,0,0,0,0,0],"split_type":[0,0,0,0,0,0,0,0,0,0,0,0,0,0,0,0,0],"sum_hessian":[2.95E2,2.64E2,3.1E1,1.6E1,2.48E2,2.2E1,9E0,9E0,7E0,5E0,2.43E2,1.3E1,9E0,2.3E2,1.3E1,5E0,8E0],"tree_param":{"num_deleted":"0","num_feature":"3","num_nodes":"17","size_leaf_vector":"1"}},{"base_weights":[1.2217271E4,-2.5908617E4,7.0966125E5,-2.861835E5,-6.539278E3,9.262999E4,1.381919E4,-9.487546E2,-4.102402E4,-2.6062924E4,1.7568742E5,4.9485553E2,-1.2002662E4,4.3400035E4,-1.2138319E4],"categories":[],"categories_nodes":[],"categories_segments":[],"categories_sizes":[],"default_left":[0,0,0,0,0,0,0,0,0,0,0,0,0,0,0],"id":69,"left_children":[1,3,5,7,9,-1,-1,-1,-1,11,13,-1,-1,-1,-1],"loss_changes":[7.696864E12,1.3820558E12,1.2169988E12,6.327325E11,9.550196E11,0E0,0E0,0E0,0E0,7.0523263E11,2.2585687E12,0E0,0E0,0E0,0E0],"parents":[2147483647,0,0,1,1,2,2,3,3,4,4,9,9,10,10],"right_children":[2,4,6,8,10,-1,-1,-1,-1,12,14,-1,-1,-1,-1],"split_conditions":[4.5E7,3E6,5E7,2E6,2.5E7,9.262999E4,1.381919E4,-9.487546E2,-4.102402E4,1.5E7,2.025E3,4.9485553E2,-1.2002662E4,4.3400035E4,-1.2138319E4],"split_indices":[2,2,2,2,2,0,0,0,0,2,0,0,0,0,0],"split_type":[0,0,0,0,0,0,0,0,0,0,0,0,0,0,0],"sum_hessian":[2.81E2,2.71E2,1E1,1.4E1,2.57E2,5E0,5E0,6E0,8E0,2.36E2,2.1E1,1.81E2,5.5E1,1E1,1.1E1],"tree_param":{"num_deleted":"0","num_feature":"3","num_nodes":"15","size_leaf_vector":"1"}},{"base_weights":[4.7122273E4,4.2440384E5,-1.5458402E4,-3.7544277E4,6.3083875E5,1.1625976E4,-1.5538152E5,1.6157776E4,-2.7763092E4,7.990842E4,2.9670729E4,-2.8985447E4,2.6109262E5,1.7689965E4,-5.6158113E4,1.39611455E4,-6.3247144E3,3.2934387E4,7.395987E3,-1.245205E4,3.4214363E4],"categories":[],"categories_nodes":[],"categories_segments":[],"categories_sizes":[],"default_left":[0,0,0,0,0,0,0,0,0,0,0,0,0,0,0,0,0,0,0,0,0],"id":70,"left_children":[1,3,5,7,9,11,13,-1,-1,-1,-1,15,17,19,-1,-1,-1,-1,-1,-1,-1],"loss_changes":[7.1395747E12,4.2189985E12,1.0057316E12,1.08481275E12,5.0101066E11,2.3173585E12,3.0726396E12,0E0,0E0,0E0,0E0,1.1878805E12,2.8691372E11,1.8279441E12,0E0,0E0,0E0,0E0,0E0,0E0,0E0],"parents":[2147483647,0,0,1,1,2,2,3,3,4,4,5,5,6,6,11,11,12,12,13,13],"right_children":[2,4,6,8,10,12,14,-1,-1,-1,-1,16,18,20,-1,-1,-1,-1,-1,-1,-1],"split_conditions":[5.6371E4,1.4601E4,2.30859E5,9.508E3,2.025E3,2.09239E5,2.019E3,1.6157776E4,-2.7763092E4,7.990842E4,2.9670729E4,8.1035E4,2.25312E5,2.016E3,-5.6158113E4,1.39611455E4,-6.3247144E3,3.2934387E4,7.395987E3,-1.245205E4,3.4214363E4],"split_indices":[1,1,1,1,0,1,0,0,0,0,0,1,1,0,0,0,0,0,0,0,0],"split_type":[0,0,0,0,0,0,0,0,0,0,0,0,0,0,0,0,0,0,0,0,0],"sum_hessian":[2.96E2,3.8E1,2.58E2,1.3E1,2.5E1,2.2E2,3.8E1,8E0,5E0,1.2E1,1.3E1,1.93E2,2.7E1,3E1,8E0,3E1,1.63E2,1.7E1,1E1,2.3E1,7E0],"tree_param":{"num_deleted":"0","num_feature":"3","num_nodes":"21","size_leaf_vector":"1"}},{"base_weights":[1.4444811E4,-4.006395E4,4.096558E4,1.6942389E4,4.305522E5,3.1062838E4,-2.3157674E4,5.410387E4,1.3440427E4,-5.732778E2,2.2097992E4],"categories":[],"categories_nodes":[],"categories_segments":[],"categories_sizes":[],"default_left":[0,0,0,0,0,0,0,0,0,0,0],"id":71,"left_children":[1,-1,3,5,7,9,-1,-1,-1,-1,-1],"loss_changes":[3.2965012E12,0E0,2.574719E12,9.7643305E11,1.5993537E11,1.8092683E12,0E0,0E0,0E0,0E0,0E0],"parents":[2147483647,0,0,2,2,3,3,4,4,5,5],"right_children":[2,-1,4,6,8,10,-1,-1,-1,-1,-1],"split_conditions":[3E6,-4.006395E4,4.5E7,3E7,5.5E7,2.2E7,-2.3157674E4,5.410387E4,1.3440427E4,-5.732778E2,2.2097992E4],"split_indices":[2,0,2,2,2,2,0,0,0,0,0],"split_type":[0,0,0,0,0,0,0,0,0,0,0],"sum_hessian":[2.87E2,1.3E1,2.74E2,2.63E2,1.1E1,2.53E2,1E1,5E0,6E0,2.16E2,3.7E1],"tree_param":{"num_deleted":"0","num_feature":"3","num_nodes":"11","size_leaf_vector":"1"}},{"base_weights":[-2.447845E4,1.4027628E5,-6.2670285E4,7.304799E4,1.568349E4,-2.2910742E4,-2.7178388E5,2.3075115E4,-9.95736E4,5.34063E3,-1.4964005E5,-5.087683E4,8.054335E4,-1.847447E4,3.4214473E3,-2.9971968E3,2.6415604E4,7.933518E2,-3.7863137E4,-3.465169E4,4.437747E4],"categories":[],"categories_nodes":[],"categories_segments":[],"categories_sizes":[],"default_left":[0,0,0,0,0,0,0,0,0,0,0,0,0,0,0,0,0,0,0,0,0],"id":72,"left_children":[1,3,5,-1,7,9,11,-1,13,15,17,-1,19,-1,-1,-1,-1,-1,-1,-1,-1],"loss_changes":[1.9316415E12,4.2077533E12,2.0224881E12,0E0,1.4286516E12,7.6659504E11,3.4612364E12,0E0,4.6461023E11,1.675547E12,1.4222557E12,0E0,3.8713111E12,0E0,0E0,0E0,0E0,0E0,0E0,0E0,0E0],"parents":[2147483647,0,0,1,1,2,2,4,4,5,5,6,6,8,8,9,9,10,10,12,12],"right_children":[2,4,6,-1,8,10,12,-1,14,16,18,-1,20,-1,-1,-1,-1,-1,-1,-1,-1],"split_conditions":[6.9171E4,2.023E3,2.021E3,7.304799E4,2.8013E4,2.30859E5,2.023E3,2.3075115E4,5.3713E4,2.17024E5,2.017E3,-5.087683E4,7.6236E4,-1.847447E4,3.4214473E3,-2.9971968E3,2.6415604E4,7.933518E2,-3.7863137E4,-3.465169E4,4.437747E4],"split_indices":[1,0,0,0,1,1,0,0,1,1,0,0,1,0,0,0,0,0,0,0,0],"split_type":[0,0,0,0,0,0,0,0,0,0,0,0,0,0,0,0,0,0,0,0,0],"sum_hessian":[2.95E2,5.3E1,2.42E2,5E0,4.8E1,2.08E2,3.4E1,1.5E1,3.3E1,1.74E2,3.4E1,1.9E1,1.5E1,1.9E1,1.4E1,1.57E2,1.7E1,2.3E1,1.1E1,7E0,8E0],"tree_param":{"num_deleted":"0","num_feature":"3","num_nodes":"21","size_leaf_vector":"1"}},{"base_weights":[4.1427082E4,-1.791799E4,1.6990895E5,1.0024824E4,-1.3227488E5,4.2074166E5,4.3065426E4,-4.16787E4,2.0970178E5,5.3926156E4,-4.1100762E5,-2.6779941E4,7.104343E4,-1.9739678E4,1.12217766E5,-3.519466E4,-1.4653765E3,1.1028384E4,3.8552254E4,1.5527944E4,-2.162847E4,-1.2613046E4,-4.77152E4,1.14486455E4,-1.5587374E4,2.3396725E4,-2.3703904E3],"categories":[],"categories_nodes":[],"categories_segments":[],"categories_sizes":[],"default_left":[0,0,0,0,0,0,0,0,0,0,0,0,0,0,0,0,0,0,0,0,0,0,0,0,0,0,0],"id":73,"left_children":[1,3,5,7,9,11,13,15,17,19,21,23,-1,-1,25,-1,-1,-1,-1,-1,-1,-1,-1,-1,-1,-1,-1],"loss_changes":[2.272153E12,6.680892E11,2.9001533E12,1.809105E12,2.238734E12,4.1140822E12,1.2414967E12,1.1481087E12,4.1668575E11,9.6213873E11,1.941386E10,3.9924964E11,0E0,0E0,9.544399E11,0E0,0E0,0E0,0E0,0E0,0E0,0E0,0E0,0E0,0E0,0E0,0E0],"parents":[2147483647,0,0,1,1,2,2,3,3,4,4,5,5,6,6,7,7,8,8,9,9,10,10,11,11,14,14],"right_children":[2,4,6,8,10,12,14,16,18,20,22,24,-1,-1,26,-1,-1,-1,-1,-1,-1,-1,-1,-1,-1,-1,-1],"split_conditions":[2.02E3,2.30859E5,4.2186E4,2.019E3,2.017E3,2.1655E4,5.3713E4,9.3943E4,1.94657E5,3.01339E5,2.019E3,9.508E3,7.104343E4,-1.9739678E4,7.6871E4,-3.519466E4,-1.4653765E3,1.1028384E4,3.8552254E4,1.5527944E4,-2.162847E4,-1.2613046E4,-4.77152E4,1.14486455E4,-1.5587374E4,2.3396725E4,-2.3703904E3],"split_indices":[0,1,1,0,0,1,1,1,1,1,0,1,0,0,1,0,0,0,0,0,0,0,0,0,0,0,0],"split_type":[0,0,0,0,0,0,0,0,0,0,0,0,0,0,0,0,0,0,0,0,0,0,0,0,0,0,0],"sum_hessian":[2.91E2,2.02E2,8.9E1,1.66E2,3.6E1,2.6E1,6.3E1,1.35E2,3.1E1,2.4E1,1.2E1,1.2E1,1.4E1,1.2E1,5.1E1,6E0,1.29E2,2.5E1,6E0,1.9E1,5E0,5E0,7E0,6E0,6E0,2.5E1,2.6E1],"tree_param":{"num_deleted":"0","num_feature":"3","num_nodes":"27","size_leaf_vector":"1"}},{"base_weights":[2.3584596E4,-2.7291719E3,4.2928238E5,1.981067E4,-1.3763542E5,-1.4099615E3,7.910379E4,1.7586777E3,1.3606158E5,-3.1157406E5,3.600008E4,9.759894E3,-2.3198635E3,1.871223E4,3.296841E3,-8.223111E3,-4.4931824E4,-1.5853786E4,1.9497082E4],"categories":[],"categories_nodes":[],"categories_segments":[],"categories_sizes":[],"default_left":[0,0,0,0,0,0,0,0,0,0,0,0,0,0,0,0,0,0,0],"id":74,"left_children":[1,3,5,7,9,-1,-1,11,13,15,17,-1,-1,-1,-1,-1,-1,-1,-1],"loss_changes":[3.1551125E12,8.711293E11,2.9428933E12,5.1504932E11,1.2943626E12,0E0,0E0,5.3275836E11,1.4286651E11,4.7866367E11,9.276973E11,0E0,0E0,0E0,0E0,0E0,0E0,0E0,0E0],"parents":[2147483647,0,0,1,1,2,2,3,3,4,4,7,7,8,8,9,9,10,10],"right_children":[2,4,6,8,10,-1,-1,12,14,16,18,-1,-1,-1,-1,-1,-1,-1,-1],"split_conditions":[4.5E7,2.30859E5,2.1655E4,2.09239E5,2.44408E5,-1.4099615E3,7.910379E4,6.9171E4,2.17485E5,2.42362E5,4.9E6,9.759894E3,-2.3198635E3,1.871223E4,3.296841E3,-8.223111E3,-4.4931824E4,-1.5853786E4,1.9497082E4],"split_indices":[2,1,1,1,1,0,0,1,1,1,2,0,0,0,0,0,0,0,0],"split_type":[0,0,0,0,0,0,0,0,0,0,0,0,0,0,0,0,0,0,0],"sum_hessian":[2.9E2,2.77E2,1.3E1,2.41E2,3.6E1,8E0,5E0,2.13E2,2.8E1,1.6E1,2E1,4.1E1,1.72E2,1.6E1,1.2E1,9E0,7E0,9E0,1.1E1],"tree_param":{"num_deleted":"0","num_feature":"3","num_nodes":"19","size_leaf_vector":"1"}},{"base_weights":[1.3810707E4,-3.634151E4,3.7237234E4,5.6385456E5,2.0105034E1,7.5148586E4,2.508154E5,5.8479074E4,-3.4107832E4,-8.20819E3,4.583051E4,-2.0057819E3,4.8478184E4,-5.367091E3,9.031141E3],"categories":[],"categories_nodes":[],"categories_segments":[],"categories_sizes":[],"default_left":[0,0,0,0,0,0,0,0,0,0,0,0,0,0,0],"id":75,"left_children":[1,-1,3,5,7,-1,9,11,13,-1,-1,-1,-1,-1,-1],"loss_changes":[2.8690203E12,0E0,5.938496E12,2.3229681E11,5.845572E11,0E0,1.2241847E12,3.6645123E12,4.7452973E11,0E0,0E0,0E0,0E0,0E0,0E0],"parents":[2147483647,0,0,2,2,3,3,4,4,6,6,7,7,8,8],"right_children":[2,-1,4,6,8,-1,10,12,14,-1,-1,-1,-1,-1,-1],"split_conditions":[2.1655E4,-3.634151E4,4.2186E4,2.8013E4,1.57542E5,7.5148586E4,3.0868E4,1.3224E5,2.44408E5,-8.20819E3,4.583051E4,-2.0057819E3,4.8478184E4,-5.367091E3,9.031141E3],"split_indices":[1,0,1,1,1,0,1,1,1,0,0,0,0,0,0],"split_type":[0,0,0,0,0,0,0,0,0,0,0,0,0,0,0],"sum_hessian":[3.12E2,1.4E1,2.98E2,1.5E1,2.83E2,5E0,1E1,1.03E2,1.8E2,5E0,5E0,9.1E1,1.2E1,1.58E2,2.2E1],"tree_param":{"num_deleted":"0","num_feature":"3","num_nodes":"15","size_leaf_vector":"1"}},{"base_weights":[-1.1716753E4,-4.4552316E4,1.1001859E4,6.8284805E4,-3.3013504E4,9.842551E4,-5.6067332E4,5.958556E4,-6.2759814E3,-1.524144E3,-3.3658656E4],"categories":[],"categories_nodes":[],"categories_segments":[],"categories_sizes":[],"default_left":[0,0,0,0,0,0,0,0,0,0,0],"id":76,"left_children":[1,-1,3,-1,5,7,9,-1,-1,-1,-1],"loss_changes":[2.9712969E12,0E0,8.658895E12,0E0,8.639199E11,3.6346517E12,2.7000318E12,0E0,0E0,0E0,0E0],"parents":[2147483647,0,0,2,2,4,4,5,5,6,6],"right_children":[2,-1,4,-1,6,8,10,-1,-1,-1,-1],"split_conditions":[2.1655E4,-4.4552316E4,4.2186E4,6.8284805E4,8.1241E4,2.023E3,2.021E3,5.958556E4,-6.2759814E3,-1.524144E3,-3.3658656E4],"split_indices":[1,0,1,0,1,0,0,0,0,0,0],"split_type":[0,0,0,0,0,0,0,0,0,0,0],"sum_hessian":[2.94E2,1E1,2.84E2,1.3E1,2.71E2,3.8E1,2.33E2,6E0,3.2E1,2.08E2,2.5E1],"tree_param":{"num_deleted":"0","num_feature":"3","num_nodes":"11","size_leaf_vector":"1"}},{"base_weights":[1.8734584E4,-9.4862286E2,3.4783902E4,-4.706712E5,3.5201254E4,-6.369422E4,3.06979E3,6.547829E5,-5.8289883E3,6.336755E3,9.485696E4,-1.9542434E4,1.6598799E3],"categories":[],"categories_nodes":[],"categories_segments":[],"categories_sizes":[],"default_left":[0,0,0,0,0,0,0,0,0,0,0,0,0],"id":77,"left_children":[1,3,-1,5,7,-1,-1,9,11,-1,-1,-1,-1],"loss_changes":[1.9514771E12,4.9901805E12,0E0,1.848391E12,6.959176E12,0E0,0E0,2.653206E12,1.1260444E12,0E0,0E0,0E0,0E0],"parents":[2147483647,0,0,1,1,3,3,4,4,7,7,8,8],"right_children":[2,4,-1,6,8,-1,-1,10,12,-1,-1,-1,-1],"split_conditions":[4.5E7,3.8422E4,3.4783902E4,3.3E7,5.6371E4,-6.369422E4,3.06979E3,2E7,7.6236E4,6.336755E3,9.485696E4,-1.9542434E4,1.6598799E3],"split_indices":[2,1,0,2,1,0,0,2,1,0,0,0,0],"split_type":[0,0,0,0,0,0,0,0,0,0,0,0,0],"sum_hessian":[2.96E2,2.84E2,1.2E1,1.6E1,2.68E2,1.1E1,5E0,1.2E1,2.56E2,6E0,6E0,2.3E1,2.33E2],"tree_param":{"num_deleted":"0","num_feature":"3","num_nodes":"13","size_leaf_vector":"1"}},{"base_weights":[1.9625072E4,-3.6518372E5,4.255612E4,-6.1982695E4,1.229799E4,3.1064406E5,-2.9559168E4,2.0522664E5,7.351177E4,-3.7717778E3,-3.9104447E5,3.509396E4,-4.00515E4,2.9511525E4,-2.858659E3,-4.6717668E4,-1.193899E4],"categories":[],"categories_nodes":[],"categories_segments":[],"categories_sizes":[],"default_left":[0,0,0,0,0,0,0,0,0,0,0,0,0,0,0,0,0],"id":78,"left_children":[1,3,5,-1,-1,7,9,11,-1,13,15,-1,-1,-1,-1,-1,-1],"loss_changes":[2.663156E12,2.4943597E12,5.478552E12,0E0,0E0,1.930485E12,2.0993433E12,5.5573254E12,0E0,1.6442155E12,3.134351E10,0E0,0E0,0E0,0E0,0E0,0E0],"parents":[2147483647,0,0,1,1,2,2,5,5,6,6,7,7,9,9,10,10],"right_children":[2,4,6,-1,-1,8,10,12,-1,14,16,-1,-1,-1,-1,-1,-1],"split_conditions":[2.1655E4,5.5E7,8.1241E4,-6.1982695E4,1.229799E4,7.6236E4,2.22E7,6.9171E4,7.351177E4,9.031E4,8.2313E4,3.509396E4,-4.00515E4,2.9511525E4,-2.858659E3,-4.6717668E4,-1.193899E4],"split_indices":[1,2,1,0,0,1,2,1,0,1,1,0,0,0,0,0,0],"split_type":[0,0,0,0,0,0,0,0,0,0,0,0,0,0,0,0,0],"sum_hessian":[2.88E2,1.2E1,2.76E2,7E0,5E0,5.5E1,2.21E2,5E1,5E0,2.11E2,1E1,4.2E1,8E0,1.2E1,1.99E2,5E0,5E0],"tree_param":{"num_deleted":"0","num_feature":"3","num_nodes":"17","size_leaf_vector":"1"}},{"base_weights":[1.378772E4,-2.6240394E5,3.306297E4,-5.2951746E4,1.3630393E4,3.6504566E5,-7.6248794E3,4.953806E4,5.512772E5,-2.327171E4,2.3916067E3,-1.1412092E4,2.211599E4,4.8049644E3,9.801571E4,-1.0557671E3,2.6469717E4],"categories":[],"categories_nodes":[],"categories_segments":[],"categories_sizes":[],"default_left":[0,0,0,0,0,0,0,0,0,0,0,0,0,0,0,0,0],"id":79,"left_children":[1,3,5,-1,-1,7,9,11,13,-1,15,-1,-1,-1,-1,-1,-1],"loss_changes":[1.6298305E12,2.4908818E12,3.8365854E12,0E0,0E0,1.6849345E12,5.8222386E11,6.036817E11,3.8651775E12,0E0,8.6653665E11,0E0,0E0,0E0,0E0,0E0,0E0],"parents":[2147483647,0,0,1,1,2,2,5,5,6,6,7,7,8,8,10,10],"right_children":[2,4,6,-1,-1,8,10,12,14,-1,16,-1,-1,-1,-1,-1,-1],"split_conditions":[2.1655E4,5.5E7,5.6371E4,-5.2951746E4,1.3630393E4,3.8422E4,1.5E6,2.87E7,2E7,-2.327171E4,2.5498E5,-1.1412092E4,2.211599E4,4.8049644E3,9.801571E4,-1.0557671E3,2.6469717E4],"split_indices":[1,2,1,0,0,1,2,2,2,0,1,0,0,0,0,0,0],"split_type":[0,0,0,0,0,0,0,0,0,0,0,0,0,0,0,0,0],"sum_hessian":[2.93E2,1.5E1,2.78E2,8E0,7E0,2.6E1,2.52E2,1.2E1,1.4E1,6E0,2.46E2,7E0,5E0,9E0,5E0,2.39E2,7E0],"tree_param":{"num_deleted":"0","num_feature":"3","num_nodes":"17","size_leaf_vector":"1"}},{"base_weights":[-5.507873E3,-5.304897E4,1.8511548E5,-4.1136434E4,-1.651003E4,7.984723E4,2.877851E4,1.3051554E4,-1.493263E5,2.7618966E5,-1.15533E5,-1.3546117E3,1.9651621E4,-3.2620603E3,-4.1777305E4,4.0731836E4,-2.816282E3,-2.9403734E4,2.895652E3],"categories":[],"categories_nodes":[],"categories_segments":[],"categories_sizes":[],"default_left":[0,0,0,0,0,0,0,0,0,0,0,0,0,0,0,0,0,0,0],"id":80,"left_children":[1,3,5,-1,7,-1,9,11,13,15,17,-1,-1,-1,-1,-1,-1,-1,-1],"loss_changes":[2.7225217E12,3.1082325E12,5.6385256E12,0E0,8.8530066E11,0E0,2.0518721E12,9.2582026E11,1.2163592E12,8.954527E11,9.96876E11,0E0,0E0,0E0,0E0,0E0,0E0,0E0,0E0],"parents":[2147483647,0,0,1,1,2,2,4,4,6,6,7,7,8,8,9,9,10,10],"right_children":[2,4,6,-1,8,-1,10,12,14,16,18,-1,-1,-1,-1,-1,-1,-1,-1],"split_conditions":[2.2E7,5.7806E4,2.22E7,-4.1136434E4,2.30859E5,7.984723E4,2.8013E4,2.17024E5,5.6E6,5E7,4.464E4,-1.3546117E3,1.9651621E4,-3.2620603E3,-4.1777305E4,4.0731836E4,-2.816282E3,-2.9403734E4,2.895652E3],"split_indices":[2,1,2,0,1,0,1,1,2,2,1,0,0,0,0,0,0,0,0],"split_type":[0,0,0,0,0,0,0,0,0,0,0,0,0,0,0,0,0,0,0],"sum_hessian":[2.9E2,2.35E2,5.5E1,1.7E1,2.18E2,7E0,4.8E1,1.82E2,3.6E1,1.6E1,3.2E1,1.63E2,1.9E1,2.9E1,7E0,1E1,6E0,1.2E1,2E1],"tree_param":{"num_deleted":"0","num_feature":"3","num_nodes":"19","size_leaf_vector":"1"}},{"base_weights":[1.852125E4,-6.8893516E3,4.6694794E5,-3.9992012E5,2.3807285E4,1.2155337E4,6.134079E4,-6.1290094E4,7.2290093E3,6.3426082E4,-1.4363726E4,2.1839563E3,-1.7998705E4],"categories":[],"categories_nodes":[],"categories_segments":[],"categories_sizes":[],"default_left":[0,0,0,0,0,0,0,0,0,0,0,0,0],"id":81,"left_children":[1,3,5,7,9,-1,-1,-1,-1,-1,11,-1,-1],"loss_changes":[3.4003382E12,3.498116E12,4.365741E11,2.3335404E12,6.336992E12,0E0,0E0,0E0,0E0,0E0,1.5726464E12,0E0,0E0],"parents":[2147483647,0,0,1,1,2,2,3,3,4,4,10,10],"right_children":[2,4,6,8,10,-1,-1,-1,-1,-1,12,-1,-1],"split_conditions":[4.5E7,3.8422E4,9.508E3,3.3E7,5.6371E4,1.2155337E4,6.134079E4,-6.1290094E4,7.2290093E3,6.3426082E4,1.7E7,2.1839563E3,-1.7998705E4],"split_indices":[2,1,1,2,1,0,0,0,0,0,2,0,0],"split_type":[0,0,0,0,0,0,0,0,0,0,0,0,0],"sum_hessian":[2.92E2,2.81E2,1.1E1,1.6E1,2.65E2,6E0,5E0,1E1,6E0,1.1E1,2.54E2,2.12E2,4.2E1],"tree_param":{"num_deleted":"0","num_feature":"3","num_nodes":"13","size_leaf_vector":"1"}},{"base_weights":[-2.3024508E4,-3.9826254E4,-7.1551616E3,2.4657819E5,-2.1526443E4,6.834755E3,3.193427E4,-2.0902166E5,-2.2889575E3,-5.1015186E3,-2.4366975E4,2.1977512E4,-3.617891E3],"categories":[],"categories_nodes":[],"categories_segments":[],"categories_sizes":[],"default_left":[0,0,0,0,0,0,0,0,0,0,0,0,0],"id":82,"left_children":[1,-1,3,5,7,-1,-1,9,11,-1,-1,-1,-1],"loss_changes":[1.7602768E12,0E0,1.0876633E12,9.837006E10,1.0075498E12,0E0,0E0,8.0185655E10,1.9889228E12,0E0,0E0,0E0,0E0],"parents":[2147483647,0,0,2,2,3,3,4,4,7,7,8,8],"right_children":[2,-1,4,6,8,-1,-1,10,12,-1,-1,-1,-1],"split_conditions":[1.206E4,-3.9826254E4,2.8013E4,1.4601E4,5.3713E4,6.834755E3,3.193427E4,3.0868E4,8.1241E4,-5.1015186E3,-2.4366975E4,2.1977512E4,-3.617891E3],"split_indices":[1,0,1,1,1,0,0,1,1,0,0,0,0],"split_type":[0,0,0,0,0,0,0,0,0,0,0,0,0],"sum_hessian":[2.93E2,7E0,2.86E2,1.1E1,2.75E2,6E0,5E0,2.1E1,2.54E2,6E0,1.5E1,3E1,2.24E2],"tree_param":{"num_deleted":"0","num_feature":"3","num_nodes":"13","size_leaf_vector":"1"}},{"base_weights":[5.881787E3,-2.8566557E4,1.929985E4,3.4100797E5,-1.0810146E4,6.461882E3,4.0776996E4,8.716705E4,-2.6985719E4,-9.697512E3,6.334526E4,-4.4128137E4,-7.3531604E2],"categories":[],"categories_nodes":[],"categories_segments":[],"categories_sizes":[],"default_left":[0,0,0,0,0,0,0,0,0,0,0,0,0],"id":83,"left_children":[1,-1,3,5,7,-1,-1,9,11,-1,-1,-1,-1],"loss_changes":[1.2441985E12,0E0,2.9437945E12,3.480111E11,4.5710053E11,0E0,0E0,4.4315087E12,1.9765281E12,0E0,0E0,0E0,0E0],"parents":[2147483647,0,0,2,2,3,3,4,4,7,7,8,8],"right_children":[2,-1,4,6,8,-1,-1,10,12,-1,-1,-1,-1],"split_conditions":[1.206E4,-2.8566557E4,4.2186E4,1.4601E4,8.1241E4,6.461882E3,4.0776996E4,7.6236E4,8.2313E4,-9.697512E3,6.334526E4,-4.4128137E4,-7.3531604E2],"split_indices":[1,0,1,1,1,0,0,1,1,0,0,0,0],"split_type":[0,0,0,0,0,0,0,0,0,0,0,0,0],"sum_hessian":[3.06E2,9E0,2.97E2,2.1E1,2.76E2,6E0,1.5E1,3.6E1,2.4E2,3E1,6E0,6E0,2.34E2],