{"learner":{"attributes":{"scikit_learn":"{\"_estimator_type\": \"regressor\"}"},"feature_names":[],"feature_types":[],"gradient_booster":{"model":{"cats":{"enc":[],"feature_segments":[],"sorted_idx":[]},"gbtree_model_param":{"num_parallel_tree":"1","num_trees":"100"},"iteration_indptr":[0,1,2,3,4,5,6,7,8,9,10,11,12,13,14,15,16,17,18,19,20,21,22,23,24,25,26,27,28,29,30,31,32,33,34,35,36,37,38,39,40,41,42,43,44,45,46,47,48,49,50,51,52,53,54,55,56,57,58,59,60,61,62,63,64,65,66,67,68,69,70,71,72,73,74,75,76,77,78,79,80,81,82,83,84,85,86,87,88,89,90,91,92,93,94,95,96,97,98,99,100],"tree_info":[0,0,0,0,0,0,0,0,0,0,0,0,0,0,0,0,0,0,0,0,0,0,0,0,0,0,0,0,0,0,0,0,0,0,0,0,0,0,0,0,0,0,0,0,0,0,0,0,0,0,0,0,0,0,0,0,0,0,0,0,0,0,0,0,0,0,0,0,0,0,0,0,0,0,0,0,0,0,0,0,0,0,0,0,0,0,0,0,0,0,0,0,0,0,0,0,0,0,0,0],"trees":[{"base_weights":[1.6537923E5,-1.247649E7,7.336024E6,-2.7715132E6,-6.285046E5,5.0624105E6,2.2288098E6,6.6176E2,1.2051784E6],"categories":[],"categories_nodes":[],"categories_segments":[],"categories_sizes":[],"default_left":[0,0,0,0,0,0,0,0,0],"id":0,"left_children":[1,3,5,-1,-1,7,-1,-1,-1],"loss_changes":[5.258598E15,2.2716163E14,2.6392923E14,0E0,0E0,1.2183876E14,0E0,0E0,0E0],"parents":[2147483647,0,0,1,1,2,2,5,5],"right_children":[2,4,6,-1,-1,8,-1,-1,-1],"split_conditions":[2.021E3,1.5E7,2.023E3,-2.7715132E6,-6.285046E5,2.1E7,2.2288098E6,6.6176E2,1.2051784E6],"split_indices":[0,2,0,0,0,2,0,0,0],"split_type":[0,0,0,0,0,0,0,0,0],"sum_hessian":[5.6E1,2E1,3.6E1,1.7E1,3E0,2.4E1,1.2E1,4E0,2E1],"tree_param":{"num_deleted":"0","num_feature":"3","num_nodes":"9","size_leaf_vector":"1"}},{"base_weights":[-9.73441E4,-1.0806585E7,5.795172E6,-2.3901085E6,-5.34229E5,3.943642E6,1.8674602E6,3.2662334E4,9.516705E5],"categories":[],"categories_nodes":[],"categories_segments":[],"categories_sizes":[],"default_left":[0,0,0,0,0,0,0,0,0],"id":1,"left_children":[1,3,5,-1,-1,7,-1,-1,-1],"loss_changes":[3.9119934E15,1.7282331E14,2.2551128E14,0E0,0E0,8.545941E13,0E0,0E0,0E0],"parents":[2147483647,0,0,1,1,2,2,5,5],"right_children":[2,4,6,-1,-1,8,-1,-1,-1],"split_conditions":[2.021E3,1.5E7,2.023E3,-2.3901085E6,-5.34229E5,1.72E7,1.8674602E6,3.2662334E4,9.516705E5],"split_indices":[0,2,0,0,0,2,0,0,0],"split_type":[0,0,0,0,0,0,0,0,0],"sum_hessian":[6E1,2.1E1,3.9E1,1.8E1,3E0,2.7E1,1.2E1,5E0,2.2E1],"tree_param":{"num_deleted":"0","num_feature":"3","num_nodes":"9","size_leaf_vector":"1"}},{"base_weights":[-1.7542042E5,-9.195749E6,5.0913105E6,-2.0248926E6,-8.397943E5,-8.21888E5,6.071565E6,-3.614176E5,2.44968E4,9.7343294E5,1.785164E6],"categories":[],"categories_nodes":[],"categories_segments":[],"categories_sizes":[],"default_left":[0,0,0,0,0,0,0,0,0,0,0],"id":2,"left_children":[1,3,5,-1,-1,7,9,-1,-1,-1,-1],"loss_changes":[2.7072465E15,5.4939745E13,2.136618E14,0E0,0E0,5.803711E12,6.3124342E13,0E0,0E0,0E0,0E0],"parents":[2147483647,0,0,1,1,2,2,5,5,6,6],"right_children":[2,4,6,-1,-1,8,10,-1,-1,-1,-1],"split_conditions":[1.6E7,7E6,1.9E7,-2.0248926E6,-8.397943E5,9.4944E4,2.8E7,-3.614176E5,2.44968E4,9.7343294E5,1.785164E6],"split_indices":[2,2,2,0,0,1,2,0,0,0,0],"split_type":[0,0,0,0,0,0,0,0,0,0,0],"sum_hessian":[5.5E1,2E1,3.5E1,1.6E1,4E0,5E0,3E1,2E0,3E0,2.3E1,7E0],"tree_param":{"num_deleted":"0","num_feature":"3","num_nodes":"11","size_leaf_vector":"1"}},{"base_weights":[1.3051394E5,-6.8201605E6,3.9337282E6,-1.6115342E6,-6.98524E5,3.0373192E6,1.4727604E6,1.061456E5,7.290025E5],"categories":[],"categories_nodes":[],"categories_segments":[],"categories_sizes":[],"default_left":[0,0,0,0,0,0,0,0,0],"id":3,"left_children":[1,3,5,-1,-1,7,-1,-1,-1],"loss_changes":[1.7186626E15,6.6568503E13,1.0677329E14,0E0,0E0,5.137885E13,0E0,0E0,0E0],"parents":[2147483647,0,0,1,1,2,2,5,5],"right_children":[2,4,6,-1,-1,8,-1,-1,-1],"split_conditions":[2.021E3,2.015E3,3E7,-1.6115342E6,-6.98524E5,2.1E7,1.4727604E6,1.061456E5,7.290025E5],"split_indices":[0,0,2,0,0,2,0,0,0],"split_type":[0,0,0,0,0,0,0,0,0],"sum_hessian":[6.3E1,2.2E1,4.1E1,1.5E1,7E0,3.4E1,7E0,7E0,2.7E1],"tree_param":{"num_deleted":"0","num_feature":"3","num_nodes":"9","size_leaf_vector":"1"}},{"base_weights":[-1.3549866E5,-5.782131E6,2.959931E6,-1.7272254E6,-4.266831E6,2.2691235E6,1.2179615E6,-9.58749E5,-2.7118472E5,5.445E3,5.2596844E5],"categories":[],"categories_nodes":[],"categories_segments":[],"categories_sizes":[],"default_left":[0,0,0,0,0,0,0,0,0,0,0],"id":4,"left_children":[1,3,5,-1,7,9,-1,-1,-1,-1,-1],"loss_changes":[1.1357548E15,6.2618274E13,7.699145E13,0E0,1.957465E13,2.9041394E13,0E0,0E0,0E0,0E0,0E0],"parents":[2147483647,0,0,1,1,2,2,4,4,5,5],"right_children":[2,4,6,-1,8,10,-1,-1,-1,-1,-1],"split_conditions":[2.021E3,2.013E3,3E7,-1.7272254E6,1.5E7,1.72E7,1.2179615E6,-9.58749E5,-2.7118472E5,5.445E3,5.2596844E5],"split_indices":[0,0,2,0,2,2,0,0,0,0,0],"split_type":[0,0,0,0,0,0,0,0,0,0,0],"sum_hessian":[6.3E1,2.2E1,4.1E1,6E0,1.6E1,3.5E1,6E0,1.3E1,3E0,5E0,3E1],"tree_param":{"num_deleted":"0","num_feature":"3","num_nodes":"11","size_leaf_vector":"1"}},{"base_weights":[-3.565057E5,-5.051315E6,2.0537806E6,-1.4311298E6,-3.814962E6,3.434629E6,5.795786E5,-7.891768E5,-1.85113E5,8.159858E5,5.1137697E5,-2.0564295E5,4.0101822E5],"categories":[],"categories_nodes":[],"categories_segments":[],"categories_sizes":[],"default_left":[0,0,0,0,0,0,0,0,0,0,0,0,0],"id":5,"left_children":[1,3,5,-1,7,9,11,-1,-1,-1,-1,-1,-1],"loss_changes":[7.345878E14,2.9938875E13,8.554229E13,0E0,2.4004002E12,2.02907E12,5.2484106E13,0E0,0E0,0E0,0E0,0E0,0E0],"parents":[2147483647,0,0,1,1,2,2,4,4,5,5,6,6],"right_children":[2,4,6,-1,8,10,12,-1,-1,-1,-1,-1,-1],"split_conditions":[1.6E7,6E6,8.082E4,-1.4311298E6,1.5E7,5.798E4,2.5E7,-7.891768E5,-1.85113E5,8.159858E5,5.1137697E5,-2.0564295E5,4.0101822E5],"split_indices":[2,2,1,0,2,1,2,0,0,0,0,0,0],"split_type":[0,0,0,0,0,0,0,0,0,0,0,0,0],"sum_hessian":[6.3E1,2.1E1,4.2E1,6E0,1.5E1,2.1E1,2.1E1,1.4E1,1E0,1E1,1.1E1,1E1,1.1E1],"tree_param":{"num_deleted":"0","num_feature":"3","num_nodes":"13","size_leaf_vector":"1"}},{"base_weights":[1.484439E5,2.1074218E6,-3.7765808E6,3.1726442E6,7.770448E5,-1.1243136E6,-3.0117855E6,7.729746E5,4.1322678E5,-9.725568E4,3.70976E5,-6.287173E5,-9.02972E4],"categories":[],"categories_nodes":[],"categories_segments":[],"categories_sizes":[],"default_left":[0,0,0,0,0,0,0,0,0,0,0,0,0],"id":6,"left_children":[1,3,5,7,9,-1,11,-1,-1,-1,-1,-1,-1],"loss_changes":[4.8467907E14,5.70549E13,1.2700856E13,9.631716E12,2.8135072E13,0E0,4.317365E12,0E0,0E0,0E0,0E0,0E0,0E0],"parents":[2147483647,0,0,1,1,2,2,3,3,4,4,6,6],"right_children":[2,4,6,8,10,-1,12,-1,-1,-1,-1,-1,-1],"split_conditions":[1.18461E5,8.082E4,6E6,5.798E4,1.07317E5,-1.1243136E6,2.47E7,7.729746E5,4.1322678E5,-9.725568E4,3.70976E5,-6.287173E5,-9.02972E4],"split_indices":[1,1,2,1,1,0,2,0,0,0,0,0,0],"split_type":[0,0,0,0,0,0,0,0,0,0,0,0,0],"sum_hessian":[6.1E1,4.1E1,2E1,2.2E1,1.9E1,4E0,1.6E1,1.2E1,1E1,9E0,1E1,1.5E1,1E0],"tree_param":{"num_deleted":"0","num_feature":"3","num_nodes":"13","size_leaf_vector":"1"}},{"base_weights":[-5.893295E3,-3.2836522E6,1.6731026E6,-9.877173E5,-2.4578238E6,2.6014292E6,4.6128084E5,-1.8249986E5,-5.4884894E5,7.782432E5,4.2501884E5,2.5839736E5,-1.2105595E5],"categories":[],"categories_nodes":[],"categories_segments":[],"categories_sizes":[],"default_left":[0,0,0,0,0,0,0,0,0,0,0,0,0],"id":7,"left_children":[1,3,5,-1,7,9,11,-1,-1,-1,-1,-1,-1],"loss_changes":[3.4119787E14,1.656235E13,4.492363E13,0E0,4.577697E12,5.8613217E12,1.7615978E13,0E0,0E0,0E0,0E0,0E0,0E0],"parents":[2147483647,0,0,1,1,2,2,4,4,5,5,6,6],"right_children":[2,4,6,-1,8,10,12,-1,-1,-1,-1,-1,-1],"split_conditions":[2.02E3,2.013E3,8.082E4,-9.877173E5,1.20276E5,4.0447E4,2.022E3,-1.8249986E5,-5.4884894E5,7.782432E5,4.2501884E5,2.5839736E5,-1.2105595E5],"split_indices":[0,0,1,0,1,1,0,0,0,0,0,0,0],"split_type":[0,0,0,0,0,0,0,0,0,0,0,0,0],"sum_hessian":[6E1,2E1,4E1,5E0,1.5E1,2.2E1,1.8E1,3E0,1.2E1,4E0,1.8E1,1E1,8E0],"tree_param":{"num_deleted":"0","num_feature":"3","num_nodes":"13","size_leaf_vector":"1"}},{"base_weights":[-2.1853997E5,-2.7429992E6,1.3816064E6,-8.7793894E5,-1.9502289E6,9.0117525E5,6.1411525E5,-4.6185106E5,-2.112302E5,1.9848373E5,-5.62472E4],"categories":[],"categories_nodes":[],"categories_segments":[],"categories_sizes":[],"default_left":[0,0,0,0,0,0,0,0,0,0,0],"id":8,"left_children":[1,3,5,-1,7,9,-1,-1,-1,-1,-1],"loss_changes":[2.501995E14,2.276992E13,2.806736E13,0E0,3.3390393E12,3.623608E12,0E0,0E0,0E0,0E0,0E0],"parents":[2147483647,0,0,1,1,2,2,4,4,5,5],"right_children":[2,4,6,-1,8,10,-1,-1,-1,-1,-1],"split_conditions":[2.021E3,2.013E3,3E7,-8.7793894E5,7E6,2.69E7,6.1411525E5,-4.6185106E5,-2.112302E5,1.9848373E5,-5.62472E4],"split_indices":[0,0,2,0,2,2,0,0,0,0,0],"split_type":[0,0,0,0,0,0,0,0,0,0,0],"sum_hessian":[6E1,2.3E1,3.7E1,6E0,1.7E1,3E1,7E0,1.1E1,6E0,2.8E1,2E0],"tree_param":{"num_deleted":"0","num_feature":"3","num_nodes":"11","size_leaf_vector":"1"}},{"base_weights":[-8.825711E4,-2.4667088E6,1.0464403E6,-7.2743506E5,-1.7052821E6,1.5608415E6,4.025569E5,-1.6771095E5,-3.73086E5,3.6651912E5,2.3180342E5,-7.988302E4,1.940979E5],"categories":[],"categories_nodes":[],"categories_segments":[],"categories_sizes":[],"default_left":[0,0,0,0,0,0,0,0,0,0,0,0,0],"id":9,"left_children":[1,3,5,-1,7,9,11,-1,-1,-1,-1,-1,-1],"loss_changes":[1.6720945E14,1.1622081E13,1.3282677E13,0E0,3.789973E11,3.8753272E11,9.49695E12,0E0,0E0,0E0,0E0,0E0,0E0],"parents":[2147483647,0,0,1,1,2,2,4,4,5,5,6,6],"right_children":[2,4,6,-1,8,10,12,-1,-1,-1,-1,-1,-1],"split_conditions":[1.6E7,6E6,8.082E4,-7.2743506E5,1.34194E5,5.798E4,2.5E7,-1.6771095E5,-3.73086E5,3.6651912E5,2.3180342E5,-7.988302E4,1.940979E5],"split_indices":[2,2,1,0,1,1,2,0,0,0,0,0,0],"split_type":[0,0,0,0,0,0,0,0,0,0,0,0,0],"sum_hessian":[6E1,1.9E1,4.1E1,6E0,1.3E1,2.2E1,1.9E1,3E0,1E1,1.1E1,1.1E1,8E0,1.1E1],"tree_param":{"num_deleted":"0","num_feature":"3","num_nodes":"13","size_leaf_vector":"1"}},{"base_weights":[-9.987733E4,8.830942E5,-1.9332642E6,-2.5245273E5,1.2348494E6,-5.6829244E5,-3.046256E5,-4.046844E5,2.539728E4,6.074187E5,2.0412097E5],"categories":[],"categories_nodes":[],"categories_segments":[],"categories_sizes":[],"default_left":[0,0,0,0,0,0,0,0,0,0,0],"id":10,"left_children":[1,3,5,7,9,-1,-1,-1,-1,-1,-1],"loss_changes":[1.1884811E14,1.7487427E13,4.2392418E12,7.648672E12,9.642319E12,0E0,0E0,0E0,0E0,0E0,0E0],"parents":[2147483647,0,0,1,1,2,2,3,3,4,4],"right_children":[2,4,6,8,10,-1,-1,-1,-1,-1,-1],"split_conditions":[1.18461E5,2.1E7,6E6,4.033E3,2.6327E4,-5.6829244E5,-3.046256E5,-4.046844E5,2.539728E4,6.074187E5,2.0412097E5],"split_indices":[1,2,2,1,1,0,0,0,0,0,0],"split_type":[0,0,0,0,0,0,0,0,0,0,0],"sum_hessian":[6.4E1,4.2E1,2.2E1,1E1,3.2E1,5E0,1.7E1,1E0,9E0,2E0,3E1],"tree_param":{"num_deleted":"0","num_feature":"3","num_nodes":"11","size_leaf_vector":"1"}},{"base_weights":[-7.6714055E4,-1.6410788E6,7.4649525E5,-5.0998484E5,-1.1075456E6,1.72939E6,4.0535194E5,-1.1482296E5,-2.4986562E5,5.264294E5,2.349365E5,1.5198648E5,2.8281979E4],"categories":[],"categories_nodes":[],"categories_segments":[],"categories_sizes":[],"default_left":[0,0,0,0,0,0,0,0,0,0,0,0,0],"id":11,"left_children":[1,3,5,-1,7,9,11,-1,-1,-1,-1,-1,-1],"loss_changes":[7.849303E13,7.3587344E12,1.2711308E13,0E0,4.172095E11,1.9157211E12,2.7937881E12,0E0,0E0,0E0,0E0,0E0,0E0],"parents":[2147483647,0,0,1,1,2,2,4,4,5,5,6,6],"right_children":[2,4,6,-1,8,10,12,-1,-1,-1,-1,-1,-1],"split_conditions":[1.6E7,6E6,5.798E4,-5.0998484E5,1.34194E5,2.6327E4,8.082E4,-1.1482296E5,-2.4986562E5,5.264294E5,2.349365E5,1.5198648E5,2.8281979E4],"split_indices":[2,2,1,0,1,1,1,0,0,0,0,0,0],"split_type":[0,0,0,0,0,0,0,0,0,0,0,0,0],"sum_hessian":[5.9E1,2E1,3.9E1,6E0,1.4E1,9E0,3E1,4E0,1E1,2E0,7E0,1.2E1,1.8E1],"tree_param":{"num_deleted":"0","num_feature":"3","num_nodes":"13","size_leaf_vector":"1"}},{"base_weights":[-2.8176385E4,-1.2716756E6,6.564526E5,-4.336094E5,-8.8050475E5,7.5878356E5,-3.334454E5,-2.1301092E5,-1.07950875E5,2.85548E5,8.89977E4],"categories":[],"categories_nodes":[],"categories_segments":[],"categories_sizes":[],"default_left":[0,0,0,0,0,0,0,0,0,0,0],"id":12,"left_children":[1,3,5,-1,7,9,-1,-1,-1,-1,-1],"loss_changes":[5.276627E13,5.8049797E12,1.0776437E13,0E0,4.9418548E11,7.551366E12,0E0,0E0,0E0,0E0,0E0],"parents":[2147483647,0,0,1,1,2,2,4,4,5,5],"right_children":[2,4,6,-1,8,10,-1,-1,-1,-1,-1],"split_conditions":[2.021E3,2.013E3,1.18461E5,-4.336094E5,2.015E3,5.798E4,-3.334454E5,-2.1301092E5,-1.07950875E5,2.85548E5,8.89977E4],"split_indices":[0,0,1,0,0,1,0,0,0,0,0],"split_type":[0,0,0,0,0,0,0,0,0,0,0],"sum_hessian":[6E1,2.1E1,3.9E1,5E0,1.6E1,3.8E1,1E0,9E0,7E0,1.1E1,2.7E1],"tree_param":{"num_deleted":"0","num_feature":"3","num_nodes":"11","size_leaf_vector":"1"}},{"base_weights":[3.7222508E4,5.7613444E5,-1.01671144E6,-2.698565E5,6.5800194E5,-8.492065E4,-2.183614E5,4.1816588E5,1.0551364E5],"categories":[],"categories_nodes":[],"categories_segments":[],"categories_sizes":[],"default_left":[0,0,0,0,0,0,0,0,0],"id":13,"left_children":[1,3,5,-1,7,-1,-1,-1,-1],"loss_changes":[3.5232397E13,7.3506205E12,4.701752E11,0E0,6.372512E12,0E0,0E0,0E0,0E0],"parents":[2147483647,0,0,1,1,2,2,4,4],"right_children":[2,4,6,-1,8,-1,-1,-1,-1],"split_conditions":[1.18461E5,4.033E3,1.22392E5,-2.698565E5,2.6327E4,-8.492065E4,-2.183614E5,4.1816588E5,1.0551364E5],"split_indices":[1,1,1,0,1,0,0,0,0],"split_type":[0,0,0,0,0,0,0,0,0],"sum_hessian":[6E1,4E1,2E1,1E0,3.9E1,3E0,1.7E1,2E0,3.7E1],"tree_param":{"num_deleted":"0","num_feature":"3","num_nodes":"9","size_leaf_vector":"1"}},{"base_weights":[-9.4998E4,-8.7819056E5,3.0846644E5,-3.179459E5,-1.3425648E5,2.0697E4,5.560538E5,4.10172E4,-2.185072E5,8.134287E4,1.3368386E5],"categories":[],"categories_nodes":[],"categories_segments":[],"categories_sizes":[],"default_left":[0,0,0,0,0,0,0,0,0,0,0],"id":14,"left_children":[1,3,5,-1,-1,7,9,-1,-1,-1,-1],"loss_changes":[1.9546304E13,2.0245287E12,2.9096626E12,0E0,0E0,4.3294222E12,9.731729E10,0E0,0E0,0E0,0E0],"parents":[2147483647,0,0,1,1,2,2,5,5,6,6],"right_children":[2,4,6,-1,-1,8,10,-1,-1,-1,-1],"split_conditions":[2.02E3,2.011E3,2.5E7,-3.179459E5,-1.3425648E5,2.14E7,2.023E3,4.10172E4,-2.185072E5,8.134287E4,1.3368386E5],"split_indices":[0,0,2,0,0,2,0,0,0,0,0],"split_type":[0,0,0,0,0,0,0,0,0,0,0],"sum_hessian":[6E1,2E1,4E1,3E0,1.7E1,1.9E1,2.1E1,1.7E1,2E0,1.1E1,1E1],"tree_param":{"num_deleted":"0","num_feature":"3","num_nodes":"11","size_leaf_vector":"1"}},{"base_weights":[-6.812839E3,2.9794028E5,-7.121984E5,1.4716962E5,1.4445176E6,-2.76454E4,-7.364064E5,-2.294452E5,4.1955062E4,4.834396E5,1.194096E5,-1.25778555E5,-2.564138E5],"categories":[],"categories_nodes":[],"categories_segments":[],"categories_sizes":[],"default_left":[0,0,0,0,0,0,0,0,0,0,0,0,0],"id":15,"left_children":[1,3,5,7,9,-1,11,-1,-1,-1,-1,-1,-1],"loss_changes":[1.3540237E13,7.3937013E12,1.6220842E11,3.4821206E12,2.6784018E12,0E0,2.4970684E11,0E0,0E0,0E0,0E0,0E0,0E0],"parents":[2147483647,0,0,1,1,2,2,3,3,4,4,6,6],"right_children":[2,4,6,8,10,-1,12,-1,-1,-1,-1,-1,-1],"split_conditions":[1.20276E5,3.3E7,1.22344E5,4.033E3,2.6327E4,-2.76454E4,1.6E7,-2.294452E5,4.1955062E4,4.834396E5,1.194096E5,-1.25778555E5,-2.564138E5],"split_indices":[1,2,1,1,1,0,2,0,0,0,0,0,0],"split_type":[0,0,0,0,0,0,0,0,0,0,0,0,0],"sum_hessian":[6.1E1,4.3E1,1.8E1,3.9E1,4E0,1E0,1.7E1,1E0,3.8E1,1E0,3E0,1.6E1,1E0],"tree_param":{"num_deleted":"0","num_feature":"3","num_nodes":"13","size_leaf_vector":"1"}},{"base_weights":[-7.860035E4,-7.0184744E5,2.4302892E5,-2.4603695E5,-3.8754678E5,6.0957944E5,-1.7489684E5,-8.336305E4,-7.057E2,3.0955972E5,8.587128E4,6.2010105E4,-1.4963547E5],"categories":[],"categories_nodes":[],"categories_segments":[],"categories_sizes":[],"default_left":[0,0,0,0,0,0,0,0,0,0,0,0,0],"id":16,"left_children":[1,3,5,-1,7,9,11,-1,-1,-1,-1,-1,-1],"loss_changes":[1.1796931E13,2.8443798E12,6.081058E12,0E0,1.558838E11,2.886305E12,5.5141796E12,0E0,0E0,0E0,0E0,0E0,0E0],"parents":[2147483647,0,0,1,1,2,2,4,4,5,5,6,6],"right_children":[2,4,6,-1,8,10,12,-1,-1,-1,-1,-1,-1],"split_conditions":[2.02E3,2.013E3,8.082E4,-2.4603695E5,1.8541E5,2.6327E4,2.022E3,-8.336305E4,-7.057E2,3.0955972E5,8.587128E4,6.2010105E4,-1.4963547E5],"split_indices":[0,0,1,0,1,1,0,0,0,0,0,0,0],"split_type":[0,0,0,0,0,0,0,0,0,0,0,0,0],"sum_hessian":[5.7E1,1.9E1,3.8E1,6E0,1.3E1,2E1,1.8E1,1.2E1,1E0,2E0,1.8E1,1E1,8E0],"tree_param":{"num_deleted":"0","num_feature":"3","num_nodes":"13","size_leaf_vector":"1"}},{"base_weights":[-1.3291252E5,1.9323047E5,-4.6571862E5,-1.81897E5,2.626167E5,-6.7348806E5,1.6386225E5,7.1070836E4,-5.0477E3,-9.832015E4,-2.7381622E5,-1.126242E5,6.963257E4],"categories":[],"categories_nodes":[],"categories_segments":[],"categories_sizes":[],"default_left":[0,0,0,0,0,0,0,0,0,0,0,0,0],"id":17,"left_children":[1,3,5,-1,7,9,11,-1,-1,-1,-1,-1,-1],"loss_changes":[6.385449E12,2.5342436E12,3.9037819E12,0E0,7.8312256E11,2.1103903E12,1.2679255E12,0E0,0E0,0E0,0E0,0E0,0E0],"parents":[2147483647,0,0,1,1,2,2,4,4,5,5,6,6],"right_children":[2,4,6,-1,8,10,12,-1,-1,-1,-1,-1,-1],"split_conditions":[1.01555E5,4.033E3,2.5E7,-1.81897E5,8.082E4,1.6E7,1.07317E5,7.1070836E4,-5.0477E3,-9.832015E4,-2.7381622E5,-1.126242E5,6.963257E4],"split_indices":[1,1,2,0,1,2,1,0,0,0,0,0,0],"split_type":[0,0,0,0,0,0,0,0,0,0,0,0,0],"sum_hessian":[5.7E1,2.9E1,2.8E1,1E0,2.8E1,2.1E1,7E0,2.1E1,7E0,1.8E1,3E0,1E0,6E0],"tree_param":{"num_deleted":"0","num_feature":"3","num_nodes":"13","size_leaf_vector":"1"}},{"base_weights":[-7.700942E4,-1.5848406E5,1.4966786E6,-3.8257534E5,5.59506E4,5.19712E4,3.970324E5,-5.910006E4,-2.7336022E5,5.310924E4,-9.3042295E3],"categories":[],"categories_nodes":[],"categories_segments":[],"categories_sizes":[],"default_left":[0,0,0,0,0,0,0,0,0,0,0],"id":18,"left_children":[1,3,5,7,9,-1,-1,-1,-1,-1,-1],"loss_changes":[7.801925E12,2.760423E12,1.2966455E12,1.9957521E12,6.566823E11,0E0,0E0,0E0,0E0,0E0,0E0],"parents":[2147483647,0,0,1,1,2,2,3,3,4,4],"right_children":[2,4,6,8,10,-1,-1,-1,-1,-1,-1],"split_conditions":[3.3E7,2.1E7,2.024E3,1.9E7,2.022E3,5.19712E4,3.970324E5,-5.910006E4,-2.7336022E5,5.310924E4,-9.3042295E3],"split_indices":[2,2,0,2,0,0,0,0,0,0,0],"split_type":[0,0,0,0,0,0,0,0,0,0,0],"sum_hessian":[5.8E1,5.6E1,2E0,2.7E1,2.9E1,1E0,1E0,2.6E1,1E0,9E0,2E1],"tree_param":{"num_deleted":"0","num_feature":"3","num_nodes":"11","size_leaf_vector":"1"}},{"base_weights":[-2.1315113E4,-8.7242475E5,8.940864E4,-2.2867316E5,-5.353752E5,4.1635672E5,-1.3126611E5,-1.3101656E5,-4.7441836E4,3.300398E5,5.580429E4,2.682626E3,-1.3411247E5],"categories":[],"categories_nodes":[],"categories_segments":[],"categories_sizes":[],"default_left":[0,0,0,0,0,0,0,0,0,0,0,0,0],"id":19,"left_children":[1,3,5,-1,7,9,11,-1,-1,-1,-1,-1,-1],"loss_changes":[5.7322855E12,2.7114078E10,3.9507093E12,0E0,2.307208E10,3.2674614E12,2.583818E12,0E0,0E0,0E0,0E0,0E0,0E0],"parents":[2147483647,0,0,1,1,2,2,4,4,5,5,6,6],"right_children":[2,4,6,-1,8,10,12,-1,-1,-1,-1,-1,-1],"split_conditions":[2.013E3,1.52833E5,8.082E4,-2.2867316E5,2.011E3,2.022E3,2.022E3,-1.3101656E5,-4.7441836E4,3.300398E5,5.580429E4,2.682626E3,-1.3411247E5],"split_indices":[0,1,1,0,0,0,0,0,0,0,0,0,0],"split_type":[0,0,0,0,0,0,0,0,0,0,0,0,0],"sum_hessian":[5.9E1,6E0,5.3E1,2E0,4E0,2.1E1,3.2E1,2E0,2E0,1E0,2E1,2.6E1,6E0],"tree_param":{"num_deleted":"0","num_feature":"3","num_nodes":"13","size_leaf_vector":"1"}},{"base_weights":[-1.6210961E4,-8.8178055E4,1.08534E6,-2.0374294E5,-2.2482807E4,5.49248E4,3.517488E5,-4.8028367E4,1.629346E4],"categories":[],"categories_nodes":[],"categories_segments":[],"categories_sizes":[],"default_left":[0,0,0,0,0,0,0,0,0],"id":20,"left_children":[1,3,5,-1,7,-1,-1,-1,-1],"loss_changes":[5.169331E12,3.7061384E12,1.700764E12,0E0,1.331853E12,0E0,0E0,0E0,0E0],"parents":[2147483647,0,0,1,1,2,2,4,4],"right_children":[2,4,6,-1,8,-1,-1,-1,-1],"split_conditions":[3.3E7,1E6,2.024E3,-2.0374294E5,2.02E3,5.49248E4,3.517488E5,-4.8028367E4,1.629346E4],"split_indices":[2,2,0,0,0,0,0,0,0],"split_type":[0,0,0,0,0,0,0,0,0],"sum_hessian":[6.3E1,6E1,3E0,3E0,5.7E1,2E0,1E0,1.8E1,3.9E1],"tree_param":{"num_deleted":"0","num_feature":"3","num_nodes":"9","size_leaf_vector":"1"}},{"base_weights":[1.4811884E4,2.4258916E5,-2.3703931E5,-9.418585E4,3.3264034E5,-7.261808E4,-2.493035E5,2.954064E5,4.7803617E4,-7.182087E4,3.971837E4],"categories":[],"categories_nodes":[],"categories_segments":[],"categories_sizes":[],"default_left":[0,0,0,0,0,0,0,0,0,0,0],"id":21,"left_children":[1,3,5,-1,7,9,-1,-1,-1,-1,-1],"loss_changes":[3.4994617E12,2.2127517E12,4.72289E12,0E0,2.754039E12,2.091461E12,0E0,0E0,0E0,0E0,0E0],"parents":[2147483647,0,0,1,1,2,2,4,4,5,5],"right_children":[2,4,6,-1,8,10,-1,-1,-1,-1,-1],"split_conditions":[1.01555E5,2.02E3,2.022E3,-9.418585E4,2.022E3,2.015E3,-2.493035E5,2.954064E5,4.7803617E4,-7.182087E4,3.971837E4],"split_indices":[1,0,0,0,0,0,0,0,0,0,0],"split_type":[0,0,0,0,0,0,0,0,0,0,0],"sum_hessian":[5.9E1,3.1E1,2.8E1,3E0,2.8E1,2.5E1,3E0,1E0,2.7E1,1.2E1,1.3E1],"tree_param":{"num_deleted":"0","num_feature":"3","num_nodes":"11","size_leaf_vector":"1"}},{"base_weights":[-4.6239473E4,-1.6129011E5,8.887022E3,1.4616792E5,-1.2396651E5,5.57782E3,7.855377E4,-2.09312E5,-1.072792E4],"categories":[],"categories_nodes":[],"categories_segments":[],"categories_sizes":[],"default_left":[0,0,0,0,0,0,0,0,0],"id":22,"left_children":[1,-1,3,5,7,-1,-1,-1,-1],"loss_changes":[2.4797255E12,0E0,1.0394621E12,8.0574074E11,1.8254743E12,0E0,0E0,0E0,0E0],"parents":[2147483647,0,0,2,2,3,3,4,4],"right_children":[2,-1,4,6,8,-1,-1,-1,-1],"split_conditions":[1E6,-1.6129011E5,1.01555E5,7.628E4,1.06053E5,5.57782E3,7.855377E4,-2.09312E5,-1.072792E4],"split_indices":[2,0,1,1,1,0,0,0,0],"split_type":[0,0,0,0,0,0,0,0,0],"sum_hessian":[5.8E1,3E0,5.5E1,2.7E1,2.8E1,1.9E1,8E0,1E0,2.7E1],"tree_param":{"num_deleted":"0","num_feature":"3","num_nodes":"9","size_leaf_vector":"1"}},{"base_weights":[2.2619377E4,-4.637674E4,8.046512E5,-1.3709661E5,1.8233009E3,3.11236E5,4.55448E4,4.0955E4,-1.9391848E4],"categories":[],"categories_nodes":[],"categories_segments":[],"categories_sizes":[],"default_left":[0,0,0,0,0,0,0,0,0],"id":23,"left_children":[1,3,5,-1,7,-1,-1,-1,-1],"loss_changes":[3.3287035E12,1.757132E12,1.8135077E12,0E0,1.1024513E12,0E0,0E0,0E0,0E0],"parents":[2147483647,0,0,1,1,2,2,4,4],"right_children":[2,4,6,-1,8,-1,-1,-1,-1],"split_conditions":[3.3E7,1E6,2.6327E4,-1.3709661E5,8.082E4,3.11236E5,4.55448E4,4.0955E4,-1.9391848E4],"split_indices":[2,2,1,0,1,0,0,0,0],"split_type":[0,0,0,0,0,0,0,0,0],"sum_hessian":[6E1,5.6E1,4E0,3E0,5.3E1,1E0,3E0,1.7E1,3.6E1],"tree_param":{"num_deleted":"0","num_feature":"3","num_nodes":"9","size_leaf_vector":"1"}},{"base_weights":[4.8390977E4,-1.7113402E4,6.517E5,2.0750027E4,-1.3859014E5,4.4363043E4,2.801124E5,-2.9120926E4,2.79338E4],"categories":[],"categories_nodes":[],"categories_segments":[],"categories_sizes":[],"default_left":[0,0,0,0,0,0,0,0,0],"id":24,"left_children":[1,3,5,7,-1,-1,-1,-1,-1],"loss_changes":[2.4218352E12,1.4473918E12,1.6208801E12,1.08860355E12,0E0,0E0,0E0,0E0,0E0],"parents":[2147483647,0,0,1,1,2,2,3,3],"right_children":[2,4,6,8,-1,-1,-1,-1,-1],"split_conditions":[3E7,2.69E7,2.024E3,2.021E3,-1.3859014E5,4.4363043E4,2.801124E5,-2.9120926E4,2.79338E4],"split_indices":[2,2,0,0,0,0,0,0,0],"split_type":[0,0,0,0,0,0,0,0,0],"sum_hessian":[6E1,5.5E1,5E0,5.3E1,2E0,4E0,1E0,2.2E1,3.1E1],"tree_param":{"num_deleted":"0","num_feature":"3","num_nodes":"9","size_leaf_vector":"1"}},{"base_weights":[1.9883667E3,-5.433718E4,6.324368E5,-1.1628289E5,-2.4048865E4,2.521012E5,3.20586E4,2.0551709E4,-2.0332754E4],"categories":[],"categories_nodes":[],"categories_segments":[],"categories_sizes":[],"default_left":[0,0,0,0,0,0,0,0,0],"id":25,"left_children":[1,3,5,-1,7,-1,-1,-1,-1],"loss_changes":[2.1649858E12,8.8001734E11,1.2806446E12,0E0,5.4192256E11,0E0,0E0,0E0,0E0],"parents":[2147483647,0,0,1,1,2,2,4,4],"right_children":[2,4,6,-1,8,-1,-1,-1,-1],"split_conditions":[3.3E7,1E6,2.6327E4,-1.1628289E5,2.04E7,2.521012E5,3.20586E4,2.0551709E4,-2.0332754E4],"split_indices":[2,2,1,0,2,0,0,0,0],"split_type":[0,0,0,0,0,0,0,0,0],"sum_hessian":[5.9E1,5.5E1,4E0,2E0,5.3E1,1E0,3E0,2E1,3.3E1],"tree_param":{"num_deleted":"0","num_feature":"3","num_nodes":"9","size_leaf_vector":"1"}},{"base_weights":[9.237825E3,-5.3355453E4,4.9078056E5,-2.1542049E4,-1.1740054E5,3.8885066E4,2.268912E5,-7.533339E4,6.5934E3],"categories":[],"categories_nodes":[],"categories_segments":[],"categories_sizes":[],"default_left":[0,0,0,0,0,0,0,0,0],"id":26,"left_children":[1,3,5,7,-1,-1,-1,-1,-1],"loss_changes":[1.8346662E12,9.041201E11,1.1147292E12,1.0190085E12,0E0,0E0,0E0,0E0,0E0],"parents":[2147483647,0,0,1,1,2,2,3,3],"right_children":[2,4,6,8,-1,-1,-1,-1,-1],"split_conditions":[3E7,2.69E7,2.024E3,2.013E3,-1.1740054E5,3.8885066E4,2.268912E5,-7.533339E4,6.5934E3],"split_indices":[2,2,0,0,0,0,0,0,0],"split_type":[0,0,0,0,0,0,0,0,0],"sum_hessian":[5.9E1,5.3E1,6E0,5.1E1,2E0,5E0,1E0,6E0,4.5E1],"tree_param":{"num_deleted":"0","num_feature":"3","num_nodes":"9","size_leaf_vector":"1"}},{"base_weights":[3.4047034E2,-5.370617E4,2.1649867E5,6.559474E4,-2.751134E5,-7.31992E4,3.027251E5,-2.3031014E4,7.528813E4,-1.7418586E4,-2.2470228E5,2.04202E5,2.5759121E4],"categories":[],"categories_nodes":[],"categories_segments":[],"categories_sizes":[],"default_left":[0,0,0,0,0,0,0,0,0,0,0,0,0],"id":27,"left_children":[1,3,5,7,9,-1,11,-1,-1,-1,-1,-1,-1],"loss_changes":[7.0090215E11,1.2859221E12,7.1351344E11,1.8412799E12,2.6139254E12,0E0,1.2427385E12,0E0,0E0,0E0,0E0,0E0,0E0],"parents":[2147483647,0,0,1,1,2,2,3,3,4,4,6,6],"right_children":[2,4,6,8,10,-1,12,-1,-1,-1,-1,-1,-1],"split_conditions":[2.023E3,2.022E3,1.8861E4,2.021E3,1.01555E5,-7.31992E4,2.6327E4,-2.3031014E4,7.528813E4,-1.7418586E4,-2.2470228E5,2.04202E5,2.5759121E4],"split_indices":[0,0,1,0,1,0,1,0,0,0,0,0,0],"split_type":[0,0,0,0,0,0,0,0,0,0,0,0,0],"sum_hessian":[5.8E1,4.7E1,1.1E1,3.1E1,1.6E1,1E0,1E1,2E1,1.1E1,1.4E1,2E0,1E0,9E0],"tree_param":{"num_deleted":"0","num_feature":"3","num_nodes":"13","size_leaf_vector":"1"}},{"base_weights":[-1.1033158E3,-4.2486133E4,4.377752E5,5.599487E4,-1.7337417E5,1.7553E4,1.8378161E5,-2.0585229E4,7.085982E4,3.1397666E4,-5.4772625E4],"categories":[],"categories_nodes":[],"categories_segments":[],"categories_sizes":[],"default_left":[0,0,0,0,0,0,0,0,0,0,0],"id":28,"left_children":[1,3,5,7,9,-1,-1,-1,-1,-1,-1],"loss_changes":[1.053835E12,6.928773E11,7.6135904E11,1.5060777E12,8.065421E11,0E0,0E0,0E0,0E0,0E0,0E0],"parents":[2147483647,0,0,1,1,2,2,3,3,4,4],"right_children":[2,4,6,8,10,-1,-1,-1,-1,-1,-1],"split_conditions":[3.3E7,2.022E3,2.024E3,2.021E3,1.72E7,1.7553E4,1.8378161E5,-2.0585229E4,7.085982E4,3.1397666E4,-5.4772625E4],"split_indices":[2,0,0,0,2,0,0,0,0,0,0],"split_type":[0,0,0,0,0,0,0,0,0,0,0],"sum_hessian":[5.6E1,5.2E1,4E0,3E1,2.2E1,3E0,1E0,2E1,1E1,5E0,1.7E1],"tree_param":{"num_deleted":"0","num_feature":"3","num_nodes":"11","size_leaf_vector":"1"}},{"base_weights":[-5.4613035E4,-1.1044419E5,1.6002847E5,-1.0745994E5,-8.084822E4,-6.0402E4,2.2369917E5,-6.862854E4,-1.1033162E4,1.6540361E5,1.8733709E4],"categories":[],"categories_nodes":[],"categories_segments":[],"categories_sizes":[],"default_left":[0,0,0,0,0,0,0,0,0,0,0],"id":29,"left_children":[1,3,5,-1,7,-1,9,-1,-1,-1,-1],"loss_changes":[7.486788E11,5.755872E11,4.4999747E11,0E0,2.976789E11,0E0,8.639335E11,0E0,0E0,0E0,0E0],"parents":[2147483647,0,0,1,1,2,2,4,4,6,6],"right_children":[2,4,6,-1,8,-1,10,-1,-1,-1,-1],"split_conditions":[2.023E3,6.2551E4,1.8861E4,-1.0745994E5,2.011E3,-6.0402E4,2.6327E4,-6.862854E4,-1.1033162E4,1.6540361E5,1.8733709E4],"split_indices":[0,1,1,0,0,0,1,0,0,0,0],"split_type":[0,0,0,0,0,0,0,0,0,0,0],"sum_hessian":[6E1,4.8E1,1.2E1,2E0,4.6E1,1E0,1.1E1,3E0,4.3E1,1E0,1E1],"tree_param":{"num_deleted":"0","num_feature":"3","num_nodes":"11","size_leaf_vector":"1"}},{"base_weights":[-1.5231258E4,8.414586E4,-1.0210112E5,-4.1249668E4,2.65227E5,-8.644892E3,-7.774975E5,-4.1474516E4,1.1818566E4,1.1589896E5,7.13125E3,-5.833426E4,6.721026E3,-1.8596786E5,-3.2047201E4],"categories":[],"categories_nodes":[],"categories_segments":[],"categories_sizes":[],"default_left":[0,0,0,0,0,0,0,0,0,0,0,0,0,0,0],"id":30,"left_children":[1,3,5,7,9,11,13,-1,-1,-1,-1,-1,-1,-1,-1],"loss_changes":[5.3519686E11,6.6943674E11,2.0762385E12,3.1229962E11,8.450977E11,3.685378E11,2.2714515E11,0E0,0E0,0E0,0E0,0E0,0E0,0E0,0E0],"parents":[2147483647,0,0,1,1,2,2,3,3,4,4,5,5,6,6],"right_children":[2,4,6,8,10,12,14,-1,-1,-1,-1,-1,-1,-1,-1],"split_conditions":[1.01555E5,6.6651E4,2.022E3,2.023E3,8.082E4,2.011E3,2.023E3,-4.1474516E4,1.1818566E4,1.1589896E5,7.13125E3,-5.833426E4,6.721026E3,-1.8596786E5,-3.2047201E4],"split_indices":[1,1,0,0,1,0,0,0,0,0,0,0,0,0,0],"split_type":[0,0,0,0,0,0,0,0,0,0,0,0,0,0,0],"sum_hessian":[6E1,2.8E1,3.2E1,1.7E1,1.1E1,2.9E1,3E0,6E0,1.1E1,4E0,7E0,3E0,2.6E1,2E0,1E0],"tree_param":{"num_deleted":"0","num_feature":"3","num_nodes":"15","size_leaf_vector":"1"}},{"base_weights":[2.0631428E3,9.509467E4,-9.103286E4,-5.96755E4,1.3127206E5,-7.1395E3,-6.765015E5,1.476812E5,1.6974828E4,-4.9584125E4,6.0356694E3,-1.6117214E5,-2.88424E4],"categories":[],"categories_nodes":[],"categories_segments":[],"categories_sizes":[],"default_left":[0,0,0,0,0,0,0,0,0,0,0,0,0],"id":31,"left_children":[1,3,5,-1,7,9,11,-1,-1,-1,-1,-1,-1],"loss_changes":[5.542911E11,4.9468214E11,1.5669119E12,0E0,7.824212E11,2.680594E11,1.5921145E11,0E0,0E0,0E0,0E0,0E0,0E0],"parents":[2147483647,0,0,1,1,2,2,4,4,5,5,6,6],"right_children":[2,4,6,-1,8,10,12,-1,-1,-1,-1,-1,-1],"split_conditions":[1.01555E5,1.8861E4,2.022E3,-5.96755E4,2.6327E4,2.011E3,2.023E3,1.476812E5,1.6974828E4,-4.9584125E4,6.0356694E3,-1.6117214E5,-2.88424E4],"split_indices":[1,1,0,0,1,0,0,0,0,0,0,0,0],"split_type":[0,0,0,0,0,0,0,0,0,0,0,0,0],"sum_hessian":[6.2E1,3.1E1,3.1E1,2E0,2.9E1,2.8E1,3E0,1E0,2.8E1,3E0,2.5E1,2E0,1E0],"tree_param":{"num_deleted":"0","num_feature":"3","num_nodes":"13","size_leaf_vector":"1"}},{"base_weights":[-4.5407666E3,8.581234E4,-1.00766055E5,-5.1718734E4,1.1739253E5,-1.240964E5,-6.1448887E4,1.329132E5,1.5121683E4,1.0409928E4,-2.478488E4],"categories":[],"categories_nodes":[],"categories_segments":[],"categories_sizes":[],"default_left":[0,0,0,0,0,0,0,0,0,0,0],"id":32,"left_children":[1,3,5,-1,7,-1,9,-1,-1,-1,-1],"loss_changes":[5.3899647E11,3.7840205E11,5.748849E11,0E0,6.356481E11,0E0,2.1208572E11,0E0,0E0,0E0,0E0],"parents":[2147483647,0,0,1,1,2,2,4,4,6,6],"right_children":[2,4,6,-1,8,-1,10,-1,-1,-1,-1],"split_conditions":[1.01555E5,1.8861E4,1.06053E5,-5.1718734E4,2.6327E4,-1.240964E5,1.20276E5,1.329132E5,1.5121683E4,1.0409928E4,-2.478488E4],"split_indices":[1,1,1,0,1,0,1,0,0,0,0],"split_type":[0,0,0,0,0,0,0,0,0,0,0],"sum_hessian":[6E1,3.1E1,2.9E1,2E0,2.9E1,1E0,2.8E1,1E0,2.8E1,1E1,1.8E1],"tree_param":{"num_deleted":"0","num_feature":"3","num_nodes":"11","size_leaf_vector":"1"}},{"base_weights":[4.2450874E3,1.0574863E5,-4.902451E4,2.20096E5,5.9766665E3,-1.4313221E4,-1.7470889E5,-2.80686E4,2.5482334E4,-5.83815E4,5.8888184E2,2.1465668E4,-1.108175E5],"categories":[],"categories_nodes":[],"categories_segments":[],"categories_sizes":[],"default_left":[0,0,0,0,0,0,0,0,0,0,0,0,0],"id":33,"left_children":[1,3,5,-1,7,9,11,-1,-1,-1,-1,-1,-1],"loss_changes":[3.4582862E11,2.1768417E12,1.8073138E11,0E0,3.9101625E11,1.6374055E11,1.0224593E12,0E0,0E0,0E0,0E0,0E0,0E0],"parents":[2147483647,0,0,1,1,2,2,4,4,5,5,6,6],"right_children":[2,4,6,-1,8,10,12,-1,-1,-1,-1,-1,-1],"split_conditions":[8.082E4,2.022E3,2.022E3,2.20096E5,2.023E3,2.01E3,1.01555E5,-2.80686E4,2.5482334E4,-5.83815E4,5.8888184E2,2.1465668E4,-1.108175E5],"split_indices":[1,0,0,0,0,0,1,0,0,0,0,0,0],"split_type":[0,0,0,0,0,0,0,0,0,0,0,0,0],"sum_hessian":[6.2E1,2.1E1,4.1E1,1E0,2E1,3.3E1,8E0,9E0,1.1E1,1E0,3.2E1,5E0,3E0],"tree_param":{"num_deleted":"0","num_feature":"3","num_nodes":"13","size_leaf_vector":"1"}},{"base_weights":[4.1589785E3,-2.130302E5,2.8667963E4,-6.49221E4,-1.5217487E4,1.412062E5,-3.3243312E4,1.980864E5,7.8006E3,-1.00605E5,-9.262706E2],"categories":[],"categories_nodes":[],"categories_segments":[],"categories_sizes":[],"default_left":[0,0,0,0,0,0,0,0,0,0,0],"id":34,"left_children":[1,3,5,-1,-1,7,9,-1,-1,-1,-1],"loss_changes":[3.1484615E11,6.6981904E10,3.7396565E11,0E0,0E0,1.6104486E12,4.6811847E11,0E0,0E0,0E0,0E0],"parents":[2147483647,0,0,1,1,2,2,5,5,6,6],"right_children":[2,4,6,-1,-1,8,10,-1,-1,-1,-1],"split_conditions":[6E6,1.52833E5,2.04E7,-6.49221E4,-1.5217487E4,8.082E4,2.1E7,1.980864E5,7.8006E3,-1.00605E5,-9.262706E2],"split_indices":[2,1,2,0,0,1,2,0,0,0,0],"split_type":[0,0,0,0,0,0,0,0,0,0,0],"sum_hessian":[5.7E1,5E0,5.2E1,2E0,3E0,1.8E1,3.4E1,1E0,1.7E1,1E0,3.3E1],"tree_param":{"num_deleted":"0","num_feature":"3","num_nodes":"11","size_leaf_vector":"1"}},{"base_weights":[7.3497417E3,-5.68048E4,2.1795934E4,1.171664E5,2.306644E3,1.2454929E4,-1.2375324E4],"categories":[],"categories_nodes":[],"categories_segments":[],"categories_sizes":[],"default_left":[0,0,0,0,0,0,0],"id":35,"left_children":[1,-1,3,-1,5,-1,-1],"loss_changes":[2.671635E11,0E0,6.582084E11,0E0,2.3094093E11,0E0,0E0],"parents":[2147483647,0,0,2,2,4,4],"right_children":[2,-1,4,-1,6,-1,-1],"split_conditions":[1.8861E4,-5.68048E4,2.6327E4,1.171664E5,2.022E3,1.2454929E4,-1.2375324E4],"split_indices":[1,0,1,0,0,0,0],"split_type":[0,0,0,0,0,0,0],"sum_hessian":[6.1E1,2E0,5.9E1,1E0,5.8E1,3E1,2.8E1],"tree_param":{"num_deleted":"0","num_feature":"3","num_nodes":"7","size_leaf_vector":"1"}},{"base_weights":[-1.2974018E4,-3.567233E4,2.256832E5,-1.4371204E4,-2.87693E5,3.696E3,1.054496E5,-8.1626055E3,1.0929714E4,-9.6506E4,-1.23808E4],"categories":[],"categories_nodes":[],"categories_segments":[],"categories_sizes":[],"default_left":[0,0,0,0,0,0,0,0,0,0,0],"id":36,"left_children":[1,3,5,7,9,-1,-1,-1,-1,-1,-1],"loss_changes":[3.114091E11,2.7501832E11,3.0268237E11,9.165581E10,1.4609767E11,0E0,0E0,0E0,0E0,0E0,0E0],"parents":[2147483647,0,0,1,1,2,2,3,3,4,4],"right_children":[2,4,6,8,10,-1,-1,-1,-1,-1,-1],"split_conditions":[3.3E7,2.69E7,2.024E3,2.5E7,2.023E3,3.696E3,1.054496E5,-8.1626055E3,1.0929714E4,-9.6506E4,-1.23808E4],"split_indices":[2,2,0,2,0,0,0,0,0,0,0],"split_type":[0,0,0,0,0,0,0,0,0,0,0],"sum_hessian":[5.5E1,5.1E1,4E0,4.8E1,3E0,3E0,1E0,3.5E1,1.3E1,1E0,2E0],"tree_param":{"num_deleted":"0","num_feature":"3","num_nodes":"11","size_leaf_vector":"1"}},{"base_weights":[-1.778003E4,-4.7861387E4,-6.407352E3,7.2311234E4,-4.757443E4,1.7784861E5,-2.5995E3,-4.3911734E4,-6.548953E3],"categories":[],"categories_nodes":[],"categories_segments":[],"categories_sizes":[],"default_left":[0,0,0,0,0,0,0,0,0],"id":37,"left_children":[1,-1,3,5,7,-1,-1,-1,-1],"loss_changes":[1.5466661E11,0E0,1.9787702E11,1.4750776E12,9.482933E10,0E0,0E0,0E0,0E0],"parents":[2147483647,0,0,2,2,3,3,4,4],"right_children":[2,-1,4,6,8,-1,-1,-1,-1],"split_conditions":[1.8861E4,-4.7861387E4,8.082E4,2.022E3,9.4944E4,1.7784861E5,-2.5995E3,-4.3911734E4,-6.548953E3],"split_indices":[1,0,1,0,1,0,0,0,0],"split_type":[0,0,0,0,0,0,0,0,0],"sum_hessian":[6.1E1,2E0,5.9E1,2E1,3.9E1,1E0,1.9E1,2E0,3.7E1],"tree_param":{"num_deleted":"0","num_feature":"3","num_nodes":"9","size_leaf_vector":"1"}},{"base_weights":[1.6297831E4,7.598941E1,2.04456E5,-1.9362222E5,1.3910219E4,9.5164805E4,3.5316E3,-4.859346E4,-4.5587E3,6.4364795E3,-2.8744334E4],"categories":[],"categories_nodes":[],"categories_segments":[],"categories_sizes":[],"default_left":[0,0,0,0,0,0,0,0,0,0,0],"id":38,"left_children":[1,3,5,7,9,-1,-1,-1,-1,-1,-1],"loss_changes":[1.9227761E11,1.6079358E11,2.450529E11,2.8180152E10,1.6592087E11,0E0,0E0,0E0,0E0,0E0,0E0],"parents":[2147483647,0,0,1,1,2,2,3,3,4,4],"right_children":[2,4,6,8,10,-1,-1,-1,-1,-1,-1],"split_conditions":[3.3E7,1E6,2.6327E4,1.52833E5,2.69E7,9.5164805E4,3.5316E3,-4.859346E4,-4.5587E3,6.4364795E3,-2.8744334E4],"split_indices":[2,2,1,1,2,0,0,0,0,0,0],"split_type":[0,0,0,0,0,0,0,0,0,0,0],"sum_hessian":[6.2E1,5.8E1,4E0,3E0,5.5E1,1E0,3E0,2E0,1E0,5E1,5E0],"tree_param":{"num_deleted":"0","num_feature":"3","num_nodes":"11","size_leaf_vector":"1"}},{"base_weights":[1.6974214E3,7.687465E4,-4.780595E4,1.3652677E4,1.594202E5,-1.991123E4,-1.4992225E5,-1.4958763E4,1.8849076E4,-3.8914934E4,-2.3120085E2,1.922848E4,-8.40045E4],"categories":[],"categories_nodes":[],"categories_segments":[],"categories_sizes":[],"default_left":[0,0,0,0,0,0,0,0,0,0,0,0,0],"id":39,"left_children":[1,3,5,7,-1,9,11,-1,-1,-1,-1,-1,-1],"loss_changes":[2.344097E11,1.1274707E12,1.05258074E11,1.7812439E11,0E0,1.01326496E11,5.7207895E11,0E0,0E0,0E0,0E0,0E0,0E0],"parents":[2147483647,0,0,1,1,2,2,3,3,5,5,6,6],"right_children":[2,4,6,8,-1,10,12,-1,-1,-1,-1,-1,-1],"split_conditions":[8.082E4,7.628E4,2.022E3,2.023E3,1.594202E5,9.4944E4,1.01555E5,-1.4958763E4,1.8849076E4,-3.8914934E4,-2.3120085E2,1.922848E4,-8.40045E4],"split_indices":[1,1,0,0,0,1,1,0,0,0,0,0,0],"split_type":[0,0,0,0,0,0,0,0,0,0,0,0,0],"sum_hessian":[6.1E1,2.4E1,3.7E1,2.3E1,1E0,3E1,7E0,1.1E1,1.2E1,2E0,2.8E1,4E0,3E0],"tree_param":{"num_deleted":"0","num_feature":"3","num_nodes":"13","size_leaf_vector":"1"}},{"base_weights":[3.2493844E4,-3.6583402E4,4.3261188E4,6.69774E4,2.0858143E4,-1.1548851E4,1.0514092E4],"categories":[],"categories_nodes":[],"categories_segments":[],"categories_sizes":[],"default_left":[0,0,0,0,0,0,0],"id":40,"left_children":[1,-1,3,-1,5,-1,-1],"loss_changes":[1.4475798E11,0E0,3.654133E11,0E0,1.3763948E11,0E0,0E0],"parents":[2147483647,0,0,2,2,4,4],"right_children":[2,-1,4,-1,6,-1,-1],"split_conditions":[1.8861E4,-3.6583402E4,4.0447E4,6.69774E4,6.6651E4,-1.1548851E4,1.0514092E4],"split_indices":[1,0,1,0,1,0,0],"split_type":[0,0,0,0,0,0,0],"sum_hessian":[5.8E1,2E0,5.6E1,3E0,5.3E1,1.5E1,3.8E1],"tree_param":{"num_deleted":"0","num_feature":"3","num_nodes":"7","size_leaf_vector":"1"}},{"base_weights":[-1.2611384E3,9.296936E4,-5.6193895E4,2.6404426E4,1.424268E5,-3.1900146E4,-1.372345E5,3.872434E4,-5.50025E3,-3.5128266E4,-2.9494834E3,1.446976E4,-7.2981E4],"categories":[],"categories_nodes":[],"categories_segments":[],"categories_sizes":[],"default_left":[0,0,0,0,0,0,0,0,0,0,0,0,0],"id":41,"left_children":[1,3,5,7,-1,9,11,-1,-1,-1,-1,-1,-1],"loss_changes":[2.950994E11,8.467043E11,6.649828E10,1.8560405E11,0E0,6.891081E10,4.0812793E11,0E0,0E0,0E0,0E0,0E0,0E0],"parents":[2147483647,0,0,1,1,2,2,3,3,5,5,6,6],"right_children":[2,4,6,8,-1,10,12,-1,-1,-1,-1,-1,-1],"split_conditions":[8.082E4,7.628E4,2.022E3,4.0447E4,1.424268E5,9.4944E4,1.01555E5,3.872434E4,-5.50025E3,-3.5128266E4,-2.9494834E3,1.446976E4,-7.2981E4],"split_indices":[1,1,0,1,0,1,1,0,0,0,0,0,0],"split_type":[0,0,0,0,0,0,0,0,0,0,0,0,0],"sum_hessian":[5.5E1,2E1,3.5E1,1.9E1,1E0,2.8E1,7E0,4E0,1.5E1,2E0,2.6E1,4E0,3E0],"tree_param":{"num_deleted":"0","num_feature":"3","num_nodes":"13","size_leaf_vector":"1"}},{"base_weights":[9.63625E2,5.6103223E4,-4.5850688E4,-4.1264434E3,2.3738172E5,-9.079892E3,-3.10169E5,-3.6868785E4,4.6225E3,1.281842E5,1.2661E4,-1.4539171E4,1.0225513E4,-8.592987E4,4.8272E3],"categories":[],"categories_nodes":[],"categories_segments":[],"categories_sizes":[],"default_left":[0,0,0,0,0,0,0,0,0,0,0,0,0,0,0],"id":42,"left_children":[1,3,5,7,9,11,13,-1,-1,-1,-1,-1,-1,-1,-1],"loss_changes":[1.5745173E11,3.0669314E11,3.1791713E11,1.1225719E11,4.5115405E11,1.186214E11,1.7014152E11,0E0,0E0,0E0,0E0,0E0,0E0,0E0,0E0],"parents":[2147483647,0,0,1,1,2,2,3,3,4,4,5,5,6,6],"right_children":[2,4,6,8,10,12,14,-1,-1,-1,-1,-1,-1,-1,-1],"split_conditions":[1.01555E5,7.628E4,2.022E3,1.8861E4,2.022E3,2.015E3,2.023E3,-3.6868785E4,4.6225E3,1.281842E5,1.2661E4,-1.4539171E4,1.0225513E4,-8.592987E4,4.8272E3],"split_indices":[1,1,0,1,0,0,0,0,0,0,0,0,0,0,0],"split_type":[0,0,0,0,0,0,0,0,0,0,0,0,0,0,0],"sum_hessian":[5.9E1,2.7E1,3.2E1,2.1E1,6E0,2.9E1,3E0,2E0,1.9E1,1E0,5E0,1.4E1,1.5E1,2E0,1E0],"tree_param":{"num_deleted":"0","num_feature":"3","num_nodes":"15","size_leaf_vector":"1"}},{"base_weights":[-5.0802915E3,5.174292E4,-4.1375164E4,5.8297915E3,1.15365805E5,-4.7535734E4,-2.4340416E4,-3.1953E4,5.6291816E3,-4.024554E4,-2.7674446E3],"categories":[],"categories_nodes":[],"categories_segments":[],"categories_sizes":[],"default_left":[0,0,0,0,0,0,0,0,0,0,0],"id":43,"left_children":[1,3,5,7,-1,-1,9,-1,-1,-1,-1],"loss_changes":[1.32071514E11,5.9934586E11,1.2463006E11,9.318711E10,0E0,0E0,6.5957167E10,0E0,0E0,0E0,0E0],"parents":[2147483647,0,0,1,1,2,2,3,3,6,6],"right_children":[2,4,6,8,-1,-1,10,-1,-1,-1,-1],"split_conditions":[8.082E4,7.628E4,9.4944E4,1.8861E4,1.15365805E5,-4.7535734E4,2.01E3,-3.1953E4,5.6291816E3,-4.024554E4,-2.7674446E3],"split_indices":[1,1,1,1,0,0,0,0,0,0,0],"split_type":[0,0,0,0,0,0,0,0,0,0,0],"sum_hessian":[6.2E1,2.4E1,3.8E1,2.3E1,1E0,2E0,3.6E1,2E0,2.1E1,1E0,3.5E1],"tree_param":{"num_deleted":"0","num_feature":"3","num_nodes":"11","size_leaf_vector":"1"}},{"base_weights":[-1.1870002E4,3.914232E4,-4.6016977E4,-2.4889167E3,1.038292E5,-4.11976E4,-3.0990404E4,-1.0721938E4,1.0619866E4,-2.025801E3,-2.00263E4],"categories":[],"categories_nodes":[],"categories_segments":[],"categories_sizes":[],"default_left":[0,0,0,0,0,0,0,0,0,0,0],"id":44,"left_children":[1,3,5,7,-1,-1,9,-1,-1,-1,-1],"loss_changes":[1.0805812E11,5.0087077E11,8.255755E10,7.104778E10,0E0,0E0,4.9469063E10,0E0,0E0,0E0,0E0],"parents":[2147483647,0,0,1,1,2,2,3,3,6,6],"right_children":[2,4,6,8,-1,-1,10,-1,-1,-1,-1],"split_conditions":[8.082E4,7.628E4,9.4944E4,2.023E3,1.038292E5,-4.11976E4,2.022E3,-1.0721938E4,1.0619866E4,-2.025801E3,-2.00263E4],"split_indices":[1,1,1,0,0,0,0,0,0,0,0],"split_type":[0,0,0,0,0,0,0,0,0,0,0],"sum_hessian":[6E1,2.4E1,3.6E1,2.3E1,1E0,2E0,3.4E1,1.2E1,1.1E1,2.7E1,7E0],"tree_param":{"num_deleted":"0","num_feature":"3","num_nodes":"11","size_leaf_vector":"1"}},{"base_weights":[9.382422E3,-2.3002803E3,1.76436E5,1.2111467E4,-1.29220664E5,-3.546667E2,7.11064E4,9.000306E3,-3.7723716E3,-8.04734E4,1.1764E3],"categories":[],"categories_nodes":[],"categories_segments":[],"categories_sizes":[],"default_left":[0,0,0,0,0,0,0,0,0,0,0],"id":45,"left_children":[1,3,5,7,9,-1,-1,-1,-1,-1,-1],"loss_changes":[1.1945572E11,1.0765544E11,1.282968E11,5.4840685E10,2.2378349E11,0E0,0E0,0E0,0E0,0E0,0E0],"parents":[2147483647,0,0,1,1,2,2,3,3,4,4],"right_children":[2,4,6,8,10,-1,-1,-1,-1,-1,-1],"split_conditions":[3.3E7,2.69E7,2.024E3,2.04E7,2.023E3,-3.546667E2,7.11064E4,9.000306E3,-3.7723716E3,-8.04734E4,1.1764E3],"split_indices":[2,2,0,2,0,0,0,0,0,0,0],"split_type":[0,0,0,0,0,0,0,0,0,0,0],"sum_hessian":[6E1,5.7E1,3E0,5.2E1,5E0,2E0,1E0,2.5E1,2.7E1,1E0,4E0],"tree_param":{"num_deleted":"0","num_feature":"3","num_nodes":"11","size_leaf_vector":"1"}},{"base_weights":[-2.0229178E4,-3.2978477E4,1.266088E5,-3.6918438E4,-2.686564E4,-3.456E2,6.39956E4,2.48851E3,-1.1539832E4],"categories":[],"categories_nodes":[],"categories_segments":[],"categories_sizes":[],"default_left":[0,0,0,0,0,0,0,0,0],"id":46,"left_children":[1,3,5,-1,7,-1,-1,-1,-1],"loss_changes":[1.16500234E11,4.694103E10,1.2463484E11,0E0,6.737847E10,0E0,0E0,0E0,0E0],"parents":[2147483647,0,0,1,1,2,2,4,4],"right_children":[2,4,6,-1,8,-1,-1,-1,-1],"split_conditions":[3.3E7,2.01E3,2.024E3,-3.6918438E4,1.72E7,-3.456E2,6.39956E4,2.48851E3,-1.1539832E4],"split_indices":[2,0,0,0,2,0,0,0,0],"split_type":[0,0,0,0,0,0,0,0,0],"sum_hessian":[5.9E1,5.5E1,4E0,1E0,5.4E1,3E0,1E0,2.4E1,3E1],"tree_param":{"num_deleted":"0","num_feature":"3","num_nodes":"9","size_leaf_vector":"1"}},{"base_weights":[1.3748788E4,8.6807055E4,-2.8909914E4,4.6321582E4,9.37002E4,-3.5365867E4,-1.5780243E4,-2.776085E4,1.46228E4,4.8433223E3,-1.0568292E4],"categories":[],"categories_nodes":[],"categories_segments":[],"categories_sizes":[],"default_left":[0,0,0,0,0,0,0,0,0,0,0],"id":47,"left_children":[1,3,5,7,-1,-1,9,-1,-1,-1,-1],"loss_changes":[1.8638728E11,3.1826562E11,7.101066E10,1.14307875E11,0E0,0E0,5.4643597E10,0E0,0E0,0E0,0E0],"parents":[2147483647,0,0,1,1,2,2,3,3,6,6],"right_children":[2,4,6,8,-1,-1,10,-1,-1,-1,-1],"split_conditions":[8.082E4,7.628E4,9.4944E4,1.8861E4,9.37002E4,-3.5365867E4,1.20276E5,-2.776085E4,1.46228E4,4.8433223E3,-1.0568292E4],"split_indices":[1,1,1,1,0,0,1,0,0,0,0],"split_type":[0,0,0,0,0,0,0,0,0,0,0],"sum_hessian":[5.8E1,2.1E1,3.7E1,2E1,1E0,2E0,3.5E1,2E0,1.8E1,1.7E1,1.8E1],"tree_param":{"num_deleted":"0","num_feature":"3","num_nodes":"11","size_leaf_vector":"1"}},{"base_weights":[1.5323898E3,-7.8170894E3,1.32042E5,5.707865E3,-1.469132E5,5.61336E4,-2.2112E3,1.5024075E4,-4.8925244E3,-3.612E2,-7.27342E4],"categories":[],"categories_nodes":[],"categories_segments":[],"categories_sizes":[],"default_left":[0,0,0,0,0,0,0,0,0,0,0],"id":48,"left_children":[1,3,5,7,9,-1,-1,-1,-1,-1,-1],"loss_changes":[7.30238E10,1.061896E11,8.81754E10,1.1073652E11,1.5660879E11,0E0,0E0,0E0,0E0,0E0,0E0],"parents":[2147483647,0,0,1,1,2,2,3,3,4,4],"right_children":[2,4,6,8,10,-1,-1,-1,-1,-1,-1],"split_conditions":[3.3E7,2.69E7,2.6327E4,8.082E4,4.0447E4,5.61336E4,-2.2112E3,1.5024075E4,-4.8925244E3,-3.612E2,-7.27342E4],"split_indices":[2,2,1,1,1,0,0,0,0,0,0],"split_type":[0,0,0,0,0,0,0,0,0,0,0],"sum_hessian":[5.8E1,5.5E1,3E0,5.1E1,4E0,1E0,2E0,1.5E1,3.6E1,3E0,1E0],"tree_param":{"num_deleted":"0","num_feature":"3","num_nodes":"11","size_leaf_vector":"1"}},{"base_weights":[-1.5974062E3,-9.486787E3,1.19115E5,-1.1757656E5,-1.8687543E3,-1.9162666E3,5.0520402E4,-3.1680525E4,-1.02334E4,6.2809644E3,-8.246979E3],"categories":[],"categories_nodes":[],"categories_segments":[],"categories_sizes":[],"default_left":[0,0,0,0,0,0,0,0,0,0,0],"id":49,"left_children":[1,3,5,7,9,-1,-1,-1,-1,-1,-1],"loss_changes":[6.208017E10,5.0009596E10,7.113741E10,2.7399782E9,7.7266395E10,0E0,0E0,0E0,0E0,0E0,0E0],"parents":[2147483647,0,0,1,1,2,2,3,3,4,4],"right_children":[2,4,6,8,10,-1,-1,-1,-1,-1,-1],"split_conditions":[3.3E7,1E6,2.024E3,2.01E3,2.022E3,-1.9162666E3,5.0520402E4,-3.1680525E4,-1.02334E4,6.2809644E3,-8.246979E3],"split_indices":[2,2,0,0,0,0,0,0,0,0,0],"split_type":[0,0,0,0,0,0,0,0,0,0,0],"sum_hessian":[6.3E1,6E1,3E0,3E0,5.7E1,2E0,1E0,1E0,2E0,3.1E1,2.6E1],"tree_param":{"num_deleted":"0","num_feature":"3","num_nodes":"11","size_leaf_vector":"1"}},{"base_weights":[4.0305483E3,-1.0453969E5,1.1322928E4,-2.6889016E4,-1.48235E3,-2.38864E4,1.5636496E4,3.8894402E4,1.1553599E3],"categories":[],"categories_nodes":[],"categories_segments":[],"categories_sizes":[],"default_left":[0,0,0,0,0,0,0,0,0],"id":50,"left_children":[1,3,5,-1,-1,-1,7,-1,-1],"loss_changes":[5.0271285E10,1.0622124E10,3.514469E10,0E0,0E0,0E0,1.0114588E11,0E0,0E0],"parents":[2147483647,0,0,1,1,2,2,6,6],"right_children":[2,4,6,-1,-1,-1,8,-1,-1],"split_conditions":[1E6,1.52833E5,1.8861E4,-2.6889016E4,-1.48235E3,-2.38864E4,4.0447E4,3.8894402E4,1.1553599E3],"split_indices":[2,1,1,0,0,0,1,0,0],"split_type":[0,0,0,0,0,0,0,0,0],"sum_hessian":[6.1E1,3E0,5.8E1,2E0,1E0,1E0,5.7E1,2E0,5.5E1],"tree_param":{"num_deleted":"0","num_feature":"3","num_nodes":"9","size_leaf_vector":"1"}},{"base_weights":[-7.219405E2,-4.612639E4,1.4427917E4,-2.5823576E4,-3.1985768E4,1.0539308E5,-1.8821389E4,2.2575E2,-8.0716914E3,9.154467E3,8.20842E4,-6.0715E4,-4.024E2],"categories":[],"categories_nodes":[],"categories_segments":[],"categories_sizes":[],"default_left":[0,0,0,0,0,0,0,0,0,0,0,0,0],"id":51,"left_children":[1,3,5,-1,7,9,11,-1,-1,-1,-1,-1,-1],"loss_changes":[4.400138E10,1.4646886E10,1.47161E11,0E0,4.204418E9,2.1763197E11,1.7170443E11,0E0,0E0,0E0,0E0,0E0,0E0],"parents":[2147483647,0,0,1,1,2,2,4,4,5,5,6,6],"right_children":[2,4,6,-1,8,10,12,-1,-1,-1,-1,-1,-1],"split_conditions":[2.015E3,2.01E3,2.04E7,-2.5823576E4,2.012E3,1.9E7,2.1E7,2.2575E2,-8.0716914E3,9.154467E3,8.20842E4,-6.0715E4,-4.024E2],"split_indices":[0,0,2,0,0,2,2,0,0,0,0,0,0],"split_type":[0,0,0,0,0,0,0,0,0,0,0,0,0],"sum_hessian":[6.2E1,1.5E1,4.7E1,1E0,1.4E1,1.2E1,3.5E1,3E0,1.1E1,1.1E1,1E0,1E0,3.4E1],"tree_param":{"num_deleted":"0","num_feature":"3","num_nodes":"13","size_leaf_vector":"1"}},{"base_weights":[-1.6193246E3,-1.2842681E4,8.839886E4,-1.3104386E3,-6.47116E4,3.29208E4,-1.9812001E3,1.1017764E4,-4.38247E3],"categories":[],"categories_nodes":[],"categories_segments":[],"categories_sizes":[],"default_left":[0,0,0,0,0,0,0,0,0],"id":52,"left_children":[1,3,5,7,-1,-1,-1,-1,-1],"loss_changes":[6.3774257E10,2.0023768E11,5.406991E10,6.5113407E10,0E0,0E0,0E0,0E0,0E0],"parents":[2147483647,0,0,1,1,2,2,3,3],"right_children":[2,4,6,8,-1,-1,-1,-1,-1],"split_conditions":[2.8E7,2.69E7,3.49E7,8.082E4,-6.47116E4,3.29208E4,-1.9812001E3,1.1017764E4,-4.38247E3],"split_indices":[2,2,2,1,0,0,0,0,0],"split_type":[0,0,0,0,0,0,0,0,0],"sum_hessian":[6.1E1,5.5E1,6E0,5.4E1,1E0,3E0,3E0,1.4E1,4E1],"tree_param":{"num_deleted":"0","num_feature":"3","num_nodes":"9","size_leaf_vector":"1"}},{"base_weights":[-8.595858E3,8.36664E3,-4.6532258E4,-3.2669775E4,4.2215043E4,-1.4141346E4,-4.2914E4,-1.2537294E4,1.39835205E4,3.4004137E4,-7.329474E1,1.40038E4,-7.4354126E3],"categories":[],"categories_nodes":[],"categories_segments":[],"categories_sizes":[],"default_left":[0,0,0,0,0,0,0,0,0,0,0,0,0],"id":53,"left_children":[1,3,5,7,9,11,-1,-1,-1,-1,-1,-1,-1],"loss_changes":[3.964258E10,6.110689E10,1.00380705E11,6.5969566E10,1.3067408E11,3.5560903E10,0E0,0E0,0E0,0E0,0E0,0E0,0E0],"parents":[2147483647,0,0,1,1,2,2,3,3,4,4,5,5],"right_children":[2,4,6,8,10,12,-1,-1,-1,-1,-1,-1,-1],"split_conditions":[1.20276E5,6.6651E4,1.6E7,3.3E7,8.082E4,1.34194E5,-4.2914E4,-1.2537294E4,1.39835205E4,3.4004137E4,-7.329474E1,1.40038E4,-7.4354126E3],"split_indices":[1,1,2,2,1,1,0,0,0,0,0,0,0],"split_type":[0,0,0,0,0,0,0,0,0,0,0,0,0],"sum_hessian":[6E1,4.2E1,1.8E1,1.9E1,2.3E1,1.6E1,2E0,1.5E1,4E0,5E0,1.8E1,3E0,1.3E1],"tree_param":{"num_deleted":"0","num_feature":"3","num_nodes":"13","size_leaf_vector":"1"}},{"base_weights":[2.563725E3,-7.8513875E4,8.208403E3,-2.2059426E4,-3.115375E4,3.6689348E4,-1.5188875E4,-1.7490001E2,-9.171226E3,2.081496E3,6.93736E4,-5.4198E4,3.608774E2],"categories":[],"categories_nodes":[],"categories_segments":[],"categories_sizes":[],"default_left":[0,0,0,0,0,0,0,0,0,0,0,0,0],"id":54,"left_children":[1,3,5,-1,7,9,11,-1,-1,-1,-1,-1,-1],"loss_changes":[2.8103895E10,2.5848648E9,3.854073E10,0E0,1.2954296E9,2.0834391E11,1.3958962E11,0E0,0E0,0E0,0E0,0E0,0E0],"parents":[2147483647,0,0,1,1,2,2,4,4,5,5,6,6],"right_children":[2,4,6,-1,8,10,12,-1,-1,-1,-1,-1,-1],"split_conditions":[2.011E3,2.01E3,2.04E7,-2.2059426E4,8E5,1.9E7,2.1E7,-1.7490001E2,-9.171226E3,2.081496E3,6.93736E4,-5.4198E4,3.608774E2],"split_indices":[0,0,2,0,2,2,2,0,0,0,0,0,0],"split_type":[0,0,0,0,0,0,0,0,0,0,0,0,0],"sum_hessian":[5.9E1,3E0,5.6E1,1E0,2E0,2.5E1,3.1E1,1E0,1E0,2.4E1,1E0,1E0,3E1],"tree_param":{"num_deleted":"0","num_feature":"3","num_nodes":"13","size_leaf_vector":"1"}},{"base_weights":[-8.592089E3,-4.7506508E4,8.029378E3,-2.4954096E4,-3.18936E4,1.2485E5,-1.6775736E4,-7.7514883E3,1.0476134E4,1.06982295E4,6.24362E4,-4.87782E4,-8.091676E2],"categories":[],"categories_nodes":[],"categories_segments":[],"categories_sizes":[],"default_left":[0,0,0,0,0,0,0,0,0,0,0,0,0],"id":55,"left_children":[1,3,5,7,-1,9,11,-1,-1,-1,-1,-1,-1],"loss_changes":[4.1130775E10,4.399565E10,1.3249316E11,2.0177275E10,0E0,9.024289E10,1.0887712E11,0E0,0E0,0E0,0E0,0E0,0E0],"parents":[2147483647,0,0,1,1,2,2,3,3,5,5,6,6],"right_children":[2,4,6,8,-1,10,12,-1,-1,-1,-1,-1,-1],"split_conditions":[2.02E3,2.018E3,2.04E7,2.015E3,-3.18936E4,1.72E7,2.1E7,-7.7514883E3,1.0476134E4,1.06982295E4,6.24362E4,-4.87782E4,-8.091676E2],"split_indices":[0,0,2,0,0,2,2,0,0,0,0,0,0],"split_type":[0,0,0,0,0,0,0,0,0,0,0,0,0],"sum_hessian":[6.2E1,1.8E1,4.4E1,1.6E1,2E0,7E0,3.7E1,1.4E1,2E0,6E0,1E0,1E0,3.6E1],"tree_param":{"num_deleted":"0","num_feature":"3","num_nodes":"13","size_leaf_vector":"1"}},{"base_weights":[1.0837521E3,-2.070455E4,6.570344E3,3.69736E4,8.52433E1,-1.1241155E4,2.127607E3],"categories":[],"categories_nodes":[],"categories_segments":[],"categories_sizes":[],"default_left":[0,0,0,0,0,0,0],"id":56,"left_children":[1,-1,3,-1,5,-1,-1],"loss_changes":[3.454224E10,0E0,6.5892106E10,0E0,3.3863449E10,0E0,0E0],"parents":[2147483647,0,0,2,2,4,4],"right_children":[2,-1,4,-1,6,-1,-1],"split_conditions":[1.8861E4,-2.070455E4,2.6327E4,3.69736E4,6.2551E4,-1.1241155E4,2.127607E3],"split_indices":[1,0,1,0,1,0,0],"split_type":[0,0,0,0,0,0,0],"sum_hessian":[5.8E1,2E0,5.6E1,1E0,5.5E1,8E0,4.7E1],"tree_param":{"num_deleted":"0","num_feature":"3","num_nodes":"7","size_leaf_vector":"1"}},{"base_weights":[-1.6228186E3,-6.886962E3,7.6429E4,1.6310493E4,-3.908792E4,-1.8032001E3,3.3276402E4,-3.1628762E3,1.4378432E4,9.3213E3,-1.05784E4],"categories":[],"categories_nodes":[],"categories_segments":[],"categories_sizes":[],"default_left":[0,0,0,0,0,0,0,0,0,0,0],"id":57,"left_children":[1,3,5,7,9,-1,-1,-1,-1,-1,-1],"loss_changes":[2.6000675E10,4.470938E10,3.2244234E10,6.363131E10,3.2038425E10,0E0,0E0,0E0,0E0,0E0,0E0],"parents":[2147483647,0,0,1,1,2,2,3,3,4,4],"right_children":[2,4,6,8,10,-1,-1,-1,-1,-1,-1],"split_conditions":[3.3E7,2.022E3,2.024E3,2.021E3,1.72E7,-1.8032001E3,3.3276402E4,-3.1628762E3,1.4378432E4,9.3213E3,-1.05784E4],"split_indices":[2,0,0,0,2,0,0,0,0,0,0],"split_type":[0,0,0,0,0,0,0,0,0,0,0],"sum_hessian":[6.1E1,5.8E1,3E0,3.4E1,2.4E1,2E0,1E0,2.2E1,1.2E1,3E0,2.1E1],"tree_param":{"num_deleted":"0","num_feature":"3","num_nodes":"11","size_leaf_vector":"1"}},{"base_weights":[2.7573628E3,2.0814883E4,-1.7885932E4,-2.3412592E4,5.463579E4,-5.9707625E4,3.1187857E4,-1.8974812E4,-2.3062966E3,2.85954E4,5.82715E3,-8.6122864E2,-5.966907E4,8.578E3,-1.758E3],"categories":[],"categories_nodes":[],"categories_segments":[],"categories_sizes":[],"default_left":[0,0,0,0,0,0,0,0,0,0,0,0,0,0,0],"id":58,"left_children":[1,3,5,7,9,11,13,-1,-1,-1,-1,-1,-1,-1,-1],"loss_changes":[2.3111062E10,5.0641002E10,6.1380276E10,1.1641585E10,3.8635643E10,2.1024942E11,6.9265746E9,0E0,0E0,0E0,0E0,0E0,0E0,0E0,0E0],"parents":[2147483647,0,0,1,1,2,2,3,3,4,4,5,5,6,6],"right_children":[2,4,6,8,10,12,14,-1,-1,-1,-1,-1,-1,-1,-1],"split_conditions":[2.022E3,2.015E3,2.023E3,2.01E3,8E6,2.14E7,3.49E7,-1.8974812E4,-2.3062966E3,2.85954E4,5.82715E3,-8.6122864E2,-5.966907E4,8.578E3,-1.758E3],"split_indices":[0,0,0,0,2,2,2,0,0,0,0,0,0,0,0],"split_type":[0,0,0,0,0,0,0,0,0,0,0,0,0,0,0],"sum_hessian":[6E1,3.2E1,2.8E1,1.4E1,1.8E1,1.5E1,1.3E1,1E0,1.3E1,3E0,1.5E1,1.3E1,2E0,1E1,3E0],"tree_param":{"num_deleted":"0","num_feature":"3","num_nodes":"15","size_leaf_vector":"1"}},{"base_weights":[-1.8432208E3,-8.7228836E4,2.6050562E3,-4.98865E3,-2.118E4,2.29E4,-5.5801226E3,-1.4161028E4,7.703235E2],"categories":[],"categories_nodes":[],"categories_segments":[],"categories_sizes":[],"default_left":[0,0,0,0,0,0,0,0,0],"id":59,"left_children":[1,3,5,-1,-1,-1,7,-1,-1],"loss_changes":[2.3016368E10,8.473436E8,5.3759975E10,0E0,0E0,0E0,3.4107914E10,0E0,0E0],"parents":[2147483647,0,0,1,1,2,2,6,6],"right_children":[2,4,6,-1,-1,-1,8,-1,-1],"split_conditions":[1.8861E4,2.013E3,4.0447E4,-4.98865E3,-2.118E4,2.29E4,6.2551E4,-1.4161028E4,7.703235E2],"split_indices":[1,0,1,0,0,0,1,0,0],"split_type":[0,0,0,0,0,0,0,0,0],"sum_hessian":[5.9E1,2E0,5.7E1,1E0,1E0,3E0,5.4E1,6E0,4.8E1],"tree_param":{"num_deleted":"0","num_feature":"3","num_nodes":"9","size_leaf_vector":"1"}},{"base_weights":[9.557884E3,4.6786105E4,-1.1267132E4,2.2184312E4,5.38822E4,2.1333348E4,-5.7426125E4,-1.5701183E4,7.546711E3,8.982334E3,1.1528267E3,-4.5631402E4,8.1840728E3],"categories":[],"categories_nodes":[],"categories_segments":[],"categories_sizes":[],"default_left":[0,0,0,0,0,0,0,0,0,0,0,0,0],"id":60,"left_children":[1,3,5,7,-1,9,11,-1,-1,-1,-1,-1,-1],"loss_changes":[4.549329E10,1.090397E11,5.840769E10,3.4275445E10,0E0,8.184328E9,2.779888E11,0E0,0E0,0E0,0E0,0E0,0E0],"parents":[2147483647,0,0,1,1,2,2,3,3,5,5,6,6],"right_children":[2,4,6,8,-1,10,12,-1,-1,-1,-1,-1,-1],"split_conditions":[8.082E4,7.628E4,1.72E7,1.8861E4,5.38822E4,1.34194E5,2.5E7,-1.5701183E4,7.546711E3,8.982334E3,1.1528267E3,-4.5631402E4,8.1840728E3],"split_indices":[1,1,2,1,0,1,2,0,0,0,0,0,0],"split_type":[0,0,0,0,0,0,0,0,0,0,0,0,0],"sum_hessian":[5.7E1,2E1,3.7E1,1.9E1,1E0,2.2E1,1.5E1,2E0,1.7E1,8E0,1.4E1,5E0,1E1],"tree_param":{"num_deleted":"0","num_feature":"3","num_nodes":"13","size_leaf_vector":"1"}},{"base_weights":[2.6641638E3,-6.1293433E3,5.838975E4,3.37427E3,-4.8131E4,9.54324E4,-5.022E2,7.5261587E3,-2.7706472E3,2.60464E4,1.08349E4],"categories":[],"categories_nodes":[],"categories_segments":[],"categories_sizes":[],"default_left":[0,0,0,0,0,0,0,0,0,0,0],"id":61,"left_children":[1,3,5,7,-1,9,-1,-1,-1,-1,-1],"loss_changes":[2.8779244E10,1.1448294E11,1.828703E10,3.0029031E10,0E0,1.2353946E8,0E0,0E0,0E0,0E0,0E0],"parents":[2147483647,0,0,1,1,2,2,3,3,5,5],"right_children":[2,4,6,8,-1,10,-1,-1,-1,-1,-1],"split_conditions":[2.8E7,2.69E7,3.49E7,8.082E4,-4.8131E4,2.6327E4,-5.022E2,7.5261587E3,-2.7706472E3,2.60464E4,1.08349E4],"split_indices":[2,2,2,1,0,1,0,0,0,0,0],"split_type":[0,0,0,0,0,0,0,0,0,0,0],"sum_hessian":[5.7E1,5E1,7E0,4.9E1,1E0,4E0,3E0,1.6E1,3.3E1,1E0,3E0],"tree_param":{"num_deleted":"0","num_feature":"3","num_nodes":"11","size_leaf_vector":"1"}},{"base_weights":[1.179931E3,2.34416E4,-2.91193E3,2.3818615E4,-2.45395E4,4.7741402E4,1.13496E3,-3.8206E4,-2.6013162E3],"categories":[],"categories_nodes":[],"categories_segments":[],"categories_sizes":[],"default_left":[0,0,0,0,0,0,0,0,0],"id":62,"left_children":[1,-1,3,5,7,-1,-1,-1,-1],"loss_changes":[2.7878003E10,0E0,3.3537153E10,1.0001666E11,5.895924E10,0E0,0E0,0E0,0E0],"parents":[2147483647,0,0,2,2,3,3,4,4],"right_children":[2,-1,4,6,8,-1,-1,-1,-1],"split_conditions":[2.6327E4,2.34416E4,2.04E7,8.082E4,2.1E7,4.7741402E4,1.13496E3,-3.8206E4,-2.6013162E3],"split_indices":[1,0,2,1,2,0,0,0,0],"split_type":[0,0,0,0,0,0,0,0,0],"sum_hessian":[5.7E1,1E0,5.6E1,2.5E1,3.1E1,1E0,2.4E1,1E0,3E1],"tree_param":{"num_deleted":"0","num_feature":"3","num_nodes":"9","size_leaf_vector":"1"}},{"base_weights":[-1.1581056E3,-1.8971482E4,3.882181E3,-3.6338015E3,6.7121E4,9.8101654E2,-4.30578E4,1.61188E4,-2.44E1],"categories":[],"categories_nodes":[],"categories_segments":[],"categories_sizes":[],"default_left":[0,0,0,0,0,0,0,0,0],"id":63,"left_children":[1,-1,3,5,7,-1,-1,-1,-1],"loss_changes":[2.7759995E10,0E0,2.6860806E10,9.322827E10,5.445624E9,0E0,0E0,0E0,0E0],"parents":[2147483647,0,0,2,2,3,3,4,4],"right_children":[2,-1,4,6,8,-1,-1,-1,-1],"split_conditions":[1.8861E4,-1.8971482E4,2.8E7,2.69E7,3.49E7,9.8101654E2,-4.30578E4,1.61188E4,-2.44E1],"split_indices":[1,0,2,2,2,0,0,0,0],"split_type":[0,0,0,0,0,0,0,0,0],"sum_hessian":[5.7E1,2E0,5.5E1,5E1,5E0,4.9E1,1E0,4E0,1E0],"tree_param":{"num_deleted":"0","num_feature":"3","num_nodes":"9","size_leaf_vector":"1"}},{"base_weights":[-4.6941714E3,-4.6499062E4,5.2343164E3,-1.5497159E4,-3.8752E4,4.2572168E4,-6.097897E3,-1.6441918E4,1.6924446E3,4.2869E4,1.4941091E3,-2.2211467E4,4.697691E2],"categories":[],"categories_nodes":[],"categories_segments":[],"categories_sizes":[],"default_left":[0,0,0,0,0,0,0,0,0,0,0,0,0],"id":64,"left_children":[1,3,5,7,-1,9,11,-1,-1,-1,-1,-1,-1],"loss_changes":[2.597707E10,5.1781698E10,2.1838746E10,1.827795E10,0E0,7.075279E10,3.5723473E10,0E0,0E0,0E0,0E0,0E0,0E0],"parents":[2147483647,0,0,1,1,2,2,3,3,5,5,6,6],"right_children":[2,4,6,8,-1,10,12,-1,-1,-1,-1,-1,-1],"split_conditions":[6.2551E4,5.798E4,8.082E4,1.8861E4,-3.8752E4,2.022E3,9.4944E4,-1.6441918E4,1.6924446E3,4.2869E4,1.4941091E3,-2.2211467E4,4.697691E2],"split_indices":[1,1,1,1,0,0,1,0,0,0,0,0,0],"split_type":[0,0,0,0,0,0,0,0,0,0,0,0,0],"sum_hessian":[6.1E1,1.1E1,5E1,1E1,1E0,1.1E1,3.9E1,2E0,8E0,1E0,1E1,2E0,3.7E1],"tree_param":{"num_deleted":"0","num_feature":"3","num_nodes":"13","size_leaf_vector":"1"}},{"base_weights":[3.050174E3,-7.1248914E4,6.776396E3,-2.475075E3,-1.88996E4,2.0751676E4,-1.6000201E4,-1.9249867E4,6.037486E3,4.3454645E2,-2.7575467E4],"categories":[],"categories_nodes":[],"categories_segments":[],"categories_sizes":[],"default_left":[0,0,0,0,0,0,0,0,0,0,0],"id":65,"left_children":[1,3,5,-1,-1,7,9,-1,-1,-1,-1],"loss_changes":[1.737096E10,2.9368187E9,1.911228E10,0E0,0E0,4.375325E10,5.1241464E10,0E0,0E0,0E0,0E0],"parents":[2147483647,0,0,1,1,2,2,5,5,6,6],"right_children":[2,4,6,-1,-1,8,10,-1,-1,-1,-1],"split_conditions":[1.8861E4,2.013E3,1.18461E5,-2.475075E3,-1.88996E4,2.02E3,2.021E3,-1.9249867E4,6.037486E3,4.3454645E2,-2.7575467E4],"split_indices":[1,0,1,0,0,0,0,0,0,0,0],"split_type":[0,0,0,0,0,0,0,0,0,0,0],"sum_hessian":[6E1,2E0,5.8E1,1E0,1E0,3.6E1,2.2E1,2E0,3.4E1,2E1,2E0],"tree_param":{"num_deleted":"0","num_feature":"3","num_nodes":"11","size_leaf_vector":"1"}},{"base_weights":[-7.446323E3,1.444485E4,-2.3323766E4,-7.7753125E2,3.79782E4,-3.5134402E4,-1.3383758E4,9.257674E2,-1.25124E4,-5.3667096E2,-2.3898668E4],"categories":[],"categories_nodes":[],"categories_segments":[],"categories_sizes":[],"default_left":[0,0,0,0,0,0,0,0,0,0,0],"id":66,"left_children":[1,3,5,7,-1,-1,9,-1,-1,-1,-1],"loss_changes":[2.0496306E10,6.691535E10,4.91365E10,8.3062994E9,0E0,0E0,3.7148058E10,0E0,0E0,0E0,0E0],"parents":[2147483647,0,0,1,1,2,2,3,3,6,6],"right_children":[2,4,6,8,-1,-1,10,-1,-1,-1,-1],"split_conditions":[2.04E7,1.9E7,2.1E7,1.72E7,3.79782E4,-3.5134402E4,1.18461E5,9.257674E2,-1.25124E4,-5.3667096E2,-2.3898668E4],"split_indices":[2,2,2,2,0,0,1,0,0,0,0],"split_type":[0,0,0,0,0,0,0,0,0,0,0],"sum_hessian":[5.7E1,2.4E1,3.3E1,2.3E1,1E0,1E0,3.2E1,2.2E1,1E0,3E1,2E0],"tree_param":{"num_deleted":"0","num_feature":"3","num_nodes":"11","size_leaf_vector":"1"}},{"base_weights":[-8.526075E3,1.0088428E4,-2.041235E4,-1.659864E4,5.44476E4,-2.7071701E4,-7.434054E3,-1.7387188E4,-1.3538125E3,3.2123535E4,1.5655751E3,-2.6696243E3,6.6171206E3],"categories":[],"categories_nodes":[],"categories_segments":[],"categories_sizes":[],"default_left":[0,0,0,0,0,0,0,0,0,0,0,0,0],"id":67,"left_children":[1,3,5,7,9,-1,11,-1,-1,-1,-1,-1,-1],"loss_changes":[1.458764E10,3.168298E10,5.8665947E10,1.1165086E10,4.8238895E10,0E0,9.30816E9,0E0,0E0,0E0,0E0,0E0,0E0],"parents":[2147483647,0,0,1,1,2,2,3,3,4,4,6,6],"right_children":[2,4,6,8,10,-1,12,-1,-1,-1,-1,-1,-1],"split_conditions":[1.72E7,2.016E3,2.1E7,2.01E3,8E6,-2.7071701E4,3.3E7,-1.7387188E4,-1.3538125E3,3.2123535E4,1.5655751E3,-2.6696243E3,6.6171206E3],"split_indices":[2,0,2,0,2,0,2,0,0,0,0,0,0],"split_type":[0,0,0,0,0,0,0,0,0,0,0,0,0],"sum_hessian":[6.4E1,2.5E1,3.9E1,1.6E1,9E0,3E0,3.6E1,1E0,1.5E1,2E0,7E0,3.2E1,4E0],"tree_param":{"num_deleted":"0","num_feature":"3","num_nodes":"13","size_leaf_vector":"1"}},{"base_weights":[-1.0850742E4,-5.3954957E4,-6.2046035E3,-2.1847751E3,-6.03764E4,1.703285E4,-1.7962154E4,-1.57643E4,-4.361167E3,1.9648948E3,1.53992E4,-2.30109E4,-1.3350333E3],"categories":[],"categories_nodes":[],"categories_segments":[],"categories_sizes":[],"default_left":[0,0,0,0,0,0,0,0,0,0,0,0,0],"id":68,"left_children":[1,3,5,-1,7,9,11,-1,-1,-1,-1,-1,-1],"loss_changes":[1.2282124E10,9.9838566E8,1.6152447E10,0E0,1.83842E9,7.888294E9,4.1971315E10,0E0,0E0,0E0,0E0,0E0,0E0],"parents":[2147483647,0,0,1,1,2,2,4,4,5,5,6,6],"right_children":[2,4,6,-1,8,10,12,-1,-1,-1,-1,-1,-1],"split_conditions":[6E6,4.033E3,1.72E7,-2.1847751E3,2.04059E5,1.8541E5,2.1E7,-1.57643E4,-4.361167E3,1.9648948E3,1.53992E4,-2.30109E4,-1.3350333E3],"split_indices":[2,1,2,0,1,1,2,0,0,0,0,0,0],"split_type":[0,0,0,0,0,0,0,0,0,0,0,0,0],"sum_hessian":[6.2E1,5E0,5.7E1,1E0,4E0,1.9E1,3.8E1,2E0,2E0,1.8E1,1E0,3E0,3.5E1],"tree_param":{"num_deleted":"0","num_feature":"3","num_nodes":"13","size_leaf_vector":"1"}},{"base_weights":[-5.4202583E3,1.7958943E3,-4.6511332E4,-2.1389305E4,1.36684E4,-3.5026402E4,-8.54225E3,-1.407205E4,-2.8739646E3,1.39314795E4,-1.6783076E3,2.7776572E3,-1.65556E4],"categories":[],"categories_nodes":[],"categories_segments":[],"categories_sizes":[],"default_left":[0,0,0,0,0,0,0,0,0,0,0,0,0],"id":69,"left_children":[1,3,5,7,9,-1,11,-1,-1,-1,-1,-1,-1],"loss_changes":[1.7874698E10,1.4606211E10,4.2456457E10,5.1764475E9,4.3813523E10,0E0,1.4470826E10,0E0,0E0,0E0,0E0,0E0,0E0],"parents":[2147483647,0,0,1,1,2,2,3,3,4,4,6,6],"right_children":[2,4,6,8,10,-1,12,-1,-1,-1,-1,-1,-1],"split_conditions":[2.69E7,2.018E3,2.023E3,2.01E3,2.04E7,-3.5026402E4,2.024E3,-1.407205E4,-2.8739646E3,1.39314795E4,-1.6783076E3,2.7776572E3,-1.65556E4],"split_indices":[2,0,0,0,2,0,0,0,0,0,0,0,0],"split_type":[0,0,0,0,0,0,0,0,0,0,0,0,0],"sum_hessian":[5.9E1,5.1E1,8E0,1.7E1,3.4E1,1E0,7E0,1E0,1.6E1,9E0,2.5E1,6E0,1E0],"tree_param":{"num_deleted":"0","num_feature":"3","num_nodes":"13","size_leaf_vector":"1"}},{"base_weights":[2.918112E3,1.9254266E4,-1.6551334E4,-1.3411147E4,5.2757875E4,-3.4174167E3,-9.1217E4,-4.6328286E3,4.8154253E3,3.7795402E4,6.2156265E3,-1.49E4,5.824522E2,-2.9752E4,8.1412E3],"categories":[],"categories_nodes":[],"categories_segments":[],"categories_sizes":[],"default_left":[0,0,0,0,0,0,0,0,0,0,0,0,0,0,0],"id":70,"left_children":[1,3,5,7,9,11,13,-1,-1,-1,-1,-1,-1,-1,-1],"loss_changes":[1.8765924E10,3.5728634E10,2.6165895E10,6.7733166E9,4.137808E10,1.101528E10,3.6420403E10,0E0,0E0,0E0,0E0,0E0,0E0,0E0,0E0],"parents":[2147483647,0,0,1,1,2,2,3,3,4,4,5,5,6,6],"right_children":[2,4,6,8,10,12,14,-1,-1,-1,-1,-1,-1,-1,-1],"split_conditions":[2.022E3,2.016E3,1.01555E5,2.04059E5,8.082E4,1.8861E4,2.023E3,-4.6328286E3,4.8154253E3,3.7795402E4,6.2156265E3,-1.49E4,5.824522E2,-2.9752E4,8.1412E3],"split_indices":[0,0,1,1,1,1,0,0,0,0,0,0,0,0,0],"split_type":[0,0,0,0,0,0,0,0,0,0,0,0,0,0,0],"sum_hessian":[5.7E1,3.1E1,2.6E1,1.6E1,1.5E1,2.3E1,3E0,1.3E1,3E0,1E0,1.4E1,1E0,2.2E1,2E0,1E0],"tree_param":{"num_deleted":"0","num_feature":"3","num_nodes":"15","size_leaf_vector":"1"}},{"base_weights":[3.1790625E2,-4.5648406E4,3.5380352E3,-1.22015625E4,-2.0192666E4,1.898744E4,-8.273272E3,1.01945E3,-7.07725E3,1.1210668E3,3.40158E4,-2.34698E4,-2.395E2],"categories":[],"categories_nodes":[],"categories_segments":[],"categories_sizes":[],"default_left":[0,0,0,0,0,0,0,0,0,0,0,0,0],"id":71,"left_children":[1,3,5,-1,7,9,11,-1,-1,-1,-1,-1,-1],"loss_changes":[9.042553E9,3.3202995E8,1.0558316E10,0E0,1.333106E9,4.9594733E10,2.5328712E10,0E0,0E0,0E0,0E0,0E0,0E0],"parents":[2147483647,0,0,1,1,2,2,4,4,5,5,6,6],"right_children":[2,4,6,-1,8,10,12,-1,-1,-1,-1,-1,-1],"split_conditions":[2.011E3,2.01E3,2.04E7,-1.22015625E4,8E5,1.9E7,2.1E7,1.01945E3,-7.07725E3,1.1210668E3,3.40158E4,-2.34698E4,-2.395E2],"split_indices":[0,0,2,0,2,2,2,0,0,0,0,0,0],"split_type":[0,0,0,0,0,0,0,0,0,0,0,0,0],"sum_hessian":[5.9E1,3E0,5.6E1,1E0,2E0,2.4E1,3.2E1,1E0,1E0,2.3E1,1E0,1E0,3.1E1],"tree_param":{"num_deleted":"0","num_feature":"3","num_nodes":"13","size_leaf_vector":"1"}},{"base_weights":[1.0142839E3,1.4757379E4,-1.3711586E4,9.7621586E4,5.6763447E3,-4.156923E3,-7.2389E4,-1.327725E3,3.0614201E4,-1.1173334E4,2.4608445E3,-1.3386E4,2.0623999E2,-2.42044E4,7.351E3],"categories":[],"categories_nodes":[],"categories_segments":[],"categories_sizes":[],"default_left":[0,0,0,0,0,0,0,0,0,0,0,0,0,0,0],"id":72,"left_children":[1,3,5,7,9,11,13,-1,-1,-1,-1,-1,-1,-1,-1],"loss_changes":[1.214271E10,2.2773142E10,1.5957729E10,1.8359683E10,1.2516482E10,8.5365535E9,2.5680167E10,0E0,0E0,0E0,0E0,0E0,0E0,0E0,0E0],"parents":[2147483647,0,0,1,1,2,2,3,3,4,4,5,5,6,6],"right_children":[2,4,6,8,10,12,14,-1,-1,-1,-1,-1,-1,-1,-1],"split_conditions":[2.022E3,8.082E4,1.01555E5,2.013E3,9.4944E4,1.8861E4,2.023E3,-1.327725E3,3.0614201E4,-1.1173334E4,2.4608445E3,-1.3386E4,2.0623999E2,-2.42044E4,7.351E3],"split_indices":[0,1,1,0,1,1,0,0,0,0,0,0,0,0,0],"split_type":[0,0,0,0,0,0,0,0,0,0,0,0,0,0,0],"sum_hessian":[5.8E1,3E1,2.8E1,2E0,2.8E1,2.5E1,3E0,1E0,1E0,2E0,2.6E1,1E0,2.4E1,2E0,1E0],"tree_param":{"num_deleted":"0","num_feature":"3","num_nodes":"15","size_leaf_vector":"1"}},{"base_weights":[4.948202E2,-1.752775E4,8.592606E3,6.1635E3,-4.791225E4,6.7769336E4,-1.7974785E3,-8.828101E3,4.4493335E3,-3.15786E4,-1.9289143E3,2.75528E4,5.24352E3,-5.4085776E3,1.3368463E3],"categories":[],"categories_nodes":[],"categories_segments":[],"categories_sizes":[],"default_left":[0,0,0,0,0,0,0,0,0,0,0,0,0,0,0],"id":73,"left_children":[1,3,5,7,9,11,13,-1,-1,-1,-1,-1,-1,-1,-1],"loss_changes":[8.4693555E9,1.325255E10,2.4715862E10,9.881503E9,3.2146854E10,1.3838561E10,7.6751094E9,0E0,0E0,0E0,0E0,0E0,0E0,0E0,0E0],"parents":[2147483647,0,0,1,1,2,2,3,3,4,4,5,5,6,6],"right_children":[2,4,6,8,10,12,14,-1,-1,-1,-1,-1,-1,-1,-1],"split_conditions":[6.6651E4,5.798E4,8.082E4,1.8861E4,6.2551E4,2.022E3,1.06053E5,-8.828101E3,4.4493335E3,-3.15786E4,-1.9289143E3,2.75528E4,5.24352E3,-5.4085776E3,1.3368463E3],"split_indices":[1,1,1,1,1,0,1,0,0,0,0,0,0,0,0],"split_type":[0,0,0,0,0,0,0,0,0,0,0,0,0,0,0],"sum_hessian":[5.6E1,1.7E1,3.9E1,1E1,7E0,5E0,3.4E1,2E0,8E0,1E0,6E0,1E0,4E0,8E0,2.6E1],"tree_param":{"num_deleted":"0","num_feature":"3","num_nodes":"15","size_leaf_vector":"1"}},{"base_weights":[-3.196897E3,-3.4272457E4,6.205694E3,-1.1551046E4,-2.84208E4,-1.1361175E4,9.277936E3,-7.6510337E3,-2.7324445E2,4.1958687E3,-1.1078445E3],"categories":[],"categories_nodes":[],"categories_segments":[],"categories_sizes":[],"default_left":[0,0,0,0,0,0,0,0,0,0,0],"id":74,"left_children":[1,3,5,7,-1,-1,9,-1,-1,-1,-1],"loss_changes":[1.5114415E10,2.775957E10,8.270512E9,2.9394796E9,0E0,0E0,6.87809E9,0E0,0E0,0E0,0E0],"parents":[2147483647,0,0,1,1,2,2,3,3,6,6],"right_children":[2,4,6,8,-1,-1,10,-1,-1,-1,-1],"split_conditions":[6.2551E4,5.798E4,7.2E5,1.8861E4,-2.84208E4,-1.1361175E4,2.04E7,-7.6510337E3,-2.7324445E2,4.1958687E3,-1.1078445E3],"split_indices":[1,1,2,1,0,0,2,0,0,0,0],"split_type":[0,0,0,0,0,0,0,0,0,0,0],"sum_hessian":[5E1,1.1E1,3.9E1,1E1,1E0,1E0,3.8E1,2E0,8E0,2.1E1,1.7E1],"tree_param":{"num_deleted":"0","num_feature":"3","num_nodes":"11","size_leaf_vector":"1"}},{"base_weights":[1.1231127E3,6.6247164E4,-2.2073157E3,4.5295E2,1.9421201E4,-3.04144E4,3.4782476E3,-2.55788E4,-1.0745778E3,3.2207173E3,-2.6644695E3],"categories":[],"categories_nodes":[],"categories_segments":[],"categories_sizes":[],"default_left":[0,0,0,0,0,0,0,0,0,0,0],"id":75,"left_children":[1,3,5,-1,-1,7,9,-1,-1,-1,-1],"loss_changes":[1.3376579E10,5.703349E9,9.567805E9,0E0,0E0,2.3723205E10,1.0820197E10,0E0,0E0,0E0,0E0],"parents":[2147483647,0,0,1,1,2,2,5,5,6,6],"right_children":[2,4,6,-1,-1,8,10,-1,-1,-1,-1],"split_conditions":[2.6327E4,2.013E3,6.2551E4,4.5295E2,1.9421201E4,2.023E3,1.18461E5,-2.55788E4,-1.0745778E3,3.2207173E3,-2.6644695E3],"split_indices":[1,0,1,0,0,0,1,0,0,0,0],"split_type":[0,0,0,0,0,0,0,0,0,0,0],"sum_hessian":[6E1,2E0,5.8E1,1E0,1E0,9E0,4.9E1,1E0,8E0,2.8E1,2.1E1],"tree_param":{"num_deleted":"0","num_feature":"3","num_nodes":"11","size_leaf_vector":"1"}},{"base_weights":[-2.4891074E3,-8.238194E3,4.2379166E2,-3.504843E3,5.0407938E4,1.3773201E3,-2.5993484E3,4.3761E3,1.3599025E4],"categories":[],"categories_nodes":[],"categories_segments":[],"categories_sizes":[],"default_left":[0,0,0,0,0,0,0,0,0],"id":76,"left_children":[1,-1,3,5,7,-1,-1,-1,-1],"loss_changes":[6.4433295E9,0E0,1.0780623E10,5.119864E9,5.1910144E8,0E0,0E0,0E0,0E0],"parents":[2147483647,0,0,2,2,3,3,4,4],"right_children":[2,-1,4,6,8,-1,-1,-1,-1],"split_conditions":[2.011E3,-8.238194E3,1.8541E5,2.022E3,2.04059E5,1.3773201E3,-2.5993484E3,4.3761E3,1.3599025E4],"split_indices":[0,0,1,0,1,0,0,0,0],"split_type":[0,0,0,0,0,0,0,0,0],"sum_hessian":[5.6E1,3E0,5.3E1,5E1,3E0,2.4E1,2.6E1,2E0,1E0],"tree_param":{"num_deleted":"0","num_feature":"3","num_nodes":"9","size_leaf_vector":"1"}},{"base_weights":[-3.3609739E3,-1.20812E4,-1.4355471E3,1.7739201E4,-4.4160063E3,-1.4383269E3,4.35265E3],"categories":[],"categories_nodes":[],"categories_segments":[],"categories_sizes":[],"default_left":[0,0,0,0,0,0,0],"id":77,"left_children":[1,-1,3,-1,5,-1,-1],"loss_changes":[6.723117E9,0E0,1.6778319E10,0E0,4.516346E9,0E0,0E0],"parents":[2147483647,0,0,2,2,4,4],"right_children":[2,-1,4,-1,6,-1,-1],"split_conditions":[1.8861E4,-1.20812E4,2.6327E4,1.7739201E4,1.8541E5,-1.4383269E3,4.35265E3],"split_indices":[1,0,1,0,1,0,0],"split_type":[0,0,0,0,0,0,0],"sum_hessian":[6.1E1,1E0,6E1,1E0,5.9E1,5.4E1,5E0],"tree_param":{"num_deleted":"0","num_feature":"3","num_nodes":"7","size_leaf_vector":"1"}},{"base_weights":[-4.869433E3,8.438444E3,-1.0326931E4,-4.8952354E3,2.35111E4,-8.465128E2,-1.644176E4,-3.200575E3,3.6271833E3,-1.7808268E3,4.6822E3],"categories":[],"categories_nodes":[],"categories_segments":[],"categories_sizes":[],"default_left":[0,0,0,0,0,0,0,0,0,0,0],"id":78,"left_children":[1,3,5,7,-1,9,-1,-1,-1,-1,-1],"loss_changes":[4.444805E9,2.6764235E10,2.9233623E10,4.6391967E9,0E0,7.8313093E9,0E0,0E0,0E0,0E0,0E0],"parents":[2147483647,0,0,1,1,2,2,3,3,5,5],"right_children":[2,4,6,8,-1,10,-1,-1,-1,-1,-1],"split_conditions":[8E6,7E6,1.18461E5,1.8541E5,2.35111E4,1.06053E5,-1.644176E4,-3.200575E3,3.6271833E3,-1.7808268E3,4.6822E3],"split_indices":[2,2,1,1,0,1,0,0,0,0,0],"split_type":[0,0,0,0,0,0,0,0,0,0,0],"sum_hessian":[5.9E1,1.7E1,4.2E1,1.6E1,1E0,3.8E1,4E0,1.1E1,5E0,2.9E1,9E0],"tree_param":{"num_deleted":"0","num_feature":"3","num_nodes":"11","size_leaf_vector":"1"}},{"base_weights":[-2.975371E2,-8.670888E3,1.0740714E3,9.952537E3,-5.433838E3,2.0245E2,2.424E4,-1.7791E4,-1.2856667E2],"categories":[],"categories_nodes":[],"categories_segments":[],"categories_sizes":[],"default_left":[0,0,0,0,0,0,0,0,0],"id":79,"left_children":[1,-1,3,5,7,-1,-1,-1,-1],"loss_changes":[3.8262275E9,0E0,3.694236E9,2.673109E10,1.4748377E10,0E0,0E0,0E0,0E0],"parents":[2147483647,0,0,2,2,3,3,4,4],"right_children":[2,-1,4,6,8,-1,-1,-1,-1],"split_conditions":[7.2E5,-8.670888E3,2.04E7,1.9E7,2.1E7,2.0245E2,2.424E4,-1.7791E4,-1.2856667E2],"split_indices":[2,0,2,2,2,0,0,0,0],"split_type":[0,0,0,0,0,0,0,0,0],"sum_hessian":[6.3E1,1E0,6.2E1,2.6E1,3.6E1,2.5E1,1E0,1E0,3.5E1],"tree_param":{"num_deleted":"0","num_feature":"3","num_nodes":"9","size_leaf_vector":"1"}},{"base_weights":[2.6096885E3,8.313476E3,-8.650548E3,-7.589875E3,2.2393182E4,-1.52387E4,6.8395835E3,2.89845E3,-5.394909E3,1.1453601E4,1.7534354E3,2.11398E4,-1.038653E3],"categories":[],"categories_nodes":[],"categories_segments":[],"categories_sizes":[],"default_left":[0,0,0,0,0,0,0,0,0,0,0,0,0],"id":80,"left_children":[1,3,5,7,9,-1,11,-1,-1,-1,-1,-1,-1],"loss_changes":[3.9897016E9,9.350456E9,2.2492363E10,8.952016E9,9.952419E9,0E0,2.196101E10,0E0,0E0,0E0,0E0,0E0,0E0],"parents":[2147483647,0,0,1,1,2,2,3,3,4,4,6,6],"right_children":[2,4,6,8,10,-1,12,-1,-1,-1,-1,-1,-1],"split_conditions":[1.18461E5,6.6651E4,1.25559E5,4.2626E4,8.082E4,-1.52387E4,1.34194E5,2.89845E3,-5.394909E3,1.1453601E4,1.7534354E3,2.11398E4,-1.038653E3],"split_indices":[1,1,1,1,1,0,1,0,0,0,0,0,0],"split_type":[0,0,0,0,0,0,0,0,0,0,0,0,0],"sum_hessian":[6E1,4E1,2E1,1.9E1,2.1E1,3E0,1.7E1,9E0,1E1,5E0,1.6E1,1E0,1.6E1],"tree_param":{"num_deleted":"0","num_feature":"3","num_nodes":"13","size_leaf_vector":"1"}},{"base_weights":[-1.9113649E3,-7.6999375E3,-6.8041394E2,-5.046826E3,1.1915547E4,4.2235715E2,-1.283396E4,1.90258E4,5.21E0],"categories":[],"categories_nodes":[],"categories_segments":[],"categories_sizes":[],"default_left":[0,0,0,0,0,0,0,0,0],"id":81,"left_children":[1,-1,3,5,7,-1,-1,-1,-1],"loss_changes":[2.766187E9,0E0,3.4150843E9,1.960448E10,1.5827378E10,0E0,0E0,0E0,0E0],"parents":[2147483647,0,0,2,2,3,3,4,4],"right_children":[2,-1,4,6,8,-1,-1,-1,-1],"split_conditions":[7.2E5,-7.6999375E3,1.32211E5,1.20276E5,1.34194E5,4.2235715E2,-1.283396E4,1.90258E4,5.21E0],"split_indices":[2,0,1,1,1,0,0,0,0],"split_type":[0,0,0,0,0,0,0,0,0],"sum_hessian":[6.1E1,1E0,6E1,4.5E1,1.5E1,4.1E1,4E0,1E0,1.4E1],"tree_param":{"num_deleted":"0","num_feature":"3","num_nodes":"9","size_leaf_vector":"1"}},{"base_weights":[4.138423E3,1.5139807E4,-3.1018381E3,6.037702E3,2.06284E4,-1.49933E4,1.2960233E4,-6.37935E3,2.3419158E3,-1.7039999E1,-9.952934E3,-1.4477616E3,1.9233867E4],"categories":[],"categories_nodes":[],"categories_segments":[],"categories_sizes":[],"default_left":[0,0,0,0,0,0,0,0,0,0,0,0,0],"id":82,"left_children":[1,3,5,7,-1,9,11,-1,-1,-1,-1,-1,-1],"loss_changes":[4.42787E9,1.6999373E10,6.688368E9,4.891848E9,0E0,1.0363261E10,2.590731E10,0E0,0E0,0E0,0E0,0E0,0E0],"parents":[2147483647,0,0,1,1,2,2,3,3,5,5,6,6],"right_children":[2,4,6,8,-1,10,12,-1,-1,-1,-1,-1,-1],"split_conditions":[8.082E4,7.628E4,1.32211E5,1.8861E4,2.06284E4,1.18461E5,2.015E3,-6.37935E3,2.3419158E3,-1.7039999E1,-9.952934E3,-1.4477616E3,1.9233867E4],"split_indices":[1,1,1,1,0,1,0,0,0,0,0,0,0],"split_type":[0,0,0,0,0,0,0,0,0,0,0,0,0],"sum_hessian":[5.4E1,2.1E1,3.3E1,2E1,1E0,1.9E1,1.4E1,2E0,1.8E1,1.4E1,5E0,1.2E1,2E0],"tree_param":{"num_deleted":"0","num_feature":"3","num_nodes":"13","size_leaf_vector":"1"}},{"base_weights":[-1.8129423E3,-1.03768E4,-2.1989453E2,1.5589601E4,-2.6979246E3,-4.2604727E3,2.4285567E2],"categories":[],"categories_nodes":[],"categories_segments":[],"categories_sizes":[],"default_left":[0,0,0,0,0,0,0],"id":83,"left_children":[1,-1,3,-1,5,-1,-1],"loss_changes":[5.1733545E9,0E0,1.2607251E10,0E0,4.6112804E9,0E0,0E0],"parents":[2147483647,0,0,2,2,4,4],"right_children":[2,-1,4,-1,6,-1,-1],"split_conditions":[1.8861E4,-1.03768E4,2.6327E4,1.5589601E4,6.2551E4,-4.2604727E3,2.4285567E2],"split_indices":[1,0,1,0,1,0,0],"split_type":[0,0,0,0,0,0,0],"sum_hessian":[6.4E1,1E0,6.3E1,1E0,6.2E1,1E1,5.2E1],"tree_param":{"num_deleted":"0","num_feature":"3","num_nodes":"7","size_leaf_vector":"1"}},{"base_weights":[2.7084702E3,1.447423E4,-4.9031313E3,7.3517397E3,1.85414E4,-1.00528E4,-1.092706E3,-4.145217E3,2.1692727E3,-6.434194E3,5.191397E2],"categories":[],"categories_nodes":[],"categories_segments":[],"categories_sizes":[],"default_left":[0,0,0,0,0,0,0,0,0,0,0],"id":84,"left_children":[1,3,5,7,-1,-1,9,-1,-1,-1,-1],"loss_changes":[5.7130143E9,1.3248745E10,6.686E9,2.5797169E9,0E0,0E0,4.3247867E9,0E0,0E0,0E0,0E0],"parents":[2147483647,0,0,1,1,2,2,3,3,6,6],"right_children":[2,4,6,8,-1,-1,10,-1,-1,-1,-1],"split_conditions":[8.082E4,7.628E4,9.4944E4,1.8861E4,1.85414E4,-1.00528E4,2.011E3,-4.145217E3,2.1692727E3,-6.434194E3,5.191397E2],"split_indices":[1,1,1,1,0,0,0,0,0,0,0],"split_type":[0,0,0,0,0,0,0,0,0,0,0],"sum_hessian":[6.2E1,2.4E1,3.8E1,2.3E1,1E0,2E0,3.6E1,2E0,2.1E1,3E0,3.3E1],"tree_param":{"num_deleted":"0","num_feature":"3","num_nodes":"11","size_leaf_vector":"1"}},{"base_weights":[3.0252232E1,-5.469056E3,2.0957595E3,-9.332211E1,1.15928E4,1.0212378E3,-2.422272E3],"categories":[],"categories_nodes":[],"categories_segments":[],"categories_sizes":[],"default_left":[0,0,0,0,0,0,0],"id":85,"left_children":[1,-1,3,5,-1,-1,-1],"loss_changes":[3.2237934E9,0E0,6.487317E9,3.3112148E9,0E0,0E0,0E0],"parents":[2147483647,0,0,2,2,3,3],"right_children":[2,-1,4,6,-1,-1,-1],"split_conditions":[2.011E3,-5.469056E3,2.04059E5,1.18461E5,1.15928E4,1.0212378E3,-2.422272E3],"split_indices":[0,0,1,1,0,0,0],"split_type":[0,0,0,0,0,0,0],"sum_hessian":[5.5E1,3E0,5.2E1,5.1E1,1E0,3.6E1,1.5E1],"tree_param":{"num_deleted":"0","num_feature":"3","num_nodes":"7","size_leaf_vector":"1"}},{"base_weights":[-3.4864558E3,2.0358291E4,-5.8128228E3,-1.8643416E4,4.452E4,-2.7231334E4,-1.993988E3,3.4337751E3,-9.0268E3,2.7306667E3,1.3712E4,-2.20566E4,-6.129E2,3.0487666E3,-1.3981141E3],"categories":[],"categories_nodes":[],"categories_segments":[],"categories_sizes":[],"default_left":[0,0,0,0,0,0,0,0,0,0,0,0,0,0,0],"id":86,"left_children":[1,3,5,7,9,11,13,-1,-1,-1,-1,-1,-1,-1,-1],"loss_changes":[3.7239951E9,6.484092E9,4.8533263E9,3.6209654E9,2.0320655E9,1.7725899E10,4.585333E9,0E0,0E0,0E0,0E0,0E0,0E0,0E0,0E0],"parents":[2147483647,0,0,1,1,2,2,3,3,4,4,5,5,6,6],"right_children":[2,4,6,8,10,12,14,-1,-1,-1,-1,-1,-1,-1,-1],"split_conditions":[4.0447E4,1.8861E4,6.2551E4,2.013E3,2.024E3,2.023E3,8.082E4,3.4337751E3,-9.0268E3,2.7306667E3,1.3712E4,-2.20566E4,-6.129E2,3.0487666E3,-1.3981141E3],"split_indices":[1,1,1,0,0,0,1,0,0,0,0,0,0,0,0],"split_type":[0,0,0,0,0,0,0,0,0,0,0,0,0,0,0],"sum_hessian":[6.4E1,5E0,5.9E1,2E0,3E0,8E0,5.1E1,1E0,1E0,2E0,1E0,1E0,7E0,1.1E1,4E1],"tree_param":{"num_deleted":"0","num_feature":"3","num_nodes":"15","size_leaf_vector":"1"}},{"base_weights":[-2.018777E3,-3.17915E4,4.5470493E2,-1.1783833E4,-8.2404E3,8.800267E3,-1.7672373E3,-5.479325E3,1.944175E3,-7.312982E2,3.8736E3],"categories":[],"categories_nodes":[],"categories_segments":[],"categories_sizes":[],"default_left":[0,0,0,0,0,0,0,0,0,0,0],"id":87,"left_children":[1,3,5,7,-1,-1,9,-1,-1,-1,-1],"loss_changes":[4.8012047E9,4.55893E8,5.9800044E9,1.2735648E9,0E0,0E0,2.4266785E9,0E0,0E0,0E0,0E0],"parents":[2147483647,0,0,1,1,2,2,3,3,6,6],"right_children":[2,4,6,8,-1,-1,10,-1,-1,-1,-1],"split_conditions":[2.012E3,8E5,6.1E6,2.01E3,-8.2404E3,8.800267E3,3.3E7,-5.479325E3,1.944175E3,-7.312982E2,3.8736E3],"split_indices":[0,2,2,0,0,0,2,0,0,0,0],"split_type":[0,0,0,0,0,0,0,0,0,0,0],"sum_hessian":[6.4E1,4E0,6E1,2E0,2E0,2E0,5.8E1,1E0,1E0,5.4E1,4E0],"tree_param":{"num_deleted":"0","num_feature":"3","num_nodes":"11","size_leaf_vector":"1"}},{"base_weights":[5.566213E3,1.5891925E4,-2.4249697E3,-2.9973047E3,4.45255E4,-6.026839E3,3.5602668E4,1.9691041E3,-1.946E3,1.38954E4,3.2623335E3,-4.5307693E1,-6.0314E3,-1.2728E3,1.1953601E4],"categories":[],"categories_nodes":[],"categories_segments":[],"categories_sizes":[],"default_left":[0,0,0,0,0,0,0,0,0,0,0,0,0,0,0],"id":88,"left_children":[1,3,5,7,9,11,13,-1,-1,-1,-1,-1,-1,-1,-1],"loss_changes":[4.7418726E9,1.365511E10,4.7346E9,1.4792662E9,5.9064873E9,4.331996E9,3.422779E9,0E0,0E0,0E0,0E0,0E0,0E0,0E0,0E0],"parents":[2147483647,0,0,1,1,2,2,3,3,4,4,5,5,6,6],"right_children":[2,4,6,8,10,12,14,-1,-1,-1,-1,-1,-1,-1,-1],"split_conditions":[2.04E7,2.016E3,3.3E7,3.1E6,2.022E3,2.69E7,2.024E3,1.9691041E3,-1.946E3,1.38954E4,3.2623335E3,-4.5307693E1,-6.0314E3,-1.2728E3,1.1953601E4],"split_indices":[2,0,2,2,0,2,0,0,0,0,0,0,0,0,0],"split_type":[0,0,0,0,0,0,0,0,0,0,0,0,0,0,0],"sum_hessian":[5.6E1,2.4E1,3.2E1,1.5E1,9E0,3E1,2E0,5E0,1E1,4E0,5E0,2.5E1,5E0,1E0,1E0],"tree_param":{"num_deleted":"0","num_feature":"3","num_nodes":"15","size_leaf_vector":"1"}},{"base_weights":[-1.407E3,8.92035E3,-6.069273E3,2.7723333E3,4.2835E4,-6.201E2,-9.689761E3,-5.1283003E3,1.1904117E3,-1.3387001E3,1.41892E4,-1.636E3,3.5402668E3],"categories":[],"categories_nodes":[],"categories_segments":[],"categories_sizes":[],"default_left":[0,0,0,0,0,0,0,0,0,0,0,0,0],"id":89,"left_children":[1,3,5,7,9,11,-1,-1,-1,-1,-1,-1,-1],"loss_changes":[3.0875223E9,4.0514035E9,1.0131024E10,1.7788872E9,4.651764E9,5.685125E9,0E0,0E0,0E0,0E0,0E0,0E0,0E0],"parents":[2147483647,0,0,1,1,2,2,3,3,4,4,5,5],"right_children":[2,4,6,8,10,12,-1,-1,-1,-1,-1,-1,-1],"split_conditions":[8E6,7E6,1.18461E5,7.2E5,1.20276E5,1.06053E5,-9.689761E3,-5.1283003E3,1.1904117E3,-1.3387001E3,1.41892E4,-1.636E3,3.5402668E3],"split_indices":[2,2,1,2,1,1,0,0,0,0,0,0,0],"split_type":[0,0,0,0,0,0,0,0,0,0,0,0,0],"sum_hessian":[6.2E1,1.9E1,4.3E1,1.7E1,2E0,3.9E1,4E0,1E0,1.6E1,1E0,1E0,2.8E1,1.1E1],"tree_param":{"num_deleted":"0","num_feature":"3","num_nodes":"13","size_leaf_vector":"1"}},{"base_weights":[-6.918509E2,9.2175E3,-1.204363E4,5.6739418E4,3.9835947E3,-7.2818335E3,-3.76035E4,1.894425E3,1.51274E4,-7.6496E3,1.3715732E3,-3.304847E3,2.6537E3,-1.4219333E4,6.2876E3],"categories":[],"categories_nodes":[],"categories_segments":[],"categories_sizes":[],"default_left":[0,0,0,0,0,0,0,0,0,0,0,0,0,0,0],"id":90,"left_children":[1,3,5,7,9,11,13,-1,-1,-1,-1,-1,-1,-1,-1],"loss_changes":[6.522872E9,7.484455E9,3.0123715E9,1.9632701E9,3.7824663E9,4.7776783E9,1.1484811E10,0E0,0E0,0E0,0E0,0E0,0E0,0E0,0E0],"parents":[2147483647,0,0,1,1,2,2,3,3,4,4,5,5,6,6],"right_children":[2,4,6,8,10,12,14,-1,-1,-1,-1,-1,-1,-1,-1],"split_conditions":[2.022E3,8.082E4,1.01555E5,2.013E3,9.4944E4,6.6651E4,2.023E3,1.894425E3,1.51274E4,-7.6496E3,1.3715732E3,-3.304847E3,2.6537E3,-1.4219333E4,6.2876E3],"split_indices":[0,1,1,0,1,1,0,0,0,0,0,0,0,0,0],"split_type":[0,0,0,0,0,0,0,0,0,0,0,0,0,0,0],"sum_hessian":[5.6E1,3E1,2.6E1,2E0,2.8E1,2.3E1,3E0,1E0,1E0,1E0,2.7E1,1.6E1,7E0,2E0,1E0],"tree_param":{"num_deleted":"0","num_feature":"3","num_nodes":"15","size_leaf_vector":"1"}},{"base_weights":[-1.0027319E3,-4.413911E3,1.5214E4,-5.6585418E4,-1.1953425E3,-6.9536E3,2.3689E4,1.704975E3,-1.86806E4,2.6485093E3,-1.0271757E3,1.12524E4,2.763689E3],"categories":[],"categories_nodes":[],"categories_segments":[],"categories_sizes":[],"default_left":[0,0,0,0,0,0,0,0,0,0,0,0,0],"id":91,"left_children":[1,3,5,7,9,-1,11,-1,-1,-1,-1,-1,-1],"loss_changes":[3.49688E9,8.664075E9,5.483191E9,7.9878595E9,2.9126628E9,0E0,2.4376832E9,0E0,0E0,0E0,0E0,0E0,0E0],"parents":[2147483647,0,0,1,1,2,2,3,3,4,4,6,6],"right_children":[2,4,6,8,10,-1,12,-1,-1,-1,-1,-1,-1],"split_conditions":[2.023E3,6.2551E4,1.8861E4,2.013E3,8.082E4,-6.9536E3,2.6327E4,1.704975E3,-1.86806E4,2.6485093E3,-1.0271757E3,1.12524E4,2.763689E3],"split_indices":[0,1,1,0,1,0,1,0,0,0,0,0,0],"split_type":[0,0,0,0,0,0,0,0,0,0,0,0,0],"sum_hessian":[6.1E1,5.1E1,1E1,2E0,4.9E1,1E0,9E0,1E0,1E0,1E1,3.9E1,1E0,8E0],"tree_param":{"num_deleted":"0","num_feature":"3","num_nodes":"13","size_leaf_vector":"1"}},{"base_weights":[-2.6648992E3,-7.392006E3,1.2382071E4,-1.485207E4,1.1539846E4,3.5377693E3,1.27358E4,-1.0185417E4,-2.1499001E3,-6.2584E3,3.543367E3,1.5780458E3,-4.8691753E3],"categories":[],"categories_nodes":[],"categories_segments":[],"categories_sizes":[],"default_left":[0,0,0,0,0,0,0,0,0,0,0,0,0],"id":92,"left_children":[1,3,5,7,9,11,-1,-1,-1,-1,-1,-1,-1],"loss_changes":[4.1458609E9,6.3856353E9,6.126316E9,4.1885676E9,3.9938284E9,1.7698062E9,0E0,0E0,0E0,0E0,0E0,0E0,0E0],"parents":[2147483647,0,0,1,1,2,2,3,3,4,4,5,5],"right_children":[2,4,6,8,10,12,-1,-1,-1,-1,-1,-1,-1],"split_conditions":[1.32211E5,2.023E3,2.015E3,6.2551E4,1.8861E4,3.19945E5,1.27358E4,-1.0185417E4,-2.1499001E3,-6.2584E3,3.543367E3,1.5780458E3,-4.8691753E3],"split_indices":[1,0,0,1,1,1,0,0,0,0,0,0,0],"split_type":[0,0,0,0,0,0,0,0,0,0,0,0,0],"sum_hessian":[5.6E1,4.3E1,1.3E1,3.1E1,1.2E1,1.2E1,1E0,2E0,2.9E1,1E0,1.1E1,1.1E1,1E0],"tree_param":{"num_deleted":"0","num_feature":"3","num_nodes":"13","size_leaf_vector":"1"}},{"base_weights":[-4.0509597E3,1.8870375E4,-6.6681567E3,-1.0264583E4,3.6004E4,-1.5975111E4,-1.5448235E3,2.5530251E3,-5.6324E3,3.0858667E3,9.7728E3,-8.033807E3,-1.06145836E2,3.3650183E3,-1.98E3],"categories":[],"categories_nodes":[],"categories_segments":[],"categories_sizes":[],"default_left":[0,0,0,0,0,0,0,0,0,0,0,0,0,0,0],"id":93,"left_children":[1,3,5,7,9,11,13,-1,-1,-1,-1,-1,-1,-1,-1],"loss_changes":[3.4852506E9,3.364691E9,2.407135E9,1.5960083E9,3.044219E8,6.704566E9,5.38502E9,0E0,0E0,0E0,0E0,0E0,0E0,0E0,0E0],"parents":[2147483647,0,0,1,1,2,2,3,3,4,4,5,5,6,6],"right_children":[2,4,6,8,10,12,14,-1,-1,-1,-1,-1,-1,-1,-1],"split_conditions":[4.0447E4,1.8861E4,2.021E3,2.013E3,2.024E3,1.52833E5,2.022E3,2.5530251E3,-5.6324E3,3.0858667E3,9.7728E3,-8.033807E3,-1.06145836E2,3.3650183E3,-1.98E3],"split_indices":[1,1,0,0,0,1,0,0,0,0,0,0,0,0,0],"split_type":[0,0,0,0,0,0,0,0,0,0,0,0,0,0,0],"sum_hessian":[5.5E1,5E0,5E1,2E0,3E0,1.7E1,3.3E1,1E0,1E0,2E0,1E0,6E0,1.1E1,1E1,2.3E1],"tree_param":{"num_deleted":"0","num_feature":"3","num_nodes":"15","size_leaf_vector":"1"}},{"base_weights":[1.0751311E3,-3.5618875E3,2.3589785E3,4.8811404E2,1.0899825E4,-6.29975E3,3.2435715E2],"categories":[],"categories_nodes":[],"categories_segments":[],"categories_sizes":[],"default_left":[0,0,0,0,0,0,0],"id":94,"left_children":[1,-1,3,5,-1,-1,-1],"loss_changes":[1.5209512E9,0E0,5.631133E9,2.1180526E9,0E0,0E0,0E0],"parents":[2147483647,0,0,2,2,3,3],"right_children":[2,-1,4,6,-1,-1,-1],"split_conditions":[2.011E3,-3.5618875E3,2.04059E5,2.012E3,1.0899825E4,-6.29975E3,3.2435715E2],"split_indices":[0,0,1,0,0,0,0],"split_type":[0,0,0,0,0,0,0],"sum_hessian":[6E1,3E0,5.7E1,5.6E1,1E0,1E0,5.5E1],"tree_param":{"num_deleted":"0","num_feature":"3","num_nodes":"7","size_leaf_vector":"1"}},{"base_weights":[4.832617E1,1.6456834E4,-1.6211547E3,-9.454333E3,3.1776E4,-1.76538E4,1.6177975E3,2.2653E3,-5.1016E3,2.6314666E3,8.7632E3,-1.56284E4,-4.5008887E2,2.9198404E1,3.7014126E3],"categories":[],"categories_nodes":[],"categories_segments":[],"categories_sizes":[],"default_left":[0,0,0,0,0,0,0,0,0,0,0,0,0,0,0],"id":95,"left_children":[1,3,5,7,9,11,13,-1,-1,-1,-1,-1,-1,-1,-1],"loss_changes":[1.779875E9,2.682046E9,3.0923694E9,1.2897421E9,3.2017306E8,9.141359E9,1.2401837E9,0E0,0E0,0E0,0E0,0E0,0E0,0E0,0E0],"parents":[2147483647,0,0,1,1,2,2,3,3,4,4,5,5,6,6],"right_children":[2,4,6,8,10,12,14,-1,-1,-1,-1,-1,-1,-1,-1],"split_conditions":[4.0447E4,1.8861E4,6.2551E4,2.013E3,2.024E3,2.023E3,2.04059E5,2.2653E3,-5.1016E3,2.6314666E3,8.7632E3,-1.56284E4,-4.5008887E2,2.9198404E1,3.7014126E3],"split_indices":[1,1,1,0,0,0,1,0,0,0,0,0,0,0,0],"split_type":[0,0,0,0,0,0,0,0,0,0,0,0,0,0,0],"sum_hessian":[6.3E1,5E0,5.8E1,2E0,3E0,9E0,4.9E1,1E0,1E0,2E0,1E0,1E0,8E0,4.6E1,3E0],"tree_param":{"num_deleted":"0","num_feature":"3","num_nodes":"15","size_leaf_vector":"1"}},{"base_weights":[-9.060215E2,1.4591292E4,-2.466663E3,-8.509417E3,2.8269E4,-1.57304E4,2.354175E2,2.038775E3,-4.5916E3,2.2805334E3,7.8868003E3,-1.4065601E4,-3.6995557E2,2.7564001E3,-6.9915564E2],"categories":[],"categories_nodes":[],"categories_segments":[],"categories_sizes":[],"default_left":[0,0,0,0,0,0,0,0,0,0,0,0,0,0,0],"id":96,"left_children":[1,3,5,7,9,11,13,-1,-1,-1,-1,-1,-1,-1,-1],"loss_changes":[1.5838801E9,2.1363414E9,2.1182446E9,1.04473914E9,3.0359757E8,7.448395E9,2.5754263E9,0E0,0E0,0E0,0E0,0E0,0E0,0E0,0E0],"parents":[2147483647,0,0,1,1,2,2,3,3,4,4,5,5,6,6],"right_children":[2,4,6,8,10,12,14,-1,-1,-1,-1,-1,-1,-1,-1],"split_conditions":[4.0447E4,1.8861E4,6.2551E4,2.013E3,2.024E3,2.023E3,8.082E4,2.038775E3,-4.5916E3,2.2805334E3,7.8868003E3,-1.4065601E4,-3.6995557E2,2.7564001E3,-6.9915564E2],"split_indices":[1,1,1,0,0,0,1,0,0,0,0,0,0,0,0],"split_type":[0,0,0,0,0,0,0,0,0,0,0,0,0,0,0],"sum_hessian":[6.3E1,5E0,5.8E1,2E0,3E0,9E0,4.9E1,1E0,1E0,2E0,1E0,1E0,8E0,1E1,3.9E1],"tree_param":{"num_deleted":"0","num_feature":"3","num_nodes":"15","size_leaf_vector":"1"}},{"base_weights":[-2.6295278E3,-2.438285E4,-7.4145764E2,-6.1226333E3,-1.0024917E4,-3.9782766E3,1.1017923E4,1.308175E3,-4.31565E3,-1.0407442E2,-6.5841206E3,-8.064545E2,1.2505866E4],"categories":[],"categories_nodes":[],"categories_segments":[],"categories_sizes":[],"default_left":[0,0,0,0,0,0,0,0,0,0,0,0,0],"id":97,"left_children":[1,3,5,-1,7,9,11,-1,-1,-1,-1,-1,-1],"loss_changes":[2.5694444E9,1.4037786E8,2.2895485E9,0E0,7.15311E8,4.686619E9,1.0330473E10,0E0,0E0,0E0,0E0,0E0,0E0],"parents":[2147483647,0,0,1,1,2,2,4,4,5,5,6,6],"right_children":[2,4,6,-1,8,10,12,-1,-1,-1,-1,-1,-1],"split_conditions":[2.012E3,2.04059E5,1.32211E5,-6.1226333E3,3.19945E5,1.20276E5,2.015E3,1.308175E3,-4.31565E3,-1.0407442E2,-6.5841206E3,-8.064545E2,1.2505866E4],"split_indices":[0,1,1,0,1,1,0,0,0,0,0,0,0],"split_type":[0,0,0,0,0,0,0,0,0,0,0,0,0],"sum_hessian":[6.2E1,4E0,5.8E1,2E0,2E0,4.6E1,1.2E1,1E0,1E0,4.2E1,4E0,1E1,2E0],"tree_param":{"num_deleted":"0","num_feature":"3","num_nodes":"13","size_leaf_vector":"1"}},{"base_weights":[1.7783263E2,-1.1475E4,4.4111846E3,-2.1746572E4,-3.1374E3,2.7478E4,7.4933655E2,-1.2648601E4,-8.58E2,-4.122E3,2.188E2,1.2927601E4,1.42368E3,-7.6245337E3,7.7617365E2],"categories":[],"categories_nodes":[],"categories_segments":[],"categories_sizes":[],"default_left":[0,0,0,0,0,0,0,0,0,0,0,0,0,0,0],"id":98,"left_children":[1,3,5,7,9,11,13,-1,-1,-1,-1,-1,-1,-1,-1],"loss_changes":[2.9611205E9,1.3020164E9,3.6959657E9,4.7993846E9,7.6188294E8,4.079257E9,4.895377E9,0E0,0E0,0E0,0E0,0E0,0E0,0E0,0E0],"parents":[2147483647,0,0,1,1,2,2,3,3,4,4,5,5,6,6],"right_children":[2,4,6,8,10,12,14,-1,-1,-1,-1,-1,-1,-1,-1],"split_conditions":[6.6651E4,2.023E3,8.082E4,6.2551E4,1.8861E4,2.022E3,9.4944E4,-1.2648601E4,-8.58E2,-4.122E3,2.188E2,1.2927601E4,1.42368E3,-7.6245337E3,7.7617365E2],"split_indices":[1,0,1,1,1,0,1,0,0,0,0,0,0,0,0],"split_type":[0,0,0,0,0,0,0,0,0,0,0,0,0,0,0],"sum_hessian":[5.8E1,1.5E1,4.3E1,6E0,9E0,5E0,3.8E1,1E0,5E0,1E0,8E0,1E0,4E0,2E0,3.6E1],"tree_param":{"num_deleted":"0","num_feature":"3","num_nodes":"15","size_leaf_vector":"1"}},{"base_weights":[1.5096814E3,8.999417E3,-4.1495557E3,4.870625E3,1.16348E4,-1.41198E4,-2.3388571E2,1.8813021E3,-6.608E3,-9.159653E2,1.4946155E3],"categories":[],"categories_nodes":[],"categories_segments":[],"categories_sizes":[],"default_left":[0,0,0,0,0,0,0,0,0,0,0],"id":99,"left_children":[1,3,5,7,-1,-1,9,-1,-1,-1,-1],"loss_changes":[2.665287E9,5.19851E9,9.350475E9,4.7817057E9,0E0,0E0,1.2065155E9,0E0,0E0,0E0,0E0],"parents":[2147483647,0,0,1,1,2,2,3,3,6,6],"right_children":[2,4,6,8,-1,-1,10,-1,-1,-1,-1],"split_conditions":[2.04E7,1.9E7,2.1E7,1.72E7,1.16348E4,-1.41198E4,2.023E3,1.8813021E3,-6.608E3,-9.159653E2,1.4946155E3],"split_indices":[2,2,2,2,0,0,0,0,0,0,0],"split_type":[0,0,0,0,0,0,0,0,0,0,0],"sum_hessian":[6.1E1,2.6E1,3.5E1,2.5E1,1E0,1E0,3.4E1,2.3E1,2E0,2.2E1,1.2E1],"tree_param":{"num_deleted":"0","num_feature":"3","num_nodes":"11","size_leaf_vector":"1"}}]},"name":"gbtree"},"learner_model_param":{"base_score":"[2.1673364E7]","boost_from_average":"1","num_class":"0","num_feature":"3","num_target":"1"},"objective":{"name":"reg:squarederror","reg_loss_param":{"scale_pos_weight":"1"}}},"version":[3,2,0]}