{"learner":{"attributes":{"scikit_learn":"{\"_estimator_type\": \"regressor\"}"},"feature_names":[],"feature_types":[],"gradient_booster":{"model":{"cats":{"enc":[],"feature_segments":[],"sorted_idx":[]},"gbtree_model_param":{"num_parallel_tree":"1","num_trees":"500"},"iteration_indptr":[0,1,2,3,4,5,6,7,8,9,10,11,12,13,14,15,16,17,18,19,20,21,22,23,24,25,26,27,28,29,30,31,32,33,34,35,36,37,38,39,40,41,42,43,44,45,46,47,48,49,50,51,52,53,54,55,56,57,58,59,60,61,62,63,64,65,66,67,68,69,70,71,72,73,74,75,76,77,78,79,80,81,82,83,84,85,86,87,88,89,90,91,92,93,94,95,96,97,98,99,100,101,102,103,104,105,106,107,108,109,110,111,112,113,114,115,116,117,118,119,120,121,122,123,124,125,126,127,128,129,130,131,132,133,134,135,136,137,138,139,140,141,142,143,144,145,146,147,148,149,150,151,152,153,154,155,156,157,158,159,160,161,162,163,164,165,166,167,168,169,170,171,172,173,174,175,176,177,178,179,180,181,182,183,184,185,186,187,188,189,190,191,192,193,194,195,196,197,198,199,200,201,202,203,204,205,206,207,208,209,210,211,212,213,214,215,216,217,218,219,220,221,222,223,224,225,226,227,228,229,230,231,232,233,234,235,236,237,238,239,240,241,242,243,244,245,246,247,248,249,250,251,252,253,254,255,256,257,258,259,260,261,262,263,264,265,266,267,268,269,270,271,272,273,274,275,276,277,278,279,280,281,282,283,284,285,286,287,288,289,290,291,292,293,294,295,296,297,298,299,300,301,302,303,304,305,306,307,308,309,310,311,312,313,314,315,316,317,318,319,320,321,322,323,324,325,326,327,328,329,330,331,332,333,334,335,336,337,338,339,340,341,342,343,344,345,346,347,348,349,350,351,352,353,354,355,356,357,358,359,360,361,362,363,364,365,366,367,368,369,370,371,372,373,374,375,376,377,378,379,380,381,382,383,384,385,386,387,388,389,390,391,392,393,394,395,396,397,398,399,400,401,402,403,404,405,406,407,408,409,410,411,412,413,414,415,416,417,418,419,420,421,422,423,424,425,426,427,428,429,430,431,432,433,434,435,436,437,438,439,440,441,442,443,444,445,446,447,448,449,450,451,452,453,454,455,456,457,458,459,460,461,462,463,464,465,466,467,468,469,470,471,472,473,474,475,476,477,478,479,480,481,482,483,484,485,486,487,488,489,490,491,492,493,494,495,496,497,498,499,500],"tree_info":[0,0,0,0,0,0,0,0,0,0,0,0,0,0,0,0,0,0,0,0,0,0,0,0,0,0,0,0,0,0,0,0,0,0,0,0,0,0,0,0,0,0,0,0,0,0,0,0,0,0,0,0,0,0,0,0,0,0,0,0,0,0,0,0,0,0,0,0,0,0,0,0,0,0,0,0,0,0,0,0,0,0,0,0,0,0,0,0,0,0,0,0,0,0,0,0,0,0,0,0,0,0,0,0,0,0,0,0,0,0,0,0,0,0,0,0,0,0,0,0,0,0,0,0,0,0,0,0,0,0,0,0,0,0,0,0,0,0,0,0,0,0,0,0,0,0,0,0,0,0,0,0,0,0,0,0,0,0,0,0,0,0,0,0,0,0,0,0,0,0,0,0,0,0,0,0,0,0,0,0,0,0,0,0,0,0,0,0,0,0,0,0,0,0,0,0,0,0,0,0,0,0,0,0,0,0,0,0,0,0,0,0,0,0,0,0,0,0,0,0,0,0,0,0,0,0,0,0,0,0,0,0,0,0,0,0,0,0,0,0,0,0,0,0,0,0,0,0,0,0,0,0,0,0,0,0,0,0,0,0,0,0,0,0,0,0,0,0,0,0,0,0,0,0,0,0,0,0,0,0,0,0,0,0,0,0,0,0,0,0,0,0,0,0,0,0,0,0,0,0,0,0,0,0,0,0,0,0,0,0,0,0,0,0,0,0,0,0,0,0,0,0,0,0,0,0,0,0,0,0,0,0,0,0,0,0,0,0,0,0,0,0,0,0,0,0,0,0,0,0,0,0,0,0,0,0,0,0,0,0,0,0,0,0,0,0,0,0,0,0,0,0,0,0,0,0,0,0,0,0,0,0,0,0,0,0,0,0,0,0,0,0,0,0,0,0,0,0,0,0,0,0,0,0,0,0,0,0,0,0,0,0,0,0,0,0,0,0,0,0,0,0,0,0,0,0,0,0,0,0,0,0,0,0,0,0,0,0,0,0,0,0,0,0,0,0,0,0,0,0,0,0,0,0,0,0,0,0,0,0,0,0,0,0,0,0,0,0,0,0,0,0,0,0,0,0,0,0,0,0,0,0,0,0,0,0,0,0,0,0,0,0,0,0,0,0,0,0,0,0],"trees":[{"base_weights":[1.6537923E5,-1.247649E7,7.336024E6,-4.1572697E5,-9.427569E4,5.0624105E6,3.3432147E5,9.9264E1,1.8077673E5],"categories":[],"categories_nodes":[],"categories_segments":[],"categories_sizes":[],"default_left":[0,0,0,0,0,0,0,0,0],"id":0,"left_children":[1,3,5,-1,-1,7,-1,-1,-1],"loss_changes":[5.258598E15,2.2716163E14,2.6392923E14,0E0,0E0,1.2183876E14,0E0,0E0,0E0],"parents":[2147483647,0,0,1,1,2,2,5,5],"right_children":[2,4,6,-1,-1,8,-1,-1,-1],"split_conditions":[2.021E3,1.5E7,2.023E3,-4.1572697E5,-9.427569E4,2.1E7,3.3432147E5,9.9264E1,1.8077673E5],"split_indices":[0,2,0,0,0,2,0,0,0],"split_type":[0,0,0,0,0,0,0,0,0],"sum_hessian":[5.6E1,2E1,3.6E1,1.7E1,3E0,2.4E1,1.2E1,4E0,2E1],"tree_param":{"num_deleted":"0","num_feature":"3","num_nodes":"9","size_leaf_vector":"1"}},{"base_weights":[-1.10148E5,-1.2806898E7,6.875818E6,-4.2547022E5,-9.215448E4,4.6754985E6,3.3258175E5,4.9134E3,1.6947556E5],"categories":[],"categories_nodes":[],"categories_segments":[],"categories_sizes":[],"default_left":[0,0,0,0,0,0,0,0,0],"id":1,"left_children":[1,3,5,-1,-1,7,-1,-1,-1],"loss_changes":[5.4987E15,2.5101614E14,3.1872228E14,0E0,0E0,1.22078875E14,0E0,0E0,0E0],"parents":[2147483647,0,0,1,1,2,2,5,5],"right_children":[2,4,6,-1,-1,8,-1,-1,-1],"split_conditions":[2.021E3,1.5E7,2.023E3,-4.2547022E5,-9.215448E4,1.72E7,3.3258175E5,4.9134E3,1.6947556E5],"split_indices":[0,2,0,0,0,2,0,0,0],"split_type":[0,0,0,0,0,0,0,0,0],"sum_hessian":[6E1,2.1E1,3.9E1,1.8E1,3E0,2.7E1,1.2E1,5E0,2.2E1],"tree_param":{"num_deleted":"0","num_feature":"3","num_nodes":"9","size_leaf_vector":"1"}},{"base_weights":[-4.2376972E5,-1.3151196E7,7.012334E6,-4.0730728E5,-6.955401E4,-1.133167E6,8.362678E6,-7.373868E4,4.311495E3,3.3502762E5,1.8784795E5],"categories":[],"categories_nodes":[],"categories_segments":[],"categories_sizes":[],"default_left":[0,0,0,0,0,0,0,0,0,0,0],"id":2,"left_children":[1,3,5,-1,-1,7,9,-1,-1,-1,-1],"loss_changes":[5.3921983E15,6.5366718E13,4.0544854E14,0E0,0E0,1.0502856E13,1.1276665E14,0E0,0E0,0E0,0E0],"parents":[2147483647,0,0,1,1,2,2,5,5,6,6],"right_children":[2,4,6,-1,-1,8,10,-1,-1,-1,-1],"split_conditions":[1.6E7,1.5E7,1.9E7,-4.0730728E5,-6.955401E4,9.4944E4,5.798E4,-7.373868E4,4.311495E3,3.3502762E5,1.8784795E5],"split_indices":[2,2,2,0,0,1,1,0,0,0,0],"split_type":[0,0,0,0,0,0,0,0,0,0,0],"sum_hessian":[5.5E1,2E1,3.5E1,1.9E1,1E0,5E0,3E1,2E0,3E0,1.1E1,1.9E1],"tree_param":{"num_deleted":"0","num_feature":"3","num_nodes":"11","size_leaf_vector":"1"}},{"base_weights":[1.8981953E5,-1.1756744E7,6.727466E6,-3.87917E5,-8.845329E4,9.5312175E5,7.8551025E6,1.1428818E5,2.4694286E1,1.7639897E5,3.1193425E5],"categories":[],"categories_nodes":[],"categories_segments":[],"categories_sizes":[],"default_left":[0,0,0,0,0,0,0,0,0,0,0],"id":3,"left_children":[1,3,5,-1,-1,7,9,-1,-1,-1,-1],"loss_changes":[5.077647E15,1.9968108E14,2.6599028E14,0E0,0E0,2.1758671E13,1.1463805E14,0E0,0E0,0E0,0E0],"parents":[2147483647,0,0,1,1,2,2,5,5,6,6],"right_children":[2,4,6,-1,-1,8,10,-1,-1,-1,-1],"split_conditions":[2.021E3,1.5E7,2.1E7,-3.87917E5,-8.845329E4,2.022E3,2.023E3,1.1428818E5,2.4694286E1,1.7639897E5,3.1193425E5],"split_indices":[0,2,2,0,0,0,0,0,0,0,0],"split_type":[0,0,0,0,0,0,0,0,0,0,0],"sum_hessian":[6.3E1,2.2E1,4.1E1,1.9E1,3E0,7E0,3.4E1,1E0,6E0,2.1E1,1.3E1],"tree_param":{"num_deleted":"0","num_feature":"3","num_nodes":"11","size_leaf_vector":"1"}},{"base_weights":[-9.902106E4,-1.1650319E7,6.2290475E6,-3.846434E5,-8.646307E4,4.4039525E6,2.9884944E5,4.68215E3,1.5741858E5],"categories":[],"categories_nodes":[],"categories_segments":[],"categories_sizes":[],"default_left":[0,0,0,0,0,0,0,0,0],"id":4,"left_children":[1,3,5,-1,-1,7,-1,-1,-1],"loss_changes":[4.7508045E15,1.9922743E14,2.4224797E14,0E0,0E0,1.0665249E14,0E0,0E0,0E0],"parents":[2147483647,0,0,1,1,2,2,5,5],"right_children":[2,4,6,-1,-1,8,-1,-1,-1],"split_conditions":[2.021E3,1.5E7,2.023E3,-3.846434E5,-8.646307E4,1.72E7,2.9884944E5,4.68215E3,1.5741858E5],"split_indices":[0,2,0,0,0,2,0,0,0],"split_type":[0,0,0,0,0,0,0,0,0],"sum_hessian":[6.3E1,2.2E1,4.1E1,1.9E1,3E0,2.9E1,1.2E1,5E0,2.4E1],"tree_param":{"num_deleted":"0","num_feature":"3","num_nodes":"9","size_leaf_vector":"1"}},{"base_weights":[-5.55056E5,-1.2081294E7,5.354997E6,-3.7342288E5,-6.588693E4,2.9574E4,6.763798E6,1.10212586E5,-2.3505887E4,2.8155325E5,1.5841617E5],"categories":[],"categories_nodes":[],"categories_segments":[],"categories_sizes":[],"default_left":[0,0,0,0,0,0,0,0,0,0,0],"id":5,"left_children":[1,3,5,-1,-1,7,9,-1,-1,-1,-1],"loss_changes":[4.4244187E15,5.2286395E13,3.2240575E14,0E0,0E0,3.2509442E13,8.263651E13,0E0,0E0,0E0,0E0],"parents":[2147483647,0,0,1,1,2,2,5,5,6,6],"right_children":[2,4,6,-1,-1,8,10,-1,-1,-1,-1],"split_conditions":[1.6E7,1.5E7,2.1E7,-3.7342288E5,-6.588693E4,8.082E4,5.798E4,1.10212586E5,-2.3505887E4,2.8155325E5,1.5841617E5],"split_indices":[2,2,2,0,0,1,1,0,0,0,0],"split_type":[0,0,0,0,0,0,0,0,0,0,0],"sum_hessian":[6.3E1,2.1E1,4.2E1,2E1,1E0,9E0,3.3E1,1E0,8E0,1E1,2.3E1],"tree_param":{"num_deleted":"0","num_feature":"3","num_nodes":"11","size_leaf_vector":"1"}},{"base_weights":[5.2202475E5,-1.1254395E7,5.5954325E6,-3.4917822E5,-6.4898637E4,3.73576E4,7.0235845E6,1.0855941E5,-2.2879059E4,2.9753628E5,1.5246922E5],"categories":[],"categories_nodes":[],"categories_segments":[],"categories_sizes":[],"default_left":[0,0,0,0,0,0,0,0,0,0,0],"id":6,"left_children":[1,3,5,-1,-1,7,9,-1,-1,-1,-1],"loss_changes":[3.7672616E15,4.130121E13,3.4899965E14,0E0,0E0,3.1409771E13,1.4624619E14,0E0,0E0,0E0,0E0],"parents":[2147483647,0,0,1,1,2,2,5,5,6,6],"right_children":[2,4,6,-1,-1,8,10,-1,-1,-1,-1],"split_conditions":[1.6E7,1.5E7,2.1E7,-3.4917822E5,-6.4898637E4,8.082E4,5.798E4,1.0855941E5,-2.2879059E4,2.9753628E5,1.5246922E5],"split_indices":[2,2,2,0,0,1,1,0,0,0,0],"split_type":[0,0,0,0,0,0,0,0,0,0,0],"sum_hessian":[6.1E1,1.8E1,4.3E1,1.7E1,1E0,9E0,3.4E1,1E0,8E0,1.2E1,2.2E1],"tree_param":{"num_deleted":"0","num_feature":"3","num_nodes":"11","size_leaf_vector":"1"}},{"base_weights":[2.1130016E5,-1.0850923E7,5.8721635E6,-3.547098E5,-1.12826125E5,2.8929684E5,3.9791978E6,1.2497346E5,-1.867749E4],"categories":[],"categories_nodes":[],"categories_segments":[],"categories_sizes":[],"default_left":[0,0,0,0,0,0,0,0,0],"id":7,"left_children":[1,3,5,-1,-1,-1,7,-1,-1],"loss_changes":[3.8836442E15,1.0036453E14,2.5430609E14,0E0,0E0,0E0,2.7493529E13,0E0,0E0],"parents":[2147483647,0,0,1,1,2,2,6,6],"right_children":[2,4,6,-1,-1,-1,8,-1,-1],"split_conditions":[2.02E3,2.017E3,5.798E4,-3.547098E5,-1.12826125E5,2.8929684E5,1.22344E5,1.2497346E5,-1.867749E4],"split_indices":[0,0,1,0,0,0,1,0,0],"split_type":[0,0,0,0,0,0,0,0,0],"sum_hessian":[6E1,2E1,4E1,1.7E1,3E0,1.2E1,2.8E1,2.7E1,1E0],"tree_param":{"num_deleted":"0","num_feature":"3","num_nodes":"9","size_leaf_vector":"1"}},{"base_weights":[-4.5628553E5,-1.0463946E7,5.8763495E6,-3.433337E5,-8.1008484E4,4.1555445E6,2.7775394E5,2.3403599E3,1.3985956E5],"categories":[],"categories_nodes":[],"categories_segments":[],"categories_sizes":[],"default_left":[0,0,0,0,0,0,0,0,0],"id":8,"left_children":[1,3,5,-1,-1,7,-1,-1,-1],"loss_changes":[3.9273565E15,1.51793E14,1.8268455E14,0E0,0E0,5.5392093E13,0E0,0E0,0E0],"parents":[2147483647,0,0,1,1,2,2,5,5],"right_children":[2,4,6,-1,-1,8,-1,-1,-1],"split_conditions":[2.021E3,1.5E7,2.023E3,-3.433337E5,-8.1008484E4,1.72E7,2.7775394E5,2.3403599E3,1.3985956E5],"split_indices":[0,2,0,0,0,2,0,0,0],"split_type":[0,0,0,0,0,0,0,0,0],"sum_hessian":[6E1,2.3E1,3.7E1,2E1,3E0,2.6E1,1.1E1,3E0,2.3E1],"tree_param":{"num_deleted":"0","num_feature":"3","num_nodes":"9","size_leaf_vector":"1"}},{"base_weights":[2.6064361E4,-1.0936584E7,5.2457525E6,-3.522962E5,-1.432289E5,3.18616E5,6.395708E6,1.029585E5,-1.4986335E4,2.5647644E5,1.4982194E5],"categories":[],"categories_nodes":[],"categories_segments":[],"categories_sizes":[],"default_left":[0,0,0,0,0,0,0,0,0,0,0],"id":9,"left_children":[1,3,5,-1,-1,7,9,-1,-1,-1,-1],"loss_changes":[3.547889E15,4.3347494E13,2.3593356E14,0E0,0E0,2.4639275E13,5.9931974E13,0E0,0E0,0E0,0E0],"parents":[2147483647,0,0,1,1,2,2,5,5,6,6],"right_children":[2,4,6,-1,-1,8,10,-1,-1,-1,-1],"split_conditions":[1.6E7,7E6,2.1E7,-3.522962E5,-1.432289E5,8.082E4,5.798E4,1.029585E5,-1.4986335E4,2.5647644E5,1.4982194E5],"split_indices":[2,2,2,0,0,1,1,0,0,0,0],"split_type":[0,0,0,0,0,0,0,0,0,0,0],"sum_hessian":[6E1,1.9E1,4.1E1,1.6E1,3E0,8E0,3.3E1,1E0,7E0,1.1E1,2.2E1],"tree_param":{"num_deleted":"0","num_feature":"3","num_nodes":"11","size_leaf_vector":"1"}},{"base_weights":[-1.6844336E5,-1.0503043E7,5.0026845E6,-3.4083353E5,-1.5940089E5,-3.13584E4,6.2980485E6,1.01414125E5,-2.3581752E4,2.664915E5,1.3689398E5],"categories":[],"categories_nodes":[],"categories_segments":[],"categories_sizes":[],"default_left":[0,0,0,0,0,0,0,0,0,0,0],"id":10,"left_children":[1,3,5,-1,-1,7,9,-1,-1,-1,-1],"loss_changes":[3.5262433E15,3.7603244E13,2.8711783E14,0E0,0E0,2.8406326E13,1.16432134E14,0E0,0E0,0E0,0E0],"parents":[2147483647,0,0,1,1,2,2,5,5,6,6],"right_children":[2,4,6,-1,-1,8,10,-1,-1,-1,-1],"split_conditions":[1.6E7,7E6,2.1E7,-3.4083353E5,-1.5940089E5,8.082E4,5.798E4,1.01414125E5,-2.3581752E4,2.664915E5,1.3689398E5],"split_indices":[2,2,2,0,0,1,1,0,0,0,0],"split_type":[0,0,0,0,0,0,0,0,0,0,0],"sum_hessian":[6.4E1,2.1E1,4.3E1,1.7E1,4E0,9E0,3.4E1,1E0,8E0,1.2E1,2.2E1],"tree_param":{"num_deleted":"0","num_feature":"3","num_nodes":"11","size_leaf_vector":"1"}},{"base_weights":[-3.5408628E5,-1.021303E7,4.8307115E6,-3.3272544E5,-1.5557528E5,-4.0731777E4,6.049845E6,9.9892914E4,-2.6347928E4,2.5472792E5,1.4176398E5],"categories":[],"categories_nodes":[],"categories_segments":[],"categories_sizes":[],"default_left":[0,0,0,0,0,0,0,0,0,0,0],"id":11,"left_children":[1,3,5,-1,-1,7,9,-1,-1,-1,-1],"loss_changes":[3.116334E15,3.515659E13,2.3780395E14,0E0,0E0,2.833051E13,6.3329964E13,0E0,0E0,0E0,0E0],"parents":[2147483647,0,0,1,1,2,2,5,5,6,6],"right_children":[2,4,6,-1,-1,8,10,-1,-1,-1,-1],"split_conditions":[1.6E7,7E6,2.1E7,-3.3272544E5,-1.5557528E5,8.082E4,5.798E4,9.9892914E4,-2.6347928E4,2.5472792E5,1.4176398E5],"split_indices":[2,2,2,0,0,1,1,0,0,0,0],"split_type":[0,0,0,0,0,0,0,0,0,0,0],"sum_hessian":[5.9E1,2E1,3.9E1,1.6E1,4E0,8E0,3.1E1,1E0,7E0,9E0,2.2E1],"tree_param":{"num_deleted":"0","num_feature":"3","num_nodes":"11","size_leaf_vector":"1"}},{"base_weights":[1.6512373E5,-9.124009E6,5.2700185E6,-3.0568797E5,-1.03892445E5,2.561123E5,3.7364075E6,1.1801855E5,-2.692242E4],"categories":[],"categories_nodes":[],"categories_segments":[],"categories_sizes":[],"default_left":[0,0,0,0,0,0,0,0,0],"id":12,"left_children":[1,3,5,-1,-1,-1,7,-1,-1],"loss_changes":[2.9407067E15,9.742167E13,1.6851774E14,0E0,0E0,0E0,3.0076549E13,0E0,0E0],"parents":[2147483647,0,0,1,1,2,2,6,6],"right_children":[2,4,6,-1,-1,-1,8,-1,-1],"split_conditions":[2.021E3,2.018E3,5.798E4,-3.0568797E5,-1.03892445E5,2.561123E5,1.18461E5,1.1801855E5,-2.692242E4],"split_indices":[0,0,1,0,0,0,1,0,0],"split_type":[0,0,0,0,0,0,0,0,0],"sum_hessian":[6E1,2.1E1,3.9E1,1.7E1,4E0,1.1E1,2.8E1,2.7E1,1E0],"tree_param":{"num_deleted":"0","num_feature":"3","num_nodes":"9","size_leaf_vector":"1"}},{"base_weights":[2.0396053E5,-9.374372E6,4.760215E6,-2.9034872E5,-5.3998438E4,-3.9805428E5,5.6309835E6,-4.543875E4,1.21435E3,1.3871756E5,2.742764E5],"categories":[],"categories_nodes":[],"categories_segments":[],"categories_sizes":[],"default_left":[0,0,0,0,0,0,0,0,0,0,0],"id":13,"left_children":[1,3,5,-1,-1,7,9,-1,-1,-1,-1],"loss_changes":[2.7067445E15,2.8619917E13,1.9089103E14,0E0,0E0,3.4888784E12,8.503498E13,0E0,0E0,0E0,0E0],"parents":[2147483647,0,0,1,1,2,2,5,5,6,6],"right_children":[2,4,6,-1,-1,8,10,-1,-1,-1,-1],"split_conditions":[1.6E7,1.5E7,1.9E7,-2.9034872E5,-5.3998438E4,9.4944E4,3E7,-4.543875E4,1.21435E3,1.3871756E5,2.742764E5],"split_indices":[2,2,2,0,0,1,2,0,0,0,0],"split_type":[0,0,0,0,0,0,0,0,0,0,0],"sum_hessian":[6E1,1.9E1,4.1E1,1.8E1,1E0,6E0,3.5E1,1E0,5E0,2.9E1,6E0],"tree_param":{"num_deleted":"0","num_feature":"3","num_nodes":"11","size_leaf_vector":"1"}},{"base_weights":[-2.4371662E5,-8.760748E6,4.4467435E6,-2.8929934E5,-7.1351414E4,6.3015025E5,5.237228E6,9.45435E4,-5.4072773E3,1.2274927E5,2.1469295E5],"categories":[],"categories_nodes":[],"categories_segments":[],"categories_sizes":[],"default_left":[0,0,0,0,0,0,0,0,0,0,0],"id":14,"left_children":[1,3,5,-1,-1,7,9,-1,-1,-1,-1],"loss_changes":[2.475833E15,1.0098716E14,1.173781E14,0E0,0E0,1.691397E13,4.327267E13,0E0,0E0,0E0,0E0],"parents":[2147483647,0,0,1,1,2,2,5,5,6,6],"right_children":[2,4,6,-1,-1,8,10,-1,-1,-1,-1],"split_conditions":[2.021E3,2.018E3,2.1E7,-2.8929934E5,-7.1351414E4,2.022E3,2.023E3,9.45435E4,-5.4072773E3,1.2274927E5,2.1469295E5],"split_indices":[0,0,2,0,0,0,0,0,0,0,0],"split_type":[0,0,0,0,0,0,0,0,0,0,0],"sum_hessian":[6E1,2.1E1,3.9E1,1.8E1,3E0,7E0,3.2E1,1E0,6E0,2.2E1,1E1],"tree_param":{"num_deleted":"0","num_feature":"3","num_nodes":"11","size_leaf_vector":"1"}},{"base_weights":[3.621604E5,-8.852784E6,4.33311E6,-2.7454725E5,-5.2118188E4,6.405439E6,1.7583959E6,1.4756736E5,2.6290884E5,-2.1593371E4,1.223015E5],"categories":[],"categories_nodes":[],"categories_segments":[],"categories_sizes":[],"default_left":[0,0,0,0,0,0,0,0,0,0,0],"id":15,"left_children":[1,3,5,-1,-1,7,9,-1,-1,-1,-1],"loss_changes":[2.3070693E15,2.4496078E13,2.2350547E14,0E0,0E0,4.102479E13,1.2358362E14,0E0,0E0,0E0,0E0],"parents":[2147483647,0,0,1,1,2,2,5,5,6,6],"right_children":[2,4,6,-1,-1,8,10,-1,-1,-1,-1],"split_conditions":[1.6E7,1.5E7,8.082E4,-2.7454725E5,-5.2118188E4,2.8E7,2.5E7,1.4756736E5,2.6290884E5,-2.1593371E4,1.223015E5],"split_indices":[2,2,1,0,0,2,2,0,0,0,0],"split_type":[0,0,0,0,0,0,0,0,0,0,0],"sum_hessian":[6.1E1,1.8E1,4.3E1,1.7E1,1E0,2.3E1,2E1,1.6E1,7E0,1E1,1E1],"tree_param":{"num_deleted":"0","num_feature":"3","num_nodes":"11","size_leaf_vector":"1"}},{"base_weights":[-2.205573E5,-8.487027E6,4.353559E6,-2.9248828E5,-1.1116904E5,2.3192267E5,3.0388855E6,9.883099E4,-8.20212E3],"categories":[],"categories_nodes":[],"categories_segments":[],"categories_sizes":[],"default_left":[0,0,0,0,0,0,0,0,0],"id":16,"left_children":[1,3,5,-1,-1,-1,7,-1,-1],"loss_changes":[2.2300328E15,9.064649E13,1.4522372E14,0E0,0E0,0E0,2.5441256E13,0E0,0E0],"parents":[2147483647,0,0,1,1,2,2,6,6],"right_children":[2,4,6,-1,-1,-1,8,-1,-1],"split_conditions":[2.021E3,2.017E3,5.798E4,-2.9248828E5,-1.1116904E5,2.3192267E5,1.18461E5,9.883099E4,-8.20212E3],"split_indices":[0,0,1,0,0,0,1,0,0],"split_type":[0,0,0,0,0,0,0,0,0],"sum_hessian":[5.7E1,2E1,3.7E1,1.5E1,5E0,9E0,2.8E1,2.6E1,2E0],"tree_param":{"num_deleted":"0","num_feature":"3","num_nodes":"9","size_leaf_vector":"1"}},{"base_weights":[-5.6179125E5,-8.805072E6,3.679937E6,-2.728266E5,-4.9668867E4,5.545025E6,1.195944E6,1.9691517E5,1.2447079E5,-2.1970543E4,1.1093572E5],"categories":[],"categories_nodes":[],"categories_segments":[],"categories_sizes":[],"default_left":[0,0,0,0,0,0,0,0,0,0,0],"id":17,"left_children":[1,3,5,-1,-1,7,9,-1,-1,-1,-1],"loss_changes":[2.060416E15,2.6288287E13,1.7405026E14,0E0,0E0,4.056261E12,8.954784E13,0E0,0E0,0E0,0E0],"parents":[2147483647,0,0,1,1,2,2,5,5,6,6],"right_children":[2,4,6,-1,-1,8,10,-1,-1,-1,-1],"split_conditions":[1.6E7,1.5E7,8.082E4,-2.728266E5,-4.9668867E4,5.798E4,2.5E7,1.9691517E5,1.2447079E5,-2.1970543E4,1.1093572E5],"split_indices":[2,2,1,0,0,1,2,0,0,0,0],"split_type":[0,0,0,0,0,0,0,0,0,0,0],"sum_hessian":[5.7E1,1.9E1,3.8E1,1.8E1,1E0,2.1E1,1.7E1,1E1,1.1E1,1E1,7E0],"tree_param":{"num_deleted":"0","num_feature":"3","num_nodes":"11","size_leaf_vector":"1"}},{"base_weights":[-3.6353953E5,-7.643373E6,4.171588E6,-2.643717E5,-1.1137265E5,-2.5972467E5,4.872097E6,-5.9952E1,-2.322534E4,1.1927423E5,2.4280144E5],"categories":[],"categories_nodes":[],"categories_segments":[],"categories_sizes":[],"default_left":[0,0,0,0,0,0,0,0,0,0,0],"id":18,"left_children":[1,3,5,-1,-1,7,9,-1,-1,-1,-1],"loss_changes":[1.9797684E15,7.297767E13,1.1611988E14,0E0,0E0,7.939816E11,6.0212757E13,0E0,0E0,0E0,0E0],"parents":[2147483647,0,0,1,1,2,2,5,5,6,6],"right_children":[2,4,6,-1,-1,8,10,-1,-1,-1,-1],"split_conditions":[2.021E3,7E6,2.1E7,-2.643717E5,-1.1137265E5,1.72E7,3E7,-5.9952E1,-2.322534E4,1.1927423E5,2.4280144E5],"split_indices":[0,2,2,0,0,2,2,0,0,0,0],"split_type":[0,0,0,0,0,0,0,0,0,0,0],"sum_hessian":[5.8E1,2.2E1,3.6E1,1.6E1,6E0,5E0,3.1E1,4E0,1E0,2.6E1,5E0],"tree_param":{"num_deleted":"0","num_feature":"3","num_nodes":"11","size_leaf_vector":"1"}},{"base_weights":[-1.6950706E5,-7.91182E6,4.202298E6,-2.7197147E5,-1.2432254E5,2.037837E5,3.0747908E6,1.0018594E5,-9.98416E3],"categories":[],"categories_nodes":[],"categories_segments":[],"categories_sizes":[],"default_left":[0,0,0,0,0,0,0,0,0],"id":19,"left_children":[1,3,5,-1,-1,-1,7,-1,-1],"loss_changes":[2.0641209E15,5.807762E13,9.30247E13,0E0,0E0,0E0,2.727316E13,0E0,0E0],"parents":[2147483647,0,0,1,1,2,2,6,6],"right_children":[2,4,6,-1,-1,-1,8,-1,-1],"split_conditions":[2.021E3,2.015E3,5.798E4,-2.7197147E5,-1.2432254E5,2.037837E5,1.18461E5,1.0018594E5,-9.98416E3],"split_indices":[0,0,1,0,0,0,1,0,0],"split_type":[0,0,0,0,0,0,0,0,0],"sum_hessian":[5.9E1,2.1E1,3.8E1,1.5E1,6E0,1E1,2.8E1,2.6E1,2E0],"tree_param":{"num_deleted":"0","num_feature":"3","num_nodes":"9","size_leaf_vector":"1"}},{"base_weights":[-9.388739E4,-7.536449E6,3.9840365E6,-2.5791842E5,-9.293639E4,3.1415418E6,2.3243156E5,-2.5655999E3,1.0994383E5],"categories":[],"categories_nodes":[],"categories_segments":[],"categories_sizes":[],"default_left":[0,0,0,0,0,0,0,0,0],"id":20,"left_children":[1,3,5,-1,-1,7,-1,-1,-1],"loss_changes":[1.9724384E15,8.166384E13,1.0883729E14,0E0,0E0,6.110185E13,0E0,0E0,0E0],"parents":[2147483647,0,0,1,1,2,2,5,5],"right_children":[2,4,6,-1,-1,8,-1,-1,-1],"split_conditions":[2.021E3,7E6,3E7,-2.5791842E5,-9.293639E4,1.72E7,2.3243156E5,-2.5655999E3,1.0994383E5],"split_indices":[0,2,2,0,0,2,0,0,0],"split_type":[0,0,0,0,0,0,0,0,0],"sum_hessian":[6.3E1,2.2E1,4.1E1,1.7E1,5E0,3.5E1,6E0,5E0,3E1],"tree_param":{"num_deleted":"0","num_feature":"3","num_nodes":"9","size_leaf_vector":"1"}},{"base_weights":[3.621243E5,-7.1798485E6,4.032303E6,-2.4358733E5,-8.210233E4,1.9919872E5,2.7243095E6,8.7001945E4,-3.295263E4],"categories":[],"categories_nodes":[],"categories_segments":[],"categories_sizes":[],"default_left":[0,0,0,0,0,0,0,0,0],"id":21,"left_children":[1,3,5,-1,-1,-1,7,-1,-1],"loss_changes":[1.6897748E15,6.1285157E13,1.2175326E14,0E0,0E0,0E0,2.2669576E13,0E0,0E0],"parents":[2147483647,0,0,1,1,2,2,6,6],"right_children":[2,4,6,-1,-1,-1,8,-1,-1],"split_conditions":[2.021E3,2.018E3,5.798E4,-2.4358733E5,-8.210233E4,1.9919872E5,1.18461E5,8.7001945E4,-3.295263E4],"split_indices":[0,0,1,0,0,0,1,0,0],"split_type":[0,0,0,0,0,0,0,0,0],"sum_hessian":[5.9E1,1.9E1,4E1,1.5E1,4E0,1.2E1,2.8E1,2.7E1,1E0],"tree_param":{"num_deleted":"0","num_feature":"3","num_nodes":"9","size_leaf_vector":"1"}},{"base_weights":[-4.2832734E5,-7.30611E6,3.2860768E6,-2.3809889E5,-1.11033586E5,-1.887968E5,4.334832E6,8.345373E4,-2.48385E4,1.405472E5,-1.132432E4],"categories":[],"categories_nodes":[],"categories_segments":[],"categories_sizes":[],"default_left":[0,0,0,0,0,0,0,0,0,0,0],"id":22,"left_children":[1,3,5,-1,-1,7,9,-1,-1,-1,-1],"loss_changes":[1.5312734E15,1.8358972E13,1.429458E14,0E0,0E0,2.128979E13,5.1258287E13,0E0,0E0,0E0,0E0],"parents":[2147483647,0,0,1,1,2,2,5,5,6,6],"right_children":[2,4,6,-1,-1,8,10,-1,-1,-1,-1],"split_conditions":[1.6E7,7E6,2.1E7,-2.3809889E5,-1.11033586E5,8.082E4,1.18461E5,8.345373E4,-2.48385E4,1.405472E5,-1.132432E4],"split_indices":[2,2,2,0,0,1,1,0,0,0,0],"split_type":[0,0,0,0,0,0,0,0,0,0,0],"sum_hessian":[5.8E1,2E1,3.8E1,1.6E1,4E0,9E0,2.9E1,1E0,8E0,2.7E1,2E0],"tree_param":{"num_deleted":"0","num_feature":"3","num_nodes":"11","size_leaf_vector":"1"}},{"base_weights":[-1.1776406E5,-7.4999725E6,3.6662392E6,-2.932668E5,-1.7814097E5,5.3962875E6,1.5798745E6,1.2116572E5,2.1800795E5,-2.6793951E4,9.908919E4],"categories":[],"categories_nodes":[],"categories_segments":[],"categories_sizes":[],"default_left":[0,0,0,0,0,0,0,0,0,0,0],"id":23,"left_children":[1,3,5,-1,-1,7,9,-1,-1,-1,-1],"loss_changes":[1.7314891E15,1.6593472E13,1.394645E14,0E0,0E0,2.651384E13,8.8174655E13,0E0,0E0,0E0,0E0],"parents":[2147483647,0,0,1,1,2,2,5,5,6,6],"right_children":[2,4,6,-1,-1,8,10,-1,-1,-1,-1],"split_conditions":[1.5E7,6E6,8.082E4,-2.932668E5,-1.7814097E5,2.63E7,2.5E7,1.2116572E5,2.1800795E5,-2.6793951E4,9.908919E4],"split_indices":[2,2,1,0,0,2,2,0,0,0,0],"split_type":[0,0,0,0,0,0,0,0,0,0,0],"sum_hessian":[6E1,2E1,4E1,6E0,1.4E1,2.1E1,1.9E1,1.4E1,7E0,8E0,1.1E1],"tree_param":{"num_deleted":"0","num_feature":"3","num_nodes":"11","size_leaf_vector":"1"}},{"base_weights":[-1.0382118E5,-6.443835E6,3.6378235E6,-2.2654327E5,-3.4231412E6,-3.3857E3,4.1927135E6,-1.2048826E5,-5.4778152E4,1.0481671E5,2.0614714E5],"categories":[],"categories_nodes":[],"categories_segments":[],"categories_sizes":[],"default_left":[0,0,0,0,0,0,0,0,0,0,0],"id":24,"left_children":[1,3,5,-1,7,-1,9,-1,-1,-1,-1],"loss_changes":[1.4704885E15,5.1102393E13,8.164055E13,0E0,2.4537517E11,0E0,3.964114E13,0E0,0E0,0E0,0E0],"parents":[2147483647,0,0,1,1,2,2,4,4,6,6],"right_children":[2,4,6,-1,8,-1,10,-1,-1,-1,-1],"split_conditions":[2.021E3,2.015E3,1.72E7,-2.2654327E5,1.5E7,-3.3857E3,3E7,-1.2048826E5,-5.4778152E4,1.0481671E5,2.0614714E5],"split_indices":[0,0,2,0,2,0,2,0,0,0,0],"split_type":[0,0,0,0,0,0,0,0,0,0,0],"sum_hessian":[6E1,2.2E1,3.8E1,1.5E1,7E0,5E0,3.3E1,4E0,3E0,2.8E1,5E0],"tree_param":{"num_deleted":"0","num_feature":"3","num_nodes":"11","size_leaf_vector":"1"}},{"base_weights":[8.091932E5,-2.048576E5,3.2821822E6,4.874813E6,1.3231845E6,1.1117327E5,2.0687388E5,-2.258905E4,9.348177E4],"categories":[],"categories_nodes":[],"categories_segments":[],"categories_sizes":[],"default_left":[0,0,0,0,0,0,0,0,0],"id":25,"left_children":[1,-1,3,5,7,-1,-1,-1,-1],"loss_changes":[1.1557013E15,0E0,1.3706794E14,3.3510811E13,8.4236506E13,0E0,0E0,0E0,0E0],"parents":[2147483647,0,0,2,2,3,3,4,4],"right_children":[2,-1,4,6,8,-1,-1,-1,-1],"split_conditions":[1.5E7,-2.048576E5,8.082E4,2.8E7,2.5E7,1.1117327E5,2.0687388E5,-2.258905E4,9.348177E4],"split_indices":[2,0,1,2,2,0,0,0,0],"split_type":[0,0,0,0,0,0,0,0,0],"sum_hessian":[5.9E1,1.4E1,4.5E1,2.4E1,2.1E1,1.7E1,7E0,1E1,1.1E1],"tree_param":{"num_deleted":"0","num_feature":"3","num_nodes":"9","size_leaf_vector":"1"}},{"base_weights":[8.807455E4,-6.753118E6,3.4230935E6,-7.2338165E6,-4.853656E4,2.6923155E6,1.9763906E5,-2.746325E5,-1.6531944E5,-2.626848E3,9.1615016E4],"categories":[],"categories_nodes":[],"categories_segments":[],"categories_sizes":[],"default_left":[0,0,0,0,0,0,0,0,0,0,0],"id":26,"left_children":[1,3,5,7,-1,9,-1,-1,-1,-1,-1],"loss_changes":[1.3920468E15,3.7666595E13,7.708879E13,9.124524E12,0E0,3.5441584E13,0E0,0E0,0E0,0E0,0E0],"parents":[2147483647,0,0,1,1,2,2,3,3,5,5],"right_children":[2,4,6,8,-1,10,-1,-1,-1,-1,-1],"split_conditions":[2.021E3,8E6,3E7,2.013E3,-4.853656E4,1.72E7,1.9763906E5,-2.746325E5,-1.6531944E5,-2.626848E3,9.1615016E4],"split_indices":[0,2,2,0,0,2,0,0,0,0,0],"split_type":[0,0,0,0,0,0,0,0,0,0,0],"sum_hessian":[5.9E1,1.9E1,4E1,1.7E1,2E0,3.4E1,6E0,6E0,1.1E1,4E0,3E1],"tree_param":{"num_deleted":"0","num_feature":"3","num_nodes":"11","size_leaf_vector":"1"}},{"base_weights":[2.1669908E5,-5.9229365E6,3.5171002E6,-2.1261455E5,-9.435577E4,2.4021998E6,1.7476327E5,7.922939E4,-1.40388E4],"categories":[],"categories_nodes":[],"categories_segments":[],"categories_sizes":[],"default_left":[0,0,0,0,0,0,0,0,0],"id":27,"left_children":[1,3,5,-1,-1,7,-1,-1,-1],"loss_changes":[1.216364E15,4.5621277E13,8.637535E13,0E0,0E0,2.042532E13,0E0,0E0,0E0],"parents":[2147483647,0,0,1,1,2,2,5,5],"right_children":[2,4,6,-1,-1,8,-1,-1,-1],"split_conditions":[2.021E3,2.015E3,2.023E3,-2.1261455E5,-9.435577E4,1.18461E5,1.7476327E5,7.922939E4,-1.40388E4],"split_indices":[0,0,0,0,0,1,0,0,0],"split_type":[0,0,0,0,0,0,0,0,0],"sum_hessian":[5.8E1,2E1,3.8E1,1.3E1,7E0,2.7E1,1.1E1,2.5E1,2E0],"tree_param":{"num_deleted":"0","num_feature":"3","num_nodes":"9","size_leaf_vector":"1"}},{"base_weights":[-7.340565E4,-5.867128E6,3.2169072E6,-2.0156748E5,-9.6111195E4,2.263805E6,1.9166783E5,-4.6514E3,8.261331E4],"categories":[],"categories_nodes":[],"categories_segments":[],"categories_sizes":[],"default_left":[0,0,0,0,0,0,0,0,0],"id":28,"left_children":[1,3,5,-1,-1,7,-1,-1,-1],"loss_changes":[1.1054742E15,2.6116622E13,9.739734E13,0E0,0E0,3.598208E13,0E0,0E0,0E0],"parents":[2147483647,0,0,1,1,2,2,5,5],"right_children":[2,4,6,-1,-1,8,-1,-1,-1],"split_conditions":[2.021E3,2.015E3,3E7,-2.0156748E5,-9.6111195E4,1.72E7,1.9166783E5,-4.6514E3,8.261331E4],"split_indices":[0,0,2,0,0,2,0,0,0],"split_type":[0,0,0,0,0,0,0,0,0],"sum_hessian":[5.6E1,2E1,3.6E1,1.4E1,6E0,2.9E1,7E0,5E0,2.4E1],"tree_param":{"num_deleted":"0","num_feature":"3","num_nodes":"9","size_leaf_vector":"1"}},{"base_weights":[-1.9559636E5,-5.8934515E6,3.1696925E6,-2.5692014E5,-4.4471385E6,1.6577694E5,2.046687E6,-3.9579797E4,-1.4328675E5,6.630603E4,-3.5522848E4],"categories":[],"categories_nodes":[],"categories_segments":[],"categories_sizes":[],"default_left":[0,0,0,0,0,0,0,0,0,0,0],"id":29,"left_children":[1,3,5,-1,7,-1,9,-1,-1,-1,-1],"loss_changes":[1.1883511E15,5.075108E13,9.188546E13,0E0,1.1197047E13,0E0,1.740887E13,0E0,0E0,0E0,0E0],"parents":[2147483647,0,0,1,1,2,2,4,4,6,6],"right_children":[2,4,6,-1,8,-1,10,-1,-1,-1,-1],"split_conditions":[2.021E3,2.013E3,5.798E4,-2.5692014E5,9.4944E4,1.6577694E5,1.22344E5,-3.9579797E4,-1.4328675E5,6.630603E4,-3.5522848E4],"split_indices":[0,0,1,0,1,0,1,0,0,0,0],"split_type":[0,0,0,0,0,0,0,0,0,0,0],"sum_hessian":[6E1,2.2E1,3.8E1,6E0,1.6E1,1.1E1,2.7E1,2E0,1.4E1,2.6E1,1E0],"tree_param":{"num_deleted":"0","num_feature":"3","num_nodes":"11","size_leaf_vector":"1"}},{"base_weights":[-1.372488E5,-5.55513E6,2.846017E6,-6.933029E4,-6.373341E6,4.0516855E6,1.3001896E6,-2.486113E5,-1.4656136E5,8.74172E4,1.4271027E5,7.730338E4,-1.2136573E4],"categories":[],"categories_nodes":[],"categories_segments":[],"categories_sizes":[],"default_left":[0,0,0,0,0,0,0,0,0,0,0,0,0],"id":30,"left_children":[1,3,5,-1,7,9,11,-1,-1,-1,-1,-1,-1],"loss_changes":[1.0017518E15,4.366747E13,6.928225E13,0E0,7.92247E12,3.7935634E12,4.239132E13,0E0,0E0,0E0,0E0,0E0,0E0],"parents":[2147483647,0,0,1,1,2,2,4,4,5,5,6,6],"right_children":[2,4,6,-1,8,10,12,-1,-1,-1,-1,-1,-1],"split_conditions":[2.021E3,1.32211E5,8.082E4,-6.933029E4,2.012E3,2.023E3,2.022E3,-2.486113E5,-1.4656136E5,8.74172E4,1.4271027E5,7.730338E4,-1.2136573E4],"split_indices":[0,1,1,0,0,0,0,0,0,0,0,0,0],"split_type":[0,0,0,0,0,0,0,0,0,0,0,0,0],"sum_hessian":[6E1,2.1E1,3.9E1,5E0,1.6E1,2.1E1,1.8E1,5E0,1.1E1,1E1,1.1E1,1E1,8E0],"tree_param":{"num_deleted":"0","num_feature":"3","num_nodes":"13","size_leaf_vector":"1"}},{"base_weights":[1.090314E5,-5.5293175E6,3.0598562E6,-2.3974242E5,-4.335088E6,1.5402508E5,2.0589921E6,-3.7401598E4,-1.3991267E5,6.7935805E4,-1.6369839E4],"categories":[],"categories_nodes":[],"categories_segments":[],"categories_sizes":[],"default_left":[0,0,0,0,0,0,0,0,0,0,0],"id":31,"left_children":[1,3,5,-1,7,-1,9,-1,-1,-1,-1],"loss_changes":[1.0650991E15,3.0043296E13,7.662524E13,0E0,1.144139E13,0E0,1.729606E13,0E0,0E0,0E0,0E0],"parents":[2147483647,0,0,1,1,2,2,4,4,6,6],"right_children":[2,4,6,-1,8,-1,10,-1,-1,-1,-1],"split_conditions":[2.02E3,2.013E3,5.798E4,-2.3974242E5,9.4944E4,1.5402508E5,1.18461E5,-3.7401598E4,-1.3991267E5,6.7935805E4,-1.6369839E4],"split_indices":[0,0,1,0,1,0,1,0,0,0,0],"split_type":[0,0,0,0,0,0,0,0,0,0,0],"sum_hessian":[6.2E1,2.1E1,4.1E1,5E0,1.6E1,1.2E1,2.9E1,2E0,1.4E1,2.7E1,2E0],"tree_param":{"num_deleted":"0","num_feature":"3","num_nodes":"11","size_leaf_vector":"1"}},{"base_weights":[1.1921006E5,-5.670678E6,2.6747605E6,-2.3484888E5,-4.3409365E6,4.1094275E6,8.19422E5,-1.3524331E5,-3.251508E4,9.193076E4,1.744956E5,-2.4587922E4,7.621204E4],"categories":[],"categories_nodes":[],"categories_segments":[],"categories_sizes":[],"default_left":[0,0,0,0,0,0,0,0,0,0,0,0,0],"id":32,"left_children":[1,3,5,-1,7,9,11,-1,-1,-1,-1,-1,-1],"loss_changes":[9.177452E14,2.053028E13,1.1108973E14,0E0,2.7369847E12,2.4992784E13,5.8496473E13,0E0,0E0,0E0,0E0,0E0,0E0],"parents":[2147483647,0,0,1,1,2,2,4,4,5,5,6,6],"right_children":[2,4,6,-1,8,10,12,-1,-1,-1,-1,-1,-1],"split_conditions":[1.6E7,6E6,8.082E4,-2.3484888E5,1.5E7,2.8E7,2.5E7,-1.3524331E5,-3.251508E4,9.193076E4,1.744956E5,-2.4587922E4,7.621204E4],"split_indices":[2,2,1,0,2,2,2,0,0,0,0,0,0],"split_type":[0,0,0,0,0,0,0,0,0,0,0,0,0],"sum_hessian":[6E1,1.8E1,4.2E1,5E0,1.3E1,2.3E1,1.9E1,1.2E1,1E0,1.6E1,7E0,1E1,9E0],"tree_param":{"num_deleted":"0","num_feature":"3","num_nodes":"13","size_leaf_vector":"1"}},{"base_weights":[-9.028286E4,-5.1287715E6,2.7383882E6,-6.0526455E6,-7.91978E4,1.4428097E5,1.8187179E6,-2.3053125E5,-1.3837112E5,5.880115E4,-3.419361E4],"categories":[],"categories_nodes":[],"categories_segments":[],"categories_sizes":[],"default_left":[0,0,0,0,0,0,0,0,0,0,0],"id":33,"left_children":[1,3,5,7,-1,-1,9,-1,-1,-1,-1],"loss_changes":[9.119349E14,3.690719E13,6.934238E13,2.1590264E12,0E0,0E0,1.4776936E13,0E0,0E0,0E0,0E0],"parents":[2147483647,0,0,1,1,2,2,3,3,6,6],"right_children":[2,4,6,8,-1,-1,10,-1,-1,-1,-1],"split_conditions":[2.021E3,2.015E3,5.798E4,2.012E3,-7.91978E4,1.4428097E5,1.22344E5,-2.3053125E5,-1.3837112E5,5.880115E4,-3.419361E4],"split_indices":[0,0,1,0,0,0,1,0,0,0,0],"split_type":[0,0,0,0,0,0,0,0,0,0,0],"sum_hessian":[6.2E1,2.2E1,4E1,1.5E1,7E0,1.1E1,2.9E1,5E0,1E1,2.8E1,1E0],"tree_param":{"num_deleted":"0","num_feature":"3","num_nodes":"11","size_leaf_vector":"1"}},{"base_weights":[3.0262744E5,-5.431835E6,2.616514E6,-2.2367519E5,-3.96718E6,3.9725145E6,1.0713462E6,-1.2422782E5,-3.083937E4,8.618918E4,1.6612772E5,-2.177947E4,7.4395234E4],"categories":[],"categories_nodes":[],"categories_segments":[],"categories_sizes":[],"default_left":[0,0,0,0,0,0,0,0,0,0,0,0,0],"id":34,"left_children":[1,3,5,-1,7,9,11,-1,-1,-1,-1,-1,-1],"loss_changes":[7.838084E14,2.081737E13,8.374445E13,0E0,1.8713474E12,2.1949732E13,5.4962415E13,0E0,0E0,0E0,0E0,0E0,0E0],"parents":[2147483647,0,0,1,1,2,2,4,4,5,5,6,6],"right_children":[2,4,6,-1,8,10,12,-1,-1,-1,-1,-1,-1],"split_conditions":[1.6E7,6E6,8.082E4,-2.2367519E5,8E6,2.8E7,2.5E7,-1.2422782E5,-3.083937E4,8.618918E4,1.6612772E5,-2.177947E4,7.4395234E4],"split_indices":[2,2,1,0,2,2,2,0,0,0,0,0,0],"split_type":[0,0,0,0,0,0,0,0,0,0,0,0,0],"sum_hessian":[5.7E1,1.6E1,4.1E1,5E0,1.1E1,2.1E1,2E1,1E1,1E0,1.4E1,7E0,9E0,1.1E1],"tree_param":{"num_deleted":"0","num_feature":"3","num_nodes":"13","size_leaf_vector":"1"}},{"base_weights":[3.021937E5,-4.7795415E6,2.6587638E6,-1.7423936E5,-7.532664E4,1.3820669E5,1.7560411E6,5.666087E4,-3.3354E4],"categories":[],"categories_nodes":[],"categories_segments":[],"categories_sizes":[],"default_left":[0,0,0,0,0,0,0,0,0],"id":35,"left_children":[1,3,5,-1,-1,-1,7,-1,-1],"loss_changes":[7.5518645E14,3.2080184E13,6.7530643E13,0E0,0E0,0E0,1.3893263E13,0E0,0E0],"parents":[2147483647,0,0,1,1,2,2,6,6],"right_children":[2,4,6,-1,-1,-1,8,-1,-1],"split_conditions":[2.021E3,2.015E3,5.798E4,-1.7423936E5,-7.532664E4,1.3820669E5,1.22344E5,5.666087E4,-3.3354E4],"split_indices":[0,0,1,0,0,0,1,0,0],"split_type":[0,0,0,0,0,0,0,0,0],"sum_hessian":[6.1E1,1.9E1,4.2E1,1.2E1,7E0,1.2E1,3E1,2.9E1,1E0],"tree_param":{"num_deleted":"0","num_feature":"3","num_nodes":"9","size_leaf_vector":"1"}},{"base_weights":[1.3890928E5,-4.5782205E6,2.6849548E6,-1.5238419E5,-3.910023E4,2.0153131E6,1.5800836E5,-8.942495E3,7.107235E4],"categories":[],"categories_nodes":[],"categories_segments":[],"categories_sizes":[],"default_left":[0,0,0,0,0,0,0,0,0],"id":36,"left_children":[1,3,5,-1,-1,7,-1,-1,-1],"loss_changes":[6.8485374E14,2.6210575E13,5.335876E13,0E0,0E0,2.6076558E13,0E0,0E0,0E0],"parents":[2147483647,0,0,1,1,2,2,5,5],"right_children":[2,4,6,-1,-1,8,-1,-1,-1],"split_conditions":[2.021E3,1.5E7,2.8E7,-1.5238419E5,-3.910023E4,1.72E7,1.5800836E5,-8.942495E3,7.107235E4],"split_indices":[0,2,2,0,0,2,0,0,0],"split_type":[0,0,0,0,0,0,0,0,0],"sum_hessian":[5.5E1,1.9E1,3.6E1,1.6E1,3E0,3E1,6E0,4E0,2.6E1],"tree_param":{"num_deleted":"0","num_feature":"3","num_nodes":"9","size_leaf_vector":"1"}},{"base_weights":[-3.0353366E5,-4.7324445E6,2.2506785E6,-2.1280186E5,-3.481909E6,9.6886805E4,9.987795E5,-4.2541426E4,-1.1468628E5,6.4914645E4,-1.6084087E4],"categories":[],"categories_nodes":[],"categories_segments":[],"categories_sizes":[],"default_left":[0,0,0,0,0,0,0,0,0,0,0],"id":37,"left_children":[1,3,5,-1,7,-1,9,-1,-1,-1,-1],"loss_changes":[7.1201854E14,4.3207874E13,4.579284E13,0E0,6.5420237E12,0E0,3.5136687E13,0E0,0E0,0E0,0E0],"parents":[2147483647,0,0,1,1,2,2,4,4,6,6],"right_children":[2,4,6,-1,8,-1,10,-1,-1,-1,-1],"split_conditions":[2.021E3,2.013E3,8.082E4,-2.1280186E5,1.20276E5,9.6886805E4,2.022E3,-4.2541426E4,-1.1468628E5,6.4914645E4,-1.6084087E4],"split_indices":[0,0,1,0,1,0,0,0,0,0,0],"split_type":[0,0,0,0,0,0,0,0,0,0,0],"sum_hessian":[6.1E1,2.2E1,3.9E1,6E0,1.6E1,2.1E1,1.8E1,3E0,1.3E1,1E1,8E0],"tree_param":{"num_deleted":"0","num_feature":"3","num_nodes":"11","size_leaf_vector":"1"}},{"base_weights":[7.363895E4,-4.740136E6,2.4228398E6,-2.0349767E5,-3.6777078E6,-2.9297688E5,3.0519688E6,-1.1409463E5,-2.694009E4,6.309468E4,-2.5661639E4,7.117797E4,1.5144798E5],"categories":[],"categories_nodes":[],"categories_segments":[],"categories_sizes":[],"default_left":[0,0,0,0,0,0,0,0,0,0,0,0,0],"id":38,"left_children":[1,3,5,-1,7,9,11,-1,-1,-1,-1,-1,-1],"loss_changes":[7.2392164E14,2.063725E13,7.43639E13,0E0,2.164026E12,1.392752E13,3.549032E13,0E0,0E0,0E0,0E0,0E0,0E0],"parents":[2147483647,0,0,1,1,2,2,4,4,5,5,6,6],"right_children":[2,4,6,-1,8,10,12,-1,-1,-1,-1,-1,-1],"split_conditions":[1.6E7,3.1E6,2.1E7,-2.0349767E5,1.5E7,8.082E4,3E7,-1.1409463E5,-2.694009E4,6.309468E4,-2.5661639E4,7.117797E4,1.5144798E5],"split_indices":[2,2,2,0,2,1,2,0,0,0,0,0,0],"split_type":[0,0,0,0,0,0,0,0,0,0,0,0,0],"sum_hessian":[6.2E1,2E1,4.2E1,5E0,1.5E1,8E0,3.4E1,1.4E1,1E0,1E0,7E0,2.7E1,7E0],"tree_param":{"num_deleted":"0","num_feature":"3","num_nodes":"13","size_leaf_vector":"1"}},{"base_weights":[7.450982E4,-4.3421845E6,2.442626E6,-5.086031E6,-6.064953E4,3.4195655E6,1.00433856E6,-1.9410225E5,-1.1606195E5,6.969639E4,1.2505619E5,6.1203043E4,-1.6361332E4],"categories":[],"categories_nodes":[],"categories_segments":[],"categories_sizes":[],"default_left":[0,0,0,0,0,0,0,0,0,0,0,0,0],"id":39,"left_children":[1,3,5,7,-1,9,11,-1,-1,-1,-1,-1,-1],"loss_changes":[6.590795E14,2.7692506E13,5.417551E13,1.9257224E12,0E0,1.0022927E13,3.0005122E13,0E0,0E0,0E0,0E0,0E0,0E0],"parents":[2147483647,0,0,1,1,2,2,3,3,5,5,6,6],"right_children":[2,4,6,8,-1,10,12,-1,-1,-1,-1,-1,-1],"split_conditions":[2.021E3,2.015E3,8.082E4,2.013E3,-6.064953E4,2.023E3,2.022E3,-1.9410225E5,-1.1606195E5,6.969639E4,1.2505619E5,6.1203043E4,-1.6361332E4],"split_indices":[0,0,1,0,0,0,0,0,0,0,0,0,0],"split_type":[0,0,0,0,0,0,0,0,0,0,0,0,0],"sum_hessian":[6.1E1,2.1E1,4E1,1.5E1,6E0,2.3E1,1.7E1,5E0,1E1,1.1E1,1.2E1,1E1,7E0],"tree_param":{"num_deleted":"0","num_feature":"3","num_nodes":"13","size_leaf_vector":"1"}},{"base_weights":[1.931852E5,-4.173081E6,2.5392982E6,-1.5074417E5,-6.4827816E4,1.215931E5,1.7163809E6,6.710475E4,3.656322E4],"categories":[],"categories_nodes":[],"categories_segments":[],"categories_sizes":[],"default_left":[0,0,0,0,0,0,0,0,0],"id":40,"left_children":[1,3,5,-1,-1,-1,7,-1,-1],"loss_changes":[6.149782E14,2.5131598E13,4.162704E13,0E0,0E0,0E0,4.266186E12,0E0,0E0],"parents":[2147483647,0,0,1,1,2,2,6,6],"right_children":[2,4,6,-1,-1,-1,8,-1,-1],"split_conditions":[2.021E3,2.015E3,5.798E4,-1.5074417E5,-6.4827816E4,1.215931E5,8.082E4,6.710475E4,3.656322E4],"split_indices":[0,0,1,0,0,0,1,0,0],"split_type":[0,0,0,0,0,0,0,0,0],"sum_hessian":[5.8E1,2E1,3.8E1,1.3E1,7E0,1.2E1,2.6E1,1.1E1,1.5E1],"tree_param":{"num_deleted":"0","num_feature":"3","num_nodes":"9","size_leaf_vector":"1"}},{"base_weights":[-3.4297916E5,-4.269105E6,2.1346708E6,-1.9361269E5,-3.046501E6,3.1225855E6,7.663605E5,-3.752034E4,-1.0094146E5,6.593439E4,1.20259836E5,5.5887344E4,-1.6891635E4],"categories":[],"categories_nodes":[],"categories_segments":[],"categories_sizes":[],"default_left":[0,0,0,0,0,0,0,0,0,0,0,0,0],"id":41,"left_children":[1,3,5,-1,7,9,11,-1,-1,-1,-1,-1,-1],"loss_changes":[5.5385677E14,3.9099872E13,4.491905E13,0E0,4.9351355E12,7.578067E12,2.4373264E13,0E0,0E0,0E0,0E0,0E0,0E0],"parents":[2147483647,0,0,1,1,2,2,4,4,5,5,6,6],"right_children":[2,4,6,-1,8,10,12,-1,-1,-1,-1,-1,-1],"split_conditions":[2.021E3,2.013E3,8.082E4,-1.9361269E5,1.20276E5,2.023E3,2.022E3,-3.752034E4,-1.0094146E5,6.593439E4,1.20259836E5,5.5887344E4,-1.6891635E4],"split_indices":[0,0,1,0,1,0,0,0,0,0,0,0,0],"split_type":[0,0,0,0,0,0,0,0,0,0,0,0,0],"sum_hessian":[5.5E1,2.1E1,3.4E1,6E0,1.5E1,1.9E1,1.5E1,3E0,1.2E1,1.1E1,8E0,8E0,7E0],"tree_param":{"num_deleted":"0","num_feature":"3","num_nodes":"13","size_leaf_vector":"1"}},{"base_weights":[-1.6748311E5,-4.409508E6,2.063767E6,-1.8863408E5,-3.2390035E6,3.016252E6,8.5227044E5,-1.0080515E5,-2.313969E4,1.4540666E5,7.416314E4,5.701242E4,-1.5704726E4],"categories":[],"categories_nodes":[],"categories_segments":[],"categories_sizes":[],"default_left":[0,0,0,0,0,0,0,0,0,0,0,0,0],"id":42,"left_children":[1,3,5,-1,7,9,11,-1,-1,-1,-1,-1,-1],"loss_changes":[5.770013E14,2.5803392E13,4.3586637E13,0E0,1.893292E12,9.932968E12,2.8392766E13,0E0,0E0,0E0,0E0,0E0,0E0],"parents":[2147483647,0,0,1,1,2,2,4,4,5,5,6,6],"right_children":[2,4,6,-1,8,10,12,-1,-1,-1,-1,-1,-1],"split_conditions":[2.021E3,2.013E3,8.082E4,-1.8863408E5,2.02E3,4.0447E4,2.022E3,-1.0080515E5,-2.313969E4,1.4540666E5,7.416314E4,5.701242E4,-1.5704726E4],"split_indices":[0,0,1,0,0,1,0,0,0,0,0,0,0],"split_type":[0,0,0,0,0,0,0,0,0,0,0,0,0],"sum_hessian":[5.9E1,2E1,3.9E1,6E0,1.4E1,2.1E1,1.8E1,1.3E1,1E0,3E0,1.8E1,1E1,8E0],"tree_param":{"num_deleted":"0","num_feature":"3","num_nodes":"13","size_leaf_vector":"1"}},{"base_weights":[9.3973695E4,-3.900881E6,2.1842792E6,-1.802329E5,-2.927812E6,1.1218421E5,1.4375522E6,-3.440801E4,-9.682514E4,4.8447418E4,-2.091026E4],"categories":[],"categories_nodes":[],"categories_segments":[],"categories_sizes":[],"default_left":[0,0,0,0,0,0,0,0,0,0,0],"id":43,"left_children":[1,3,5,-1,7,-1,9,-1,-1,-1,-1],"loss_changes":[5.3459998E14,2.751356E13,4.339917E13,0E0,5.371444E12,0E0,1.2483293E13,0E0,0E0,0E0,0E0],"parents":[2147483647,0,0,1,1,2,2,4,4,6,6],"right_children":[2,4,6,-1,8,-1,10,-1,-1,-1,-1],"split_conditions":[2.021E3,2.013E3,5.798E4,-1.802329E5,1.20276E5,1.1218421E5,1.18461E5,-3.440801E4,-9.682514E4,4.8447418E4,-2.091026E4],"split_indices":[0,0,1,0,1,0,1,0,0,0,0],"split_type":[0,0,0,0,0,0,0,0,0,0,0],"sum_hessian":[6.2E1,2.1E1,4.1E1,5E0,1.6E1,1.2E1,2.9E1,3E0,1.3E1,2.7E1,2E0],"tree_param":{"num_deleted":"0","num_feature":"3","num_nodes":"11","size_leaf_vector":"1"}},{"base_weights":[-1.8808428E5,-3.9943705E6,2.0614714E6,-1.791489E5,-2.9452418E6,2.8916102E6,6.87421E5,-2.4525398E4,-9.523314E4,1.3961088E5,7.2548375E4,5.1815926E4,-1.7047656E4],"categories":[],"categories_nodes":[],"categories_segments":[],"categories_sizes":[],"default_left":[0,0,0,0,0,0,0,0,0,0,0,0,0],"id":44,"left_children":[1,3,5,-1,7,9,11,-1,-1,-1,-1,-1,-1],"loss_changes":[5.3054392E14,3.0123324E13,4.249771E13,0E0,5.695177E12,8.76326E12,2.1871454E13,0E0,0E0,0E0,0E0,0E0,0E0],"parents":[2147483647,0,0,1,1,2,2,4,4,5,5,6,6],"right_children":[2,4,6,-1,8,10,12,-1,-1,-1,-1,-1,-1],"split_conditions":[2.021E3,2.013E3,8.082E4,-1.791489E5,9.4944E4,4.0447E4,2.022E3,-2.4525398E4,-9.523314E4,1.3961088E5,7.2548375E4,5.1815926E4,-1.7047656E4],"split_indices":[0,0,1,0,1,1,0,0,0,0,0,0,0],"split_type":[0,0,0,0,0,0,0,0,0,0,0,0,0],"sum_hessian":[6E1,2.2E1,3.8E1,6E0,1.6E1,2.3E1,1.5E1,2E0,1.4E1,3E0,2E1,8E0,7E0],"tree_param":{"num_deleted":"0","num_feature":"3","num_nodes":"13","size_leaf_vector":"1"}},{"base_weights":[1.1572885E5,-3.7500435E6,1.9538174E6,-1.6384538E5,-2.8154532E6,1.4358282E6,1.3015934E5,-9.16214E4,-2.5291898E4,-1.1442524E3,5.3787875E4],"categories":[],"categories_nodes":[],"categories_segments":[],"categories_sizes":[],"default_left":[0,0,0,0,0,0,0,0,0,0,0],"id":45,"left_children":[1,3,5,-1,7,9,-1,-1,-1,-1,-1],"loss_changes":[4.4077048E14,1.6613789E13,4.5653674E13,0E0,4.4842395E12,1.901721E13,0E0,0E0,0E0,0E0,0E0],"parents":[2147483647,0,0,1,1,2,2,4,4,5,5],"right_children":[2,4,6,-1,8,10,-1,-1,-1,-1,-1],"split_conditions":[2.021E3,2.013E3,3E7,-1.6384538E5,1.5E7,2.1E7,1.3015934E5,-9.16214E4,-2.5291898E4,-1.1442524E3,5.3787875E4],"split_indices":[0,0,2,0,2,2,0,0,0,0,0],"split_type":[0,0,0,0,0,0,0,0,0,0,0],"sum_hessian":[6E1,1.9E1,4.1E1,5E0,1.4E1,3.5E1,6E0,1.2E1,2E0,7E0,2.8E1],"tree_param":{"num_deleted":"0","num_feature":"3","num_nodes":"11","size_leaf_vector":"1"}},{"base_weights":[-1.8142497E5,-2.991E6,2.370422E6,-3.9520175E6,-7.698652E5,1.6948995E6,1.2555381E5,-1.6715222E5,-9.1219805E4,-1.2861616E4,-3.523206E4,5.2862203E4,1.8447959E4],"categories":[],"categories_nodes":[],"categories_segments":[],"categories_sizes":[],"default_left":[0,0,0,0,0,0,0,0,0,0,0,0,0],"id":46,"left_children":[1,3,5,7,9,11,-1,-1,-1,-1,-1,-1,-1],"loss_changes":[4.3726626E14,5.8859406E13,3.213461E13,1.2581167E13,8.76565E11,7.300857E11,0E0,0E0,0E0,0E0,0E0,0E0,0E0],"parents":[2147483647,0,0,1,1,2,2,3,3,4,4,5,5],"right_children":[2,4,6,8,10,12,-1,-1,-1,-1,-1,-1,-1],"split_conditions":[2.1E7,1.5E7,3E7,2.013E3,1.72E7,2.69E7,1.2555381E5,-1.6715222E5,-9.1219805E4,-1.2861616E4,-3.523206E4,5.2862203E4,1.8447959E4],"split_indices":[2,2,2,0,2,2,0,0,0,0,0,0,0],"split_type":[0,0,0,0,0,0,0,0,0,0,0,0,0],"sum_hessian":[5.9E1,2.8E1,3.1E1,1.9E1,9E0,2.4E1,7E0,5E0,1.4E1,6E0,3E0,2.2E1,2E0],"tree_param":{"num_deleted":"0","num_feature":"3","num_nodes":"13","size_leaf_vector":"1"}},{"base_weights":[-4.9845695E4,-3.6385062E6,1.8837881E6,-1.6603088E5,-2.5112062E6,2.8558662E6,7.1023925E5,-3.0272527E4,-8.407939E4,1.27826484E5,6.823901E4,5.00036E4,-1.6133692E4],"categories":[],"categories_nodes":[],"categories_segments":[],"categories_sizes":[],"default_left":[0,0,0,0,0,0,0,0,0,0,0,0,0],"id":47,"left_children":[1,3,5,-1,7,9,11,-1,-1,-1,-1,-1,-1],"loss_changes":[4.1626434E14,3.0983273E13,4.246211E13,0E0,3.738576E12,7.457506E12,2.357856E13,0E0,0E0,0E0,0E0,0E0,0E0],"parents":[2147483647,0,0,1,1,2,2,4,4,5,5,6,6],"right_children":[2,4,6,-1,8,10,12,-1,-1,-1,-1,-1,-1],"split_conditions":[2.021E3,2.013E3,8.082E4,-1.6603088E5,1.20276E5,4.0447E4,2.022E3,-3.0272527E4,-8.407939E4,1.27826484E5,6.823901E4,5.00036E4,-1.6133692E4],"split_indices":[0,0,1,0,1,1,0,0,0,0,0,0,0],"split_type":[0,0,0,0,0,0,0,0,0,0,0,0,0],"sum_hessian":[5.8E1,2E1,3.8E1,6E0,1.4E1,2E1,1.8E1,3E0,1.1E1,4E0,1.6E1,1E1,8E0],"tree_param":{"num_deleted":"0","num_feature":"3","num_nodes":"13","size_leaf_vector":"1"}},{"base_weights":[-3.4916E4,1.7988015E6,-3.7006052E6,-2.9528644E5,2.3315512E6,-1.6146245E5,-2.7813075E6,5.57019E4,-2.3891393E4,5.3562914E4,1.2080763E5,-8.8056516E4,-3.561788E4],"categories":[],"categories_nodes":[],"categories_segments":[],"categories_sizes":[],"default_left":[0,0,0,0,0,0,0,0,0,0,0,0,0],"id":48,"left_children":[1,3,5,7,9,-1,11,-1,-1,-1,-1,-1,-1],"loss_changes":[4.0324512E14,4.5313465E13,1.5946358E13,1.1183911E13,2.2438268E13,0E0,1.952113E11,0E0,0E0,0E0,0E0,0E0,0E0],"parents":[2147483647,0,0,1,1,2,2,3,3,4,4,6,6],"right_children":[2,4,6,8,10,-1,12,-1,-1,-1,-1,-1,-1],"split_conditions":[1.22344E5,2.1E7,6E6,8.082E4,2.8E7,-1.6146245E5,1.5E7,5.57019E4,-2.3891393E4,5.3562914E4,1.2080763E5,-8.8056516E4,-3.561788E4],"split_indices":[1,2,2,1,2,0,2,0,0,0,0,0,0],"split_type":[0,0,0,0,0,0,0,0,0,0,0,0,0],"sum_hessian":[5.8E1,3.9E1,1.9E1,8E0,3.1E1,5E0,1.4E1,1E0,7E0,2.5E1,6E0,1.2E1,2E0],"tree_param":{"num_deleted":"0","num_feature":"3","num_nodes":"13","size_leaf_vector":"1"}},{"base_weights":[-5.087228E4,-3.4407532E6,1.8067024E6,-1.5854033E5,-2.479093E6,1.3449416E6,1.1770114E5,-8.314473E4,-2.5077795E4,1.0317943E3,4.8177145E4],"categories":[],"categories_nodes":[],"categories_segments":[],"categories_sizes":[],"default_left":[0,0,0,0,0,0,0,0,0,0,0],"id":49,"left_children":[1,3,5,-1,7,9,-1,-1,-1,-1,-1],"loss_changes":[4.0922167E14,2.768306E13,3.5773865E13,0E0,5.851029E12,1.2256952E13,0E0,0E0,0E0,0E0,0E0],"parents":[2147483647,0,0,1,1,2,2,4,4,5,5],"right_children":[2,4,6,-1,8,10,-1,-1,-1,-1,-1],"split_conditions":[2.021E3,2.013E3,3E7,-1.5854033E5,1.5E7,2.1E7,1.1770114E5,-8.314473E4,-2.5077795E4,1.0317943E3,4.8177145E4],"split_indices":[0,0,2,0,2,2,0,0,0,0,0],"split_type":[0,0,0,0,0,0,0,0,0,0,0],"sum_hessian":[6.3E1,2.2E1,4.1E1,6E0,1.6E1,3.5E1,6E0,1.3E1,3E0,6E0,2.9E1],"tree_param":{"num_deleted":"0","num_feature":"3","num_nodes":"11","size_leaf_vector":"1"}},{"base_weights":[8.53E2,-3.5874568E6,1.6698145E6,-1.544636E5,-2.5505452E6,-2.177318E5,2.175863E6,-7.976104E4,-1.716774E4,5.485089E4,-1.9446812E4,5.0648637E4,1.14459766E5],"categories":[],"categories_nodes":[],"categories_segments":[],"categories_sizes":[],"default_left":[0,0,0,0,0,0,0,0,0,0,0,0,0],"id":50,"left_children":[1,3,5,-1,7,9,11,-1,-1,-1,-1,-1,-1],"loss_changes":[3.7729298E14,1.924699E13,4.1546913E13,0E0,1.4740378E12,9.993536E12,2.0736907E13,0E0,0E0,0E0,0E0,0E0,0E0],"parents":[2147483647,0,0,1,1,2,2,4,4,5,5,6,6],"right_children":[2,4,6,-1,8,10,12,-1,-1,-1,-1,-1,-1],"split_conditions":[1.6E7,6E6,2.1E7,-1.544636E5,1.5E7,8.082E4,3E7,-7.976104E4,-1.716774E4,5.485089E4,-1.9446812E4,5.0648637E4,1.14459766E5],"split_indices":[2,2,2,0,2,1,2,0,0,0,0,0,0],"split_type":[0,0,0,0,0,0,0,0,0,0,0,0,0],"sum_hessian":[6.1E1,1.9E1,4.2E1,6E0,1.3E1,9E0,3.3E1,1.2E1,1E0,1E0,8E0,2.7E1,6E0],"tree_param":{"num_deleted":"0","num_feature":"3","num_nodes":"13","size_leaf_vector":"1"}},{"base_weights":[1.3173206E4,-3.1844882E6,1.687825E6,-1.4804681E5,-2.379375E6,1.1849521E6,1.1030747E5,-7.9793484E4,-2.409309E4,-6.7119E3,4.2815707E4],"categories":[],"categories_nodes":[],"categories_segments":[],"categories_sizes":[],"default_left":[0,0,0,0,0,0,0,0,0,0,0],"id":51,"left_children":[1,3,5,-1,7,9,-1,-1,-1,-1,-1],"loss_changes":[3.4273792E14,1.9262106E13,3.7653945E13,0E0,5.377903E12,1.2262576E13,0E0,0E0,0E0,0E0,0E0],"parents":[2147483647,0,0,1,1,2,2,4,4,5,5],"right_children":[2,4,6,-1,8,10,-1,-1,-1,-1,-1],"split_conditions":[2.021E3,2.013E3,3E7,-1.4804681E5,8E6,1.72E7,1.1030747E5,-7.9793484E4,-2.409309E4,-6.7119E3,4.2815707E4],"split_indices":[0,0,2,0,2,2,0,0,0,0,0],"split_type":[0,0,0,0,0,0,0,0,0,0,0],"sum_hessian":[6.2E1,2.1E1,4.1E1,5E0,1.6E1,3.4E1,7E0,1.3E1,3E0,5E0,2.9E1],"tree_param":{"num_deleted":"0","num_feature":"3","num_nodes":"11","size_leaf_vector":"1"}},{"base_weights":[-2.5591894E5,-3.3649318E6,1.4185738E6,-1.4668473E5,-2.4876288E6,2.368358E6,4.906528E5,-7.739761E4,-1.654881E4,5.1887984E4,1.0711584E5,-2.2559771E4,4.7665695E4],"categories":[],"categories_nodes":[],"categories_segments":[],"categories_sizes":[],"default_left":[0,0,0,0,0,0,0,0,0,0,0,0,0],"id":52,"left_children":[1,3,5,-1,7,9,11,-1,-1,-1,-1,-1,-1],"loss_changes":[3.275466E14,1.7261792E13,3.4972275E13,0E0,1.4356851E12,9.182346E12,3.1217712E13,0E0,0E0,0E0,0E0,0E0,0E0],"parents":[2147483647,0,0,1,1,2,2,4,4,5,5,6,6],"right_children":[2,4,6,-1,8,10,12,-1,-1,-1,-1,-1,-1],"split_conditions":[1.6E7,6E6,8.082E4,-1.4668473E5,1.5E7,2.8E7,2.5E7,-7.739761E4,-1.654881E4,5.1887984E4,1.0711584E5,-2.2559771E4,4.7665695E4],"split_indices":[2,2,1,0,2,2,2,0,0,0,0,0,0],"split_type":[0,0,0,0,0,0,0,0,0,0,0,0,0],"sum_hessian":[6.1E1,2.1E1,4E1,6E0,1.5E1,1.9E1,2.1E1,1.4E1,1E0,1.4E1,5E0,1E1,1.1E1],"tree_param":{"num_deleted":"0","num_feature":"3","num_nodes":"13","size_leaf_vector":"1"}},{"base_weights":[-1.1642106E4,-3.3691935E6,1.4721979E6,-1.4291284E5,-2.3591035E6,2.3450302E6,3.51189E5,-7.39541E4,-1.630059E4,5.0095355E4,1.0460009E5,-2.1944496E4,4.521029E4],"categories":[],"categories_nodes":[],"categories_segments":[],"categories_sizes":[],"default_left":[0,0,0,0,0,0,0,0,0,0,0,0,0],"id":53,"left_children":[1,3,5,-1,7,9,11,-1,-1,-1,-1,-1,-1],"loss_changes":[3.0886633E14,1.5525938E13,4.1249923E13,0E0,1.1634412E12,1.2677435E13,2.612985E13,0E0,0E0,0E0,0E0,0E0,0E0],"parents":[2147483647,0,0,1,1,2,2,4,4,5,5,6,6],"right_children":[2,4,6,-1,8,10,12,-1,-1,-1,-1,-1,-1],"split_conditions":[1.6E7,6E6,8.082E4,-1.4291284E5,1.5E7,2.8E7,2.5E7,-7.39541E4,-1.630059E4,5.0095355E4,1.0460009E5,-2.1944496E4,4.521029E4],"split_indices":[2,2,1,0,2,2,2,0,0,0,0,0,0],"split_type":[0,0,0,0,0,0,0,0,0,0,0,0,0],"sum_hessian":[6E1,1.8E1,4.2E1,6E0,1.2E1,2.3E1,1.9E1,1.1E1,1E0,1.6E1,7E0,1E1,9E0],"tree_param":{"num_deleted":"0","num_feature":"3","num_nodes":"13","size_leaf_vector":"1"}},{"base_weights":[-2.3905761E5,-2.9273952E6,1.3943851E6,-1.386597E5,-2.1998972E6,1.5179E4,1.7053291E6,-7.315975E4,-2.2637055E4,5.185614E4,-1.4295616E4,4.5193652E4,7.314549E4],"categories":[],"categories_nodes":[],"categories_segments":[],"categories_sizes":[],"default_left":[0,0,0,0,0,0,0,0,0,0,0,0,0],"id":54,"left_children":[1,3,5,-1,7,9,11,-1,-1,-1,-1,-1,-1],"loss_changes":[2.6755665E14,1.8186838E13,1.6270645E13,0E0,4.3714546E12,7.5633467E12,8.4509354E11,0E0,0E0,0E0,0E0,0E0,0E0],"parents":[2147483647,0,0,1,1,2,2,4,4,5,5,6,6],"right_children":[2,4,6,-1,8,10,12,-1,-1,-1,-1,-1,-1],"split_conditions":[2.021E3,2.012E3,2.1E7,-1.386597E5,1.5E7,2.022E3,3E7,-7.315975E4,-2.2637055E4,5.185614E4,-1.4295616E4,4.5193652E4,7.314549E4],"split_indices":[0,0,2,0,2,0,2,0,0,0,0,0,0],"split_type":[0,0,0,0,0,0,0,0,0,0,0,0,0],"sum_hessian":[5.9E1,2.2E1,3.7E1,5E0,1.7E1,7E0,3E1,1.4E1,3E0,1E0,6E0,2.6E1,4E0],"tree_param":{"num_deleted":"0","num_feature":"3","num_nodes":"13","size_leaf_vector":"1"}},{"base_weights":[1.5596212E5,-2.8586702E6,1.522705E6,-3.1895908E6,-2.21277E4,1.0905374E6,9.993426E4,-1.3304217E5,-7.396003E4,5.8257E2,4.0194527E4],"categories":[],"categories_nodes":[],"categories_segments":[],"categories_sizes":[],"default_left":[0,0,0,0,0,0,0,0,0,0,0],"id":55,"left_children":[1,3,5,7,-1,9,-1,-1,-1,-1,-1],"loss_changes":[2.6392722E14,1.1685566E13,3.075538E13,4.3975935E12,0E0,9.853301E12,0E0,0E0,0E0,0E0,0E0],"parents":[2147483647,0,0,1,1,2,2,3,3,5,5],"right_children":[2,4,6,8,-1,10,-1,-1,-1,-1,-1],"split_conditions":[2.021E3,2.018E3,3E7,2.013E3,-2.21277E4,2.1E7,9.993426E4,-1.3304217E5,-7.396003E4,5.8257E2,4.0194527E4],"split_indices":[0,0,2,0,0,2,0,0,0,0,0],"split_type":[0,0,0,0,0,0,0,0,0,0,0],"sum_hessian":[6.2E1,1.9E1,4.3E1,1.6E1,3E0,3.6E1,7E0,4E0,1.2E1,7E0,2.9E1],"tree_param":{"num_deleted":"0","num_feature":"3","num_nodes":"11","size_leaf_vector":"1"}},{"base_weights":[-2.2497102E4,-2.9809218E6,1.3490289E6,-1.3218767E5,-2.1571412E6,9.202909E5,9.9000016E4,-6.732539E4,-1.53846E4,-1.0785247E4,3.7592406E4],"categories":[],"categories_nodes":[],"categories_segments":[],"categories_sizes":[],"default_left":[0,0,0,0,0,0,0,0,0,0,0],"id":56,"left_children":[1,3,5,-1,7,9,-1,-1,-1,-1,-1],"loss_changes":[2.4341717E14,1.280417E13,3.1257723E13,0E0,8.5281525E11,1.5357115E13,0E0,0E0,0E0,0E0,0E0],"parents":[2147483647,0,0,1,1,2,2,4,4,5,5],"right_children":[2,4,6,-1,8,10,-1,-1,-1,-1,-1],"split_conditions":[1.6E7,6E6,3E7,-1.3218767E5,1.5E7,1.9E7,9.9000016E4,-6.732539E4,-1.53846E4,-1.0785247E4,3.7592406E4],"split_indices":[2,2,2,0,2,2,0,0,0,0,0],"split_type":[0,0,0,0,0,0,0,0,0,0,0],"sum_hessian":[5.8E1,1.8E1,4E1,5E0,1.3E1,3.4E1,6E0,1.2E1,1E0,7E0,2.7E1],"tree_param":{"num_deleted":"0","num_feature":"3","num_nodes":"11","size_leaf_vector":"1"}},{"base_weights":[-7.178997E4,-2.781565E6,1.4881255E6,-1.2913293E5,-1.990881E6,1.0887945E6,9.6454305E4,-6.642419E4,-2.135265E4,2.57772E3,3.776221E4],"categories":[],"categories_nodes":[],"categories_segments":[],"categories_sizes":[],"default_left":[0,0,0,0,0,0,0,0,0,0,0],"id":57,"left_children":[1,3,5,-1,7,9,-1,-1,-1,-1,-1],"loss_changes":[2.6621456E14,1.9124818E13,2.4085438E13,0E0,3.2788636E12,5.686587E12,0E0,0E0,0E0,0E0,0E0],"parents":[2147483647,0,0,1,1,2,2,4,4,5,5],"right_children":[2,4,6,-1,8,10,-1,-1,-1,-1,-1],"split_conditions":[2.021E3,2.013E3,3E7,-1.2913293E5,1.5E7,2.1E7,9.6454305E4,-6.642419E4,-2.135265E4,2.57772E3,3.776221E4],"split_indices":[0,0,2,0,2,2,0,0,0,0,0],"split_type":[0,0,0,0,0,0,0,0,0,0,0],"sum_hessian":[6.1E1,2.2E1,3.9E1,6E0,1.6E1,3.3E1,6E0,1.3E1,3E0,5E0,2.8E1],"tree_param":{"num_deleted":"0","num_feature":"3","num_nodes":"11","size_leaf_vector":"1"}},{"base_weights":[2.8175508E4,-2.8005478E6,1.4763465E6,-1.2581237E5,-1.9636855E6,1.0573172E6,9.218032E4,-6.362157E4,-1.885934E4,2.5132698E3,3.6668414E4],"categories":[],"categories_nodes":[],"categories_segments":[],"categories_sizes":[],"default_left":[0,0,0,0,0,0,0,0,0,0,0],"id":58,"left_children":[1,3,5,-1,7,9,-1,-1,-1,-1,-1],"loss_changes":[2.5401957E14,1.6249036E13,2.4176488E13,0E0,1.8115157E12,5.3579507E12,0E0,0E0,0E0,0E0,0E0],"parents":[2147483647,0,0,1,1,2,2,4,4,5,5],"right_children":[2,4,6,-1,8,10,-1,-1,-1,-1,-1],"split_conditions":[2.021E3,2.013E3,3E7,-1.2581237E5,1.5E7,2.1E7,9.218032E4,-6.362157E4,-1.885934E4,2.5132698E3,3.6668414E4],"split_indices":[0,0,2,0,2,2,0,0,0,0,0],"split_type":[0,0,0,0,0,0,0,0,0,0,0],"sum_hessian":[6E1,2E1,4E1,6E0,1.4E1,3.3E1,7E0,1.2E1,2E0,5E0,2.8E1],"tree_param":{"num_deleted":"0","num_feature":"3","num_nodes":"11","size_leaf_vector":"1"}},{"base_weights":[-1.5663258E5,-2.6363082E6,1.3483456E6,-1.22577195E5,-1.8843379E6,2.0412008E6,4.6510656E5,-2.0381482E4,-6.2820457E4,9.750168E4,4.6967535E4,3.5773895E4,-1.779441E4],"categories":[],"categories_nodes":[],"categories_segments":[],"categories_sizes":[],"default_left":[0,0,0,0,0,0,0,0,0,0,0,0,0],"id":59,"left_children":[1,3,5,-1,7,9,11,-1,-1,-1,-1,-1,-1],"loss_changes":[2.2746613E14,1.7372019E13,2.2304977E13,0E0,2.872444E12,6.985739E12,1.4562404E13,0E0,0E0,0E0,0E0,0E0,0E0],"parents":[2147483647,0,0,1,1,2,2,4,4,5,5,6,6],"right_children":[2,4,6,-1,8,10,12,-1,-1,-1,-1,-1,-1],"split_conditions":[2.021E3,2.013E3,8.082E4,-1.22577195E5,1.20276E5,4.0447E4,2.022E3,-2.0381482E4,-6.2820457E4,9.750168E4,4.6967535E4,3.5773895E4,-1.779441E4],"split_indices":[0,0,1,0,1,1,0,0,0,0,0,0,0],"split_type":[0,0,0,0,0,0,0,0,0,0,0,0,0],"sum_hessian":[5.9E1,2.2E1,3.7E1,6E0,1.6E1,2E1,1.7E1,3E0,1.3E1,4E0,1.6E1,1E1,7E0],"tree_param":{"num_deleted":"0","num_feature":"3","num_nodes":"13","size_leaf_vector":"1"}},{"base_weights":[-4.8224758E4,-2.5769675E6,1.2498029E6,-1.1049493E5,-1.9626909E6,2.1159578E6,3.21158E5,-6.114244E4,-1.3608359E4,4.5919066E4,8.9529664E4,-2.2957475E4,3.838814E4],"categories":[],"categories_nodes":[],"categories_segments":[],"categories_sizes":[],"default_left":[0,0,0,0,0,0,0,0,0,0,0,0,0],"id":60,"left_children":[1,3,5,-1,7,9,11,-1,-1,-1,-1,-1,-1],"loss_changes":[1.9359864E14,6.3612996E12,3.06901E13,0E0,7.8205315E11,5.5975503E12,2.1804486E13,0E0,0E0,0E0,0E0,0E0,0E0],"parents":[2147483647,0,0,1,1,2,2,4,4,5,5,6,6],"right_children":[2,4,6,-1,8,10,12,-1,-1,-1,-1,-1,-1],"split_conditions":[1.6E7,6E6,8.082E4,-1.1049493E5,1.5E7,2.63E7,2.5E7,-6.114244E4,-1.3608359E4,4.5919066E4,8.9529664E4,-2.2957475E4,3.838814E4],"split_indices":[2,2,1,0,2,2,2,0,0,0,0,0,0],"split_type":[0,0,0,0,0,0,0,0,0,0,0,0,0],"sum_hessian":[5.7E1,1.9E1,3.8E1,5E0,1.4E1,1.9E1,1.9E1,1.3E1,1E0,1.3E1,6E0,9E0,1E1],"tree_param":{"num_deleted":"0","num_feature":"3","num_nodes":"13","size_leaf_vector":"1"}},{"base_weights":[1.0719121E4,-2.6059605E6,1.1592439E6,-1.07732555E5,-1.9508291E6,1.8566192E6,2.540398E5,-1.319502E4,-6.1202777E4,4.058778E4,8.443928E4,-2.233761E4,3.681788E4],"categories":[],"categories_nodes":[],"categories_segments":[],"categories_sizes":[],"default_left":[0,0,0,0,0,0,0,0,0,0,0,0,0],"id":61,"left_children":[1,3,5,-1,7,9,11,-1,-1,-1,-1,-1,-1],"loss_changes":[1.773296E14,4.6113604E12,2.541029E13,0E0,8.560868E11,7.2906483E12,1.9379645E13,0E0,0E0,0E0,0E0,0E0,0E0],"parents":[2147483647,0,0,1,1,2,2,4,4,5,5,6,6],"right_children":[2,4,6,-1,8,10,12,-1,-1,-1,-1,-1,-1],"split_conditions":[1.5E7,6E6,8.082E4,-1.07732555E5,1.20276E5,2.8E7,2.5E7,-1.319502E4,-6.1202777E4,4.058778E4,8.443928E4,-2.233761E4,3.681788E4],"split_indices":[2,2,1,0,1,2,2,0,0,0,0,0,0],"split_type":[0,0,0,0,0,0,0,0,0,0,0,0,0],"sum_hessian":[5.7E1,1.7E1,4E1,5E0,1.2E1,2.2E1,1.8E1,1E0,1.1E1,1.6E1,6E0,9E0,9E0],"tree_param":{"num_deleted":"0","num_feature":"3","num_nodes":"13","size_leaf_vector":"1"}},{"base_weights":[-2.5424914E4,1.2198622E6,-2.4524635E6,1.7954346E6,2.8026225E5,-5.9745363E4,-1.0311046E5,3.982428E4,8.226797E4,-1.5641373E4,3.4412277E4],"categories":[],"categories_nodes":[],"categories_segments":[],"categories_sizes":[],"default_left":[0,0,0,0,0,0,0,0,0,0,0],"id":62,"left_children":[1,3,5,7,9,-1,-1,-1,-1,-1,-1],"loss_changes":[1.7828854E14,2.0588303E13,2.2317556E12,6.993574E12,1.1716042E13,0E0,0E0,0E0,0E0,0E0,0E0],"parents":[2147483647,0,0,1,1,2,2,3,3,4,4],"right_children":[2,4,6,8,10,-1,-1,-1,-1,-1,-1],"split_conditions":[1.22344E5,8.082E4,1.87193E5,2.8E7,2.5E7,-5.9745363E4,-1.0311046E5,3.982428E4,8.226797E4,-1.5641373E4,3.4412277E4],"split_indices":[1,1,1,2,2,0,0,0,0,0,0],"split_type":[0,0,0,0,0,0,0,0,0,0,0],"sum_hessian":[5.7E1,3.8E1,1.9E1,2.3E1,1.5E1,1.5E1,4E0,1.7E1,6E0,8E0,7E0],"tree_param":{"num_deleted":"0","num_feature":"3","num_nodes":"11","size_leaf_vector":"1"}},{"base_weights":[-8.9229586E4,-2.54686E6,1.1733818E6,-1.11960664E5,-1.7723605E6,8.4317094E5,8.547037E4,-5.538811E4,-1.21729795E4,-8.8722E3,3.293356E4],"categories":[],"categories_nodes":[],"categories_segments":[],"categories_sizes":[],"default_left":[0,0,0,0,0,0,0,0,0,0,0],"id":63,"left_children":[1,3,5,-1,7,9,-1,-1,-1,-1,-1],"loss_changes":[1.829643E14,1.1743657E13,1.9176937E13,0E0,6.6490624E11,1.0184087E13,0E0,0E0,0E0,0E0,0E0],"parents":[2147483647,0,0,1,1,2,2,4,4,5,5],"right_children":[2,4,6,-1,8,10,-1,-1,-1,-1,-1],"split_conditions":[1.6E7,6E6,3E7,-1.11960664E5,1.5E7,1.9E7,8.547037E4,-5.538811E4,-1.21729795E4,-8.8722E3,3.293356E4],"split_indices":[2,2,2,0,2,2,0,0,0,0,0],"split_type":[0,0,0,0,0,0,0,0,0,0,0],"sum_hessian":[5.7E1,1.9E1,3.8E1,6E0,1.3E1,3.3E1,5E0,1.2E1,1E0,6E0,2.7E1],"tree_param":{"num_deleted":"0","num_feature":"3","num_nodes":"11","size_leaf_vector":"1"}},{"base_weights":[-2.0691856E5,-2.3152885E6,1.0958454E6,-1.0908168E5,-1.6730295E6,4.459412E4,5.5753425E5,-2.4368855E4,-5.8247906E4,3.204843E4,-1.1930383E4],"categories":[],"categories_nodes":[],"categories_segments":[],"categories_sizes":[],"default_left":[0,0,0,0,0,0,0,0,0,0,0],"id":64,"left_children":[1,3,5,-1,7,-1,9,-1,-1,-1,-1],"loss_changes":[1.7283312E14,1.4275372E13,7.372085E12,0E0,2.5838255E12,0E0,9.206535E12,0E0,0E0,0E0,0E0],"parents":[2147483647,0,0,1,1,2,2,4,4,6,6],"right_children":[2,4,6,-1,8,-1,10,-1,-1,-1,-1],"split_conditions":[2.021E3,2.013E3,8.082E4,-1.0908168E5,1.32211E5,4.459412E4,2.022E3,-2.4368855E4,-5.8247906E4,3.204843E4,-1.1930383E4],"split_indices":[0,0,1,0,1,0,0,0,0,0,0],"split_type":[0,0,0,0,0,0,0,0,0,0,0],"sum_hessian":[6.1E1,2.3E1,3.8E1,6E0,1.7E1,2.1E1,1.7E1,5E0,1.2E1,1.1E1,6E0],"tree_param":{"num_deleted":"0","num_feature":"3","num_nodes":"11","size_leaf_vector":"1"}},{"base_weights":[-2.0736823E5,-2.2538172E6,1.090583E6,-1.0627672E5,-1.6274285E6,1.2310645E6,-9.587233E5,-2.3759645E4,-5.6634883E4,4.598075E4,2.119821E4,-5.43744E3,-3.770511E4],"categories":[],"categories_nodes":[],"categories_segments":[],"categories_sizes":[],"default_left":[0,0,0,0,0,0,0,0,0,0,0,0,0],"id":65,"left_children":[1,3,5,-1,7,9,11,-1,-1,-1,-1,-1,-1],"loss_changes":[1.6448562E14,1.3608797E13,1.2120062E13,0E0,2.420751E12,4.611851E12,4.6752884E11,0E0,0E0,0E0,0E0,0E0,0E0],"parents":[2147483647,0,0,1,1,2,2,4,4,5,5,6,6],"right_children":[2,4,6,-1,8,10,12,-1,-1,-1,-1,-1,-1],"split_conditions":[2.021E3,2.013E3,1.18461E5,-1.0627672E5,1.32211E5,8.082E4,2.022E3,-2.3759645E4,-5.6634883E4,4.598075E4,2.119821E4,-5.43744E3,-3.770511E4],"split_indices":[0,0,1,0,1,1,0,0,0,0,0,0,0],"split_type":[0,0,0,0,0,0,0,0,0,0,0,0,0],"sum_hessian":[6E1,2.3E1,3.7E1,6E0,1.7E1,3.5E1,2E0,5E0,1.2E1,2.1E1,1.4E1,1E0,1E0],"tree_param":{"num_deleted":"0","num_feature":"3","num_nodes":"13","size_leaf_vector":"1"}},{"base_weights":[4.2039613E4,-2.2334752E6,1.04002075E6,-9.4993195E4,-1.6310704E6,1.6422881E6,1.7921878E5,-1.1209725E4,-5.1141496E4,3.5196543E4,7.8415664E4,-1.9236719E4,3.2127258E4],"categories":[],"categories_nodes":[],"categories_segments":[],"categories_sizes":[],"default_left":[0,0,0,0,0,0,0,0,0,0,0,0,0],"id":66,"left_children":[1,3,5,-1,7,9,11,-1,-1,-1,-1,-1,-1],"loss_changes":[1.3403628E14,4.9517114E12,2.096142E13,0E0,5.668707E11,7.870972E12,1.3855141E13,0E0,0E0,0E0,0E0,0E0,0E0],"parents":[2147483647,0,0,1,1,2,2,4,4,5,5,6,6],"right_children":[2,4,6,-1,8,10,12,-1,-1,-1,-1,-1,-1],"split_conditions":[1.6E7,6E6,8.082E4,-9.4993195E4,1.20276E5,2.8E7,2.5E7,-1.1209725E4,-5.1141496E4,3.5196543E4,7.8415664E4,-1.9236719E4,3.2127258E4],"split_indices":[2,2,1,0,1,2,2,0,0,0,0,0,0],"split_type":[0,0,0,0,0,0,0,0,0,0,0,0,0],"sum_hessian":[5.7E1,1.7E1,4E1,5E0,1.2E1,2.3E1,1.7E1,1E0,1.1E1,1.7E1,6E0,9E0,8E0],"tree_param":{"num_deleted":"0","num_feature":"3","num_nodes":"13","size_leaf_vector":"1"}},{"base_weights":[-4.470447E4,-1.7414214E6,1.286363E6,-2.5249485E6,-7.2157456E5,9.2550225E5,7.436386E4,-1.0023818E5,-5.55042E4,-2.766786E4,-1.16740625E4,2.956969E4,1.6669199E3],"categories":[],"categories_nodes":[],"categories_segments":[],"categories_sizes":[],"default_left":[0,0,0,0,0,0,0,0,0,0,0,0,0],"id":67,"left_children":[1,3,5,7,9,11,-1,-1,-1,-1,-1,-1,-1],"loss_changes":[1.49039E14,2.1351314E13,1.3627038E13,2.631976E12,5.7514394E11,1.5151441E12,0E0,0E0,0E0,0E0,0E0,0E0,0E0],"parents":[2147483647,0,0,1,1,2,2,3,3,4,4,5,5],"right_children":[2,4,6,8,10,12,-1,-1,-1,-1,-1,-1,-1],"split_conditions":[2.1E7,2.015E3,3E7,2.013E3,2.021E3,2.69E7,7.436386E4,-1.0023818E5,-5.55042E4,-2.766786E4,-1.16740625E4,2.956969E4,1.6669199E3],"split_indices":[2,0,2,0,0,2,0,0,0,0,0,0,0],"split_type":[0,0,0,0,0,0,0,0,0,0,0,0,0],"sum_hessian":[6.4E1,2.8E1,3.6E1,1.5E1,1.3E1,2.9E1,7E0,5E0,1E1,7E0,6E0,2.7E1,2E0],"tree_param":{"num_deleted":"0","num_feature":"3","num_nodes":"13","size_leaf_vector":"1"}},{"base_weights":[-5.0275707E4,-1.6968222E6,1.2317681E6,-2.434626E6,-6.582313E5,1.3881572E6,-9.512313E5,-9.927924E4,-5.208591E4,-6.8584575E3,-3.3640426E4,9.661012E4,3.5190312E4,-5.51088E3,-3.7294527E4],"categories":[],"categories_nodes":[],"categories_segments":[],"categories_sizes":[],"default_left":[0,0,0,0,0,0,0,0,0,0,0,0,0,0,0],"id":68,"left_children":[1,3,5,7,9,11,13,-1,-1,-1,-1,-1,-1,-1,-1],"loss_changes":[1.35079616E14,1.9853193E13,1.3610768E13,4.0288387E12,2.3301508E12,9.624887E12,4.4381425E11,0E0,0E0,0E0,0E0,0E0,0E0,0E0,0E0],"parents":[2147483647,0,0,1,1,2,2,3,3,4,4,5,5,6,6],"right_children":[2,4,6,8,10,12,14,-1,-1,-1,-1,-1,-1,-1,-1],"split_conditions":[2.1E7,7E6,1.18461E5,6E6,1.01555E5,2.6327E4,1.22344E5,-9.927924E4,-5.208591E4,-6.8584575E3,-3.3640426E4,9.661012E4,3.5190312E4,-5.51088E3,-3.7294527E4],"split_indices":[2,2,1,2,1,1,1,0,0,0,0,0,0,0,0],"split_type":[0,0,0,0,0,0,0,0,0,0,0,0,0,0,0],"sum_hessian":[6.2E1,2.7E1,3.5E1,1.5E1,1.2E1,3.3E1,2E0,5E0,1E1,7E0,5E0,2E0,3.1E1,1E0,1E0],"tree_param":{"num_deleted":"0","num_feature":"3","num_nodes":"15","size_leaf_vector":"1"}},{"base_weights":[-1.6319825E5,-2.1360622E6,8.7663525E5,-9.597079E4,-1.4976081E6,3.8990875E5,1.2571429E6,-4.8673715E4,-1.372176E4,1.8033805E4,-2.8108898E4,2.9438242E4,5.1243207E4],"categories":[],"categories_nodes":[],"categories_segments":[],"categories_sizes":[],"default_left":[0,0,0,0,0,0,0,0,0,0,0,0,0],"id":69,"left_children":[1,3,5,-1,7,9,11,-1,-1,-1,-1,-1,-1],"loss_changes":[1.2495955E14,9.460831E12,6.917957E12,0E0,1.2059526E12,5.888161E12,1.06082546E12,0E0,0E0,0E0,0E0,0E0,0E0],"parents":[2147483647,0,0,1,1,2,2,4,4,5,5,6,6],"right_children":[2,4,6,-1,8,10,12,-1,-1,-1,-1,-1,-1],"split_conditions":[2.02E3,2.013E3,2.5E7,-9.597079E4,1.5E7,2.14E7,3E7,-4.8673715E4,-1.372176E4,1.8033805E4,-2.8108898E4,2.9438242E4,5.1243207E4],"split_indices":[0,0,2,0,2,2,2,0,0,0,0,0,0],"split_type":[0,0,0,0,0,0,0,0,0,0,0,0,0],"sum_hessian":[5.9E1,2E1,3.9E1,6E0,1.4E1,1.8E1,2.1E1,1.2E1,2E0,1.6E1,2E0,1.5E1,6E0],"tree_param":{"num_deleted":"0","num_feature":"3","num_nodes":"13","size_leaf_vector":"1"}},{"base_weights":[-1.2913883E5,-2.0379525E6,1.0093217E6,-9.350296E4,-1.4385998E6,1.9767701E6,5.777937E5,-2.0694385E4,-4.892133E4,9.365304E4,4.1263895E4,3.613401E4,4.149339E3],"categories":[],"categories_nodes":[],"categories_segments":[],"categories_sizes":[],"default_left":[0,0,0,0,0,0,0,0,0,0,0,0,0],"id":70,"left_children":[1,3,5,-1,7,9,11,-1,-1,-1,-1,-1,-1],"loss_changes":[1.28097265E14,9.741187E12,1.430464E13,0E0,1.1767204E12,3.2795682E12,7.269532E12,0E0,0E0,0E0,0E0,0E0,0E0],"parents":[2147483647,0,0,1,1,2,2,4,4,5,5,6,6],"right_children":[2,4,6,-1,8,10,12,-1,-1,-1,-1,-1,-1],"split_conditions":[2.021E3,2.013E3,5.798E4,-9.350296E4,1.32211E5,2.6327E4,2.022E3,-2.0694385E4,-4.892133E4,9.365304E4,4.1263895E4,3.613401E4,4.149339E3],"split_indices":[0,0,1,0,1,1,0,0,0,0,0,0,0],"split_type":[0,0,0,0,0,0,0,0,0,0,0,0,0],"sum_hessian":[5.7E1,2.1E1,3.6E1,6E0,1.5E1,1E1,2.6E1,4E0,1.1E1,2E0,8E0,1E1,1.6E1],"tree_param":{"num_deleted":"0","num_feature":"3","num_nodes":"13","size_leaf_vector":"1"}},{"base_weights":[-4.8179883E4,-1.9262914E6,1.0898396E6,-9.10986E4,-1.355786E6,7.4921275E5,2.273539E6,-4.5233348E4,-1.4545995E4,1.6250056E3,2.7415713E4,4.505156E4,9.177999E4],"categories":[],"categories_nodes":[],"categories_segments":[],"categories_sizes":[],"default_left":[0,0,0,0,0,0,0,0,0,0,0,0,0],"id":71,"left_children":[1,3,5,-1,7,9,11,-1,-1,-1,-1,-1,-1],"loss_changes":[1.3033901E14,1.0452315E13,1.3618226E13,0E0,1.5192692E12,3.497995E12,2.5767707E11,0E0,0E0,0E0,0E0,0E0,0E0],"parents":[2147483647,0,0,1,1,2,2,4,4,5,5,6,6],"right_children":[2,4,6,-1,8,10,12,-1,-1,-1,-1,-1,-1],"split_conditions":[2.021E3,2.013E3,3E7,-9.10986E4,1.5E7,2.1E7,2.024E3,-4.5233348E4,-1.4545995E4,1.6250056E3,2.7415713E4,4.505156E4,9.177999E4],"split_indices":[0,0,2,0,2,2,0,0,0,0,0,0,0],"split_type":[0,0,0,0,0,0,0,0,0,0,0,0,0],"sum_hessian":[5.9E1,2.2E1,3.7E1,6E0,1.6E1,3E1,7E0,1.3E1,3E0,6E0,2.4E1,5E0,2E0],"tree_param":{"num_deleted":"0","num_feature":"3","num_nodes":"13","size_leaf_vector":"1"}},{"base_weights":[1.9852084E4,-1.9773128E6,9.448833E5,-8.875606E4,-1.2968611E6,1.8759004E6,5.409804E5,-1.421871E4,-4.4890098E4,8.99444E4,4.054909E4,2.0442002E4,-2.8497898E4],"categories":[],"categories_nodes":[],"categories_segments":[],"categories_sizes":[],"default_left":[0,0,0,0,0,0,0,0,0,0,0,0,0],"id":72,"left_children":[1,3,5,-1,7,9,11,-1,-1,-1,-1,-1,-1],"loss_changes":[1.1086728E14,8.849008E12,1.4402833E13,0E0,1.42474E12,3.0078403E12,6.9278777E12,0E0,0E0,0E0,0E0,0E0,0E0],"parents":[2147483647,0,0,1,1,2,2,4,4,5,5,6,6],"right_children":[2,4,6,-1,8,10,12,-1,-1,-1,-1,-1,-1],"split_conditions":[2.021E3,2.013E3,5.798E4,-8.875606E4,1.32211E5,2.6327E4,1.18461E5,-1.421871E4,-4.4890098E4,8.99444E4,4.054909E4,2.0442002E4,-2.8497898E4],"split_indices":[0,0,1,0,1,1,1,0,0,0,0,0,0],"split_type":[0,0,0,0,0,0,0,0,0,0,0,0,0],"sum_hessian":[5.8E1,1.8E1,4E1,6E0,1.2E1,1.1E1,2.9E1,3E0,9E0,2E0,9E0,2.7E1,2E0],"tree_param":{"num_deleted":"0","num_feature":"3","num_nodes":"13","size_leaf_vector":"1"}},{"base_weights":[4.654405E4,-1.6543461E6,9.4052456E5,-5.879936E4,-2.4202375E4,1.968141E6,5.537422E5,8.8145516E4,4.0750715E4,1.980267E4,-3.635952E4],"categories":[],"categories_nodes":[],"categories_segments":[],"categories_sizes":[],"default_left":[0,0,0,0,0,0,0,0,0,0,0],"id":73,"left_children":[1,3,5,-1,-1,7,9,-1,-1,-1,-1],"loss_changes":[8.822803E13,3.599883E12,1.4013788E13,0E0,0E0,1.9240615E12,6.2456165E12,0E0,0E0,0E0,0E0],"parents":[2147483647,0,0,1,1,2,2,5,5,6,6],"right_children":[2,4,6,-1,-1,8,10,-1,-1,-1,-1],"split_conditions":[2.021E3,2.015E3,5.798E4,-5.879936E4,-2.4202375E4,2.6327E4,1.18461E5,8.8145516E4,4.0750715E4,1.980267E4,-3.635952E4],"split_indices":[0,0,1,0,0,1,1,0,0,0,0],"split_type":[0,0,0,0,0,0,0,0,0,0,0],"sum_hessian":[5.6E1,1.9E1,3.7E1,1.3E1,6E0,9E0,2.8E1,2E0,7E0,2.7E1,1E0],"tree_param":{"num_deleted":"0","num_feature":"3","num_nodes":"11","size_leaf_vector":"1"}},{"base_weights":[-1.2072132E5,-1.9325268E6,6.170571E5,-8.023907E4,-1.2940088E6,3.4373633E4,-1.485135E5,-7.826625E3,-4.1394375E4,-1.9468564E4,2.3811291E4],"categories":[],"categories_nodes":[],"categories_segments":[],"categories_sizes":[],"default_left":[0,0,0,0,0,0,0,0,0,0,0],"id":74,"left_children":[1,3,5,-1,7,-1,9,-1,-1,-1,-1],"loss_changes":[6.9364737E13,3.6467502E12,1.5147046E13,0E0,5.2648057E11,0E0,8.0594783E12,0E0,0E0,0E0,0E0],"parents":[2147483647,0,0,1,1,2,2,4,4,6,6],"right_children":[2,4,6,-1,8,-1,10,-1,-1,-1,-1],"split_conditions":[8E6,6E6,8.082E4,-8.023907E4,1.20276E5,3.4373633E4,2.47E7,-7.826625E3,-4.1394375E4,-1.9468564E4,2.3811291E4],"split_indices":[2,2,1,0,1,0,2,0,0,0,0],"split_type":[0,0,0,0,0,0,0,0,0,0,0],"sum_hessian":[5E1,1.4E1,3.6E1,5E0,9E0,2.1E1,1.5E1,1E0,8E0,1E1,5E0],"tree_param":{"num_deleted":"0","num_feature":"3","num_nodes":"11","size_leaf_vector":"1"}},{"base_weights":[-1.17929805E5,-1.8387219E6,8.314541E5,-8.289849E4,-1.3193062E6,9.80214E4,6.852155E5,-1.093186E4,-4.2890816E4,2.3876611E4,-2.724418E4],"categories":[],"categories_nodes":[],"categories_segments":[],"categories_sizes":[],"default_left":[0,0,0,0,0,0,0,0,0,0,0],"id":75,"left_children":[1,3,5,-1,7,-1,9,-1,-1,-1,-1],"loss_changes":[1.0118404E14,6.919469E12,1.2010199E13,0E0,1.1655929E12,0E0,7.600001E12,0E0,0E0,0E0,0E0],"parents":[2147483647,0,0,1,1,2,2,4,4,6,6],"right_children":[2,4,6,-1,8,-1,10,-1,-1,-1,-1],"split_conditions":[2.02E3,2.013E3,2.6327E4,-8.289849E4,1.20276E5,9.80214E4,1.18461E5,-1.093186E4,-4.2890816E4,2.3876611E4,-2.724418E4],"split_indices":[0,0,1,0,1,0,1,0,0,0,0],"split_type":[0,0,0,0,0,0,0,0,0,0,0],"sum_hessian":[6E1,2.1E1,3.9E1,6E0,1.5E1,1E0,3.8E1,2E0,1.3E1,3.6E1,2E0],"tree_param":{"num_deleted":"0","num_feature":"3","num_nodes":"11","size_leaf_vector":"1"}},{"base_weights":[-1.00358945E5,-1.6905666E6,9.4750206E5,-8.076681E4,-1.178673E6,8.37348E4,7.511846E5,-1.229721E4,-3.9423883E4,2.5434363E4,-3.5113438E4],"categories":[],"categories_nodes":[],"categories_segments":[],"categories_sizes":[],"default_left":[0,0,0,0,0,0,0,0,0,0,0],"id":76,"left_children":[1,3,5,-1,7,-1,9,-1,-1,-1,-1],"loss_changes":[9.658186E13,8.6198484E12,1.0571305E13,0E0,1.2316133E12,0E0,7.1198457E12,0E0,0E0,0E0,0E0],"parents":[2147483647,0,0,1,1,2,2,4,4,6,6],"right_children":[2,4,6,-1,8,-1,10,-1,-1,-1,-1],"split_conditions":[2.021E3,2.013E3,2.6327E4,-8.076681E4,1.20276E5,8.37348E4,1.18461E5,-1.229721E4,-3.9423883E4,2.5434363E4,-3.5113438E4],"split_indices":[0,0,1,0,1,0,1,0,0,0,0],"split_type":[0,0,0,0,0,0,0,0,0,0,0],"sum_hessian":[5.6E1,2.2E1,3.4E1,6E0,1.6E1,2E0,3.2E1,3E0,1.3E1,3.1E1,1E0],"tree_param":{"num_deleted":"0","num_feature":"3","num_nodes":"11","size_leaf_vector":"1"}},{"base_weights":[-6.1685918E4,8.027654E5,-1.7876511E6,1.3120842E6,1.1716448E5,-7.8961266E4,-4.0778285E4,8.206008E4,3.1750928E4,-1.3761831E4,2.4240432E4],"categories":[],"categories_nodes":[],"categories_segments":[],"categories_sizes":[],"default_left":[0,0,0,0,0,0,0,0,0,0,0],"id":77,"left_children":[1,3,5,7,9,-1,-1,-1,-1,-1,-1],"loss_changes":[9.393987E13,1.4512231E13,4.0183571E12,5.771593E12,7.9299053E12,0E0,0E0,0E0,0E0,0E0,0E0],"parents":[2147483647,0,0,1,1,2,2,3,3,4,4],"right_children":[2,4,6,8,10,-1,-1,-1,-1,-1,-1],"split_conditions":[1.22344E5,8.082E4,6E6,2.6327E4,2.5E7,-7.8961266E4,-4.0778285E4,8.206008E4,3.1750928E4,-1.3761831E4,2.4240432E4],"split_indices":[1,1,2,1,2,0,0,0,0,0,0],"split_type":[0,0,0,0,0,0,0,0,0,0,0],"sum_hessian":[6.1E1,4.1E1,2E1,2.3E1,1.8E1,5E0,1.5E1,2E0,2.1E1,1E1,8E0],"tree_param":{"num_deleted":"0","num_feature":"3","num_nodes":"11","size_leaf_vector":"1"}},{"base_weights":[-9.988354E4,-1.4449056E6,9.7116E5,-7.734961E4,-9.9829575E5,6.3615456E5,1.9804082E6,-5.7928115E3,-3.922511E4,2.3665604E4,-2.545162E4,8.0418875E4,3.9006887E4],"categories":[],"categories_nodes":[],"categories_segments":[],"categories_sizes":[],"default_left":[0,0,0,0,0,0,0,0,0,0,0,0,0],"id":78,"left_children":[1,3,5,-1,7,9,11,-1,-1,-1,-1,-1,-1],"loss_changes":[8.783787E13,1.1093313E13,1.0235677E13,0E0,4.9760006E12,6.789823E12,3.2476706E11,0E0,0E0,0E0,0E0,0E0,0E0],"parents":[2147483647,0,0,1,1,2,2,4,4,5,5,6,6],"right_children":[2,4,6,-1,8,10,12,-1,-1,-1,-1,-1,-1],"split_conditions":[2.1E7,6E6,3E7,-7.734961E4,1.01555E5,1.18461E5,2.6327E4,-5.7928115E3,-3.922511E4,2.3665604E4,-2.545162E4,8.0418875E4,3.9006887E4],"split_indices":[2,2,2,0,1,1,1,0,0,0,0,0,0],"split_type":[0,0,0,0,0,0,0,0,0,0,0,0,0],"sum_hessian":[5.9E1,2.6E1,3.3E1,6E0,2E1,2.6E1,7E0,6E0,1.4E1,2.4E1,2E0,2E0,5E0],"tree_param":{"num_deleted":"0","num_feature":"3","num_nodes":"13","size_leaf_vector":"1"}},{"base_weights":[-4.316254E4,-1.7108312E6,7.5375125E5,-7.536062E4,-1.2228875E6,4.7777466E5,1.935924E6,-6.56598E3,-3.8369098E4,1.7290217E4,-2.4942578E4,7.881048E4,3.803172E4],"categories":[],"categories_nodes":[],"categories_segments":[],"categories_sizes":[],"default_left":[0,0,0,0,0,0,0,0,0,0,0,0,0],"id":79,"left_children":[1,3,5,-1,7,9,11,-1,-1,-1,-1,-1,-1],"loss_changes":[8.634478E13,5.137729E12,1.3430151E13,0E0,5.646959E11,5.2537307E12,3.639712E11,0E0,0E0,0E0,0E0,0E0,0E0],"parents":[2147483647,0,0,1,1,2,2,4,4,5,5,6,6],"right_children":[2,4,6,-1,8,10,12,-1,-1,-1,-1,-1,-1],"split_conditions":[1.5E7,6E6,3E7,-7.536062E4,1.20276E5,1.18461E5,2.6327E4,-6.56598E3,-3.8369098E4,1.7290217E4,-2.4942578E4,7.881048E4,3.803172E4],"split_indices":[2,2,2,0,1,1,1,0,0,0,0,0,0],"split_type":[0,0,0,0,0,0,0,0,0,0,0,0,0],"sum_hessian":[6.3E1,2E1,4.3E1,6E0,1.4E1,3.6E1,7E0,1E0,1.3E1,3.4E1,2E0,2E0,5E0],"tree_param":{"num_deleted":"0","num_feature":"3","num_nodes":"13","size_leaf_vector":"1"}},{"base_weights":[-1.8764533E4,-1.7269382E6,7.950983E5,-7.342278E4,-3.7300246E4,5.2155772E5,1.892451E6,1.8817176E4,-2.4443738E4,7.723424E4,3.7080918E4],"categories":[],"categories_nodes":[],"categories_segments":[],"categories_sizes":[],"default_left":[0,0,0,0,0,0,0,0,0,0,0],"id":80,"left_children":[1,3,5,-1,-1,7,9,-1,-1,-1,-1],"loss_changes":[8.6176455E13,3.9255204E12,1.1620135E13,0E0,0E0,5.4540286E12,3.9942567E11,0E0,0E0,0E0,0E0],"parents":[2147483647,0,0,1,1,2,2,5,5,6,6],"right_children":[2,4,6,-1,-1,8,10,-1,-1,-1,-1],"split_conditions":[1.5E7,6E6,3E7,-7.342278E4,-3.7300246E4,1.18461E5,2.6327E4,1.8817176E4,-2.4443738E4,7.723424E4,3.7080918E4],"split_indices":[2,2,2,0,0,1,1,0,0,0,0],"split_type":[0,0,0,0,0,0,0,0,0,0,0],"sum_hessian":[6E1,1.9E1,4.1E1,6E0,1.3E1,3.4E1,7E0,3.2E1,2E0,2E0,5E0],"tree_param":{"num_deleted":"0","num_feature":"3","num_nodes":"11","size_leaf_vector":"1"}},{"base_weights":[-1.452613E5,-1.5389795E6,5.063579E5,-6.73192E4,-1.1543832E6,2.8104873E4,9.130339E4,-5.9079897E3,-3.6261176E4,-1.78087E4,2.3058645E4],"categories":[],"categories_nodes":[],"categories_segments":[],"categories_sizes":[],"default_left":[0,0,0,0,0,0,0,0,0,0,0],"id":81,"left_children":[1,3,5,-1,7,-1,9,-1,-1,-1,-1],"loss_changes":[5.708603E13,2.832359E12,7.597232E12,0E0,5.4213476E11,0E0,1.1126277E13,0E0,0E0,0E0,0E0],"parents":[2147483647,0,0,1,1,2,2,4,4,6,6],"right_children":[2,4,6,-1,8,-1,10,-1,-1,-1,-1],"split_conditions":[1.5E7,6E6,8.082E4,-6.73192E4,1.20276E5,2.8104873E4,2.5E7,-5.9079897E3,-3.6261176E4,-1.78087E4,2.3058645E4],"split_indices":[2,2,1,0,1,0,2,0,0,0,0],"split_type":[0,0,0,0,0,0,0,0,0,0,0],"sum_hessian":[6.1E1,1.9E1,4.2E1,5E0,1.4E1,2E1,2.2E1,1E0,1.3E1,1.1E1,1.1E1],"tree_param":{"num_deleted":"0","num_feature":"3","num_nodes":"11","size_leaf_vector":"1"}},{"base_weights":[5.032673E3,-1.3738548E6,7.7094144E5,-1.6705801E6,-5.841391E5,1.2682005E6,7.0105125E4,-6.2324402E4,-3.64108E4,-1.869576E4,-5.24733E3,7.512744E4,3.018863E4,1.9241473E4,-1.744035E4],"categories":[],"categories_nodes":[],"categories_segments":[],"categories_sizes":[],"default_left":[0,0,0,0,0,0,0,0,0,0,0,0,0,0,0],"id":82,"left_children":[1,3,5,7,9,11,13,-1,-1,-1,-1,-1,-1,-1,-1],"loss_changes":[5.914477E13,3.7107217E12,1.2456991E13,8.127722E10,2.8675932E9,4.2784795E12,6.3274033E12,0E0,0E0,0E0,0E0,0E0,0E0,0E0,0E0],"parents":[2147483647,0,0,1,1,2,2,3,3,4,4,5,5,6,6],"right_children":[2,4,6,8,10,12,14,-1,-1,-1,-1,-1,-1,-1,-1],"split_conditions":[2.021E3,2.015E3,8.082E4,2.013E3,2.02E3,2.6327E4,2.022E3,-6.2324402E4,-3.64108E4,-1.869576E4,-5.24733E3,7.512744E4,3.018863E4,1.9241473E4,-1.744035E4],"split_indices":[0,0,1,0,0,1,0,0,0,0,0,0,0,0,0],"split_type":[0,0,0,0,0,0,0,0,0,0,0,0,0,0,0],"sum_hessian":[5.4E1,1.9E1,3.5E1,1.3E1,6E0,2E1,1.5E1,5E0,8E0,5E0,1E0,2E0,1.8E1,8E0,7E0],"tree_param":{"num_deleted":"0","num_feature":"3","num_nodes":"15","size_leaf_vector":"1"}},{"base_weights":[-2.2987309E4,6.812038E5,-1.5308736E6,2.4541628E6,5.4166706E5,-6.809281E4,-1.1581115E6,2.146866E4,8.896866E4,2.6111902E4,5.6494854E3,-3.569362E4,-1.0244595E4],"categories":[],"categories_nodes":[],"categories_segments":[],"categories_sizes":[],"default_left":[0,0,0,0,0,0,0,0,0,0,0,0,0],"id":83,"left_children":[1,3,5,7,9,-1,11,-1,-1,-1,-1,-1,-1],"loss_changes":[7.0062447E13,9.803343E12,3.155375E12,5.4531405E11,4.830837E12,0E0,7.5812045E9,0E0,0E0,0E0,0E0,0E0,0E0],"parents":[2147483647,0,0,1,1,2,2,3,3,4,4,6,6],"right_children":[2,4,6,8,10,-1,12,-1,-1,-1,-1,-1,-1],"split_conditions":[1.22344E5,2.6327E4,2.012E3,1.8861E4,8.082E4,-6.809281E4,1.8541E5,2.146866E4,8.896866E4,2.6111902E4,5.6494854E3,-3.569362E4,-1.0244595E4],"split_indices":[1,1,0,1,1,0,1,0,0,0,0,0,0],"split_type":[0,0,0,0,0,0,0,0,0,0,0,0,0],"sum_hessian":[6.4E1,4.4E1,2E1,2E0,4.2E1,5E0,1.5E1,1E0,1E0,2.1E1,2.1E1,1.4E1,1E0],"tree_param":{"num_deleted":"0","num_feature":"3","num_nodes":"13","size_leaf_vector":"1"}},{"base_weights":[-4.2054047E4,-1.4668055E6,7.052456E5,-6.683394E4,-1.04219594E6,1.1757852E6,7.376158E4,-1.0834159E4,-3.341083E4,7.252052E4,2.8591082E4,1.6611697E4,-1.563162E4],"categories":[],"categories_nodes":[],"categories_segments":[],"categories_sizes":[],"default_left":[0,0,0,0,0,0,0,0,0,0,0,0,0],"id":84,"left_children":[1,3,5,-1,7,9,11,-1,-1,-1,-1,-1,-1],"loss_changes":[6.8111584E13,4.7869424E12,1.239308E13,0E0,3.769138E11,4.3335633E12,5.712805E12,0E0,0E0,0E0,0E0,0E0,0E0],"parents":[2147483647,0,0,1,1,2,2,4,4,5,5,6,6],"right_children":[2,4,6,-1,8,10,12,-1,-1,-1,-1,-1,-1],"split_conditions":[2.02E3,2.013E3,8.082E4,-6.683394E4,9.4944E4,2.6327E4,2.022E3,-1.0834159E4,-3.341083E4,7.252052E4,2.8591082E4,1.6611697E4,-1.563162E4],"split_indices":[0,0,1,0,1,1,0,0,0,0,0,0,0],"split_type":[0,0,0,0,0,0,0,0,0,0,0,0,0],"sum_hessian":[6.2E1,2.1E1,4.1E1,6E0,1.5E1,2.3E1,1.8E1,2E0,1.3E1,2E0,2.1E1,1E1,8E0],"tree_param":{"num_deleted":"0","num_feature":"3","num_nodes":"13","size_leaf_vector":"1"}},{"base_weights":[-1.08351984E5,-1.490328E6,5.8548744E5,-6.511535E4,-1.0094347E6,7.1161775E5,-6.64525E5,-8.72374E3,-3.3409844E4,2.826323E4,1.024472E4,-5.54508E3,-3.1553879E4],"categories":[],"categories_nodes":[],"categories_segments":[],"categories_sizes":[],"default_left":[0,0,0,0,0,0,0,0,0,0,0,0,0],"id":85,"left_children":[1,3,5,-1,7,9,11,-1,-1,-1,-1,-1,-1],"loss_changes":[5.456926E13,4.0238265E12,6.464141E12,0E0,6.498833E11,2.6641485E12,5.4866883E11,0E0,0E0,0E0,0E0,0E0,0E0],"parents":[2147483647,0,0,1,1,2,2,4,4,5,5,6,6],"right_children":[2,4,6,-1,8,10,12,-1,-1,-1,-1,-1,-1],"split_conditions":[2.02E3,2.013E3,1.18461E5,-6.511535E4,1.20276E5,8.082E4,2.022E3,-8.72374E3,-3.3409844E4,2.826323E4,1.024472E4,-5.54508E3,-3.1553879E4],"split_indices":[0,0,1,0,1,1,0,0,0,0,0,0,0],"split_type":[0,0,0,0,0,0,0,0,0,0,0,0,0],"sum_hessian":[5.5E1,1.8E1,3.7E1,6E0,1.2E1,3.4E1,3E0,2E0,1E1,2E1,1.4E1,2E0,1E0],"tree_param":{"num_deleted":"0","num_feature":"3","num_nodes":"13","size_leaf_vector":"1"}},{"base_weights":[-3.3845246E4,-1.3647794E6,6.32391E5,-6.3440953E4,-9.51391E5,1.392934E6,3.3666653E5,-1.0328069E4,-3.1950416E4,7.0504836E4,2.899417E4,1.3725449E4,-1.9615904E4],"categories":[],"categories_nodes":[],"categories_segments":[],"categories_sizes":[],"default_left":[0,0,0,0,0,0,0,0,0,0,0,0,0],"id":86,"left_children":[1,3,5,-1,7,9,11,-1,-1,-1,-1,-1,-1],"loss_changes":[5.849965E13,4.808266E12,9.427134E12,0E0,7.370755E11,2.6272827E12,4.2493852E12,0E0,0E0,0E0,0E0,0E0,0E0],"parents":[2147483647,0,0,1,1,2,2,4,4,5,5,6,6],"right_children":[2,4,6,-1,8,10,12,-1,-1,-1,-1,-1,-1],"split_conditions":[2.02E3,2.013E3,5.798E4,-6.3440953E4,1.20276E5,2.6327E4,1.18461E5,-1.0328069E4,-3.1950416E4,7.0504836E4,2.899417E4,1.3725449E4,-1.9615904E4],"split_indices":[0,0,1,0,1,1,1,0,0,0,0,0,0],"split_type":[0,0,0,0,0,0,0,0,0,0,0,0,0],"sum_hessian":[6.4E1,2.1E1,4.3E1,6E0,1.5E1,1.1E1,3.2E1,3E0,1.2E1,2E0,9E0,2.9E1,3E0],"tree_param":{"num_deleted":"0","num_feature":"3","num_nodes":"13","size_leaf_vector":"1"}},{"base_weights":[-1.7176762E4,-1.2914798E6,6.203651E5,-6.3793836E4,-9.2081106E5,3.785699E5,1.6611225E6,-3.2578064E4,-1.58935625E4,2.144358E4,5.000102E3,3.1897518E4,6.909476E4],"categories":[],"categories_nodes":[],"categories_segments":[],"categories_sizes":[],"default_left":[0,0,0,0,0,0,0,0,0,0,0,0,0],"id":87,"left_children":[1,3,5,-1,7,9,11,-1,-1,-1,-1,-1,-1],"loss_changes":[5.3608595E13,4.850964E12,1.0443757E13,0E0,5.2234184E11,2.5168996E12,6.22009E11,0E0,0E0,0E0,0E0,0E0,0E0],"parents":[2147483647,0,0,1,1,2,2,4,4,5,5,6,6],"right_children":[2,4,6,-1,8,10,12,-1,-1,-1,-1,-1,-1],"split_conditions":[2.02E3,2.013E3,3E7,-6.3793836E4,2.015E3,2.022E3,2.024E3,-3.2578064E4,-1.58935625E4,2.144358E4,5.000102E3,3.1897518E4,6.909476E4],"split_indices":[0,0,2,0,0,0,0,0,0,0,0,0,0],"split_type":[0,0,0,0,0,0,0,0,0,0,0,0,0],"sum_hessian":[6.4E1,2.1E1,4.3E1,5E0,1.6E1,3.6E1,7E0,1E1,6E0,1.3E1,2.3E1,5E0,2E0],"tree_param":{"num_deleted":"0","num_feature":"3","num_nodes":"13","size_leaf_vector":"1"}},{"base_weights":[2.8141404E3,-1.3434555E6,6.5861694E5,-6.0169195E4,-8.8355194E5,5.0918897E5,2.2820228E6,-3.098536E4,-1.3143402E4,-4.3984497E3,1.8487201E4,1.8662639E4,8.4028375E4],"categories":[],"categories_nodes":[],"categories_segments":[],"categories_sizes":[],"default_left":[0,0,0,0,0,0,0,0,0,0,0,0,0],"id":88,"left_children":[1,3,5,-1,7,9,11,-1,-1,-1,-1,-1,-1],"loss_changes":[5.12094E13,4.0141922E12,8.298722E12,0E0,4.1200963E11,2.6879187E12,8.417014E11,0E0,0E0,0E0,0E0,0E0,0E0],"parents":[2147483647,0,0,1,1,2,2,4,4,5,5,6,6],"right_children":[2,4,6,-1,8,10,12,-1,-1,-1,-1,-1,-1],"split_conditions":[2.02E3,2.013E3,3.3E7,-6.0169195E4,2.015E3,1.72E7,2.024E3,-3.098536E4,-1.3143402E4,-4.3984497E3,1.8487201E4,1.8662639E4,8.4028375E4],"split_indices":[0,0,2,0,0,2,0,0,0,0,0,0,0],"split_type":[0,0,0,0,0,0,0,0,0,0,0,0,0],"sum_hessian":[5.6E1,1.8E1,3.8E1,6E0,1.2E1,3.6E1,2E0,8E0,4E0,5E0,3.1E1,1E0,1E0],"tree_param":{"num_deleted":"0","num_feature":"3","num_nodes":"13","size_leaf_vector":"1"}},{"base_weights":[-6.2462363E4,5.5173125E5,-1.3171225E6,3.0357275E5,1.599478E6,-5.840665E4,-9.9864006E5,-1.3140911E4,1.5933099E4,6.668768E4,3.063528E4,-3.086664E4,-8.1738E3],"categories":[],"categories_nodes":[],"categories_segments":[],"categories_sizes":[],"default_left":[0,0,0,0,0,0,0,0,0,0,0,0,0],"id":89,"left_children":[1,3,5,7,9,-1,11,-1,-1,-1,-1,-1,-1],"loss_changes":[4.9274763E13,1.0694755E13,2.2677134E12,6.3071846E12,6.1431874E11,0E0,7.111757E10,0E0,0E0,0E0,0E0,0E0,0E0],"parents":[2147483647,0,0,1,1,2,2,3,3,4,4,6,6],"right_children":[2,4,6,8,10,-1,12,-1,-1,-1,-1,-1,-1],"split_conditions":[1.22344E5,3E7,6E6,1.9E7,2.6327E4,-5.840665E4,1.8541E5,-1.3140911E4,1.5933099E4,6.668768E4,3.063528E4,-3.086664E4,-8.1738E3],"split_indices":[1,2,2,2,1,0,1,0,0,0,0,0,0],"split_type":[0,0,0,0,0,0,0,0,0,0,0,0,0],"sum_hessian":[6.2E1,4.2E1,2E1,3.5E1,7E0,5E0,1.5E1,8E0,2.7E1,2E0,5E0,1.4E1,1E0],"tree_param":{"num_deleted":"0","num_feature":"3","num_nodes":"13","size_leaf_vector":"1"}},{"base_weights":[-3.3198938E4,-1.1096176E6,4.9206144E5,-3.6815406E4,-1.6050186E4,5.816743E5,-7.771847E5,2.256697E4,9.324071E3,-4.29765E3,-3.067566E4],"categories":[],"categories_nodes":[],"categories_segments":[],"categories_sizes":[],"default_left":[0,0,0,0,0,0,0,0,0,0,0],"id":90,"left_children":[1,3,5,-1,-1,7,9,-1,-1,-1,-1],"loss_changes":[3.2773803E13,6.269562E11,4.887961E12,0E0,0E0,1.4755803E12,3.2009853E11,0E0,0E0,0E0,0E0],"parents":[2147483647,0,0,1,1,2,2,5,5,6,6],"right_children":[2,4,6,-1,-1,8,10,-1,-1,-1,-1],"split_conditions":[2.02E3,2.015E3,1.18461E5,-3.6815406E4,-1.6050186E4,8.082E4,2.021E3,2.256697E4,9.324071E3,-4.29765E3,-3.067566E4],"split_indices":[0,0,1,0,0,1,0,0,0,0,0],"split_type":[0,0,0,0,0,0,0,0,0,0,0],"sum_hessian":[5.6E1,1.8E1,3.8E1,1.4E1,4E0,3.6E1,2E0,2.1E1,1.5E1,1E0,1E0],"tree_param":{"num_deleted":"0","num_feature":"3","num_nodes":"11","size_leaf_vector":"1"}},{"base_weights":[-9.705354E4,-1.1788645E6,5.274141E5,-5.636742E4,-8.212638E5,1.7668736E6,3.4061656E5,-8.78556E3,-2.7407307E4,2.344112E4,6.4902562E4,1.3443473E4,-1.894218E4],"categories":[],"categories_nodes":[],"categories_segments":[],"categories_sizes":[],"default_left":[0,0,0,0,0,0,0,0,0,0,0,0,0],"id":91,"left_children":[1,3,5,-1,7,9,11,-1,-1,-1,-1,-1,-1],"loss_changes":[4.2506218E13,4.2146925E12,8.6592927E12,0E0,5.6170643E11,2.6355014E11,4.0446426E12,0E0,0E0,0E0,0E0,0E0,0E0],"parents":[2147483647,0,0,1,1,2,2,4,4,5,5,6,6],"right_children":[2,4,6,-1,8,10,12,-1,-1,-1,-1,-1,-1],"split_conditions":[2.02E3,2.013E3,4.0447E4,-5.636742E4,1.20276E5,2.024E3,1.18461E5,-8.78556E3,-2.7407307E4,2.344112E4,6.4902562E4,1.3443473E4,-1.894218E4],"split_indices":[0,0,1,0,1,0,1,0,0,0,0,0,0],"split_type":[0,0,0,0,0,0,0,0,0,0,0,0,0],"sum_hessian":[6.1E1,2.2E1,3.9E1,6E0,1.6E1,4E0,3.5E1,3E0,1.3E1,2E0,2E0,3.2E1,3E0],"tree_param":{"num_deleted":"0","num_feature":"3","num_nodes":"13","size_leaf_vector":"1"}},{"base_weights":[-2.8196052E3,-1.0938786E6,4.8822744E5,-1.203843E6,-1.2241282E4,1.731536E6,3.0198384E5,-4.7373477E4,-2.771472E4,2.297232E4,6.3604477E4,1.2127469E4,-1.8515984E4],"categories":[],"categories_nodes":[],"categories_segments":[],"categories_sizes":[],"default_left":[0,0,0,0,0,0,0,0,0,0,0,0,0],"id":92,"left_children":[1,3,5,7,-1,9,11,-1,-1,-1,-1,-1,-1],"loss_changes":[3.1072457E13,8.6629365E11,8.7394353E12,1.1742793E11,0E0,2.5310632E11,3.6335172E12,0E0,0E0,0E0,0E0,0E0,0E0],"parents":[2147483647,0,0,1,1,2,2,3,3,5,5,6,6],"right_children":[2,4,6,8,-1,10,12,-1,-1,-1,-1,-1,-1],"split_conditions":[2.02E3,2.018E3,4.0447E4,2.013E3,-1.2241282E4,2.024E3,1.18461E5,-4.7373477E4,-2.771472E4,2.297232E4,6.3604477E4,1.2127469E4,-1.8515984E4],"split_indices":[0,0,1,0,0,0,1,0,0,0,0,0,0],"split_type":[0,0,0,0,0,0,0,0,0,0,0,0,0],"sum_hessian":[5.6E1,1.7E1,3.9E1,1.4E1,3E0,4E0,3.5E1,4E0,1E1,2E0,2E0,3.2E1,3E0],"tree_param":{"num_deleted":"0","num_feature":"3","num_nodes":"13","size_leaf_vector":"1"}},{"base_weights":[1.6482848E4,-1.1097018E6,5.3583775E5,-5.7236703E4,-7.453701E5,1.2165634E6,2.2496114E5,-8.196382E3,-2.5479084E4,6.23324E4,2.5096559E4,1.9182129E4,-2.4245999E3],"categories":[],"categories_nodes":[],"categories_segments":[],"categories_sizes":[],"default_left":[0,0,0,0,0,0,0,0,0,0,0,0,0],"id":93,"left_children":[1,3,5,-1,7,9,11,-1,-1,-1,-1,-1,-1],"loss_changes":[3.3348433E13,3.8124084E12,7.979565E12,0E0,4.5497555E11,2.1889695E12,3.600086E12,0E0,0E0,0E0,0E0,0E0,0E0],"parents":[2147483647,0,0,1,1,2,2,4,4,5,5,6,6],"right_children":[2,4,6,-1,8,10,12,-1,-1,-1,-1,-1,-1],"split_conditions":[2.02E3,2.013E3,5.798E4,-5.7236703E4,1.20276E5,2.6327E4,2.022E3,-8.196382E3,-2.5479084E4,6.23324E4,2.5096559E4,1.9182129E4,-2.4245999E3],"split_indices":[0,0,1,0,1,1,0,0,0,0,0,0,0],"split_type":[0,0,0,0,0,0,0,0,0,0,0,0,0],"sum_hessian":[5.5E1,1.7E1,3.8E1,4E0,1.3E1,1.1E1,2.7E1,3E0,1E1,2E0,9E0,1.1E1,1.6E1],"tree_param":{"num_deleted":"0","num_feature":"3","num_nodes":"13","size_leaf_vector":"1"}},{"base_weights":[-3.9140113E4,5.368037E5,-1.161738E6,2.036192E6,4.0770194E5,-5.2001664E4,-8.747603E5,1.306212E4,7.8566516E4,2.0316443E4,4.333276E3,-2.7112139E4,-6.601425E3],"categories":[],"categories_nodes":[],"categories_segments":[],"categories_sizes":[],"default_left":[0,0,0,0,0,0,0,0,0,0,0,0,0],"id":94,"left_children":[1,3,5,7,9,-1,11,-1,-1,-1,-1,-1,-1],"loss_changes":[4.0063375E13,7.106361E12,1.9287717E12,1.6580262E12,2.6693023E12,0E0,1.0468878E11,0E0,0E0,0E0,0E0,0E0,0E0],"parents":[2147483647,0,0,1,1,2,2,3,3,4,4,6,6],"right_children":[2,4,6,8,10,-1,12,-1,-1,-1,-1,-1,-1],"split_conditions":[1.22344E5,2.6327E4,2.012E3,1.8861E4,8.082E4,-5.2001664E4,1.8541E5,1.306212E4,7.8566516E4,2.0316443E4,4.333276E3,-2.7112139E4,-6.601425E3],"split_indices":[1,1,0,1,1,0,1,0,0,0,0,0,0],"split_type":[0,0,0,0,0,0,0,0,0,0,0,0,0],"sum_hessian":[6E1,4E1,2E1,2E0,3.8E1,5E0,1.5E1,1E0,1E0,1.8E1,2E1,1.4E1,1E0],"tree_param":{"num_deleted":"0","num_feature":"3","num_nodes":"13","size_leaf_vector":"1"}},{"base_weights":[-5.1446125E4,4.649493E5,-1.1309678E6,1.7671277E5,1.0699768E6,-5.0701625E4,-8.5062475E5,-2.9802186E4,8.7499795E3,6.0169438E4,2.2406824E4,-2.6353002E4,-6.5024097E3],"categories":[],"categories_nodes":[],"categories_segments":[],"categories_sizes":[],"default_left":[0,0,0,0,0,0,0,0,0,0,0,0,0],"id":95,"left_children":[1,3,5,7,9,-1,11,-1,-1,-1,-1,-1,-1],"loss_changes":[3.6203286E13,7.4841263E12,1.853853E12,4.4595203E12,2.7341797E12,0E0,9.16403E10,0E0,0E0,0E0,0E0,0E0,0E0],"parents":[2147483647,0,0,1,1,2,2,3,3,4,4,6,6],"right_children":[2,4,6,8,10,-1,12,-1,-1,-1,-1,-1,-1],"split_conditions":[1.22344E5,2.023E3,2.012E3,6.2551E4,2.6327E4,-5.0701625E4,1.8541E5,-2.9802186E4,8.7499795E3,6.0169438E4,2.2406824E4,-2.6353002E4,-6.5024097E3],"split_indices":[1,0,0,1,1,0,1,0,0,0,0,0,0],"split_type":[0,0,0,0,0,0,0,0,0,0,0,0,0],"sum_hessian":[6.3E1,4.3E1,2E1,3E1,1.3E1,5E0,1.5E1,2E0,2.8E1,2E0,1.1E1,1.4E1,1E0],"tree_param":{"num_deleted":"0","num_feature":"3","num_nodes":"13","size_leaf_vector":"1"}},{"base_weights":[-5.1787945E4,-1.03768925E6,4.8934344E5,-4.9955477E4,-7.1826906E5,8.4496806E5,1.4378421E4,-8.3063545E3,-2.379227E4,5.896608E4,1.9612672E4,1.3829895E4,-1.9720379E4],"categories":[],"categories_nodes":[],"categories_segments":[],"categories_sizes":[],"default_left":[0,0,0,0,0,0,0,0,0,0,0,0,0],"id":96,"left_children":[1,3,5,-1,7,9,11,-1,-1,-1,-1,-1,-1],"loss_changes":[3.4651924E13,3.4139349E12,7.0820393E12,0E0,3.4173616E11,3.8574144E12,6.0031154E12,0E0,0E0,0E0,0E0,0E0,0E0],"parents":[2147483647,0,0,1,1,2,2,4,4,5,5,6,6],"right_children":[2,4,6,-1,8,10,12,-1,-1,-1,-1,-1,-1],"split_conditions":[2.02E3,2.013E3,8.082E4,-4.9955477E4,1.20276E5,2.6327E4,2.022E3,-8.3063545E3,-2.379227E4,5.896608E4,1.9612672E4,1.3829895E4,-1.9720379E4],"split_indices":[0,0,1,0,1,1,0,0,0,0,0,0,0],"split_type":[0,0,0,0,0,0,0,0,0,0,0,0,0],"sum_hessian":[6.3E1,2.2E1,4.1E1,6E0,1.6E1,2.3E1,1.8E1,3E0,1.3E1,2E0,2.1E1,1.1E1,7E0],"tree_param":{"num_deleted":"0","num_feature":"3","num_nodes":"13","size_leaf_vector":"1"}},{"base_weights":[-1.0670629E5,3.3416475E5,-1.0712872E6,-5.604202E5,4.3763375E5,-5.1038316E4,-8.0745994E5,-2.5792574E4,-8.1194697E3,1.9237002E4,3.7336729E3,-2.5032318E4,-6.048E3],"categories":[],"categories_nodes":[],"categories_segments":[],"categories_sizes":[],"default_left":[0,0,0,0,0,0,0,0,0,0,0,0,0],"id":97,"left_children":[1,3,5,7,9,-1,11,-1,-1,-1,-1,-1,-1],"loss_changes":[2.7149103E13,4.3179788E12,1.9504604E12,2.0099839E11,2.470712E12,0E0,9.3035954E10,0E0,0E0,0E0,0E0,0E0,0E0],"parents":[2147483647,0,0,1,1,2,2,3,3,4,4,6,6],"right_children":[2,4,6,8,10,-1,12,-1,-1,-1,-1,-1,-1],"split_conditions":[1.22344E5,2.02E3,2.012E3,2.013E3,8.082E4,-5.1038316E4,1.8541E5,-2.5792574E4,-8.1194697E3,1.9237002E4,3.7336729E3,-2.5032318E4,-6.048E3],"split_indices":[1,0,0,0,1,0,1,0,0,0,0,0,0],"split_type":[0,0,0,0,0,0,0,0,0,0,0,0,0],"sum_hessian":[6.2E1,4.3E1,1.9E1,4E0,3.9E1,4E0,1.5E1,1E0,3E0,2.3E1,1.6E1,1.4E1,1E0],"tree_param":{"num_deleted":"0","num_feature":"3","num_nodes":"13","size_leaf_vector":"1"}},{"base_weights":[-2.3952068E4,-8.996551E5,4.1449825E5,-1.0623445E6,-1.0289675E4,6.39642E5,1.573724E5,-4.278739E4,-2.4010732E4,3.690909E4,1.6457814E4,-1.3893565E4,1.3691314E4],"categories":[],"categories_nodes":[],"categories_segments":[],"categories_sizes":[],"default_left":[0,0,0,0,0,0,0,0,0,0,0,0,0],"id":98,"left_children":[1,3,5,7,-1,9,11,-1,-1,-1,-1,-1,-1],"loss_changes":[2.302609E13,1.4468996E12,2.2149496E12,2.885545E11,0E0,4.5441457E11,3.921954E12,0E0,0E0,0E0,0E0,0E0,0E0],"parents":[2147483647,0,0,1,1,2,2,3,3,5,5,6,6],"right_children":[2,4,6,8,-1,10,12,-1,-1,-1,-1,-1,-1],"split_conditions":[2.02E3,2.015E3,8.082E4,2.012E3,-1.0289675E4,2.022E3,1.06053E5,-4.278739E4,-2.4010732E4,3.690909E4,1.6457814E4,-1.3893565E4,1.3691314E4],"split_indices":[0,0,1,0,0,0,1,0,0,0,0,0,0],"split_type":[0,0,0,0,0,0,0,0,0,0,0,0,0],"sum_hessian":[5.8E1,1.9E1,3.9E1,1.4E1,5E0,2E1,1.9E1,4E0,1E1,1E0,1.9E1,6E0,1.3E1],"tree_param":{"num_deleted":"0","num_feature":"3","num_nodes":"13","size_leaf_vector":"1"}},{"base_weights":[8.322919E3,-7.7329494E5,5.57343E5,-4.7456906E4,-5.0544228E5,3.8019644E5,1.6150416E6,-2.2836879E4,-8.684363E3,1.963391E4,6.3994336E3,2.303127E4,7.506558E4],"categories":[],"categories_nodes":[],"categories_segments":[],"categories_sizes":[],"default_left":[0,0,0,0,0,0,0,0,0,0,0,0,0],"id":99,"left_children":[1,3,5,-1,7,9,11,-1,-1,-1,-1,-1,-1],"loss_changes":[2.7036672E13,4.831682E12,6.318569E12,0E0,9.3969397E11,1.3708123E12,1.8375812E12,0E0,0E0,0E0,0E0,0E0,0E0],"parents":[2147483647,0,0,1,1,2,2,4,4,5,5,6,6],"right_children":[2,4,6,-1,8,10,12,-1,-1,-1,-1,-1,-1],"split_conditions":[1.9E7,2.013E3,3.3E7,-4.7456906E4,2.015E3,2.022E3,2.024E3,-2.2836879E4,-8.684363E3,1.963391E4,6.3994336E3,2.303127E4,7.506558E4],"split_indices":[2,0,2,0,0,0,0,0,0,0,0,0,0],"split_type":[0,0,0,0,0,0,0,0,0,0,0,0,0],"sum_hessian":[6.1E1,2.5E1,3.6E1,5E0,2E1,3.2E1,4E0,8E0,1.2E1,1.1E1,2.1E1,3E0,1E0],"tree_param":{"num_deleted":"0","num_feature":"3","num_nodes":"13","size_leaf_vector":"1"}},{"base_weights":[-4.5252516E4,-9.754932E5,4.8394497E5,-4.5226586E4,-6.621658E5,3.2280872E5,1.732617E6,-2.106549E4,-8.0410796E3,1.9093975E4,4.35379E3,2.00116E4,7.393962E4],"categories":[],"categories_nodes":[],"categories_segments":[],"categories_sizes":[],"default_left":[0,0,0,0,0,0,0,0,0,0,0,0,0],"id":100,"left_children":[1,3,5,-1,7,9,11,-1,-1,-1,-1,-1,-1],"loss_changes":[2.8532105E13,2.5026363E12,6.885331E12,0E0,4.8369762E10,1.8024977E12,1.476072E12,0E0,0E0,0E0,0E0,0E0,0E0],"parents":[2147483647,0,0,1,1,2,2,4,4,5,5,6,6],"right_children":[2,4,6,-1,8,10,12,-1,-1,-1,-1,-1,-1],"split_conditions":[2.02E3,2.013E3,3.3E7,-4.5226586E4,1.5E7,2.022E3,2.024E3,-2.106549E4,-8.0410796E3,1.9093975E4,4.35379E3,2.00116E4,7.393962E4],"split_indices":[0,0,2,0,2,0,0,0,0,0,0,0,0],"split_type":[0,0,0,0,0,0,0,0,0,0,0,0,0],"sum_hessian":[5.6E1,2E1,3.6E1,6E0,1.4E1,3.3E1,3E0,1.2E1,2E0,1.1E1,2.2E1,2E0,1E0],"tree_param":{"num_deleted":"0","num_feature":"3","num_nodes":"13","size_leaf_vector":"1"}},{"base_weights":[2.4519127E4,4.2660684E5,-1.00440056E6,1.8563805E5,9.641329E5,-4.8801E4,-2.3144822E4,-2.7942344E4,8.632538E3,5.547532E4,1.9875818E4],"categories":[],"categories_nodes":[],"categories_segments":[],"categories_sizes":[],"default_left":[0,0,0,0,0,0,0,0,0,0,0],"id":101,"left_children":[1,3,5,7,9,-1,-1,-1,-1,-1,-1],"loss_changes":[2.6492591E13,5.779263E12,1.3538878E12,4.0321784E12,2.5119498E12,0E0,0E0,0E0,0E0,0E0,0E0],"parents":[2147483647,0,0,1,1,2,2,3,3,4,4],"right_children":[2,4,6,8,10,-1,-1,-1,-1,-1,-1],"split_conditions":[1.20276E5,2.023E3,2.011E3,6.2551E4,2.6327E4,-4.8801E4,-2.3144822E4,-2.7942344E4,8.632538E3,5.547532E4,1.9875818E4],"split_indices":[1,0,0,1,1,0,0,0,0,0,0],"split_type":[0,0,0,0,0,0,0,0,0,0,0],"sum_hessian":[6.2E1,4.5E1,1.7E1,3.2E1,1.3E1,3E0,1.4E1,2E0,3E1,2E0,1.1E1],"tree_param":{"num_deleted":"0","num_feature":"3","num_nodes":"11","size_leaf_vector":"1"}},{"base_weights":[-2.2186924E4,-7.837599E5,5.6084494E5,-4.311804E4,-5.1584403E5,3.983049E5,1.680319E6,-1.9841203E4,-6.446347E3,3.564504E4,9.971115E3,1.921384E4,7.1998375E4],"categories":[],"categories_nodes":[],"categories_segments":[],"categories_sizes":[],"default_left":[0,0,0,0,0,0,0,0,0,0,0,0,0],"id":102,"left_children":[1,3,5,-1,7,9,11,-1,-1,-1,-1,-1,-1],"loss_changes":[2.6636823E13,3.8108083E12,5.5173395E12,0E0,7.338721E11,1.2195405E12,1.4561659E12,0E0,0E0,0E0,0E0,0E0,0E0],"parents":[2147483647,0,0,1,1,2,2,4,4,5,5,6,6],"right_children":[2,4,6,-1,8,10,12,-1,-1,-1,-1,-1,-1],"split_conditions":[1.9E7,2.013E3,3.3E7,-4.311804E4,1.5E7,2.04E7,2.024E3,-1.9841203E4,-6.446347E3,3.564504E4,9.971115E3,1.921384E4,7.1998375E4],"split_indices":[2,0,2,0,2,2,0,0,0,0,0,0,0],"split_type":[0,0,0,0,0,0,0,0,0,0,0,0,0],"sum_hessian":[5.8E1,2.5E1,3.3E1,6E0,1.9E1,3E1,3E0,1.2E1,7E0,1E0,2.9E1,2E0,1E0],"tree_param":{"num_deleted":"0","num_feature":"3","num_nodes":"13","size_leaf_vector":"1"}},{"base_weights":[-2.5114959E4,3.6858912E5,-9.64235E5,1.807547E5,1.3087726E6,-4.265355E4,-7.319503E5,-8.24926E3,1.1524186E4,1.912917E4,4.958139E4,-2.2922717E4,-4.711905E3],"categories":[],"categories_nodes":[],"categories_segments":[],"categories_sizes":[],"default_left":[0,0,0,0,0,0,0,0,0,0,0,0,0],"id":103,"left_children":[1,3,5,7,9,-1,11,-1,-1,-1,-1,-1,-1],"loss_changes":[2.2539531E13,7.3571815E12,8.723974E11,3.5351065E12,5.619759E11,0E0,1.3866736E11,0E0,0E0,0E0,0E0,0E0,0E0],"parents":[2147483647,0,0,1,1,2,2,3,3,4,4,6,6],"right_children":[2,4,6,8,10,-1,12,-1,-1,-1,-1,-1,-1],"split_conditions":[1.22344E5,3E7,3.1E6,2.1E7,3.3E7,-4.265355E4,1.8541E5,-8.24926E3,1.1524186E4,1.912917E4,4.958139E4,-2.2922717E4,-4.711905E3],"split_indices":[1,2,2,2,2,0,1,0,0,0,0,0,0],"split_type":[0,0,0,0,0,0,0,0,0,0,0,0,0],"sum_hessian":[5.9E1,4.2E1,1.7E1,3.6E1,6E0,4E0,1.3E1,1.1E1,2.5E1,3E0,3E0,1.2E1,1E0],"tree_param":{"num_deleted":"0","num_feature":"3","num_nodes":"13","size_leaf_vector":"1"}},{"base_weights":[1.149169E4,-8.959825E5,4.2371878E5,-4.122254E4,-5.929326E5,2.3774167E5,1.230898E6,-2.0157443E4,-9.491454E3,1.8014219E4,1.1883359E3,2.280642E4,5.2858996E4],"categories":[],"categories_nodes":[],"categories_segments":[],"categories_sizes":[],"default_left":[0,0,0,0,0,0,0,0,0,0,0,0,0],