{"learner":{"attributes":{"scikit_learn":"{\"_estimator_type\": \"regressor\"}"},"feature_names":[],"feature_types":[],"gradient_booster":{"model":{"cats":{"enc":[],"feature_segments":[],"sorted_idx":[]},"gbtree_model_param":{"num_parallel_tree":"1","num_trees":"100"},"iteration_indptr":[0,1,2,3,4,5,6,7,8,9,10,11,12,13,14,15,16,17,18,19,20,21,22,23,24,25,26,27,28,29,30,31,32,33,34,35,36,37,38,39,40,41,42,43,44,45,46,47,48,49,50,51,52,53,54,55,56,57,58,59,60,61,62,63,64,65,66,67,68,69,70,71,72,73,74,75,76,77,78,79,80,81,82,83,84,85,86,87,88,89,90,91,92,93,94,95,96,97,98,99,100],"tree_info":[0,0,0,0,0,0,0,0,0,0,0,0,0,0,0,0,0,0,0,0,0,0,0,0,0,0,0,0,0,0,0,0,0,0,0,0,0,0,0,0,0,0,0,0,0,0,0,0,0,0,0,0,0,0,0,0,0,0,0,0,0,0,0,0,0,0,0,0,0,0,0,0,0,0,0,0,0,0,0,0,0,0,0,0,0,0,0,0,0,0,0,0,0,0,0,0,0,0,0,0],"trees":[{"base_weights":[-6.848177E5,-1.5774657E7,5.246194E6,-3.2567498E6,-6.101902E5,2.131448E6,2.1676298E6,-3.7560038E5,7.7606044E5],"categories":[],"categories_nodes":[],"categories_segments":[],"categories_sizes":[],"default_left":[0,0,0,0,0,0,0,0,0],"id":0,"left_children":[1,3,5,-1,-1,7,-1,-1,-1],"loss_changes":[6.347618E15,7.9870286E13,8.651926E14,0E0,0E0,2.4569327E14,0E0,0E0,0E0],"parents":[2147483647,0,0,1,1,2,2,5,5],"right_children":[2,4,6,-1,-1,8,-1,-1,-1],"split_conditions":[2.02E3,1.4E7,2.023E3,-3.2567498E6,-6.101902E5,2.1E7,2.1676298E6,-3.7560038E5,7.7606044E5],"split_indices":[0,2,0,0,0,2,0,0,0],"split_type":[0,0,0,0,0,0,0,0,0],"sum_hessian":[6.9E1,1.9E1,5E1,1.8E1,1E0,3.3E1,1.7E1,1E1,2.3E1],"tree_param":{"num_deleted":"0","num_feature":"3","num_nodes":"9","size_leaf_vector":"1"}},{"base_weights":[2.6292153E5,-1.1548365E7,4.5531545E6,-2.6222785E6,-8.474011E5,2.2240448E6,8.517895E6,-2.604537E5,6.5561444E5,9.867447E5,1.8767406E6],"categories":[],"categories_nodes":[],"categories_segments":[],"categories_sizes":[],"default_left":[0,0,0,0,0,0,0,0,0,0,0],"id":1,"left_children":[1,3,5,-1,-1,7,9,-1,-1,-1,-1],"loss_changes":[3.8023963E15,1.7300397E14,4.889431E14,0E0,0E0,1.3807486E14,1.5767496E13,0E0,0E0,0E0,0E0],"parents":[2147483647,0,0,1,1,2,2,5,5,6,6],"right_children":[2,4,6,-1,-1,8,10,-1,-1,-1,-1],"split_conditions":[2.021E3,8E6,2.023E3,-2.6222785E6,-8.474011E5,2.1E7,2.63E7,-2.604537E5,6.5561444E5,9.867447E5,1.8767406E6],"split_indices":[0,2,0,0,0,2,2,0,0,0,0],"split_type":[0,0,0,0,0,0,0,0,0,0,0],"sum_hessian":[7.3E1,1.9E1,5.4E1,1.5E1,4E0,3.5E1,1.9E1,8E0,2.7E1,5E0,1.4E1],"tree_param":{"num_deleted":"0","num_feature":"3","num_nodes":"11","size_leaf_vector":"1"}},{"base_weights":[5.8148344E5,-9.053164E6,4.23102E6,-2.2417922E6,-3.7562325E6,6.9950905E6,2.3112638E6,-3.718003E5,-9.428811E5,8.222874E5,1.5364426E6,-2.8877972E5,5.24006E5],"categories":[],"categories_nodes":[],"categories_segments":[],"categories_sizes":[],"default_left":[0,0,0,0,0,0,0,0,0,0,0,0,0],"id":2,"left_children":[1,3,5,-1,7,9,11,-1,-1,-1,-1,-1,-1],"loss_changes":[2.42932E15,1.748594E14,2.4914958E14,0E0,3.961042E12,8.043467E12,3.972657E13,0E0,0E0,0E0,0E0,0E0,0E0],"parents":[2147483647,0,0,1,1,2,2,4,4,5,5,6,6],"right_children":[2,4,6,-1,8,10,12,-1,-1,-1,-1,-1,-1],"split_conditions":[1.9E7,7E6,5.2898E4,-2.2417922E6,1.01555E5,2.63E7,2.1E7,-3.718003E5,-9.428811E5,8.222874E5,1.5364426E6,-2.8877972E5,5.24006E5],"split_indices":[2,2,1,0,1,2,2,0,0,0,0,0,0],"split_type":[0,0,0,0,0,0,0,0,0,0,0,0,0],"sum_hessian":[6.7E1,1.8E1,4.9E1,1.2E1,6E0,1.9E1,3E1,3E0,3E0,5E0,1.4E1,2E0,2.8E1],"tree_param":{"num_deleted":"0","num_feature":"3","num_nodes":"13","size_leaf_vector":"1"}},{"base_weights":[5.716177E4,-8.106721E6,3.012065E6,-1.8176942E6,-6.294855E5,1.4382709E6,5.716451E6,-2.9380588E5,4.0585938E5,6.852394E5,1.2436036E6],"categories":[],"categories_nodes":[],"categories_segments":[],"categories_sizes":[],"default_left":[0,0,0,0,0,0,0,0,0,0,0],"id":3,"left_children":[1,3,5,-1,-1,7,9,-1,-1,-1,-1],"loss_changes":[1.9060497E15,7.363909E13,2.3863472E14,0E0,0E0,6.827613E13,2.8189078E12,0E0,0E0,0E0,0E0],"parents":[2147483647,0,0,1,1,2,2,5,5,6,6],"right_children":[2,4,6,-1,-1,8,10,-1,-1,-1,-1],"split_conditions":[2.021E3,1.4E7,2.023E3,-1.8176942E6,-6.294855E5,1.72E7,2.63E7,-2.9380588E5,4.0585938E5,6.852394E5,1.2436036E6],"split_indices":[0,2,0,0,0,2,2,0,0,0,0],"split_type":[0,0,0,0,0,0,0,0,0,0,0],"sum_hessian":[7.7E1,2E1,5.7E1,1.6E1,4E0,3.7E1,2E1,6E0,3.1E1,5E0,1.5E1],"tree_param":{"num_deleted":"0","num_feature":"3","num_nodes":"11","size_leaf_vector":"1"}},{"base_weights":[-6.01119E4,-6.491018E6,2.3802338E6,-1.5591292E6,-7.480745E5,1.1631289E6,4.6345765E6,-2.4343916E5,3.2656E5,7.424975E5,1.3316691E6],"categories":[],"categories_nodes":[],"categories_segments":[],"categories_sizes":[],"default_left":[0,0,0,0,0,0,0,0,0,0,0],"id":4,"left_children":[1,3,5,-1,-1,7,9,-1,-1,-1,-1],"loss_changes":[1.2552471E15,4.978988E13,1.5374812E14,0E0,0E0,4.558825E13,1.2602877E13,0E0,0E0,0E0,0E0],"parents":[2147483647,0,0,1,1,2,2,5,5,6,6],"right_children":[2,4,6,-1,-1,8,10,-1,-1,-1,-1],"split_conditions":[2.021E3,2.015E3,2.023E3,-1.5591292E6,-7.480745E5,1.72E7,3.3E7,-2.4343916E5,3.2656E5,7.424975E5,1.3316691E6],"split_indices":[0,0,0,0,0,2,2,0,0,0,0],"split_type":[0,0,0,0,0,0,0,0,0,0,0],"sum_hessian":[7.8E1,2.1E1,5.7E1,1.3E1,8E0,3.8E1,1.9E1,6E0,3.2E1,1.5E1,4E0],"tree_param":{"num_deleted":"0","num_feature":"3","num_nodes":"11","size_leaf_vector":"1"}},{"base_weights":[-8.417308E3,1.9597725E6,-5.8141565E6,-7.025762E5,2.584531E6,-1.6217432E6,-9.017445E5,3.3413147E5,-2.6885772E5,8.0081494E5,3.8857397E5],"categories":[],"categories_nodes":[],"categories_segments":[],"categories_sizes":[],"default_left":[0,0,0,0,0,0,0,0,0,0,0],"id":5,"left_children":[1,3,5,7,9,-1,-1,-1,-1,-1,-1],"loss_changes":[9.026846E14,9.995201E13,2.334798E13,2.0521048E13,3.5942165E13,0E0,0E0,0E0,0E0,0E0,0E0],"parents":[2147483647,0,0,1,1,2,2,3,3,4,4],"right_children":[2,4,6,8,10,-1,-1,-1,-1,-1,-1],"split_conditions":[1.18461E5,2.1E7,6E6,8.082E4,4.0447E4,-1.6217432E6,-9.017445E5,3.3413147E5,-2.6885772E5,8.0081494E5,3.8857397E5],"split_indices":[1,2,2,1,1,0,0,0,0,0,0],"split_type":[0,0,0,0,0,0,0,0,0,0,0],"sum_hessian":[7.7E1,5.8E1,1.9E1,1.1E1,4.7E1,5E0,1.4E1,2E0,9E0,1.3E1,3.4E1],"tree_param":{"num_deleted":"0","num_feature":"3","num_nodes":"11","size_leaf_vector":"1"}},{"base_weights":[6.7645734E4,1.660407E6,-4.798028E6,9.433374E5,3.4837565E6,-1.3514528E6,-7.2312794E5,-1.11324266E5,2.952685E5,4.9333336E1,7.962766E5],"categories":[],"categories_nodes":[],"categories_segments":[],"categories_sizes":[],"default_left":[0,0,0,0,0,0,0,0,0,0,0],"id":6,"left_children":[1,3,5,7,9,-1,-1,-1,-1,-1,-1],"loss_changes":[5.969558E14,7.254681E13,1.9583138E13,3.5199656E13,2.7734818E13,0E0,0E0,0E0,0E0,0E0,0E0],"parents":[2147483647,0,0,1,1,2,2,3,3,4,4],"right_children":[2,4,6,8,10,-1,-1,-1,-1,-1,-1],"split_conditions":[1.22344E5,2.8E7,6E6,2.1E7,1.8861E4,-1.3514528E6,-7.2312794E5,-1.11324266E5,2.952685E5,4.9333336E1,7.962766E5],"split_indices":[1,2,2,2,1,0,0,0,0,0,0],"split_type":[0,0,0,0,0,0,0,0,0,0,0],"sum_hessian":[7.5E1,5.7E1,1.8E1,4.2E1,1.5E1,5E0,1.3E1,1.1E1,3.1E1,2E0,1.3E1],"tree_param":{"num_deleted":"0","num_feature":"3","num_nodes":"11","size_leaf_vector":"1"}},{"base_weights":[-2.4390428E5,1.3223342E6,-3.7062632E6,7.032784E5,2.418199E6,-1.1262105E6,-2.8587635E6,-2.4440773E5,1.7235988E5,4.2666668E1,5.4408675E5,-2.289788E5,-6.0028825E5],"categories":[],"categories_nodes":[],"categories_segments":[],"categories_sizes":[],"default_left":[0,0,0,0,0,0,0,0,0,0,0,0,0],"id":7,"left_children":[1,3,5,7,9,-1,11,-1,-1,-1,-1,-1,-1],"loss_changes":[4.0077115E14,3.2897805E13,2.1421082E13,1.1430061E13,1.3153815E13,0E0,9.652268E11,0E0,0E0,0E0,0E0,0E0,0E0],"parents":[2147483647,0,0,1,1,2,2,3,3,4,4,6,6],"right_children":[2,4,6,8,10,-1,12,-1,-1,-1,-1,-1,-1],"split_conditions":[1.18461E5,2.023E3,2.013E3,2.021E3,1.8861E4,-1.1262105E6,1.22344E5,-2.4440773E5,1.7235988E5,4.2666668E1,5.4408675E5,-2.289788E5,-6.0028825E5],"split_indices":[1,0,0,0,1,0,1,0,0,0,0,0,0],"split_type":[0,0,0,0,0,0,0,0,0,0,0,0,0],"sum_hessian":[7.2E1,5E1,2.2E1,3.3E1,1.7E1,5E0,1.7E1,2E0,3.1E1,2E0,1.5E1,2E0,1.5E1],"tree_param":{"num_deleted":"0","num_feature":"3","num_nodes":"13","size_leaf_vector":"1"}},{"base_weights":[-6.458704E3,-3.074618E6,1.1442164E6,-9.385088E5,-2.2757322E6,8.580495E5,9.299748E5,-4.8887825E5,-1.4601586E5,-6.1654844E4,2.144493E5],"categories":[],"categories_nodes":[],"categories_segments":[],"categories_sizes":[],"default_left":[0,0,0,0,0,0,0,0,0,0,0],"id":8,"left_children":[1,3,5,-1,7,9,-1,-1,-1,-1,-1],"loss_changes":[2.7183259E14,1.6464321E13,5.2189565E13,0E0,2.386408E12,1.3571166E13,0E0,0E0,0E0,0E0,0E0],"parents":[2147483647,0,0,1,1,2,2,4,4,5,5],"right_children":[2,4,6,-1,8,10,-1,-1,-1,-1,-1],"split_conditions":[2.021E3,2.013E3,3.3E7,-9.385088E5,2.02E3,2.1E7,9.299748E5,-4.8887825E5,-1.4601586E5,-6.1654844E4,2.144493E5],"split_indices":[0,0,2,0,0,2,0,0,0,0,0],"split_type":[0,0,0,0,0,0,0,0,0,0,0],"sum_hessian":[7.5E1,2E1,5.5E1,5E0,1.5E1,5.2E1,3E0,1.3E1,2E0,8E0,4.4E1],"tree_param":{"num_deleted":"0","num_feature":"3","num_nodes":"11","size_leaf_vector":"1"}},{"base_weights":[-3.3614812E4,8.616979E5,-2.5388098E6,6.1850794E5,3.2185335E6,-2.0693638E6,-7.0665494E5,-1.2023374E5,1.7078605E5,7.9047844E5,2.831E4,-4.278776E5,-1.01899805E5],"categories":[],"categories_nodes":[],"categories_segments":[],"categories_sizes":[],"default_left":[0,0,0,0,0,0,0,0,0,0,0,0,0],"id":9,"left_children":[1,3,5,7,9,11,-1,-1,-1,-1,-1,-1,-1],"loss_changes":[1.7040766E14,3.0106198E13,2.0253203E12,1.5444591E13,1.0730888E13,6.576417E11,0E0,0E0,0E0,0E0,0E0,0E0,0E0],"parents":[2147483647,0,0,1,1,2,2,3,3,4,4,5,5],"right_children":[2,4,6,8,10,12,-1,-1,-1,-1,-1,-1,-1],"split_conditions":[1.18461E5,3.3E7,1.64826E5,1.9E7,2.3029E4,2.2E7,-7.0665494E5,-1.2023374E5,1.7078605E5,7.9047844E5,2.831E4,-4.278776E5,-1.01899805E5],"split_indices":[1,2,1,2,1,2,0,0,0,0,0,0,0],"split_type":[0,0,0,0,0,0,0,0,0,0,0,0,0],"sum_hessian":[7.4E1,5.5E1,1.9E1,5.1E1,4E0,1.5E1,4E0,8E0,4.3E1,3E0,1E0,1.4E1,1E0],"tree_param":{"num_deleted":"0","num_feature":"3","num_nodes":"13","size_leaf_vector":"1"}},{"base_weights":[3.5578062E3,7.7623244E5,-2.0687768E6,1.1985416E6,-1.071976E5,-6.7514125E5,-1.5908086E6,1.902708E5,5.477168E5,-1.7659105E5,1.2155637E5,-3.2611688E5,-9.14621E4],"categories":[],"categories_nodes":[],"categories_segments":[],"categories_sizes":[],"default_left":[0,0,0,0,0,0,0,0,0,0,0,0,0],"id":10,"left_children":[1,3,5,7,9,-1,11,-1,-1,-1,-1,-1,-1],"loss_changes":[1.2970507E14,2.2140238E13,8.3726445E12,1.2621818E13,1.1629658E13,0E0,6.585896E10,0E0,0E0,0E0,0E0,0E0,0E0],"parents":[2147483647,0,0,1,1,2,2,3,3,4,4,6,6],"right_children":[2,4,6,8,10,-1,12,-1,-1,-1,-1,-1,-1],"split_conditions":[1.18461E5,8.082E4,6E6,3.3E7,1.07317E5,-6.7514125E5,1.64826E5,1.902708E5,5.477168E5,-1.7659105E5,1.2155637E5,-3.2611688E5,-9.14621E4],"split_indices":[1,1,2,2,1,0,1,0,0,0,0,0,0],"split_type":[0,0,0,0,0,0,0,0,0,0,0,0,0],"sum_hessian":[7.9E1,5.8E1,2.1E1,3.9E1,1.9E1,4E0,1.7E1,3.5E1,4E0,9E0,1E1,1.6E1,1E0],"tree_param":{"num_deleted":"0","num_feature":"3","num_nodes":"13","size_leaf_vector":"1"}},{"base_weights":[-2.9595426E4,6.732069E5,-1.7533104E6,4.8153312E5,5.89749E5,-5.6108375E5,-1.278842E6,1.4935719E5,-9.250355E3,-2.6436666E5,-5.90982E4],"categories":[],"categories_nodes":[],"categories_segments":[],"categories_sizes":[],"default_left":[0,0,0,0,0,0,0,0,0,0,0],"id":11,"left_children":[1,3,5,7,-1,-1,9,-1,-1,-1,-1],"loss_changes":[9.203765E13,2.213277E13,7.394537E12,7.174357E12,0E0,0E0,3.2809314E11,0E0,0E0,0E0,0E0],"parents":[2147483647,0,0,1,1,2,2,3,3,6,6],"right_children":[2,4,6,8,-1,-1,10,-1,-1,-1,-1],"split_conditions":[1.18461E5,3.3E7,6E6,8.082E4,5.89749E5,-5.6108375E5,2.2E7,1.4935719E5,-9.250355E3,-2.6436666E5,-5.90982E4],"split_indices":[1,2,2,1,0,0,2,0,0,0,0],"split_type":[0,0,0,0,0,0,0,0,0,0,0],"sum_hessian":[7.4E1,5.3E1,2.1E1,5E1,3E0,5E0,1.6E1,3.3E1,1.7E1,1.5E1,1E0],"tree_param":{"num_deleted":"0","num_feature":"3","num_nodes":"11","size_leaf_vector":"1"}},{"base_weights":[-2.774141E4,-1.4842439E6,5.1221766E5,-4.7734522E5,-1.109453E6,1.4406594E6,2.1264719E5,-2.2923273E5,-5.58792E4,-9.661147E4,3.668681E5,6.10083E4,-2.1803188E5],"categories":[],"categories_nodes":[],"categories_segments":[],"categories_sizes":[],"default_left":[0,0,0,0,0,0,0,0,0,0,0,0,0],"id":12,"left_children":[1,3,5,-1,7,9,11,-1,-1,-1,-1,-1,-1],"loss_changes":[5.817123E13,4.1168855E12,1.4712869E13,0E0,1.6731918E11,1.0731391E13,5.388164E12,0E0,0E0,0E0,0E0,0E0,0E0],"parents":[2147483647,0,0,1,1,2,2,4,4,5,5,6,6],"right_children":[2,4,6,-1,8,10,12,-1,-1,-1,-1,-1,-1],"split_conditions":[2.021E3,2.013E3,4.0447E4,-4.7734522E5,1.64463E5,1.8861E4,1.18461E5,-2.2923273E5,-5.58792E4,-9.661147E4,3.668681E5,6.10083E4,-2.1803188E5],"split_indices":[0,0,1,0,1,1,1,0,0,0,0,0,0],"split_type":[0,0,0,0,0,0,0,0,0,0,0,0,0],"sum_hessian":[7.2E1,1.9E1,5.3E1,4E0,1.5E1,1.2E1,4.1E1,1.4E1,1E0,2E0,1E1,3.9E1,2E0],"tree_param":{"num_deleted":"0","num_feature":"3","num_nodes":"13","size_leaf_vector":"1"}},{"base_weights":[-5.7566234E4,-1.002005E6,4.862085E5,-3.8801228E5,-7.0062575E5,9.847579E5,1.1273721E5,-4.646375E4,-1.8073623E5,1.2670619E5,4.462566E5,5.0915793E4,-1.6039161E5],"categories":[],"categories_nodes":[],"categories_segments":[],"categories_sizes":[],"default_left":[0,0,0,0,0,0,0,0,0,0,0,0,0],"id":13,"left_children":[1,3,5,-1,7,9,11,-1,-1,-1,-1,-1,-1],"loss_changes":[3.797721E13,6.27393E12,8.640093E12,0E0,1.882087E12,7.3426786E12,3.8369367E12,0E0,0E0,0E0,0E0,0E0,0E0],"parents":[2147483647,0,0,1,1,2,2,4,4,5,5,6,6],"right_children":[2,4,6,-1,8,10,12,-1,-1,-1,-1,-1,-1],"split_conditions":[2.1E7,6E6,4.2626E4,-3.8801228E5,1.01555E5,3.3E7,2.69E7,-4.646375E4,-1.8073623E5,1.2670619E5,4.462566E5,5.0915793E4,-1.6039161E5],"split_indices":[2,2,1,0,1,2,2,0,0,0,0,0,0],"split_type":[0,0,0,0,0,0,0,0,0,0,0,0,0],"sum_hessian":[7.2E1,2.6E1,4.6E1,5E0,2.1E1,1.9E1,2.7E1,7E0,1.4E1,1.6E1,3E0,2.4E1,3E0],"tree_param":{"num_deleted":"0","num_feature":"3","num_nodes":"13","size_leaf_vector":"1"}},{"base_weights":[-7.4593335E3,-1.1606724E6,3.2494884E5,-3.757326E5,-1.8793923E5,1.0275402E5,9.1567525E5,9.841186E4,-1.9064748E4,1.0868369E5,3.7931822E5],"categories":[],"categories_nodes":[],"categories_segments":[],"categories_sizes":[],"default_left":[0,0,0,0,0,0,0,0,0,0,0],"id":14,"left_children":[1,3,5,-1,-1,7,9,-1,-1,-1,-1],"loss_changes":[2.9127466E13,9.3182965E11,7.6500356E12,0E0,0E0,3.439864E12,4.811798E12,0E0,0E0,0E0,0E0],"parents":[2147483647,0,0,1,1,2,2,5,5,6,6],"right_children":[2,4,6,-1,-1,8,10,-1,-1,-1,-1],"split_conditions":[2.02E3,8E5,2.024E3,-3.757326E5,-1.8793923E5,2.022E3,3.3E7,9.841186E4,-1.9064748E4,1.0868369E5,3.7931822E5],"split_indices":[0,2,0,0,0,0,2,0,0,0,0],"split_type":[0,0,0,0,0,0,0,0,0,0,0],"sum_hessian":[7.4E1,1.6E1,5.8E1,2E0,1.4E1,4.3E1,1.5E1,1.4E1,2.9E1,1.2E1,3E0],"tree_param":{"num_deleted":"0","num_feature":"3","num_nodes":"11","size_leaf_vector":"1"}},{"base_weights":[1.431676E4,3.0223612E5,-8.2136525E5,4.7871406E5,-8.520352E4,-2.7950078E5,-5.3615206E5,7.264069E4,4.983628E5,-1.2527545E5,5.653585E4,-1.1297204E5,-1.34238E4],"categories":[],"categories_nodes":[],"categories_segments":[],"categories_sizes":[],"default_left":[0,0,0,0,0,0,0,0,0,0,0,0,0],"id":15,"left_children":[1,3,5,7,9,-1,11,-1,-1,-1,-1,-1,-1],"loss_changes":[1.8775141E13,4.006512E12,2.5371712E12,8.396341E12,3.9597454E12,0E0,1.6406335E11,0E0,0E0,0E0,0E0,0E0,0E0],"parents":[2147483647,0,0,1,1,2,2,3,3,4,4,6,6],"right_children":[2,4,6,8,10,-1,12,-1,-1,-1,-1,-1,-1],"split_conditions":[1.20276E5,8.082E4,6E6,7.628E4,1.07317E5,-2.7950078E5,1.64826E5,7.264069E4,4.983628E5,-1.2527545E5,5.653585E4,-1.1297204E5,-1.34238E4],"split_indices":[1,1,2,1,1,0,1,0,0,0,0,0,0],"split_type":[0,0,0,0,0,0,0,0,0,0,0,0,0],"sum_hessian":[7.6E1,5.7E1,1.9E1,3.9E1,1.8E1,5E0,1.4E1,3.8E1,1E0,7E0,1.1E1,1.3E1,1E0],"tree_param":{"num_deleted":"0","num_feature":"3","num_nodes":"13","size_leaf_vector":"1"}},{"base_weights":[2.9029055E4,3.1184806E5,-7.2189275E5,1.20869375E5,8.3522656E5,-2.4907416E5,-5.1318756E5,-4.0474438E4,4.707246E4,-9.36004E4,1.9429502E5,-1.707904E5,-7.37722E4],"categories":[],"categories_nodes":[],"categories_segments":[],"categories_sizes":[],"default_left":[0,0,0,0,0,0,0,0,0,0,0,0,0],"id":16,"left_children":[1,3,5,7,9,-1,11,-1,-1,-1,-1,-1,-1],"loss_changes":[1.5516118E13,5.196617E12,1.5459429E12,1.5279856E12,2.9405343E12,0E0,4.719119E11,0E0,0E0,0E0,0E0,0E0,0E0],"parents":[2147483647,0,0,1,1,2,2,3,3,4,4,6,6],"right_children":[2,4,6,8,10,-1,12,-1,-1,-1,-1,-1,-1],"split_conditions":[1.20276E5,2.024E3,2.013E3,6.2551E4,1.8861E4,-2.4907416E5,1.25559E5,-4.0474438E4,4.707246E4,-9.36004E4,1.9429502E5,-1.707904E5,-7.37722E4],"split_indices":[1,0,0,1,1,0,1,0,0,0,0,0,0],"split_type":[0,0,0,0,0,0,0,0,0,0,0,0,0],"sum_hessian":[7.1E1,5.2E1,1.9E1,3.9E1,1.3E1,4E0,1.5E1,1E1,2.9E1,1E0,1.2E1,3E0,1.2E1],"tree_param":{"num_deleted":"0","num_feature":"3","num_nodes":"13","size_leaf_vector":"1"}},{"base_weights":[2.7873076E4,4.1253706E5,-3.7893538E5,3.037355E5,4.438194E5,-6.3541425E5,1.869735E5,3.870913E4,1.9404833E5,-9.335527E4,-2.4332208E5,4.4056363E4,-1.79418E4],"categories":[],"categories_nodes":[],"categories_segments":[],"categories_sizes":[],"default_left":[0,0,0,0,0,0,0,0,0,0,0,0,0],"id":17,"left_children":[1,3,5,7,-1,9,11,-1,-1,-1,-1,-1,-1],"loss_changes":[1.1579698E13,6.7951285E12,5.3439764E12,2.5295764E12,0E0,1.8824068E12,1.303512E11,0E0,0E0,0E0,0E0,0E0,0E0],"parents":[2147483647,0,0,1,1,2,2,3,3,5,5,6,6],"right_children":[2,4,6,8,-1,10,12,-1,-1,-1,-1,-1,-1],"split_conditions":[8.082E4,7.628E4,2.1E7,3.3E7,4.438194E5,1.72E7,1.18461E5,3.870913E4,1.9404833E5,-9.335527E4,-2.4332208E5,4.4056363E4,-1.79418E4],"split_indices":[1,1,2,2,0,2,1,0,0,0,0,0,0],"split_type":[0,0,0,0,0,0,0,0,0,0,0,0,0],"sum_hessian":[7.2E1,3.7E1,3.5E1,3.6E1,1E0,2.4E1,1.1E1,3.2E1,4E0,2E1,4E0,1E1,1E0],"tree_param":{"num_deleted":"0","num_feature":"3","num_nodes":"13","size_leaf_vector":"1"}},{"base_weights":[4.1056494E3,-5.7598944E5,1.8013262E5,-2.427109E5,-8.201543E4,5.3053023E4,5.963919E5,9.3220125E4,-1.6428084E4,7.956593E4,2.251312E5],"categories":[],"categories_nodes":[],"categories_segments":[],"categories_sizes":[],"default_left":[0,0,0,0,0,0,0,0,0,0,0],"id":18,"left_children":[1,3,5,-1,-1,7,9,-1,-1,-1,-1],"loss_changes":[7.4558456E12,1.3006075E12,2.930651E12,0E0,0E0,2.495304E12,9.1837484E11,0E0,0E0,0E0,0E0],"parents":[2147483647,0,0,1,1,2,2,5,5,6,6],"right_children":[2,4,6,-1,-1,8,10,-1,-1,-1,-1],"split_conditions":[2.018E3,8E5,2.8E7,-2.427109E5,-8.201543E4,2.04E7,3.3E7,9.3220125E4,-1.6428084E4,7.956593E4,2.251312E5],"split_indices":[0,2,2,0,0,2,2,0,0,0,0],"split_type":[0,0,0,0,0,0,0,0,0,0,0],"sum_hessian":[7.1E1,1.6E1,5.5E1,2E0,1.4E1,4.3E1,1.2E1,1E1,3.3E1,1E1,2E0],"tree_param":{"num_deleted":"0","num_feature":"3","num_nodes":"11","size_leaf_vector":"1"}},{"base_weights":[9.977716E3,1.8385102E5,-4.599791E5,-5.05865E5,2.491456E5,-1.7457311E5,-3.3577175E5,4.7330002E2,-1.267029E5,1.18189914E5,2.5131242E4,-1.329664E5,-4.3554168E4],"categories":[],"categories_nodes":[],"categories_segments":[],"categories_sizes":[],"default_left":[0,0,0,0,0,0,0,0,0,0,0,0,0],"id":19,"left_children":[1,3,5,7,9,-1,11,-1,-1,-1,-1,-1,-1],"loss_changes":[6.0496124E12,2.557909E12,7.3258684E11,3.258767E11,2.0362012E12,0E0,5.15319E11,0E0,0E0,0E0,0E0,0E0,0E0],"parents":[2147483647,0,0,1,1,2,2,3,3,4,4,6,6],"right_children":[2,4,6,8,10,-1,12,-1,-1,-1,-1,-1,-1],"split_conditions":[1.20276E5,2.021E3,2.011E3,2.016E3,4.0447E4,-1.7457311E5,1.25559E5,4.7330002E2,-1.267029E5,1.18189914E5,2.5131242E4,-1.329664E5,-4.3554168E4],"split_indices":[1,0,0,0,1,0,1,0,0,0,0,0,0],"split_type":[0,0,0,0,0,0,0,0,0,0,0,0,0],"sum_hessian":[7.2E1,5.3E1,1.9E1,4E0,4.9E1,3E0,1.6E1,1E0,3E0,1.2E1,3.7E1,3E0,1.3E1],"tree_param":{"num_deleted":"0","num_feature":"3","num_nodes":"13","size_leaf_vector":"1"}},{"base_weights":[-1.9034594E4,-4.5938794E5,6.799008E4,-1.8707305E5,-2.8781344E5,-1.5463471E4,3.2974888E5,-1.6164775E4,-6.0086E4,3.934723E4,-3.1742557E4,1.908446E4,2.0177461E5],"categories":[],"categories_nodes":[],"categories_segments":[],"categories_sizes":[],"default_left":[0,0,0,0,0,0,0,0,0,0,0,0,0],"id":20,"left_children":[1,3,5,-1,7,9,11,-1,-1,-1,-1,-1,-1],"loss_changes":[3.0203188E12,7.9244165E11,1.4468493E12,0E0,4.444586E9,1.5814944E12,2.4499202E12,0E0,0E0,0E0,0E0,0E0,0E0],"parents":[2147483647,0,0,1,1,2,2,4,4,5,5,6,6],"right_children":[2,4,6,-1,8,10,12,-1,-1,-1,-1,-1,-1],"split_conditions":[2.015E3,8E5,2.024E3,-1.8707305E5,2.011E3,2.022E3,3.3E7,-1.6164775E4,-6.0086E4,3.934723E4,-3.1742557E4,1.908446E4,2.0177461E5],"split_indices":[0,2,0,0,0,0,2,0,0,0,0,0,0],"split_type":[0,0,0,0,0,0,0,0,0,0,0,0,0],"sum_hessian":[7.7E1,1.2E1,6.5E1,2E0,1E1,5E1,1.5E1,1E0,9E0,2E1,3E1,1.2E1,3E0],"tree_param":{"num_deleted":"0","num_feature":"3","num_nodes":"13","size_leaf_vector":"1"}},{"base_weights":[-1.0286291E4,2.6310612E5,-2.6238475E5,1.6100417E5,3.836674E5,-1.6648638E5,-2.2547742E5,-1.4639386E5,4.7460934E4,-2.9967531E4,-9.0511375E4],"categories":[],"categories_nodes":[],"categories_segments":[],"categories_sizes":[],"default_left":[0,0,0,0,0,0,0,0,0,0,0],"id":21,"left_children":[1,3,5,7,-1,-1,9,-1,-1,-1,-1],"loss_changes":[5.1692485E12,5.775222E12,6.3282374E11,2.5584012E12,0E0,0E0,5.848869E11,0E0,0E0,0E0,0E0],"parents":[2147483647,0,0,1,1,2,2,3,3,6,6],"right_children":[2,4,6,8,-1,-1,10,-1,-1,-1,-1],"split_conditions":[8.082E4,7.628E4,2.01E3,1.8861E4,3.836674E5,-1.6648638E5,2.022E3,-1.4639386E5,4.7460934E4,-2.9967531E4,-9.0511375E4],"split_indices":[1,1,0,1,0,0,0,0,0,0,0],"split_type":[0,0,0,0,0,0,0,0,0,0,0],"sum_hessian":[7.3E1,3.5E1,3.8E1,3.4E1,1E0,1E0,3.7E1,2E0,3.2E1,2.9E1,8E0],"tree_param":{"num_deleted":"0","num_feature":"3","num_nodes":"11","size_leaf_vector":"1"}},{"base_weights":[-3.5614586E4,1.1673169E5,-2.7918488E5,-1.26874664E5,1.6641967E5,-2.334784E5,-1.6596155E5,1.643892E5,1.934131E4,2.0503217E4,-7.3935914E4],"categories":[],"categories_nodes":[],"categories_segments":[],"categories_sizes":[],"default_left":[0,0,0,0,0,0,0,0,0,0,0],"id":22,"left_children":[1,3,5,-1,7,-1,9,-1,-1,-1,-1],"loss_changes":[2.7042956E12,1.7850127E12,2.622099E12,0E0,1.8855604E12,0E0,1.4599351E12,0E0,0E0,0E0,0E0],"parents":[2147483647,0,0,1,1,2,2,4,4,6,6],"right_children":[2,4,6,-1,8,-1,10,-1,-1,-1,-1],"split_conditions":[1.01555E5,1.8861E4,1.07317E5,-1.26874664E5,2.3029E4,-2.334784E5,1.34194E5,1.643892E5,1.934131E4,2.0503217E4,-7.3935914E4],"split_indices":[1,1,1,0,1,0,1,0,0,0,0],"split_type":[0,0,0,0,0,0,0,0,0,0,0],"sum_hessian":[7.1E1,4.4E1,2.7E1,2E0,4.2E1,2E0,2.5E1,3E0,3.9E1,1.1E1,1.4E1],"tree_param":{"num_deleted":"0","num_feature":"3","num_nodes":"11","size_leaf_vector":"1"}},{"base_weights":[-2.504826E4,1.3722952E5,-1.8664905E5,4.566189E4,3.433664E5,-2.9076347E5,1.235362E5,-1.0995814E5,1.9371764E4,-2.1950305E4,-1.872364E5,2.8385066E4,-4.1966E3],"categories":[],"categories_nodes":[],"categories_segments":[],"categories_sizes":[],"default_left":[0,0,0,0,0,0,0,0,0,0,0,0,0],"id":23,"left_children":[1,3,5,7,-1,9,11,-1,-1,-1,-1,-1,-1],"loss_changes":[1.9399817E12,5.2733023E12,1.2308257E12,1.1507245E12,0E0,3.1684499E12,2.9553852E10,0E0,0E0,0E0,0E0,0E0,0E0],"parents":[2147483647,0,0,1,1,2,2,3,3,5,5,6,6],"right_children":[2,4,6,8,-1,10,12,-1,-1,-1,-1,-1,-1],"split_conditions":[8.082E4,7.628E4,2.2E7,1.8861E4,3.433664E5,1.72E7,1.18461E5,-1.0995814E5,1.9371764E4,-2.1950305E4,-1.872364E5,2.8385066E4,-4.1966E3],"split_indices":[1,1,2,1,0,2,1,0,0,0,0,0,0],"split_type":[0,0,0,0,0,0,0,0,0,0,0,0,0],"sum_hessian":[7.2E1,3.6E1,3.6E1,3.5E1,1E0,2.7E1,9E0,2E0,3.3E1,2.2E1,5E0,8E0,1E0],"tree_param":{"num_deleted":"0","num_feature":"3","num_nodes":"13","size_leaf_vector":"1"}},{"base_weights":[-1.1645911E4,-7.763551E4,2.2829425E5,-2.3879764E4,-5.395387E5,7.0477234E4,1.368252E5,-1.4024912E5,5.2639905E2,-1.4488427E5,-5.3198402E4,4.2648363E4,-9.529707E4],"categories":[],"categories_nodes":[],"categories_segments":[],"categories_sizes":[],"default_left":[0,0,0,0,0,0,0,0,0,0,0,0,0],"id":24,"left_children":[1,3,5,7,9,11,-1,-1,-1,-1,-1,-1,-1],"loss_changes":[1.1735732E12,1.427253E12,1.1027929E12,9.5362816E11,1.1075387E11,1.116736E12,0E0,0E0,0E0,0E0,0E0,0E0,0E0],"parents":[2147483647,0,0,1,1,2,2,3,3,4,4,5,5],"right_children":[2,4,6,8,10,12,-1,-1,-1,-1,-1,-1,-1],"split_conditions":[2.024E3,2.69E7,3.3E7,2.01E3,2.023E3,3E7,1.368252E5,-1.4024912E5,5.2639905E2,-1.4488427E5,-5.3198402E4,4.2648363E4,-9.529707E4],"split_indices":[0,2,2,0,0,2,0,0,0,0,0,0,0],"split_type":[0,0,0,0,0,0,0,0,0,0,0,0,0],"sum_hessian":[7.2E1,5.7E1,1.5E1,5.2E1,5E0,1.2E1,3E0,1E0,5.1E1,2E0,3E0,1E1,2E0],"tree_param":{"num_deleted":"0","num_feature":"3","num_nodes":"13","size_leaf_vector":"1"}},{"base_weights":[-2.492338E4,8.7179E4,-1.712789E5,-4.8024266E4,3.9248047E5,-1.7745334E5,-9.397083E4,1.9984668E4,-4.983612E4,1.581908E5,8.91305E3,-1.2693337E5,-6.536602E3],"categories":[],"categories_nodes":[],"categories_segments":[],"categories_sizes":[],"default_left":[0,0,0,0,0,0,0,0,0,0,0,0,0],"id":25,"left_children":[1,3,5,7,9,-1,11,-1,-1,-1,-1,-1,-1],"loss_changes":[1.2126285E12,1.7525143E12,1.687875E12,9.177169E11,1.767006E12,0E0,9.733996E11,0E0,0E0,0E0,0E0,0E0,0E0],"parents":[2147483647,0,0,1,1,2,2,3,3,4,4,6,6],"right_children":[2,4,6,8,10,-1,12,-1,-1,-1,-1,-1,-1],"split_conditions":[1.01555E5,6.6651E4,1.07317E5,4.2626E4,8.082E4,-1.7745334E5,8E5,1.9984668E4,-4.983612E4,1.581908E5,8.91305E3,-1.2693337E5,-6.536602E3],"split_indices":[1,1,1,1,1,0,2,0,0,0,0,0,0],"split_type":[0,0,0,0,0,0,0,0,0,0,0,0,0],"sum_hessian":[7.2E1,4.1E1,3.1E1,2.9E1,1.2E1,2E0,2.9E1,1.7E1,1.2E1,5E0,7E0,2E0,2.7E1],"tree_param":{"num_deleted":"0","num_feature":"3","num_nodes":"13","size_leaf_vector":"1"}},{"base_weights":[3.525E4,-1.1000894E5,5.9830484E4,7.797429E4,-1.192092E5,9.436807E3,1.13304E5],"categories":[],"categories_nodes":[],"categories_segments":[],"categories_sizes":[],"default_left":[0,0,0,0,0,0,0],"id":26,"left_children":[1,-1,3,5,-1,-1,-1],"loss_changes":[1.06876096E12,0E0,8.794829E11,1.0111983E12,0E0,0E0,0E0],"parents":[2147483647,0,0,2,2,3,3],"right_children":[2,-1,4,6,-1,-1,-1],"split_conditions":[8E5,-1.1000894E5,3.49E7,3.3E7,-1.192092E5,9.436807E3,1.13304E5],"split_indices":[2,0,2,2,0,0,0],"split_type":[0,0,0,0,0,0,0],"sum_hessian":[7.1E1,2E0,6.9E1,6.8E1,1E0,6.5E1,3E0],"tree_param":{"num_deleted":"0","num_feature":"3","num_nodes":"7","size_leaf_vector":"1"}},{"base_weights":[-2.1425576E4,5.6004656E4,-2.4443805E5,-8.972007E4,1.897482E5,-1.3160973E5,-1.5706923E5,-6.605733E4,2.4950453E4,7.9974E4,3.5810352E3,7.05159E4,-4.21917E4],"categories":[],"categories_nodes":[],"categories_segments":[],"categories_sizes":[],"default_left":[0,0,0,0,0,0,0,0,0,0,0,0,0],"id":27,"left_children":[1,3,5,7,9,-1,11,-1,-1,-1,-1,-1,-1],"loss_changes":[1.274247E12,1.0889601E12,5.832375E11,1.4342655E12,1.0399712E12,0E0,5.4127775E11,0E0,0E0,0E0,0E0,0E0,0E0],"parents":[2147483647,0,0,1,1,2,2,3,3,4,4,6,6],"right_children":[2,4,6,8,10,-1,12,-1,-1,-1,-1,-1,-1],"split_conditions":[1.22344E5,6.2551E4,1.25559E5,2.024E3,8.082E4,-1.3160973E5,1.34194E5,-6.605733E4,2.4950453E4,7.9974E4,3.5810352E3,7.05159E4,-4.21917E4],"split_indices":[1,1,1,0,1,0,1,0,0,0,0,0,0],"split_type":[0,0,0,0,0,0,0,0,0,0,0,0,0],"sum_hessian":[7.2E1,5.4E1,1.8E1,2.6E1,2.8E1,2E0,1.6E1,1.2E1,1.4E1,1.2E1,1.6E1,1E0,1.5E1],"tree_param":{"num_deleted":"0","num_feature":"3","num_nodes":"13","size_leaf_vector":"1"}},{"base_weights":[-3.7226363E4,-8.97155E4,-1.8802018E4,-4.272224E3,-1.00682805E5,-6.590225E3,9.25656E4],"categories":[],"categories_nodes":[],"categories_segments":[],"categories_sizes":[],"default_left":[0,0,0,0,0,0,0],"id":28,"left_children":[1,-1,3,5,-1,-1,-1],"loss_changes":[5.2966595E11,0E0,4.8369982E11,9.2617336E11,0E0,0E0,0E0],"parents":[2147483647,0,0,2,2,3,3],"right_children":[2,-1,4,6,-1,-1,-1],"split_conditions":[8E5,-8.97155E4,3.49E7,3.3E7,-1.00682805E5,-6.590225E3,9.25656E4],"split_indices":[2,0,2,2,0,0,0],"split_type":[0,0,0,0,0,0,0],"sum_hessian":[7E1,2E0,6.8E1,6.7E1,1E0,6.4E1,3E0],"tree_param":{"num_deleted":"0","num_feature":"3","num_nodes":"7","size_leaf_vector":"1"}},{"base_weights":[1.2304247E4,-1.3272331E5,6.745469E4,-4.6073684E5,-1.4230312E3,2.5524728E5,3.2510952E3,-4.089E2,-1.1041327E5,-2.0238932E4,6.46381E4,-6.6721E4,6.5241105E4,-5.1120863E4,2.306268E4],"categories":[],"categories_nodes":[],"categories_segments":[],"categories_sizes":[],"default_left":[0,0,0,0,0,0,0,0,0,0,0,0,0,0,0],"id":29,"left_children":[1,3,5,7,9,11,13,-1,-1,-1,-1,-1,-1,-1,-1],"loss_changes":[6.0882787E11,9.037779E11,6.62303E11,2.5022444E11,5.5090066E11,6.9379876E11,1.2478078E12,0E0,0E0,0E0,0E0,0E0,0E0,0E0,0E0],"parents":[2147483647,0,0,1,1,2,2,3,3,4,4,5,5,6,6],"right_children":[2,4,6,8,10,12,14,-1,-1,-1,-1,-1,-1,-1,-1],"split_conditions":[2.021E3,1.22392E5,4.0447E4,2.016E3,2.015E3,1.8861E4,6.2551E4,-4.089E2,-1.1041327E5,-2.0238932E4,6.46381E4,-6.6721E4,6.5241105E4,-5.1120863E4,2.306268E4],"split_indices":[0,1,1,0,0,1,1,0,0,0,0,0,0,0,0],"split_type":[0,0,0,0,0,0,0,0,0,0,0,0,0,0,0],"sum_hessian":[7.4E1,2E1,5.4E1,5E0,1.5E1,1.3E1,4.1E1,1E0,4E0,1.2E1,3E0,1E0,1.2E1,1.2E1,2.9E1],"tree_param":{"num_deleted":"0","num_feature":"3","num_nodes":"15","size_leaf_vector":"1"}},{"base_weights":[-2.7654467E4,5.554126E4,-1.5429944E5,-1.0077897E4,3.68492E5,-5.0042777E4,-1.638914E5,-8.006507E4,4.3672324E3,2.8257E5,3.492457E3,1.3696742E4,-3.2998957E4],"categories":[],"categories_nodes":[],"categories_segments":[],"categories_sizes":[],"default_left":[0,0,0,0,0,0,0,0,0,0,0,0,0],"id":30,"left_children":[1,3,5,7,9,11,-1,-1,-1,-1,-1,-1,-1],"loss_changes":[7.98794E11,9.4834957E11,2.0394053E12,4.9446237E11,2.908134E12,3.7917062E11,0E0,0E0,0E0,0E0,0E0,0E0,0E0],"parents":[2147483647,0,0,1,1,2,2,3,3,4,4,5,5],"right_children":[2,4,6,8,10,12,-1,-1,-1,-1,-1,-1,-1],"split_conditions":[1.01555E5,7.628E4,2.022E3,1.8861E4,8.082E4,1.34194E5,-1.638914E5,-8.006507E4,4.3672324E3,2.8257E5,3.492457E3,1.3696742E4,-3.2998957E4],"split_indices":[1,1,0,1,1,1,0,0,0,0,0,0,0],"split_type":[0,0,0,0,0,0,0,0,0,0,0,0,0],"sum_hessian":[7.4E1,4.5E1,2.9E1,3.8E1,7E0,2.6E1,3E0,2E0,3.6E1,1E0,6E0,1.3E1,1.3E1],"tree_param":{"num_deleted":"0","num_feature":"3","num_nodes":"13","size_leaf_vector":"1"}},{"base_weights":[-2.0830416E4,4.551139E4,-1.1267565E5,-8.15795E4,8.6630555E4,-3.1071482E4,-1.3930761E5,2.54313E5,5.6284956E3,-8.401545E4,-6.3441376E2],"categories":[],"categories_nodes":[],"categories_segments":[],"categories_sizes":[],"default_left":[0,0,0,0,0,0,0,0,0,0,0],"id":31,"left_children":[1,3,5,-1,7,9,-1,-1,-1,-1,-1],"loss_changes":[4.80396E11,8.92951E11,1.5506622E12,0E0,2.9443104E12,3.2425846E11,0E0,0E0,0E0,0E0,0E0],"parents":[2147483647,0,0,1,1,2,2,4,4,5,5],"right_children":[2,4,6,-1,8,10,-1,-1,-1,-1,-1],"split_conditions":[1.01555E5,2.021E3,2.022E3,-8.15795E4,2.022E3,2.01E3,-1.3930761E5,2.54313E5,5.6284956E3,-8.401545E4,-6.3441376E2],"split_indices":[1,0,0,0,0,0,0,0,0,0,0],"split_type":[0,0,0,0,0,0,0,0,0,0,0],"sum_hessian":[7.7E1,4.5E1,3.2E1,3E0,4.2E1,2.9E1,3E0,1E0,4.1E1,1E0,2.8E1],"tree_param":{"num_deleted":"0","num_feature":"3","num_nodes":"11","size_leaf_vector":"1"}},{"base_weights":[-2.056881E4,-9.000986E3,-8.6502E4,5.581019E4,-9.3784375E4,-3.7905E3,5.36456E4,-1.1729814E5,-8.2775205E3],"categories":[],"categories_nodes":[],"categories_segments":[],"categories_sizes":[],"default_left":[0,0,0,0,0,0,0,0,0],"id":32,"left_children":[1,3,-1,5,7,-1,-1,-1,-1],"loss_changes":[3.4873645E11,4.0636265E11,0E0,6.720825E11,8.018456E11,0E0,0E0,0E0,0E0],"parents":[2147483647,0,0,1,1,3,3,4,4],"right_children":[2,4,-1,6,8,-1,-1,-1,-1],"split_conditions":[3.49E7,1.01555E5,-8.6502E4,6.6651E4,1.07317E5,-3.7905E3,5.36456E4,-1.1729814E5,-8.2775205E3],"split_indices":[2,1,0,1,1,0,0,0,0],"split_type":[0,0,0,0,0,0,0,0,0],"sum_hessian":[7.3E1,7.2E1,1E0,4.1E1,3.1E1,3.1E1,1E1,2E0,2.9E1],"tree_param":{"num_deleted":"0","num_feature":"3","num_nodes":"9","size_leaf_vector":"1"}},{"base_weights":[5.4780264E3,-2.7894E4,1.4305053E5,-2.3818733E5,2.2133725E4,-5.2226E4,1.9057272E5,-2.5813521E4,-1.04504805E5,4.849874E4,-1.0377426E4,6.2690844E4,-5.1023335E3],"categories":[],"categories_nodes":[],"categories_segments":[],"categories_sizes":[],"default_left":[0,0,0,0,0,0,0,0,0,0,0,0,0],"id":33,"left_children":[1,3,5,7,9,-1,11,-1,-1,-1,-1,-1,-1],"loss_changes":[3.5291182E11,6.575428E11,3.3787734E11,3.0488003E11,8.444552E11,0E0,3.7973564E11,0E0,0E0,0E0,0E0,0E0,0E0],"parents":[2147483647,0,0,1,1,2,2,3,3,4,4,6,6],"right_children":[2,4,6,8,10,-1,12,-1,-1,-1,-1,-1,-1],"split_conditions":[2.024E3,6.2551E4,1.8861E4,5.798E4,8.082E4,-5.2226E4,4.0447E4,-2.5813521E4,-1.04504805E5,4.849874E4,-1.0377426E4,6.2690844E4,-5.1023335E3],"split_indices":[0,1,1,1,1,0,1,0,0,0,0,0,0],"split_type":[0,0,0,0,0,0,0,0,0,0,0,0,0],"sum_hessian":[7.5E1,6.1E1,1.4E1,1.1E1,5E1,1E0,1.3E1,9E0,2E0,1.2E1,3.8E1,8E0,5E0],"tree_param":{"num_deleted":"0","num_feature":"3","num_nodes":"13","size_leaf_vector":"1"}},{"base_weights":[1.7871E4,2.8724225E4,-7.5270805E4,1.2767765E4,5.85606E4,-7.840347E4,6.1947275E3],"categories":[],"categories_nodes":[],"categories_segments":[],"categories_sizes":[],"default_left":[0,0,0,0,0,0,0],"id":34,"left_children":[1,3,-1,5,-1,-1,-1],"loss_changes":[3.188706E11,2.954387E11,0E0,5.1326586E11,0E0,0E0,0E0],"parents":[2147483647,0,0,1,1,3,3],"right_children":[2,4,-1,6,-1,-1,-1],"split_conditions":[3.49E7,3.3E7,-7.5270805E4,2.6327E4,5.85606E4,-7.840347E4,6.1947275E3],"split_indices":[2,2,0,1,0,0,0],"split_type":[0,0,0,0,0,0,0],"sum_hessian":[7.1E1,7E1,1E0,6.7E1,3E0,2E0,6.5E1],"tree_param":{"num_deleted":"0","num_feature":"3","num_nodes":"7","size_leaf_vector":"1"}},{"base_weights":[8.419983E3,-7.4367875E4,1.8722705E4,9.06223E4,-3.6503715E4,1.0352427E5,8.98033E3,2.9725437E3,-1.056401E5],"categories":[],"categories_nodes":[],"categories_segments":[],"categories_sizes":[],"default_left":[0,0,0,0,0,0,0,0,0],"id":35,"left_children":[1,-1,3,5,7,-1,-1,-1,-1],"loss_changes":[2.968721E11,0E0,2.9317333E11,6.014835E11,1.06863224E12,0E0,0E0,0E0,0E0],"parents":[2147483647,0,0,2,2,3,3,4,4],"right_children":[2,-1,4,6,8,-1,-1,-1,-1],"split_conditions":[2.01E3,-7.4367875E4,2.022E3,8.082E4,1.01555E5,1.0352427E5,8.98033E3,2.9725437E3,-1.056401E5],"split_indices":[0,0,0,1,1,0,0,0,0],"split_type":[0,0,0,0,0,0,0,0,0],"sum_hessian":[7.3E1,1E0,7.2E1,3.1E1,4.1E1,2E0,2.9E1,3.8E1,3E0],"tree_param":{"num_deleted":"0","num_feature":"3","num_nodes":"9","size_leaf_vector":"1"}},{"base_weights":[-2.240553E4,-1.1415104E5,3.785679E4,-6.02778E4,-8.44642E4,5.4958332E4,-6.8040805E4,-2.0860658E4,2.7336959E4,-1.04110344E2,3.3190656E4],"categories":[],"categories_nodes":[],"categories_segments":[],"categories_sizes":[],"default_left":[0,0,0,0,0,0,0,0,0,0,0],"id":36,"left_children":[1,3,5,7,-1,9,-1,-1,-1,-1,-1],"loss_changes":[3.9133718E11,4.394026E11,2.9671024E11,2.3104104E11,0E0,2.5871719E11,0E0,0E0,0E0,0E0,0E0],"parents":[2147483647,0,0,1,1,2,2,3,3,5,5],"right_children":[2,4,6,8,-1,10,-1,-1,-1,-1,-1],"split_conditions":[2.1E7,1.72E7,3.49E7,2.022E3,-8.44642E4,2.8E7,-6.8040805E4,-2.0860658E4,2.7336959E4,-1.04110344E2,3.3190656E4],"split_indices":[2,2,2,0,0,2,0,0,0,0,0],"split_type":[0,0,0,0,0,0,0,0,0,0,0],"sum_hessian":[6.9E1,2.7E1,4.2E1,2.4E1,3E0,4.1E1,1E0,2E1,4E0,2.8E1,1.3E1],"tree_param":{"num_deleted":"0","num_feature":"3","num_nodes":"11","size_leaf_vector":"1"}},{"base_weights":[-3.9737336E4,-5.7038934E4,-2.938921E4,-5.6495566E4,1.0423308E5,-3.3886145E4,-4.748763E3,3.81975E4,-5.7623335E3],"categories":[],"categories_nodes":[],"categories_segments":[],"categories_sizes":[],"default_left":[0,0,0,0,0,0,0,0,0],"id":37,"left_children":[1,-1,3,5,7,-1,-1,-1,-1],"loss_changes":[1.8720016E11,0E0,2.7753972E11,2.2900299E11,1.5555151E11,0E0,0E0,0E0,0E0],"parents":[2147483647,0,0,2,2,3,3,4,4],"right_children":[2,-1,4,6,8,-1,-1,-1,-1],"split_conditions":[1.8861E4,-5.7038934E4,2.024E3,6.2551E4,4.0447E4,-3.3886145E4,-4.748763E3,3.81975E4,-5.7623335E3],"split_indices":[1,0,0,1,1,0,0,0,0],"split_type":[0,0,0,0,0,0,0,0,0],"sum_hessian":[7.6E1,2E0,7.4E1,6.2E1,1.2E1,1.3E1,4.9E1,7E0,5E0],"tree_param":{"num_deleted":"0","num_feature":"3","num_nodes":"9","size_leaf_vector":"1"}},{"base_weights":[7.236711E2,-5.557657E4,1.200875E4,-4.9433867E4,2.2641049E4,-1.7315751E3,3.30712E4],"categories":[],"categories_nodes":[],"categories_segments":[],"categories_sizes":[],"default_left":[0,0,0,0,0,0,0],"id":38,"left_children":[1,-1,3,-1,5,-1,-1],"loss_changes":[2.4228835E11,0E0,2.0951494E11,0E0,3.2304297E11,0E0,0E0],"parents":[2147483647,0,0,2,2,4,4],"right_children":[2,-1,4,-1,6,-1,-1],"split_conditions":[8E5,-5.557657E4,1.8861E4,-4.9433867E4,2.8E7,-1.7315751E3,3.30712E4],"split_indices":[2,0,1,0,2,0,0],"split_type":[0,0,0,0,0,0,0],"sum_hessian":[7.5E1,2E0,7.3E1,2E0,7.1E1,5.9E1,1.2E1],"tree_param":{"num_deleted":"0","num_feature":"3","num_nodes":"7","size_leaf_vector":"1"}},{"base_weights":[1.0293945E4,-4.2842668E4,1.9635184E4,5.271076E4,-2.7325133E4,-6.30442E4,1.781916E4,5.8344893E3,-8.03705E4],"categories":[],"categories_nodes":[],"categories_segments":[],"categories_sizes":[],"default_left":[0,0,0,0,0,0,0,0,0],"id":39,"left_children":[1,-1,3,5,7,-1,-1,-1,-1],"loss_changes":[1.5729997E11,0E0,1.1172035E11,5.903476E11,6.465197E11,0E0,0E0,0E0,0E0],"parents":[2147483647,0,0,2,2,3,3,4,4],"right_children":[2,-1,4,6,8,-1,-1,-1,-1],"split_conditions":[1.8861E4,-4.2842668E4,1.01555E5,2.021E3,2.022E3,-6.30442E4,1.781916E4,5.8344893E3,-8.03705E4],"split_indices":[1,0,1,0,0,0,0,0,0],"split_type":[0,0,0,0,0,0,0,0,0],"sum_hessian":[7.2E1,2E0,7E1,4.1E1,2.9E1,3E0,3.8E1,2.6E1,3E0],"tree_param":{"num_deleted":"0","num_feature":"3","num_nodes":"9","size_leaf_vector":"1"}},{"base_weights":[-4.6317473E4,-5.939595E4,-3.8604203E4,-5.720535E4,1.9343916E4,-6.079812E4,-6.2765444E3,5.890607E4,-6.6925063E3],"categories":[],"categories_nodes":[],"categories_segments":[],"categories_sizes":[],"default_left":[0,0,0,0,0,0,0,0,0],"id":40,"left_children":[1,-1,3,5,7,-1,-1,-1,-1],"loss_changes":[1.2774195E11,0E0,7.7637575E10,3.3458278E11,2.7142485E11,0E0,0E0,0E0,0E0],"parents":[2147483647,0,0,2,2,3,3,4,4],"right_children":[2,-1,4,6,8,-1,-1,-1,-1],"split_conditions":[2.01E3,-5.939595E4,1.25559E5,2.021E3,1.34194E5,-6.079812E4,-6.2765444E3,5.890607E4,-6.6925063E3],"split_indices":[0,0,1,0,1,0,0,0,0],"split_type":[0,0,0,0,0,0,0,0,0],"sum_hessian":[7.1E1,1E0,7E1,5.3E1,1.7E1,4E0,4.9E1,2E0,1.5E1],"tree_param":{"num_deleted":"0","num_feature":"3","num_nodes":"9","size_leaf_vector":"1"}},{"base_weights":[4.546836E3,-6.215969E4,4.2987344E4,-1.1983833E4,-8.8569336E4,2.129069E5,-1.1644157E4,-5.50818E4,2.2887478E3,2.156354E5,3.71244E3,-5.345635E4,7.4716473E2],"categories":[],"categories_nodes":[],"categories_segments":[],"categories_sizes":[],"default_left":[0,0,0,0,0,0,0,0,0,0,0,0,0],"id":41,"left_children":[1,3,5,7,-1,9,11,-1,-1,-1,-1,-1,-1],"loss_changes":[1.8216839E11,4.913267E11,4.2021234E11,1.512656E11,0E0,1.8297541E12,1.3860805E11,0E0,0E0,0E0,0E0,0E0,0E0],"parents":[2147483647,0,0,1,1,2,2,3,3,5,5,6,6],"right_children":[2,4,6,8,-1,10,12,-1,-1,-1,-1,-1,-1],"split_conditions":[6.2551E4,5.798E4,8.082E4,2.021E3,-8.8569336E4,2.022E3,2.01E3,-5.50818E4,2.2887478E3,2.156354E5,3.71244E3,-5.345635E4,7.4716473E2],"split_indices":[1,1,1,0,0,0,0,0,0,0,0,0,0],"split_type":[0,0,0,0,0,0,0,0,0,0,0,0,0],"sum_hessian":[6.9E1,2.5E1,4.4E1,2.3E1,2E0,1E1,3.4E1,1E0,2.2E1,1E0,9E0,1E0,3.3E1],"tree_param":{"num_deleted":"0","num_feature":"3","num_nodes":"13","size_leaf_vector":"1"}},{"base_weights":[2.4008174E4,-1.3966186E5,3.7892406E4,-4.8110715E4,-7.13728E4,1.1428497E5,-1.706556E4,1.1053025E4,-2.3369713E4,1.940718E5,9.811043E3,1.3365601E4,-1.1680571E4],"categories":[],"categories_nodes":[],"categories_segments":[],"categories_sizes":[],"default_left":[0,0,0,0,0,0,0,0,0,0,0,0,0],"id":42,"left_children":[1,3,5,-1,7,9,11,-1,-1,-1,-1,-1,-1],"loss_changes":[1.7345215E11,2.41698E10,2.9163854E11,0E0,3.5252433E10,1.5718023E12,1.460882E11,0E0,0E0,0E0,0E0,0E0,0E0],"parents":[2147483647,0,0,1,1,2,2,4,4,5,5,6,6],"right_children":[2,4,6,-1,8,10,12,-1,-1,-1,-1,-1,-1],"split_conditions":[2.013E3,2.01E3,2.022E3,-4.8110715E4,1.8541E5,8.082E4,4.0447E4,1.1053025E4,-2.3369713E4,1.940718E5,9.811043E3,1.3365601E4,-1.1680571E4],"split_indices":[0,0,0,0,1,1,1,0,0,0,0,0,0],"split_type":[0,0,0,0,0,0,0,0,0,0,0,0,0],"sum_hessian":[7.3E1,5E0,6.8E1,1E0,4E0,2.8E1,4E1,1E0,3E0,1E0,2.7E1,1.3E1,2.7E1],"tree_param":{"num_deleted":"0","num_feature":"3","num_nodes":"13","size_leaf_vector":"1"}},{"base_weights":[-8.432735E3,-5.960145E4,2.331887E4,-2.2237111E4,-7.520267E4,1.6963317E5,-2.6100309E4,-6.8980805E4,6.8773846E2,1.7466461E5,5.253673E3,-4.3299637E4,-2.8949414E3],"categories":[],"categories_nodes":[],"categories_segments":[],"categories_sizes":[],"default_left":[0,0,0,0,0,0,0,0,0,0,0,0,0],"id":43,"left_children":[1,3,5,7,-1,9,11,-1,-1,-1,-1,-1,-1],"loss_changes":[1.2324149E11,3.344916E11,3.4427188E11,2.2487378E11,0E0,1.1876714E12,7.65519E10,0E0,0E0,0E0,0E0,0E0,0E0],"parents":[2147483647,0,0,1,1,2,2,3,3,5,5,6,6],"right_children":[2,4,6,8,-1,10,12,-1,-1,-1,-1,-1,-1],"split_conditions":[6.2551E4,5.798E4,8.082E4,2.021E3,-7.520267E4,2.022E3,2.01E3,-6.8980805E4,6.8773846E2,1.7466461E5,5.253673E3,-4.3299637E4,-2.8949414E3],"split_indices":[1,1,1,0,0,0,0,0,0,0,0,0,0],"split_type":[0,0,0,0,0,0,0,0,0,0,0,0,0],"sum_hessian":[7.4E1,2.8E1,4.6E1,2.6E1,2E0,1.1E1,3.5E1,1E0,2.5E1,1E0,1E1,1E0,3.4E1],"tree_param":{"num_deleted":"0","num_feature":"3","num_nodes":"13","size_leaf_vector":"1"}},{"base_weights":[-1.14935205E4,-2.002776E5,2.15525E3,-6.20828E4,-9.514E4,3.0914195E4,-7.128783E4,-3.8472535E4,1.96528E4,3.0824428E4,-3.0583474E3,-5.442235E4,-3.968347E3],"categories":[],"categories_nodes":[],"categories_segments":[],"categories_sizes":[],"default_left":[0,0,0,0,0,0,0,0,0,0,0,0,0],"id":44,"left_children":[1,3,5,-1,7,9,11,-1,-1,-1,-1,-1,-1],"loss_changes":[1.9110527E11,2.8364587E10,1.5005398E11,0E0,9.411533E10,2.9269665E11,2.0123292E11,0E0,0E0,0E0,0E0,0E0,0E0],"parents":[2147483647,0,0,1,1,2,2,4,4,5,5,6,6],"right_children":[2,4,6,-1,8,10,12,-1,-1,-1,-1,-1,-1],"split_conditions":[2.6327E4,2.021E3,1.20276E5,-6.20828E4,1.8861E4,2.022E3,1.25559E5,-3.8472535E4,1.96528E4,3.0824428E4,-3.0583474E3,-5.442235E4,-3.968347E3],"split_indices":[1,0,1,0,1,0,1,0,0,0,0,0,0],"split_type":[0,0,0,0,0,0,0,0,0,0,0,0,0],"sum_hessian":[7.3E1,4E0,6.9E1,1E0,3E0,5E1,1.9E1,2E0,1E0,1.3E1,3.7E1,3E0,1.6E1],"tree_param":{"num_deleted":"0","num_feature":"3","num_nodes":"13","size_leaf_vector":"1"}},{"base_weights":[2.8465234E3,1.1146233E4,-6.11332E4,4.990123E4,-1.0885667E4,-1.4909596E3,1.541158E5,-6.1085332E4,1.7120348E3],"categories":[],"categories_nodes":[],"categories_segments":[],"categories_sizes":[],"default_left":[0,0,0,0,0,0,0,0,0],"id":45,"left_children":[1,3,-1,5,7,-1,-1,-1,-1],"loss_changes":[1.9544936E11,6.3727833E10,0E0,1.1217953E12,2.7753916E11,0E0,0E0,0E0,0E0],"parents":[2147483647,0,0,1,1,3,3,4,4],"right_children":[2,4,-1,6,8,-1,-1,-1,-1],"split_conditions":[3.49E7,2.04E7,-6.11332E4,1.9E7,2.1E7,-1.4909596E3,1.541158E5,-6.1085332E4,1.7120348E3],"split_indices":[2,2,0,2,2,0,0,0,0],"split_type":[0,0,0,0,0,0,0,0,0],"sum_hessian":[7.4E1,7.3E1,1E0,2.6E1,4.7E1,2.5E1,1E0,2E0,4.5E1],"tree_param":{"num_deleted":"0","num_feature":"3","num_nodes":"9","size_leaf_vector":"1"}},{"base_weights":[-1.5871855E4,-8.346107E3,-5.502E4,-6.44278E4,1.649676E4,-1.2248309E3,-4.37767E4,3.88335E4,-3.3883813E3],"categories":[],"categories_nodes":[],"categories_segments":[],"categories_sizes":[],"default_left":[0,0,0,0,0,0,0,0,0],"id":46,"left_children":[1,3,-1,5,7,-1,-1,-1,-1],"loss_changes":[1.3816776E11,9.998219E10,0E0,1.9677682E11,3.003432E11,0E0,0E0,0E0,0E0],"parents":[2147483647,0,0,1,1,3,3,4,4],"right_children":[2,4,-1,6,8,-1,-1,-1,-1],"split_conditions":[3.49E7,2.021E3,-5.502E4,2.017E3,2.04E7,-1.2248309E3,-4.37767E4,3.88335E4,-3.3883813E3],"split_indices":[2,0,0,0,2,0,0,0,0],"split_type":[0,0,0,0,0,0,0,0,0],"sum_hessian":[7.1E1,7E1,1E0,2.1E1,4.9E1,1.6E1,5E0,7E0,4.2E1],"tree_param":{"num_deleted":"0","num_feature":"3","num_nodes":"9","size_leaf_vector":"1"}},{"base_weights":[3.3328838E3,-4.880712E4,3.0996016E4,-1.0956956E4,-6.454453E4,1.3599667E5,-4.865201E3,-5.1348E4,2.377E3,1.348208E5,5.1591274E3,-3.830125E4,1.1878015E3],"categories":[],"categories_nodes":[],"categories_segments":[],"categories_sizes":[],"default_left":[0,0,0,0,0,0,0,0,0,0,0,0,0],"id":47,"left_children":[1,3,5,7,-1,9,11,-1,-1,-1,-1,-1,-1],"loss_changes":[1.0392009E11,2.5565764E11,1.7763785E11,1.3217717E11,0E0,6.9421085E11,7.373167E10,0E0,0E0,0E0,0E0,0E0,0E0],"parents":[2147483647,0,0,1,1,2,2,3,3,5,5,6,6],"right_children":[2,4,6,8,-1,10,12,-1,-1,-1,-1,-1,-1],"split_conditions":[6.2551E4,5.798E4,8.082E4,2.021E3,-6.454453E4,2.022E3,2.01E3,-5.1348E4,2.377E3,1.348208E5,5.1591274E3,-3.830125E4,1.1878015E3],"split_indices":[1,1,1,0,0,0,0,0,0,0,0,0,0],"split_type":[0,0,0,0,0,0,0,0,0,0,0,0,0],"sum_hessian":[7E1,2.4E1,4.6E1,2.2E1,2E0,1.1E1,3.5E1,1E0,2.1E1,1E0,1E1,1E0,3.4E1],"tree_param":{"num_deleted":"0","num_feature":"3","num_nodes":"13","size_leaf_vector":"1"}},{"base_weights":[-4.5691553E3,2.184089E3,-4.97556E4,-3.3436266E4,9.309612E3,-2.0894717E3,2.1463732E4],"categories":[],"categories_nodes":[],"categories_segments":[],"categories_sizes":[],"default_left":[0,0,0,0,0,0,0],"id":48,"left_children":[1,3,-1,-1,5,-1,-1],"loss_changes":[1.225843E11,8.965407E10,0E0,0E0,1.386029E11,0E0,0E0],"parents":[2147483647,0,0,1,1,4,4],"right_children":[2,4,-1,-1,6,-1,-1],"split_conditions":[3.49E7,1.8861E4,-4.97556E4,-3.3436266E4,2.8E7,-2.0894717E3,2.1463732E4],"split_indices":[2,1,0,0,2,0,0],"split_type":[0,0,0,0,0,0,0],"sum_hessian":[7.3E1,7.2E1,1E0,2E0,7E1,5.9E1,1.1E1],"tree_param":{"num_deleted":"0","num_feature":"3","num_nodes":"7","size_leaf_vector":"1"}},{"base_weights":[6.59974E3,5.1293494E2,2.32068E4,6.6495244E3,-2.8978135E4,1.0732791E4,-1.3803822E3],"categories":[],"categories_nodes":[],"categories_segments":[],"categories_sizes":[],"default_left":[0,0,0,0,0,0,0],"id":49,"left_children":[1,3,-1,5,-1,-1,-1],"loss_changes":[5.0564465E10,6.610006E10,0E0,4.56054E10,0E0,0E0,0E0],"parents":[2147483647,0,0,1,1,3,3],"right_children":[2,4,-1,6,-1,-1,-1],"split_conditions":[3.3E7,3.2E7,2.32068E4,8E6,-2.8978135E4,1.0732791E4,-1.3803822E3],"split_indices":[2,2,0,2,0,0,0],"split_type":[0,0,0,0,0,0,0],"sum_hessian":[7.5E1,7.2E1,3E0,7E1,2E0,1.5E1,5.5E1],"tree_param":{"num_deleted":"0","num_feature":"3","num_nodes":"7","size_leaf_vector":"1"}},{"base_weights":[-1.1828639E4,-5.5385103E3,-4.71008E4,-3.533545E4,-7.0773267E2,1.0667816E4,-2.934631E3],"categories":[],"categories_nodes":[],"categories_segments":[],"categories_sizes":[],"default_left":[0,0,0,0,0,0,0],"id":50,"left_children":[1,3,-1,-1,5,-1,-1],"loss_changes":[1.02809715E11,6.0226482E10,0E0,0E0,5.512729E10,0E0,0E0],"parents":[2147483647,0,0,1,1,4,4],"right_children":[2,4,-1,-1,6,-1,-1],"split_conditions":[3.49E7,7.2E5,-4.71008E4,-3.533545E4,8E6,1.0667816E4,-2.934631E3],"split_indices":[2,2,0,0,2,0,0],"split_type":[0,0,0,0,0,0,0],"sum_hessian":[7.3E1,7.2E1,1E0,1E0,7.1E1,1.4E1,5.7E1],"tree_param":{"num_deleted":"0","num_feature":"3","num_nodes":"7","size_leaf_vector":"1"}},{"base_weights":[-5.491061E3,-5.7074677E1,-4.23908E4,-1.09917625E5,9.098764E3,-2.9321916E4,-1.0983851E4,1.3587447E4,-7.6024335E2],"categories":[],"categories_nodes":[],"categories_segments":[],"categories_sizes":[],"default_left":[0,0,0,0,0,0,0,0,0],"id":51,"left_children":[1,3,-1,5,7,-1,-1,-1,-1],"loss_changes":[8.749742E10,7.845176E10,0E0,4.0562934E9,5.490733E10,0E0,0E0,0E0,0E0],"parents":[2147483647,0,0,1,1,3,3,4,4],"right_children":[2,4,-1,6,8,-1,-1,-1,-1],"split_conditions":[3.49E7,2.013E3,-4.23908E4,8E5,8E6,-2.9321916E4,-1.0983851E4,1.3587447E4,-7.6024335E2],"split_indices":[2,0,0,2,2,0,0,0,0],"split_type":[0,0,0,0,0,0,0,0,0],"sum_hessian":[7.7E1,7.6E1,1E0,5E0,7.1E1,2E0,3E0,1.2E1,5.9E1],"tree_param":{"num_deleted":"0","num_feature":"3","num_nodes":"9","size_leaf_vector":"1"}},{"base_weights":[-7.2971187E3,1.4763017E4,-8.042551E4,-3.4534816E4,5.347709E4,-2.971407E4,-6.48156E4,-8.61504E2,-5.498347E4,3.0531219E4,2.33328E3,-5.27713E4,6.971717E2],"categories":[],"categories_nodes":[],"categories_segments":[],"categories_sizes":[],"default_left":[0,0,0,0,0,0,0,0,0,0,0,0,0],"id":52,"left_children":[1,3,5,7,9,11,-1,-1,-1,-1,-1,-1,-1],"loss_changes":[1.2540543E11,1.1635801E11,2.1277775E11,1.9500084E11,1.3920833E11,1.2529596E11,0E0,0E0,0E0,0E0,0E0,0E0,0E0],"parents":[2147483647,0,0,1,1,2,2,3,3,4,4,5,5],"right_children":[2,4,6,8,10,12,-1,-1,-1,-1,-1,-1,-1],"split_conditions":[1.22344E5,6.2551E4,1.6E7,5.798E4,2.04E7,1.22392E5,-6.48156E4,-8.61504E2,-5.498347E4,3.0531219E4,2.33328E3,-5.27713E4,6.971717E2],"split_indices":[1,1,2,1,2,1,0,0,0,0,0,0,0],"split_type":[0,0,0,0,0,0,0,0,0,0,0,0,0],"sum_hessian":[7.6E1,5.9E1,1.7E1,2.6E1,3.3E1,1.5E1,2E0,2.4E1,2E0,9E0,2.4E1,1E0,1.4E1],"tree_param":{"num_deleted":"0","num_feature":"3","num_nodes":"13","size_leaf_vector":"1"}},{"base_weights":[2.142287E3,1.913122E4,-6.0638297E4,5.4267017E3,5.4628E4,-2.562125E4,-5.8589402E4,-4.80197E4,4.702652E3,-1.9046559E4,3.7415603E3],"categories":[],"categories_nodes":[],"categories_segments":[],"categories_sizes":[],"default_left":[0,0,0,0,0,0,0,0,0,0,0],"id":53,"left_children":[1,3,5,7,-1,9,-1,-1,-1,-1,-1],"loss_changes":[8.008665E10,2.0390078E11,1.22650575E11,2.5876572E11,0E0,4.80688E10,0E0,0E0,0E0,0E0,0E0],"parents":[2147483647,0,0,1,1,2,2,3,3,5,5],"right_children":[2,4,6,8,-1,10,-1,-1,-1,-1,-1],"split_conditions":[1.34194E5,1.22392E5,7E6,1.5E7,5.4628E4,6E6,-5.8589402E4,-4.80197E4,4.702652E3,-1.9046559E4,3.7415603E3],"split_indices":[1,1,2,2,0,2,0,0,0,0,0],"split_type":[0,0,0,0,0,0,0,0,0,0,0],"sum_hessian":[7.3E1,5.8E1,1.5E1,5.6E1,2E0,1.4E1,1E0,3E0,5.3E1,5E0,9E0],"tree_param":{"num_deleted":"0","num_feature":"3","num_nodes":"11","size_leaf_vector":"1"}},{"base_weights":[-1.161275E4,-6.492925E3,-3.8536E4,-6.699797E4,8.999763E3,-8.257821E3,-4.26922E4,4.81775E4,1.696931E2],"categories":[],"categories_nodes":[],"categories_segments":[],"categories_sizes":[],"default_left":[0,0,0,0,0,0,0,0,0],"id":54,"left_children":[1,3,-1,5,7,-1,-1,-1,-1],"loss_changes":[6.7349365E10,6.9032124E10,0E0,4.766735E10,1.1131658E11,0E0,0E0,0E0,0E0],"parents":[2147483647,0,0,1,1,3,3,4,4],"right_children":[2,4,-1,6,8,-1,-1,-1,-1],"split_conditions":[3.49E7,2.018E3,-3.8536E4,2.016E3,8E6,-8.257821E3,-4.26922E4,4.81775E4,1.696931E2],"split_indices":[2,0,0,0,2,0,0,0,0],"split_type":[0,0,0,0,0,0,0,0,0],"sum_hessian":[7.3E1,7.2E1,1E0,1.4E1,5.8E1,1.3E1,1E0,1E0,5.7E1],"tree_param":{"num_deleted":"0","num_feature":"3","num_nodes":"9","size_leaf_vector":"1"}},{"base_weights":[-2.0397917E2,4.2975796E3,-3.4682402E4,-2.6604656E4,2.151688E4,-1.0328438E4,1.4761333E4,1.18514805E5,-4.4613876E2],"categories":[],"categories_nodes":[],"categories_segments":[],"categories_sizes":[],"default_left":[0,0,0,0,0,0,0,0,0],"id":55,"left_children":[1,3,-1,5,7,-1,-1,-1,-1],"loss_changes":[6.1562327E10,4.1545298E10,0E0,7.420499E10,6.793829E11,0E0,0E0,0E0,0E0],"parents":[2147483647,0,0,1,1,3,3,4,4],"right_children":[2,4,-1,6,8,-1,-1,-1,-1],"split_conditions":[3.49E7,1.9E7,-3.4682402E4,2.022E3,2.04E7,-1.0328438E4,1.4761333E4,1.18514805E5,-4.4613876E2],"split_indices":[2,2,0,0,2,0,0,0,0],"split_type":[0,0,0,0,0,0,0,0,0],"sum_hessian":[7.7E1,7.6E1,1E0,2.7E1,4.9E1,2.2E1,5E0,1E0,4.8E1],"tree_param":{"num_deleted":"0","num_feature":"3","num_nodes":"9","size_leaf_vector":"1"}},{"base_weights":[6.4889805E3,5.0214504E4,-1.9890533E4,1.066634E5,1.1121447E4,-5.2593332E4,-2.4691628E3,8.894019E3,-1.1362312E4,9.8079047E2,-3.1214E4],"categories":[],"categories_nodes":[],"categories_segments":[],"categories_sizes":[],"default_left":[0,0,0,0,0,0,0,0,0,0,0],"id":56,"left_children":[1,3,5,-1,7,-1,9,-1,-1,-1,-1],"loss_changes":[8.2894316E10,5.039895E11,1.8991307E11,0E0,6.1428724E10,0E0,4.946358E10,0E0,0E0,0E0,0E0],"parents":[2147483647,0,0,1,1,2,2,4,4,6,6],"right_children":[2,4,6,-1,8,-1,10,-1,-1,-1,-1],"split_conditions":[2.04E7,8.082E4,2.1E7,1.066634E5,1.6E7,-5.2593332E4,3.49E7,8.894019E3,-1.1362312E4,9.8079047E2,-3.1214E4],"split_indices":[2,1,2,0,2,0,2,0,0,0,0],"split_type":[0,0,0,0,0,0,0,0,0,0,0],"sum_hessian":[7E1,2.6E1,4.4E1,1E0,2.5E1,2E0,4.2E1,1.7E1,8E0,4.1E1,1E0],"tree_param":{"num_deleted":"0","num_feature":"3","num_nodes":"11","size_leaf_vector":"1"}},{"base_weights":[-9.117729E3,-5.493592E3,-2.80928E4,-1.7819596E4,4.49984E4,-1.2250826E3,-4.8373066E4,4.7168003E3,1.95984E4],"categories":[],"categories_nodes":[],"categories_segments":[],"categories_sizes":[],"default_left":[0,0,0,0,0,0,0,0,0],"id":57,"left_children":[1,3,-1,5,7,-1,-1,-1,-1],"loss_changes":[3.540563E10,4.7479194E10,0E0,1.5834042E11,1.4711347E10,0E0,0E0,0E0,0E0],"parents":[2147483647,0,0,1,1,3,3,4,4],"right_children":[2,4,-1,6,8,-1,-1,-1,-1],"split_conditions":[3.49E7,2.8E7,-2.80928E4,2.69E7,3.3E7,-1.2250826E3,-4.8373066E4,4.7168003E3,1.95984E4],"split_indices":[2,2,0,2,2,0,0,0,0],"split_type":[0,0,0,0,0,0,0,0,0],"sum_hessian":[7.5E1,7.4E1,1E0,6E1,1.4E1,5.8E1,2E0,1.1E1,3E0],"tree_param":{"num_deleted":"0","num_feature":"3","num_nodes":"9","size_leaf_vector":"1"}},{"base_weights":[-1.0180125E4,-4.1055125E4,5.1500815E3,2.63072E4,-1.379931E5,9.61196E4,-1.4767542E4,-5.4140923E3,4.9768266E4,-5.7516902E4,1.3823041E4,-4.5417336E4,-1.19921745E2],"categories":[],"categories_nodes":[],"categories_segments":[],"categories_sizes":[],"default_left":[0,0,0,0,0,0,0,0,0,0,0,0,0],"id":58,"left_children":[1,3,5,7,9,-1,11,-1,-1,-1,-1,-1,-1],"loss_changes":[3.4290487E10,1.6034944E11,4.711171E11,1.8491153E11,3.2969268E11,0E0,1.4425373E11,0E0,0E0,0E0,0E0,0E0,0E0],"parents":[2147483647,0,0,1,1,2,2,3,3,4,4,6,6],"right_children":[2,4,6,8,10,-1,12,-1,-1,-1,-1,-1,-1],"split_conditions":[1.9E7,8E6,2.04E7,2.016E3,2.022E3,9.61196E4,2.1E7,-5.4140923E3,4.9768266E4,-5.7516902E4,1.3823041E4,-4.5417336E4,-1.19921745E2],"split_indices":[2,2,2,0,0,0,2,0,0,0,0,0,0],"split_type":[0,0,0,0,0,0,0,0,0,0,0,0,0],"sum_hessian":[7.1E1,2.3E1,4.8E1,1.4E1,9E0,1E0,4.7E1,1.2E1,2E0,5E0,4E0,2E0,4.5E1],"tree_param":{"num_deleted":"0","num_feature":"3","num_nodes":"13","size_leaf_vector":"1"}},{"base_weights":[-7.623255E3,-2.5840533E4,-2.5224126E3,1.3915566E4,-4.3888625E4,-2.5353E4,5.597347E3,-1.6459459E3,-3.86763E4],"categories":[],"categories_nodes":[],"categories_segments":[],"categories_sizes":[],"default_left":[0,0,0,0,0,0,0,0,0],"id":59,"left_children":[1,-1,3,5,7,-1,-1,-1,-1],"loss_changes":[4.6185906E10,0E0,5.024905E10,1.0846336E11,1.103543E11,0E0,0E0,0E0,0E0],"parents":[2147483647,0,0,2,2,3,3,4,4],"right_children":[2,-1,4,6,8,-1,-1,-1,-1],"split_conditions":[1.8861E4,-2.5840533E4,1.20276E5,2.021E3,2.021E3,-2.5353E4,5.597347E3,-1.6459459E3,-3.86763E4],"split_indices":[1,0,1,0,0,0,0,0,0],"split_type":[0,0,0,0,0,0,0,0,0],"sum_hessian":[7.4E1,2E0,7.2E1,5.2E1,2E1,4E0,4.8E1,1.7E1,3E0],"tree_param":{"num_deleted":"0","num_feature":"3","num_nodes":"9","size_leaf_vector":"1"}},{"base_weights":[7.9832465E2,-4.8902977E4,1.4735562E4,-2.9674019E3,-4.93936E4,1.19557E5,-4.8180815E3,-1.2875921E4,7.6607554E3,8.5947805E4,5.413375E3,-4.0108E4,1.5554639E3],"categories":[],"categories_nodes":[],"categories_segments":[],"categories_sizes":[],"default_left":[0,0,0,0,0,0,0,0,0,0,0,0,0],"id":60,"left_children":[1,3,5,7,-1,9,11,-1,-1,-1,-1,-1,-1],"loss_changes":[5.0594927E10,1.4483884E11,1.1740557E11,3.794974E10,0E0,2.4656727E11,1.2235426E11,0E0,0E0,0E0,0E0,0E0,0E0],"parents":[2147483647,0,0,1,1,2,2,3,3,5,5,6,6],"right_children":[2,4,6,8,-1,10,12,-1,-1,-1,-1,-1,-1],"split_conditions":[1.5E7,8E6,2.04E7,6E6,-4.93936E4,8.082E4,2.1E7,-1.2875921E4,7.6607554E3,8.5947805E4,5.413375E3,-4.0108E4,1.5554639E3],"split_indices":[2,2,2,2,0,1,2,0,0,0,0,0,0],"split_type":[0,0,0,0,0,0,0,0,0,0,0,0,0],"sum_hessian":[7.1E1,1.5E1,5.6E1,1.3E1,2E0,8E0,4.8E1,5E0,8E0,1E0,7E0,2E0,4.6E1],"tree_param":{"num_deleted":"0","num_feature":"3","num_nodes":"13","size_leaf_vector":"1"}},{"base_weights":[2.542398E3,-2.2602668E4,7.529714E3,1.2674764E4,-3.0095212E3,2.5900796E3,-4.51392E4],"categories":[],"categories_nodes":[],"categories_segments":[],"categories_sizes":[],"default_left":[0,0,0,0,0,0,0],"id":61,"left_children":[1,-1,3,-1,5,-1,-1],"loss_changes":[4.1769177E10,0E0,4.080096E10,0E0,2.1261227E11,0E0,0E0],"parents":[2147483647,0,0,2,2,4,4],"right_children":[2,-1,4,-1,6,-1,-1],"split_conditions":[1.8861E4,-2.2602668E4,4.0447E4,1.2674764E4,2.69E7,2.5900796E3,-4.51392E4],"split_indices":[1,0,1,0,2,0,0],"split_type":[0,0,0,0,0,0,0],"sum_hessian":[7E1,2E0,6.8E1,1E1,5.8E1,5.5E1,3E0],"tree_param":{"num_deleted":"0","num_feature":"3","num_nodes":"7","size_leaf_vector":"1"}},{"base_weights":[3.8342078E2,-9.612016E4,6.0544634E3,-2.2573693E4,-4.587525E3,-2.3151924E4,2.3573338E4,-3.81776E4,-1.761392E3,1.4242739E4,5.669387E2],"categories":[],"categories_nodes":[],"categories_segments":[],"categories_sizes":[],"default_left":[0,0,0,0,0,0,0,0,0,0,0],"id":62,"left_children":[1,3,5,-1,-1,7,9,-1,-1,-1,-1],"loss_changes":[3.9438545E10,2.3138017E9,3.533885E10,0E0,0E0,6.087922E10,4.2281976E10,0E0,0E0,0E0,0E0],"parents":[2147483647,0,0,1,1,2,2,5,5,6,6],"right_children":[2,4,6,-1,-1,8,10,-1,-1,-1,-1],"split_conditions":[6E6,2.46339E5,6.2551E4,-2.2573693E4,-4.587525E3,1.5E7,8.082E4,-3.81776E4,-1.761392E3,1.4242739E4,5.669387E2],"split_indices":[2,1,1,0,0,2,1,0,0,0,0],"split_type":[0,0,0,0,0,0,0,0,0,0,0],"sum_hessian":[7E1,3E0,6.7E1,2E0,1E0,2.5E1,4.2E1,1E0,2.4E1,1.2E1,3E1],"tree_param":{"num_deleted":"0","num_feature":"3","num_nodes":"11","size_leaf_vector":"1"}},{"base_weights":[-4.794741E3,-3.4274176E4,9.430711E3,-1.139019E4,-3.6607465E4,6.30575E4,-8.2166455E3,-3.43598E4,1.04404E3,-1.4545456E-1,7.5669805E4,-6.233525E3,9.772909E3],"categories":[],"categories_nodes":[],"categories_segments":[],"categories_sizes":[],"default_left":[0,0,0,0,0,0,0,0,0,0,0,0,0],"id":63,"left_children":[1,3,5,7,-1,9,11,-1,-1,-1,-1,-1,-1],"loss_changes":[2.9678311E10,7.621393E10,4.594393E10,5.6850338E10,0E0,2.3858094E11,4.9995555E10,0E0,0E0,0E0,0E0,0E0,0E0],"parents":[2147483647,0,0,1,1,2,2,3,3,5,5,6,6],"right_children":[2,4,6,8,-1,10,12,-1,-1,-1,-1,-1,-1],"split_conditions":[6.2551E4,5.798E4,8.082E4,1.5E7,-3.6607465E4,7.628E4,2.2E7,-3.43598E4,1.04404E3,-1.4545456E-1,7.5669805E4,-6.233525E3,9.772909E3],"split_indices":[1,1,1,2,0,1,2,0,0,0,0,0,0],"split_type":[0,0,0,0,0,0,0,0,0,0,0,0,0],"sum_hessian":[6.9E1,2.2E1,4.7E1,2E1,2E0,1.1E1,3.6E1,1E0,1.9E1,1E1,1E0,2.6E1,1E1],"tree_param":{"num_deleted":"0","num_feature":"3","num_nodes":"13","size_leaf_vector":"1"}},{"base_weights":[-6.822297E3,-1.9493334E4,-3.1055583E3,2.475798E3,-6.770379E4,6.010606E3,-3.3249146E3,1.7917E2,-4.10702E4],"categories":[],"categories_nodes":[],"categories_segments":[],"categories_sizes":[],"default_left":[0,0,0,0,0,0,0,0,0],"id":64,"left_children":[1,-1,3,5,7,-1,-1,-1,-1],"loss_changes":[2.5638724E10,0E0,2.7208554E10,3.7371093E10,5.683926E10,0E0,0E0,0E0,0E0],"parents":[2147483647,0,0,2,2,3,3,4,4],"right_children":[2,-1,4,6,8,-1,-1,-1,-1],"split_conditions":[1.8861E4,-1.9493334E4,1.64463E5,2.022E3,2.013E3,6.010606E3,-3.3249146E3,1.7917E2,-4.10702E4],"split_indices":[1,0,1,0,0,0,0,0,0],"split_type":[0,0,0,0,0,0,0,0,0],"sum_hessian":[7.6E1,2E0,7.4E1,6.9E1,5E0,2.8E1,4.1E1,4E0,1E0],"tree_param":{"num_deleted":"0","num_feature":"3","num_nodes":"9","size_leaf_vector":"1"}},{"base_weights":[-3.60428E3,6.23075E3,-4.0260375E4,-4.9205E3,4.3948934E4,-1.8302268E4,-3.69632E4,-2.4413232E4,1.6868226E3,-2.1928775E4,-7.892321E2],"categories":[],"categories_nodes":[],"categories_segments":[],"categories_sizes":[],"default_left":[0,0,0,0,0,0,0,0,0,0,0],"id":65,"left_children":[1,3,5,7,-1,9,-1,-1,-1,-1,-1],"loss_changes":[2.7289385E10,1.4393808E11,4.740414E10,9.176675E10,0E0,1.9236975E10,0E0,0E0,0E0,0E0,0E0],"parents":[2147483647,0,0,1,1,2,2,3,3,5,5],"right_children":[2,4,6,8,-1,10,-1,-1,-1,-1,-1],"split_conditions":[1.34194E5,1.22392E5,2.015E3,2.021E3,4.3948934E4,2.01E3,-3.69632E4,-2.4413232E4,1.6868226E3,-2.1928775E4,-7.892321E2],"split_indices":[1,1,0,0,0,0,0,0,0,0,0],"split_type":[0,0,0,0,0,0,0,0,0,0,0],"sum_hessian":[7.4E1,5.9E1,1.5E1,5.7E1,2E0,1.4E1,1E0,5E0,5.2E1,1E0,1.3E1],"tree_param":{"num_deleted":"0","num_feature":"3","num_nodes":"11","size_leaf_vector":"1"}},{"base_weights":[-3.199345E3,3.234882E4,-2.2039873E4,5.6411875E3,6.73332E4,-3.4131465E4,-1.1642267E4,-2.4060133E4,4.511732E3,-9.671909E2,-3.1112E4],"categories":[],"categories_nodes":[],"categories_segments":[],"categories_sizes":[],"default_left":[0,0,0,0,0,0,0,0,0,0,0],"id":66,"left_children":[1,3,5,7,-1,-1,9,-1,-1,-1,-1],"loss_changes":[4.826494E10,2.012906E11,7.064065E10,5.384865E10,0E0,0E0,4.3327427E10,0E0,0E0,0E0,0E0],"parents":[2147483647,0,0,1,1,2,2,3,3,6,6],"right_children":[2,4,6,8,-1,-1,10,-1,-1,-1,-1],"split_conditions":[2.04E7,1.9E7,2.1E7,9.4944E4,6.73332E4,-3.4131465E4,1.22344E5,-2.4060133E4,4.511732E3,-9.671909E2,-3.1112E4],"split_indices":[2,2,2,1,0,0,1,0,0,0,0],"split_type":[0,0,0,0,0,0,0,0,0,0,0],"sum_hessian":[7E1,2.4E1,4.6E1,2.3E1,1E0,2E0,4.4E1,2E0,2.1E1,4.3E1,1E0],"tree_param":{"num_deleted":"0","num_feature":"3","num_nodes":"11","size_leaf_vector":"1"}},{"base_weights":[5.003096E3,2.9932408E4,-1.2989739E4,-1.9039535E4,6.271615E4,-3.1693375E4,2.7777334E4,-2.0187076E4,-9.9511926E2,3.639125E4,6.194094E3,-3.62336E3,-3.1378936E4,8.9724E3,-2.11408E4],"categories":[],"categories_nodes":[],"categories_segments":[],"categories_sizes":[],"default_left":[0,0,0,0,0,0,0,0,0,0,0,0,0,0,0],"id":67,"left_children":[1,3,5,7,9,11,13,-1,-1,-1,-1,-1,-1,-1,-1],"loss_changes":[3.5375636E10,5.417504E10,3.595501E10,1.5622681E10,7.0071886E10,5.1551322E10,3.8949356E10,0E0,0E0,0E0,0E0,0E0,0E0,0E0,0E0],"parents":[2147483647,0,0,1,1,2,2,3,3,4,4,5,5,6,6],"right_children":[2,4,6,8,10,12,14,-1,-1,-1,-1,-1,-1,-1,-1],"split_conditions":[2.022E3,2.015E3,2.8E7,2.01E3,8E6,2.63E7,3.49E7,-2.0187076E4,-9.9511926E2,3.639125E4,6.194094E3,-3.62336E3,-3.1378936E4,8.9724E3,-2.11408E4],"split_indices":[0,0,2,0,2,2,2,0,0,0,0,0,0,0,0],"split_type":[0,0,0,0,0,0,0,0,0,0,0,0,0,0,0],"sum_hessian":[7.7E1,3.2E1,4.5E1,1.3E1,1.9E1,3.1E1,1.4E1,1E0,1.2E1,3E0,1.6E1,2.9E1,2E0,1.3E1,1E0],"tree_param":{"num_deleted":"0","num_feature":"3","num_nodes":"15","size_leaf_vector":"1"}},{"base_weights":[-5.483295E2,1.9479819E3,-1.90268E4,-5.060584E3,3.6301848E4,2.7113107E2,-2.7195201E4,-1.3639601E4,1.0138667E4],"categories":[],"categories_nodes":[],"categories_segments":[],"categories_sizes":[],"default_left":[0,0,0,0,0,0,0,0,0],"id":68,"left_children":[1,3,-1,5,7,-1,-1,-1,-1],"loss_changes":[1.8366196E10,1.848233E10,0E0,5.3943353E10,2.300799E10,0E0,0E0,0E0,0E0],"parents":[2147483647,0,0,1,1,3,3,4,4],"right_children":[2,4,-1,6,8,-1,-1,-1,-1],"split_conditions":[3.49E7,2.8E7,-1.90268E4,2.69E7,1.8861E4,2.7113107E2,-2.7195201E4,-1.3639601E4,1.0138667E4],"split_indices":[2,2,0,2,1,0,0,0,0],"split_type":[0,0,0,0,0,0,0,0,0],"sum_hessian":[7.6E1,7.5E1,1E0,6.3E1,1.2E1,6.1E1,2E0,1E0,1.1E1],"tree_param":{"num_deleted":"0","num_feature":"3","num_nodes":"9","size_leaf_vector":"1"}},{"base_weights":[-7.8387905E3,-1.8195475E4,-5.4536406E3,1.2826917E4,-2.0034244E4,-4.941255E3,1.4494153E4,1.041824E4,-5.847892E3],"categories":[],"categories_nodes":[],"categories_segments":[],"categories_sizes":[],"default_left":[0,0,0,0,0,0,0,0,0],"id":69,"left_children":[1,-1,3,5,7,-1,-1,-1,-1],"loss_changes":[1.4177894E10,0E0,1.971451E10,7.566507E10,2.8744258E10,0E0,0E0,0E0,0E0],"parents":[2147483647,0,0,2,2,3,3,4,4],"right_children":[2,-1,4,6,8,-1,-1,-1,-1],"split_conditions":[2.01E3,-1.8195475E4,2.022E3,1.9E7,1.72E7,-4.941255E3,1.4494153E4,1.041824E4,-5.847892E3],"split_indices":[0,0,0,2,2,0,0,0,0],"split_type":[0,0,0,0,0,0,0,0,0],"sum_hessian":[7.3E1,1E0,7.2E1,3.2E1,4E1,2E1,1.2E1,4E0,3.6E1],"tree_param":{"num_deleted":"0","num_feature":"3","num_nodes":"9","size_leaf_vector":"1"}},{"base_weights":[3.132764E3,-2.2247756E3,7.536875E4,2.7973022E3,-3.3870402E4,3.1739016E4,-6.6161E3,-7.5942134E3,2.1231614E3],"categories":[],"categories_nodes":[],"categories_segments":[],"categories_sizes":[],"default_left":[0,0,0,0,0,0,0,0,0],"id":70,"left_children":[1,3,5,7,-1,-1,-1,-1,-1],"loss_changes":[2.8032195E10,5.754789E10,5.0433098E10,2.1759191E10,0E0,0E0,0E0,0E0,0E0],"parents":[2147483647,0,0,1,1,2,2,3,3],"right_children":[2,4,6,8,-1,-1,-1,-1,-1],"split_conditions":[1.64826E5,1.64463E5,1.87193E5,2.018E3,-3.3870402E4,3.1739016E4,-6.6161E3,-7.5942134E3,2.1231614E3],"split_indices":[1,1,1,0,0,0,0,0,0],"split_type":[0,0,0,0,0,0,0,0,0],"sum_hessian":[7.1E1,6.7E1,4E0,6.6E1,1E0,2E0,2E0,1E1,5.6E1],"tree_param":{"num_deleted":"0","num_feature":"3","num_nodes":"9","size_leaf_vector":"1"}},{"base_weights":[3.5349897E3,2.1535492E4,-7.89E3,1.4862589E3,5.8291402E4,-2.8637066E4,1.514E3,5.573109E3,-7.20165E3,-8.352391E2,1.1892E4],"categories":[],"categories_nodes":[],"categories_segments":[],"categories_sizes":[],"default_left":[0,0,0,0,0,0,0,0,0,0,0],"id":71,"left_children":[1,3,5,7,-1,-1,9,-1,-1,-1,-1],"loss_changes":[1.5388426E10,1.5650667E11,5.874338E10,2.8697582E10,0E0,0E0,1.4756175E10,0E0,0E0,0E0,0E0],"parents":[2147483647,0,0,1,1,2,2,3,3,6,6],"right_children":[2,4,6,8,-1,-1,10,-1,-1,-1,-1],"split_conditions":[2.04E7,1.9E7,2.1E7,8E6,5.8291402E4,-2.8637066E4,3.3E7,5.573109E3,-7.20165E3,-8.352391E2,1.1892E4],"split_indices":[2,2,2,2,0,0,2,0,0,0,0],"split_type":[0,0,0,0,0,0,0,0,0,0,0],"sum_hessian":[7.3E1,2.8E1,4.5E1,2.7E1,1E0,2E0,4.3E1,1.6E1,1.1E1,4E1,3E0],"tree_param":{"num_deleted":"0","num_feature":"3","num_nodes":"11","size_leaf_vector":"1"}},{"base_weights":[9.70703E3,-1.7412309E4,2.516027E4,-2.6322E4,-7.58E3,-1.3298529E4,3.9548273E4,-1.5759468E4,4.0775653E2,-1.61738125E4,-1.8571251E2,3.4439602E3,3.942495E4],"categories":[],"categories_nodes":[],"categories_segments":[],"categories_sizes":[],"default_left":[0,0,0,0,0,0,0,0,0,0,0,0,0],"id":72,"left_children":[1,3,5,-1,7,9,11,-1,-1,-1,-1,-1,-1],"loss_changes":[2.9773812E10,2.8195893E10,2.5426473E10,0E0,1.7286253E10,1.0790896E10,1.1271414E11,0E0,0E0,0E0,0E0,0E0,0E0],"parents":[2147483647,0,0,1,1,2,2,4,4,5,5,6,6],"right_children":[2,4,6,-1,8,10,12,-1,-1,-1,-1,-1,-1],"split_conditions":[6.2551E4,2.021E3,2.015E3,-2.6322E4,1.8861E4,2.01E3,1.25559E5,-1.5759468E4,4.0775653E2,-1.61738125E4,-1.8571251E2,3.4439602E3,3.942495E4],"split_indices":[1,0,0,0,1,0,1,0,0,0,0,0,0],"split_type":[0,0,0,0,0,0,0,0,0,0,0,0,0],"sum_hessian":[6.9E1,2.5E1,4.4E1,1E0,2.4E1,1.2E1,3.2E1,2E0,2.2E1,1E0,1.1E1,2.9E1,3E0],"tree_param":{"num_deleted":"0","num_feature":"3","num_nodes":"13","size_leaf_vector":"1"}},{"base_weights":[-4.0338E3,-5.1301668E4,3.9144617E2,-2.36898E4,-1.41824E4,1.9628484E4,-1.8857455E4,-1.3658133E4,8.930667E3,5.21178E4,7.910125E2,2.1608E2,-3.27354E4],"categories":[],"categories_nodes":[],"categories_segments":[],"categories_sizes":[],"default_left":[0,0,0,0,0,0,0,0,0,0,0,0,0],"id":73,"left_children":[1,3,5,-1,7,9,11,-1,-1,-1,-1,-1,-1],"loss_changes":[1.4662117E10,1.327487E10,2.4439114E10,0E0,1.8966903E10,1.2359966E11,9.5460745E10,0E0,0E0,0E0,0E0,0E0,0E0],"parents":[2147483647,0,0,1,1,2,2,4,4,5,5,6,6],"right_children":[2,4,6,-1,8,10,12,-1,-1,-1,-1,-1,-1],"split_conditions":[2.6327E4,2.021E3,1.01555E5,-2.36898E4,1.8861E4,2.022E3,2.022E3,-1.3658133E4,8.930667E3,5.21178E4,7.910125E2,2.1608E2,-3.27354E4],"split_indices":[1,0,1,0,1,0,0,0,0,0,0,0,0],"split_type":[0,0,0,0,0,0,0,0,0,0,0,0,0],"sum_hessian":[6.9E1,5E0,6.4E1,1E0,4E0,3.2E1,3.2E1,2E0,2E0,1E0,3.1E1,2.9E1,3E0],"tree_param":{"num_deleted":"0","num_feature":"3","num_nodes":"13","size_leaf_vector":"1"}},{"base_weights":[-1.6274689E4,-9.035906E3,-9.988515E4,-3.3693E4,3.2123323E3,-3.37272E4,-8.1076875E3,-3.6338223E3,-2.3121068E4,-1.4578038E4,1.38743E3],"categories":[],"categories_nodes":[],"categories_segments":[],"categories_sizes":[],"default_left":[0,0,0,0,0,0,0,0,0,0,0],"id":74,"left_children":[1,3,5,7,9,-1,-1,-1,-1,-1,-1],"loss_changes":[3.783268E10,1.8228593E10,1.3564445E10,2.3331512E10,1.2127839E10,0E0,0E0,0E0,0E0,0E0,0E0],"parents":[2147483647,0,0,1,1,2,2,3,3,4,4],"right_children":[2,4,6,8,10,-1,-1,-1,-1,-1,-1],"split_conditions":[1.64463E5,6.2551E4,1.64826E5,5.798E4,7.2E5,-3.37272E4,-8.1076875E3,-3.6338223E3,-2.3121068E4,-1.4578038E4,1.38743E3],"split_indices":[1,1,1,1,2,0,0,0,0,0,0],"split_type":[0,0,0,0,0,0,0,0,0,0,0],"sum_hessian":[6.3E1,5.9E1,4E0,1.9E1,4E1,1E0,3E0,1.7E1,2E0,1E0,3.9E1],"tree_param":{"num_deleted":"0","num_feature":"3","num_nodes":"11","size_leaf_vector":"1"}},{"base_weights":[-4.171888E3,-8.590097E3,5.940105E4,-4.3764697E3,-3.03544E4,2.5200383E4,-5.400033E3,-6.918648E3,3.6869833E2],"categories":[],"categories_nodes":[],"categories_segments":[],"categories_sizes":[],"default_left":[0,0,0,0,0,0,0,0,0],"id":75,"left_children":[1,3,5,7,-1,-1,-1,-1,-1],"loss_changes":[2.157615E10,4.217115E10,3.2174053E10,1.3220072E10,0E0,0E0,0E0,0E0,0E0],"parents":[2147483647,0,0,1,1,2,2,3,3],"right_children":[2,4,6,8,-1,-1,-1,-1,-1],"split_conditions":[1.64826E5,1.64463E5,1.87193E5,2.018E3,-3.03544E4,2.5200383E4,-5.400033E3,-6.918648E3,3.6869833E2],"split_indices":[1,1,1,0,0,0,0,0,0],"split_type":[0,0,0,0,0,0,0,0,0],"sum_hessian":[7.4E1,7E1,4E0,6.9E1,1E0,2E0,2E0,1.1E1,5.8E1],"tree_param":{"num_deleted":"0","num_feature":"3","num_nodes":"9","size_leaf_vector":"1"}},{"base_weights":[-8.269549E3,1.7462264E3,-3.577305E4,-7.393E4,9.432653E3,6.997E3,-1.569286E5,3.9836E3,-2.04743E4,1.0712073E4,-6.510974E2,-1.4337286E3,2.05316E4,-2.599E3,-3.7932652E4],"categories":[],"categories_nodes":[],"categories_segments":[],"categories_sizes":[],"default_left":[0,0,0,0,0,0,0,0,0,0,0,0,0,0,0],"id":76,"left_children":[1,3,5,7,9,11,13,-1,-1,-1,-1,-1,-1,-1,-1],"loss_changes":[1.9620762E10,3.1526384E10,9.955279E10,1.5384924E10,2.7609395E10,2.1062412E10,2.1093409E10,0E0,0E0,0E0,0E0,0E0,0E0,0E0,0E0],"parents":[2147483647,0,0,1,1,2,2,3,3,4,4,5,5,6,6],"right_children":[2,4,6,8,10,12,14,-1,-1,-1,-1,-1,-1,-1,-1],"split_conditions":[1.20276E5,2.021E3,2.017E3,2.016E3,2.022E3,2.015E3,1.22344E5,3.9836E3,-2.04743E4,1.0712073E4,-6.510974E2,-1.4337286E3,2.05316E4,-2.599E3,-3.7932652E4],"split_indices":[1,0,0,0,0,0,1,0,0,0,0,0,0,0,0],"split_type":[0,0,0,0,0,0,0,0,0,0,0,0,0,0,0],"sum_hessian":[7E1,5.2E1,1.8E1,4E0,4.8E1,1.4E1,4E0,1E0,3E0,1E1,3.8E1,1.3E1,1E0,1E0,3E0],"tree_param":{"num_deleted":"0","num_feature":"3","num_nodes":"15","size_leaf_vector":"1"}},{"base_weights":[1.8015358E3,4.150135E3,-1.7669201E4,-1.1314667E4,6.555814E3,-2.1201855E2,8.474708E3],"categories":[],"categories_nodes":[],"categories_segments":[],"categories_sizes":[],"default_left":[0,0,0,0,0,0,0],"id":77,"left_children":[1,3,-1,-1,5,-1,-1],"loss_changes":[1.6669119E10,1.1473054E10,0E0,0E0,2.023097E10,0E0,0E0],"parents":[2147483647,0,0,1,1,4,4],"right_children":[2,4,-1,-1,6,-1,-1],"split_conditions":[3.49E7,1.8861E4,-1.7669201E4,-1.1314667E4,2.8E7,-2.1201855E2,8.474708E3],"split_indices":[2,1,0,0,2,0,0],"split_type":[0,0,0,0,0,0,0],"sum_hessian":[7.6E1,7.5E1,1E0,2E0,7.3E1,6.1E1,1.2E1],"tree_param":{"num_deleted":"0","num_feature":"3","num_nodes":"7","size_leaf_vector":"1"}},{"base_weights":[4.1653647E3,6.463806E3,-1.59024E4,1.892415E4,-9.313617E3,-1.89256E4,4.852421E3,5.052514E3,-1.0036827E4],"categories":[],"categories_nodes":[],"categories_segments":[],"categories_sizes":[],"default_left":[0,0,0,0,0,0,0,0,0],"id":78,"left_children":[1,3,-1,5,7,-1,-1,-1,-1],"loss_changes":[1.4361534E10,1.4134292E10,0E0,2.6541314E10,4.6488474E10,0E0,0E0,0E0,0E0],"parents":[2147483647,0,0,1,1,3,3,4,4],"right_children":[2,4,-1,6,8,-1,-1,-1,-1],"split_conditions":[3.49E7,1.01555E5,-1.59024E4,1.5E7,1.6E7,-1.89256E4,4.852421E3,5.052514E3,-1.0036827E4],"split_indices":[2,1,0,2,2,0,0,0,0],"split_type":[0,0,0,0,0,0,0,0,0],"sum_hessian":[7.1E1,7E1,1E0,3.9E1,3.1E1,1E0,3.8E1,1.7E1,1.4E1],"tree_param":{"num_deleted":"0","num_feature":"3","num_nodes":"9","size_leaf_vector":"1"}},{"base_weights":[-4.3671514E3,1.706866E4,-1.652706E4,9.6187036E2,4.51952E4,-1.9693867E4,-1.0945063E4,-1.69103E4,3.0348042E3,-1.3827739E3,-1.9638E4],"categories":[],"categories_nodes":[],"categories_segments":[],"categories_sizes":[],"default_left":[0,0,0,0,0,0,0,0,0,0,0],"id":79,"left_children":[1,3,5,7,-1,-1,9,-1,-1,-1,-1],"loss_changes":[2.009207E10,9.3997785E10,2.1334921E10,3.4096867E10,0E0,0E0,1.5851089E10,0E0,0E0,0E0,0E0],"parents":[2147483647,0,0,1,1,2,2,3,3,6,6],"right_children":[2,4,6,8,-1,-1,10,-1,-1,-1,-1],"split_conditions":[2.04E7,1.9E7,2.1E7,9.4944E4,4.51952E4,-1.9693867E4,1.22344E5,-1.69103E4,3.0348042E3,-1.3827739E3,-1.9638E4],"split_indices":[2,2,2,1,0,0,1,0,0,0,0],"split_type":[0,0,0,0,0,0,0,0,0,0,0],"sum_hessian":[7.5E1,2.7E1,4.8E1,2.6E1,1E0,2E0,4.6E1,3E0,2.3E1,4.5E1,1E0],"tree_param":{"num_deleted":"0","num_feature":"3","num_nodes":"11","size_leaf_vector":"1"}},{"base_weights":[1.8298867E3,-1.3072525E4,3.6211724E3,2.1222176E4,-6.3548335E3,1.2787904E3,4.06756E4,-1.7068E4,-2.1309566E2],"categories":[],"categories_nodes":[],"categories_segments":[],"categories_sizes":[],"default_left":[0,0,0,0,0,0,0,0,0],"id":80,"left_children":[1,-1,3,5,7,-1,-1,-1,-1],"loss_changes":[9.263763E9,0E0,1.3128354E10,7.162789E10,1.996254E10,0E0,0E0,0E0,0E0],"parents":[2147483647,0,0,2,2,3,3,4,4],"right_children":[2,-1,4,6,8,-1,-1,-1,-1],"split_conditions":[7.2E5,-1.3072525E4,2.04E7,1.9E7,2.1E7,1.2787904E3,4.06756E4,-1.7068E4,-2.1309566E2],"split_indices":[2,0,2,2,2,0,0,0,0],"split_type":[0,0,0,0,0,0,0,0,0],"sum_hessian":[7.4E1,1E0,7.3E1,2.6E1,4.7E1,2.5E1,1E0,2E0,4.5E1],"tree_param":{"num_deleted":"0","num_feature":"3","num_nodes":"9","size_leaf_vector":"1"}},{"base_weights":[-3.680802E3,-1.8670757E3,-1.41524E4,3.5397742E3,-2.4090916E4,-9.391533E2,3.3414137E4,-1.8863108E3,-2.2932201E4],"categories":[],"categories_nodes":[],"categories_segments":[],"categories_sizes":[],"default_left":[0,0,0,0,0,0,0,0,0],"id":81,"left_children":[1,3,-1,5,7,-1,-1,-1,-1],"loss_changes":[9.236235E9,9.21751E9,0E0,8.428397E10,1.8834063E10,0E0,0E0,0E0,0E0],"parents":[2147483647,0,0,1,1,3,3,4,4],"right_children":[2,4,-1,6,8,-1,-1,-1,-1],"split_conditions":[3.49E7,1.34194E5,-1.41524E4,1.25559E5,7E6,-9.391533E2,3.3414137E4,-1.8863108E3,-2.2932201E4],"split_indices":[2,1,0,1,2,0,0,0,0],"split_type":[0,0,0,0,0,0,0,0,0],"sum_hessian":[7.6E1,7.5E1,1E0,6.1E1,1.4E1,5.9E1,2E0,1.3E1,1E0],"tree_param":{"num_deleted":"0","num_feature":"3","num_nodes":"9","size_leaf_vector":"1"}},{"base_weights":[2.801275E3,-1.4183154E4,1.255225E4,-2.6895833E3,-2.02808E4,2.5186066E4,-1.1920672E4,-1.53758E4,7.7572174E2,2.2942715E3,2.8958936E4,2.0879E2,-2.0639E4],"categories":[],"categories_nodes":[],"categories_segments":[],"categories_sizes":[],"default_left":[0,0,0,0,0,0,0,0,0,0,0,0,0],"id":82,"left_children":[1,3,5,7,-1,9,11,-1,-1,-1,-1,-1,-1],"loss_changes":[1.1771062E10,2.5791717E10,1.4213624E10,1.199315E10,0E0,4.7550927E10,1.9041124E10,0E0,0E0,0E0,0E0,0E0,0E0],"parents":[2147483647,0,0,1,1,2,2,3,3,5,5,6,6],"right_children":[2,4,6,8,-1,10,12,-1,-1,-1,-1,-1,-1],"split_conditions":[6.2551E4,5.798E4,1.34194E5,2.021E3,-2.02808E4,1.22392E5,2.017E3,-1.53758E4,7.7572174E2,2.2942715E3,2.8958936E4,2.0879E2,-2.0639E4],"split_indices":[1,1,1,0,0,1,0,0,0,0,0,0,0],"split_type":[0,0,0,0,0,0,0,0,0,0,0,0,0],"sum_hessian":[6.9E1,2.5E1,4.4E1,2.3E1,2E0,2.9E1,1.5E1,1E0,2.2E1,2.7E1,2E0,1.4E1,1E0],"tree_param":{"num_deleted":"0","num_feature":"3","num_nodes":"13","size_leaf_vector":"1"}},{"base_weights":[-2.5618672E3,-1.02184E4,-6.378117E2,1.9547E4,-5.0432734E3,-1.38382E4,6.339077E3,2.1071304E3,-4.1902876E3],"categories":[],"categories_nodes":[],"categories_segments":[],"categories_sizes":[],"default_left":[0,0,0,0,0,0,0,0,0],"id":83,"left_children":[1,-1,3,5,7,-1,-1,-1,-1],"loss_changes":[7.344011E9,0E0,6.945684E9,1.7285362E10,1.6081991E10,0E0,0E0,0E0,0E0],"parents":[2147483647,0,0,2,2,3,3,4,4],"right_children":[2,-1,4,6,8,-1,-1,-1,-1],"split_conditions":[1.8861E4,-1.02184E4,4.0447E4,2.021E3,2.022E3,-1.38382E4,6.339077E3,2.1071304E3,-4.1902876E3],"split_indices":[1,0,1,0,0,0,0,0,0],"split_type":[0,0,0,0,0,0,0,0,0],"sum_hessian":[7.8E1,2E0,7.6E1,1.3E1,6.3E1,1E0,1.2E1,3.2E1,3.1E1],"tree_param":{"num_deleted":"0","num_feature":"3","num_nodes":"9","size_leaf_vector":"1"}},{"base_weights":[3.8600881E3,-1.1808237E4,5.4437563E3,-8.856E3,7.3601235E3,1.9391383E3,-7.304025E3],"categories":[],"categories_nodes":[],"categories_segments":[],"categories_sizes":[],"default_left":[0,0,0,0,0,0,0],"id":84,"left_children":[1,-1,3,-1,5,-1,-1],"loss_changes":[8.091357E9,0E0,7.6631557E9,0E0,8.040484E9,0E0,0E0],"parents":[2147483647,0,0,2,2,4,4],"right_children":[2,-1,4,-1,6,-1,-1],"split_conditions":[2.01E3,-1.1808237E4,1.8861E4,-8.856E3,1.87193E5,1.9391383E3,-7.304025E3],"split_indices":[0,0,1,0,1,0,0],"split_type":[0,0,0,0,0,0,0],"sum_hessian":[7.7E1,1E0,7.6E1,2E0,7.4E1,7.1E1,3E0],"tree_param":{"num_deleted":"0","num_feature":"3","num_nodes":"7","size_leaf_vector":"1"}},{"base_weights":[-1.0578037E4,-1.7137037E3,-4.1784434E4,-5.05208E4,3.20128E3,-1.4287084E3,-3.04811E4,2.1296E3,-1.3695E4,7.1193003E3,-1.3697128E3,6.1722334E3,-2.19456E3],"categories":[],"categories_nodes":[],"categories_segments":[],"categories_sizes":[],"default_left":[0,0,0,0,0,0,0,0,0,0,0,0,0],"id":85,"left_children":[1,3,5,7,9,11,-1,-1,-1,-1,-1,-1,-1],"loss_changes":[1.873882E10,1.311558E10,6.674516E10,6.2203075E9,1.652213E10,4.0367636E9,0E0,0E0,0E0,0E0,0E0,0E0,0E0],"parents":[2147483647,0,0,1,1,2,2,3,3,4,4,5,5],"right_children":[2,4,6,8,10,12,-1,-1,-1,-1,-1,-1,-1],"split_conditions":[1.22344E5,2.021E3,2.015E3,2.016E3,2.022E3,2.011E3,-3.04811E4,2.1296E3,-1.3695E4,7.1193003E3,-1.3697128E3,6.1722334E3,-2.19456E3],"split_indices":[1,0,0,0,0,0,0,0,0,0,0,0,0],"split_type":[0,0,0,0,0,0,0,0,0,0,0,0,0],"sum_hessian":[6.7E1,5.3E1,1.4E1,4E0,4.9E1,1.1E1,3E0,1E0,3E0,1.1E1,3.8E1,2E0,9E0],"tree_param":{"num_deleted":"0","num_feature":"3","num_nodes":"13","size_leaf_vector":"1"}},{"base_weights":[-1.05321205E2,-4.996984E3,1.674959E4,8.1743335E2,-2.3923934E4,2.86224E4,-7.990211E3,-2.3504285E3,2.2915515E3,-5.6665522E3,6.1272334E3],"categories":[],"categories_nodes":[],"categories_segments":[],"categories_sizes":[],"default_left":[0,0,0,0,0,0,0,0,0,0,0],"id":86,"left_children":[1,3,5,7,-1,-1,9,-1,-1,-1,-1],"loss_changes":[6.5971323E9,4.141855E10,5.7414754E10,8.1593155E9,0E0,0E0,1.3440152E10,0E0,0E0,0E0,0E0],"parents":[2147483647,0,0,1,1,2,2,3,3,6,6],"right_children":[2,4,6,8,-1,-1,10,-1,-1,-1,-1],"split_conditions":[1.25559E5,1.22344E5,1.34194E5,6.2551E4,-2.3923934E4,2.86224E4,1.64826E5,-2.3504285E3,2.2915515E3,-5.6665522E3,6.1272334E3],"split_indices":[1,1,1,1,0,0,1,0,0,0,0],"split_type":[0,0,0,0,0,0,0,0,0,0,0],"sum_hessian":[7.8E1,6.1E1,1.7E1,5.9E1,2E0,2E0,1.5E1,2.7E1,3.2E1,1E1,5E0],"tree_param":{"num_deleted":"0","num_feature":"3","num_nodes":"11","size_leaf_vector":"1"}},{"base_weights":[-5.7422626E2,1.6121729E4,-1.0056745E4,4.15229E3,3.51266E4,-1.4795733E4,-5.9379185E3,-9.6535547E2,7.576E3,-7.0325836E2,-1.2217601E4],"categories":[],"categories_nodes":[],"categories_segments":[],"categories_sizes":[],"default_left":[0,0,0,0,0,0,0,0,0,0,0],"id":87,"left_children":[1,3,5,7,-1,-1,9,-1,-1,-1,-1],"loss_changes":[1.2669388E10,5.463927E10,1.298817E10,8.662453E9,0E0,0E0,6.3292897E9,0E0,0E0,0E0,0E0],"parents":[2147483647,0,0,1,1,2,2,3,3,6,6],"right_children":[2,4,6,8,-1,-1,10,-1,-1,-1,-1],"split_conditions":[2.04E7,1.9E7,2.1E7,2.022E3,3.51266E4,-1.4795733E4,3.49E7,-9.6535547E2,7.576E3,-7.0325836E2,-1.2217601E4],"split_indices":[2,2,2,0,0,0,2,0,0,0,0],"split_type":[0,0,0,0,0,0,0,0,0,0,0],"sum_hessian":[7.8E1,2.8E1,5E1,2.7E1,1E0,2E0,4.8E1,2.2E1,5E0,4.7E1,1E0],"tree_param":{"num_deleted":"0","num_feature":"3","num_nodes":"11","size_leaf_vector":"1"}},{"base_weights":[-1.3383357E3,1.4211589E4,-1.1432744E4,3.0290557E3,3.1614E4,-9.086857E3,-1.0996E4,-9.117684E3,1.7483981E3,-3.1601E3,2.2539636E3],"categories":[],"categories_nodes":[],"categories_segments":[],"categories_sizes":[],"default_left":[0,0,0,0,0,0,0,0,0,0,0],"id":88,"left_children":[1,3,5,7,-1,9,-1,-1,-1,-1,-1],"loss_changes":[1.1150188E10,4.456484E10,3.8931533E9,7.8977413E9,0E0,5.9181015E9,0E0,0E0,0E0,0E0,0E0],"parents":[2147483647,0,0,1,1,2,2,3,3,5,5],"right_children":[2,4,6,8,-1,10,-1,-1,-1,-1,-1],"split_conditions":[2.04E7,1.9E7,3.49E7,8E5,3.1614E4,2.8E7,-1.0996E4,-9.117684E3,1.7483981E3,-3.1601E3,2.2539636E3],"split_indices":[2,2,2,2,0,2,0,0,0,0,0],"split_type":[0,0,0,0,0,0,0,0,0,0,0],"sum_hessian":[6.9E1,2.7E1,4.2E1,2.6E1,1E0,4.1E1,1E0,2E0,2.4E1,3.1E1,1E1],"tree_param":{"num_deleted":"0","num_feature":"3","num_nodes":"11","size_leaf_vector":"1"}},{"base_weights":[-2.811638E3,-5.2309355E3,2.6688541E4,-3.1294841E3,-1.54434E4,1.9729883E4,-6.79085E3,-5.0951626E3,4.6368277E2],"categories":[],"categories_nodes":[],"categories_segments":[],"categories_sizes":[],"default_left":[0,0,0,0,0,0,0,0,0],"id":89,"left_children":[1,3,5,7,-1,-1,-1,-1,-1],"loss_changes":[5.6350746E9,1.0650167E10,2.9533018E10,8.70264E9,0E0,0E0,0E0,0E0,0E0],"parents":[2147483647,0,0,1,1,2,2,3,3],"right_children":[2,4,6,8,-1,-1,-1,-1,-1],"split_conditions":[1.64826E5,1.64463E5,1.87193E5,1.5E7,-1.54434E4,1.9729883E4,-6.79085E3,-5.0951626E3,4.6368277E2],"split_indices":[1,1,1,2,0,0,0,0,0],"split_type":[0,0,0,0,0,0,0,0,0],"sum_hessian":[7.6E1,7.1E1,5E0,7E1,1E0,2E0,3E0,1.3E1,5.7E1],"tree_param":{"num_deleted":"0","num_feature":"3","num_nodes":"9","size_leaf_vector":"1"}},{"base_weights":[1.6173733E3,-7.447734E3,3.2833262E3,-9.160175E3,4.678695E3,1.3843672E3,-4.99385E3],"categories":[],"categories_nodes":[],"categories_segments":[],"categories_sizes":[],"default_left":[0,0,0,0,0,0,0],"id":90,"left_children":[1,-1,3,-1,5,-1,-1],"loss_changes":[4.7182623E9,0E0,4.9401375E9,0E0,4.695141E9,0E0,0E0],"parents":[2147483647,0,0,2,2,4,4],"right_children":[2,-1,4,-1,6,-1,-1],"split_conditions":[1.8861E4,-7.447734E3,2.01E3,-9.160175E3,1.64463E5,1.3843672E3,-4.99385E3],"split_indices":[1,0,0,0,1,0,0],"split_type":[0,0,0,0,0,0,0],"sum_hessian":[7E1,2E0,6.8E1,1E0,6.7E1,6.3E1,4E0],"tree_param":{"num_deleted":"0","num_feature":"3","num_nodes":"7","size_leaf_vector":"1"}},{"base_weights":[-4.616571E2,-6.8108794E3,2.122755E4,-1.5886428E3,-2.0404467E4,2.4825934E4,-7.680417E2,-8.70296E3,4.9465387E2,1.7496483E3,-1.3399601E4],"categories":[],"categories_nodes":[],"categories_segments":[],"categories_sizes":[],"default_left":[0,0,0,0,0,0,0,0,0,0,0],"id":91,"left_children":[1,3,5,7,-1,-1,9,-1,-1,-1,-1],"loss_changes":[1.0335089E10,2.8676493E10,3.857302E10,9.644444E9,0E0,0E0,1.004006E10,0E0,0E0,0E0,0E0],"parents":[2147483647,0,0,1,1,2,2,3,3,6,6],"right_children":[2,4,6,8,-1,-1,10,-1,-1,-1,-1],"split_conditions":[1.25559E5,1.20276E5,1.34194E5,2.021E3,-2.0404467E4,2.4825934E4,2.017E3,-8.70296E3,4.9465387E2,1.7496483E3,-1.3399601E4],"split_indices":[1,1,1,0,0,0,0,0,0,0,0],"split_type":[0,0,0,0,0,0,0,0,0,0,0],"sum_hessian":[7.3E1,5.7E1,1.6E1,5.5E1,2E0,2E0,1.4E1,4E0,5.1E1,1.3E1,1E0],"tree_param":{"num_deleted":"0","num_feature":"3","num_nodes":"11","size_leaf_vector":"1"}},{"base_weights":[5.779905E3,1.35166E4,-4.071586E3,-1.0335866E4,1.8307947E4,6.4099053E3,-1.58089E4,2.82184E4,2.2352324E3,-8.419125E3,1.9291322E3],"categories":[],"categories_nodes":[],"categories_segments":[],"categories_sizes":[],"default_left":[0,0,0,0,0,0,0,0,0,0,0],"id":92,"left_children":[1,3,5,-1,7,9,-1,-1,-1,-1,-1],"loss_changes":[5.4665103E9,1.3441197E10,2.5653162E10,0E0,3.1698575E10,4.957649E9,0E0,0E0,0E0,0E0,0E0],"parents":[2147483647,0,0,1,1,2,2,4,4,5,5],"right_children":[2,4,6,-1,8,10,-1,-1,-1,-1,-1],"split_conditions":[1.01555E5,2.021E3,2.022E3,-1.0335866E4,2.022E3,2.01E3,-1.58089E4,2.82184E4,2.2352324E3,-8.419125E3,1.9291322E3],"split_indices":[1,0,0,0,0,0,0,0,0,0,0],"split_type":[0,0,0,0,0,0,0,0,0,0,0],"sum_hessian":[7E1,3.9E1,3.1E1,2E0,3.7E1,2.8E1,3E0,1E0,3.6E1,1E0,2.7E1],"tree_param":{"num_deleted":"0","num_feature":"3","num_nodes":"11","size_leaf_vector":"1"}},{"base_weights":[2.3531964E2,-1.1770593E4,7.597236E3,-2.58664E3,-1.6876E4,1.0872655E4,-2.7875125E4,-8.847E3,1.9836667E2,9.572353E2,1.7274533E4,-1.37275E3,-6.5182E3],"categories":[],"categories_nodes":[],"categories_segments":[],"categories_sizes":[],"default_left":[0,0,0,0,0,0,0,0,0,0,0,0,0],"id":93,"left_children":[1,3,5,7,-1,9,11,-1,-1,-1,-1,-1,-1],"loss_changes":[6.2764805E9,1.7786458E10,5.4152986E9,3.7698125E9,0E0,1.8427306E10,1.7265152E8,0E0,0E0,0E0,0E0,0E0,0E0],"parents":[2147483647,0,0,1,1,2,2,3,3,5,5,6,6],"right_children":[2,4,6,8,-1,10,12,-1,-1,-1,-1,-1,-1],"split_conditions":[6.2551E4,5.798E4,1.87193E5,2.021E3,-1.6876E4,1.64826E5,2.011E3,-8.847E3,1.9836667E2,9.572353E2,1.7274533E4,-1.37275E3,-6.5182E3],"split_indices":[1,1,1,0,0,1,0,0,0,0,0,0,0],"split_type":[0,0,0,0,0,0,0,0,0,0,0,0,0],"sum_hessian":[6.9E1,2.6E1,4.3E1,2.4E1,2E0,4E1,3E0,1E0,2.3E1,3.8E1,2E0,1E0,2E0],"tree_param":{"num_deleted":"0","num_feature":"3","num_nodes":"13","size_leaf_vector":"1"}},{"base_weights":[-2.1391165E3,-4.1416216E3,2.1246209E4,-2.3865864E3,-1.23484E4,1.4971233E4,-2.4272812E4,-3.9566648E3,4.9800742E2,-1.235475E3,-5.6491E3],"categories":[],"categories_nodes":[],"categories_segments":[],"categories_sizes":[],"default_left":[0,0,0,0,0,0,0,0,0,0,0],"id":94,"left_children":[1,3,5,7,-1,-1,9,-1,-1,-1,-1],"loss_changes":[3.5533563E9,6.827904E9,1.6458607E10,5.8182E9,0E0,0E0,1.1306726E8,0E0,0E0,0E0,0E0],"parents":[2147483647,0,0,1,1,2,2,3,3,6,6],"right_children":[2,4,6,8,-1,-1,10,-1,-1,-1,-1],"split_conditions":[1.64826E5,1.64463E5,1.87193E5,2.02E3,-1.23484E4,1.4971233E4,2.011E3,-3.9566648E3,4.9800742E2,-1.235475E3,-5.6491E3],"split_indices":[1,1,1,0,0,0,0,0,0,0,0],"split_type":[0,0,0,0,0,0,0,0,0,0,0],"sum_hessian":[7.3E1,6.8E1,5E0,6.7E1,1E0,2E0,3E0,1.4E1,5.3E1,1E0,2E0],"tree_param":{"num_deleted":"0","num_feature":"3","num_nodes":"11","size_leaf_vector":"1"}},{"base_weights":[5.2672077E1,-4.557288E3,1.4365039E4,-3.3410526E2,-1.6655732E4,2.13616E4,-2.7934265E3,-8.2959E3,5.439778E2,7.9559686E2,-1.1113601E4],"categories":[],"categories_nodes":[],"categories_segments":[],"categories_sizes":[],"default_left":[0,0,0,0,0,0,0,0,0,0,0],"id":95,"left_children":[1,3,5,7,-1,-1,9,-1,-1,-1,-1],"loss_changes":[5.145883E9,1.9587009E10,3.043577E10,7.2753137E9,0E0,0E0,6.29614E9,0E0,0E0,0E0,0E0],"parents":[2147483647,0,0,1,1,2,2,3,3,6,6],"right_children":[2,4,6,8,-1,-1,10,-1,-1,-1,-1],"split_conditions":[1.25559E5,1.22344E5,1.34194E5,2.021E3,-1.6655732E4,2.13616E4,2.017E3,-8.2959E3,5.439778E2,7.9559686E2,-1.1113601E4],"split_indices":[1,1,1,0,0,0,0,0,0,0,0],"split_type":[0,0,0,0,0,0,0,0,0,0,0],"sum_hessian":[7.6E1,5.8E1,1.8E1,5.6E1,2E0,2E0,1.6E1,3E0,5.3E1,1.5E1,1E0],"tree_param":{"num_deleted":"0","num_feature":"3","num_nodes":"11","size_leaf_vector":"1"}},{"base_weights":[-3.1876123E2,-4.2376E3,1.2073296E4,-6.505517E2,-1.4434933E4,1.8513334E4,-2.8416104E3,-6.984E3,2.3938573E2,6.464328E2,-1.00022E4],"categories":[],"categories_nodes":[],"categories_segments":[],"categories_sizes":[],"default_left":[0,0,0,0,0,0,0,0,0,0,0],"id":96,"left_children":[1,3,5,7,-1,-1,9,-1,-1,-1,-1],"loss_changes":[3.8390346E9,1.4574659E10,2.3073511E10,3.7139005E9,0E0,0E0,5.0320794E9,0E0,0E0,0E0,0E0],"parents":[2147483647,0,0,1,1,2,2,3,3,6,6],"right_children":[2,4,6,8,-1,-1,10,-1,-1,-1,-1],"split_conditions":[1.25559E5,1.22344E5,1.34194E5,1.8861E4,-1.4434933E4,1.8513334E4,2.017E3,-6.984E3,2.3938573E2,6.464328E2,-1.00022E4],"split_indices":[1,1,1,1,0,0,0,0,0,0,0],"split_type":[0,0,0,0,0,0,0,0,0,0,0],"sum_hessian":[7.7E1,5.9E1,1.8E1,5.7E1,2E0,2E0,1.6E1,2E0,5.5E1,1.5E1,1E0],"tree_param":{"num_deleted":"0","num_feature":"3","num_nodes":"11","size_leaf_vector":"1"}},{"base_weights":[-3.8869253E3,-2.1425776E3,-3.5185625E4,-5.4578066E3,1.3833327E4,-1.256125E3,-8.545417E3,-5.0243E2,-1.2510334E4,-1.1061954E3,1.6044933E4],"categories":[],"categories_nodes":[],"categories_segments":[],"categories_sizes":[],"default_left":[0,0,0,0,0,0,0,0,0,0,0],"id":97,"left_children":[1,3,5,7,9,-1,-1,-1,-1,-1,-1],"loss_changes":[4.1284895E9,3.994819E9,6.035912E8,1.0269952E10,1.7156808E10,0E0,0E0,0E0,0E0,0E0,0E0],"parents":[2147483647,0,0,1,1,2,2,3,3,4,4],"right_children":[2,4,6,8,10,-1,-1,-1,-1,-1,-1],"split_conditions":[1.64463E5,1.25559E5,2.011E3,1.22344E5,2.015E3,-1.256125E3,-8.545417E3,-5.0243E2,-1.2510334E4,-1.1061954E3,1.6044933E4],"split_indices":[1,1,0,1,0,0,0,0,0,0,0],"split_type":[0,0,0,0,0,0,0,0,0,0,0],"sum_hessian":[7.6E1,7.3E1,3E0,6.1E1,1.2E1,1E0,2E0,5.9E1,2E0,1E1,2E0],"tree_param":{"num_deleted":"0","num_feature":"3","num_nodes":"11","size_leaf_vector":"1"}},{"base_weights":[-2.7639507E3,1.1279077E4,-5.8113306E3,-5.9858667E3,2.1492363E4,-3.1879E4,8.2665625E2,5.2224E3,2.14528E3,-3.232E3,-1.4729867E4,3.2702E3,-1.9816586E3],"categories":[],"categories_nodes":[],"categories_segments":[],"categories_sizes":[],"default_left":[0,0,0,0,0,0,0,0,0,0,0,0,0],"id":98,"left_children":[1,3,5,-1,7,9,11,-1,-1,-1,-1,-1,-1],"loss_changes":[3.1039516E9,6.114605E9,1.0235527E10,0E0,2.669952E8,6.6888817E9,8.1613563E9,0E0,0E0,0E0,0E0,0E0,0E0],"parents":[2147483647,0,0,1,1,2,2,4,4,5,5,6,6],"right_children":[2,4,6,-1,8,10,12,-1,-1,-1,-1,-1,-1],"split_conditions":[4.0447E4,1.8861E4,6.2551E4,-5.9858667E3,3.9718E4,5.798E4,1.01555E5,5.2224E3,2.14528E3,-3.232E3,-1.4729867E4,3.2702E3,-1.9816586E3],"split_indices":[1,1,1,0,1,1,1,0,0,0,0,0,0],"split_type":[0,0,0,0,0,0,0,0,0,0,0,0,0],"sum_hessian":[7E1,1.2E1,5.8E1,2E0,1E1,1.1E1,4.7E1,6E0,4E0,9E0,2E0,1.9E1,2.8E1],"tree_param":{"num_deleted":"0","num_feature":"3","num_nodes":"13","size_leaf_vector":"1"}},{"base_weights":[-1.588401E3,1.671836E4,-6.664246E3,-5.8405835E2,1.9531533E4,-1.1328066E4,-4.0101355E3,-7.1126875E3,8.909429E2,-4.6657242E2,-1.01292E4],"categories":[],"categories_nodes":[],"categories_segments":[],"categories_sizes":[],"default_left":[0,0,0,0,0,0,0,0,0,0,0],"id":99,"left_children":[1,3,5,7,-1,-1,9,-1,-1,-1,-1],"loss_changes":[7.266431E9,2.3864615E10,7.86403E9,2.802222E9,0E0,0E0,4.4968945E9,0E0,0E0,0E0,0E0],"parents":[2147483647,0,0,1,1,2,2,3,3,6,6],"right_children":[2,4,6,8,-1,-1,10,-1,-1,-1,-1],"split_conditions":[8E6,2.016E3,1.5E7,2.01E3,1.9531533E4,-1.1328066E4,3.49E7,-7.1126875E3,8.909429E2,-4.6657242E2,-1.01292E4],"split_indices":[2,0,2,0,0,0,2,0,0,0,0],"split_type":[0,0,0,0,0,0,0,0,0,0,0],"sum_hessian":[7.6E1,1.6E1,6E1,1.4E1,2E0,2E0,5.8E1,1E0,1.3E1,5.7E1,1E0],"tree_param":{"num_deleted":"0","num_feature":"3","num_nodes":"11","size_leaf_vector":"1"}}]},"name":"gbtree"},"learner_model_param":{"base_score":"[2.3901902E7]","boost_from_average":"1","num_class":"0","num_feature":"3","num_target":"1"},"objective":{"name":"reg:squarederror","reg_loss_param":{"scale_pos_weight":"1"}}},"version":[3,2,0]}